<?xml version="1.0"?>
<opencv_storage>
<my_svm type_id="opencv-ml-svm">
  <svm_type>C_SVC</svm_type>
  <kernel><type>RBF</type>
    <gamma>5.0625000000000009e-01</gamma></kernel>
  <C>6.2500000000000000e+01</C>
  <term_criteria><epsilon>9.9999999747524271e-07</epsilon>
    <iterations>10000</iterations></term_criteria>
  <var_all>103</var_all>
  <var_count>103</var_count>
  <class_count>2</class_count>
  <class_labels type_id="opencv-matrix">
    <rows>1</rows>
    <cols>2</cols>
    <dt>i</dt>
    <data>
      -1 1</data></class_labels>
  <sv_total>909</sv_total>
  <support_vectors>
    <_>
      -9.54057932e-01 -9.66368854e-01 -8.84490311e-01 -9.98032033e-01
      -9.54057932e-01 -9.88234460e-01 -9.88249004e-01 -9.90268171e-01
      -9.90176320e-01 -9.95401502e-01 -9.98223662e-01 -9.98223662e-01
      -9.98223662e-01 -9.98223662e-01 -9.98223662e-01 -9.98223662e-01
      -9.98223662e-01 -9.98223662e-01 -9.98223662e-01 -9.98223662e-01
      -9.98223662e-01 -9.98223662e-01 -9.98223662e-01 -9.98223662e-01
      -9.98223662e-01 -9.98223662e-01 -9.98223662e-01 -9.98223662e-01
      -9.98223662e-01 -9.98223662e-01 -9.98223662e-01 -9.98223662e-01
      -9.98223662e-01 -9.98223662e-01 -9.98223662e-01 -9.98223662e-01
      -9.98223662e-01 -9.98223662e-01 -9.98223662e-01 -9.98223662e-01
      -9.98223662e-01 -9.98223662e-01 -9.98223662e-01 -9.98223662e-01
      -9.98223662e-01 -9.98223662e-01 -9.98223662e-01 -9.98223662e-01
      -9.98223662e-01 -9.98223662e-01 -9.98223662e-01 -9.98223364e-01
      -9.98223662e-01 -9.98223186e-01 -9.98223662e-01 -9.98223662e-01
      -9.98223066e-01 -9.98223662e-01 -9.98221278e-01 -9.98223662e-01
      -9.98223662e-01 -9.98223066e-01 -9.98223662e-01 -9.98214006e-01
      -9.98223662e-01 -9.98223662e-01 -9.98223662e-01 -9.98223662e-01
      -9.98223662e-01 -9.98223662e-01 -9.98221278e-01 -9.98223364e-01
      -9.98210967e-01 -9.98221099e-01 -9.98223662e-01 -9.98222947e-01
      -9.98214424e-01 -9.98211622e-01 -9.98223662e-01 -9.98223662e-01
      -9.98223186e-01 -9.98220682e-01 -9.98221278e-01 -9.98204291e-01
      -9.98223662e-01 -9.98221993e-01 -9.98223484e-01 -9.98223662e-01
      -9.98205125e-01 -9.98223662e-01 -9.98135269e-01 -9.97819841e-01
      -9.90730643e-01 -4.98566866e-01 -9.96193528e-01 -9.96313572e-01
      -9.09773529e-01 1. -9.91031528e-01 -9.97855306e-01 -9.97405291e-01
      -1. -9.96196032e-01</_>
    <_>
      -9.52061117e-01 -9.79471743e-01 -9.49959159e-01 -9.99260604e-01
      -9.52061117e-01 -9.91780460e-01 -9.96692896e-01 -9.97800767e-01
      -9.97117758e-01 -9.96862054e-01 -9.99284506e-01 -9.99289572e-01
      -9.99290407e-01 -9.99290287e-01 -9.99290586e-01 -9.99290586e-01
      -9.99287248e-01 -9.99290347e-01 -9.99290466e-01 -9.99290586e-01
      -9.99290586e-01 -9.99287724e-01 -9.99290526e-01 -9.99290407e-01
      -9.99290586e-01 -9.99289393e-01 -9.99288440e-01 -9.99289811e-01
      -9.99290049e-01 -9.99290586e-01 -9.99284506e-01 -9.99290526e-01
      -9.99287248e-01 -9.99290466e-01 -9.99290586e-01 -9.99290586e-01
      -9.99290586e-01 -9.99290586e-01 -9.99290586e-01 -9.99290586e-01
      -9.99290586e-01 -9.99290586e-01 -9.99290586e-01 -9.99290586e-01
      -9.99290586e-01 -9.99289572e-01 -9.99290526e-01 -9.99290228e-01
      -9.99290287e-01 -9.99290586e-01 -9.99281406e-01 -9.99288321e-01
      -9.99287844e-01 -9.99287426e-01 -9.99290586e-01 -9.99290586e-01
      -9.99290586e-01 -9.99290586e-01 -9.99290586e-01 -9.99290586e-01
      -9.99290586e-01 -9.99290586e-01 -9.99290586e-01 -9.99290586e-01
      -9.99290586e-01 -9.99290586e-01 -9.99290586e-01 -9.99290586e-01
      -9.99290586e-01 -9.99290586e-01 -9.99281287e-01 -9.99284983e-01
      -9.99287426e-01 -9.99288023e-01 -9.99290586e-01 -9.99290586e-01
      -9.99285996e-01 -9.99290526e-01 -9.99290526e-01 -9.99290586e-01
      -9.99290586e-01 -9.99285996e-01 -9.99290526e-01 -9.99290526e-01
      -9.99290586e-01 -9.99289811e-01 -9.99286056e-01 -9.99290526e-01
      -9.99290407e-01 -9.99290586e-01 -9.99273300e-01 -9.90565777e-01
      -9.96184826e-01 -4.97286677e-01 -9.98549581e-01 -9.98561859e-01
      -9.04665589e-01 1. -9.96234536e-01 -9.90626872e-01 -9.99116778e-01
      -1. -9.98543322e-01</_>
    <_>
      -9.75493789e-01 -9.89808381e-01 -9.76538301e-01 -9.99839246e-01
      -9.75493789e-01 -9.97734427e-01 -9.95688498e-01 -9.97859120e-01
      -9.98409510e-01 -9.98820066e-01 -9.99842227e-01 -9.99840498e-01
      -9.99842227e-01 -9.99841571e-01 -9.99843121e-01 -9.99842584e-01
      -9.99839604e-01 -9.99841750e-01 -9.99841869e-01 -9.99843121e-01
      -9.99843121e-01 -9.99842823e-01 -9.99843001e-01 -9.99842882e-01
      -9.99843121e-01 -9.99842405e-01 -9.99842167e-01 -9.99842584e-01
      -9.99841571e-01 -9.99843121e-01 -9.99841154e-01 -9.99841630e-01
      -9.99841630e-01 -9.99840736e-01 -9.99843121e-01 -9.99842942e-01
      -9.99842823e-01 -9.99843061e-01 -9.99842942e-01 -9.99843121e-01
      -9.99842823e-01 -9.99842107e-01 -9.99841869e-01 -9.99842644e-01
      -9.99843121e-01 -9.99842882e-01 -9.99841988e-01 -9.99842405e-01
      -9.99842584e-01 -9.99843121e-01 -9.99841690e-01 -9.99840200e-01
      -9.99841690e-01 -9.99841392e-01 -9.99843121e-01 -9.99843061e-01
      -9.99843121e-01 -9.99843121e-01 -9.99843121e-01 -9.99843121e-01
      -9.99843121e-01 -9.99843121e-01 -9.99843121e-01 -9.99843121e-01
      -9.99843121e-01 -9.99840558e-01 -9.99841511e-01 -9.99841332e-01
      -9.99840140e-01 -9.99843121e-01 -9.99841928e-01 -9.99841571e-01
      -9.99841690e-01 -9.99842286e-01 -9.99843121e-01 -9.99843121e-01
      -9.99843121e-01 -9.99843121e-01 -9.99843121e-01 -9.99843121e-01
      -9.99842942e-01 -9.99843121e-01 -9.99843121e-01 -9.99842942e-01
      -9.99843121e-01 -9.99840736e-01 -9.99841094e-01 -9.99842048e-01
      -9.99840558e-01 -9.99843121e-01 -9.99842227e-01 -9.97317731e-01
      -9.98609126e-01 -4.99251246e-01 -9.99644458e-01 -9.99686480e-01
      -9.51172292e-01 1. -9.98709977e-01 -9.97416317e-01 -9.99655426e-01
      -1. -9.99643981e-01</_>
    <_>
      -9.47587729e-01 -9.80852306e-01 -9.57215786e-01 -9.99421060e-01
      -9.47587729e-01 -9.92566347e-01 -9.95811164e-01 -9.97501135e-01
      -9.97917652e-01 -9.95798707e-01 -9.99437094e-01 -9.99440134e-01
      -9.99439418e-01 -9.99440193e-01 -9.99445200e-01 -9.99440610e-01
      -9.99443233e-01 -9.99439895e-01 -9.99439478e-01 -9.99445200e-01
      -9.99444425e-01 -9.99444783e-01 -9.99444664e-01 -9.99442756e-01
      -9.99445200e-01 -9.99443829e-01 -9.99443591e-01 -9.99437749e-01
      -9.99441147e-01 -9.99445200e-01 -9.99440610e-01 -9.99439180e-01
      -9.99440372e-01 -9.99443710e-01 -9.99445200e-01 -9.99442875e-01
      -9.99441326e-01 -9.99440193e-01 -9.99441624e-01 -9.99445200e-01
      -9.99441981e-01 -9.99441743e-01 -9.99440551e-01 -9.99441087e-01
      -9.99445200e-01 -9.99443889e-01 -9.99443233e-01 -9.99443650e-01
      -9.99442816e-01 -9.99445200e-01 -9.99445200e-01 -9.99445200e-01
      -9.99445200e-01 -9.99445200e-01 -9.99445200e-01 -9.99445200e-01
      -9.99445200e-01 -9.99445200e-01 -9.99445200e-01 -9.99445200e-01
      -9.99443471e-01 -9.99445140e-01 -9.99445140e-01 -9.99445081e-01
      -9.99445200e-01 -9.99445200e-01 -9.99445200e-01 -9.99445200e-01
      -9.99445200e-01 -9.99445200e-01 -9.99442697e-01 -9.99443889e-01
      -9.99444604e-01 -9.99436855e-01 -9.99445200e-01 -9.99444962e-01
      -9.99445140e-01 -9.99445200e-01 -9.99444008e-01 -9.99445200e-01
      -9.99443233e-01 -9.99442756e-01 -9.99443054e-01 -9.99442875e-01
      -9.99445200e-01 -9.99443829e-01 -9.99443471e-01 -9.99442160e-01
      -9.99444485e-01 -9.99445200e-01 -9.99435961e-01 -9.95297611e-01
      -9.96023238e-01 -4.98547047e-01 -9.98766899e-01 -9.98848796e-01
      -8.95679832e-01 1. -9.96240735e-01 -9.95444179e-01 -9.98955905e-01
      -1. -9.98764396e-01</_>
    <_>
      -9.50407326e-01 -9.85936999e-01 -9.72705543e-01 -9.99656916e-01
      -9.50407267e-01 -9.92425859e-01 -9.97920692e-01 -9.95813727e-01
      -9.98353064e-01 -9.98989701e-01 -9.99665618e-01 -9.99668539e-01
      -9.99668539e-01 -9.99668479e-01 -9.99668539e-01 -9.99668360e-01
      -9.99667823e-01 -9.99668539e-01 -9.99667048e-01 -9.99668539e-01
      -9.99668539e-01 -9.99667406e-01 -9.99668181e-01 -9.99667406e-01
      -9.99668539e-01 -9.99668419e-01 -9.99667406e-01 -9.99667883e-01
      -9.99667466e-01 -9.99668539e-01 -9.99665320e-01 -9.99668479e-01
      -9.99668181e-01 -9.99668360e-01 -9.99668539e-01 -9.99666512e-01
      -9.99668300e-01 -9.99666512e-01 -9.99667883e-01 -9.99668539e-01
      -9.99668539e-01 -9.99668181e-01 -9.99667585e-01 -9.99668419e-01
      -9.99668539e-01 -9.99668360e-01 -9.99668539e-01 -9.99668539e-01
      -9.99668479e-01 -9.99668539e-01 -9.99665380e-01 -9.99666274e-01
      -9.99667585e-01 -9.99665976e-01 -9.99668539e-01 -9.99668241e-01
      -9.99668121e-01 -9.99668002e-01 -9.99667823e-01 -9.99668539e-01
      -9.99668539e-01 -9.99666870e-01 -9.99668241e-01 -9.99668241e-01
      -9.99668539e-01 -9.99668479e-01 -9.99667168e-01 -9.99667823e-01
      -9.99667883e-01 -9.99668539e-01 -9.99665618e-01 -9.99666393e-01
      -9.99668479e-01 -9.99668539e-01 -9.99668539e-01 -9.99668539e-01
      -9.99666333e-01 -9.99668539e-01 -9.99668539e-01 -9.99668539e-01
      -9.99668539e-01 -9.99666333e-01 -9.99668539e-01 -9.99668539e-01
      -9.99668539e-01 -9.99667704e-01 -9.99666393e-01 -9.99668539e-01
      -9.99668419e-01 -9.99668539e-01 -9.99665082e-01 -9.97162282e-01
      -9.97813880e-01 -4.99124914e-01 -9.99305129e-01 -9.99323726e-01
      -9.01005447e-01 1. -9.97860909e-01 -9.97191787e-01 -9.99525011e-01
      -1. -9.99304235e-01</_>
    <_>
      -9.63172615e-01 -9.89516616e-01 -9.65540707e-01 -9.99833345e-01
      -9.63172615e-01 -9.98218954e-01 -9.95526552e-01 -9.98487830e-01
      -9.98302579e-01 -9.97905433e-01 -9.99836564e-01 -9.99837697e-01
      -9.99837279e-01 -9.99836028e-01 -9.99838173e-01 -9.99835253e-01
      -9.99836326e-01 -9.99834478e-01 -9.99835551e-01 -9.99838173e-01
      -9.99837458e-01 -9.99836802e-01 -9.99837458e-01 -9.99837756e-01
      -9.99838173e-01 -9.99838054e-01 -9.99836564e-01 -9.99837339e-01
      -9.99837935e-01 -9.99838173e-01 -9.99835312e-01 -9.99837220e-01
      -9.99837279e-01 -9.99836683e-01 -9.99838173e-01 -9.99836504e-01
      -9.99836683e-01 -9.99836802e-01 -9.99836624e-01 -9.99838173e-01
      -9.99838173e-01 -9.99838173e-01 -9.99838173e-01 -9.99838173e-01
      -9.99838173e-01 -9.99838173e-01 -9.99838173e-01 -9.99838173e-01
      -9.99838173e-01 -9.99838173e-01 -9.99834895e-01 -9.99836743e-01
      -9.99836266e-01 -9.99835014e-01 -9.99838173e-01 -9.99834955e-01
      -9.99835730e-01 -9.99835908e-01 -9.99835193e-01 -9.99838173e-01
      -9.99837279e-01 -9.99836922e-01 -9.99836624e-01 -9.99837399e-01
      -9.99838173e-01 -9.99837697e-01 -9.99837935e-01 -9.99838054e-01
      -9.99837518e-01 -9.99838173e-01 -9.99837816e-01 -9.99836683e-01
      -9.99837697e-01 -9.99837875e-01 -9.99838173e-01 -9.99836147e-01
      -9.99836326e-01 -9.99835730e-01 -9.99835968e-01 -9.99838173e-01
      -9.99836624e-01 -9.99837220e-01 -9.99836504e-01 -9.99835253e-01
      -9.99838173e-01 -9.99836922e-01 -9.99838114e-01 -9.99835491e-01
      -9.99837637e-01 -9.99838173e-01 -9.99836981e-01 -9.99141634e-01
      -9.98560727e-01 -4.99704719e-01 -9.99626637e-01 -9.99671757e-01
      -9.26492095e-01 1. -9.98684287e-01 -9.99226391e-01 -9.99625266e-01
      -1. -9.99626517e-01</_>
    <_>
      -8.21610034e-01 -9.70851958e-01 -8.06203485e-01 -9.98288035e-01
      -8.21610034e-01 -9.90268409e-01 -9.90448058e-01 -9.95013952e-01
      -9.96859789e-01 -9.95323360e-01 -9.98643696e-01 -9.98643696e-01
      -9.98643696e-01 -9.98643696e-01 -9.98643696e-01 -9.98643696e-01
      -9.98643696e-01 -9.98643696e-01 -9.98643696e-01 -9.98643696e-01
      -9.98643696e-01 -9.98643696e-01 -9.98643696e-01 -9.98643696e-01
      -9.98643696e-01 -9.98643696e-01 -9.98643696e-01 -9.98643696e-01
      -9.98643696e-01 -9.98643696e-01 -9.98643696e-01 -9.98643696e-01
      -9.98643696e-01 -9.98643696e-01 -9.98643696e-01 -9.98643696e-01
      -9.98643696e-01 -9.98643696e-01 -9.98643696e-01 -9.98643696e-01
      -9.98643696e-01 -9.98643696e-01 -9.98643696e-01 -9.98643696e-01
      -9.98643696e-01 -9.98643696e-01 -9.98643696e-01 -9.98643696e-01
      -9.98643696e-01 -9.98643696e-01 -9.98643696e-01 -9.98643696e-01
      -9.98643696e-01 -9.98643696e-01 -9.98643696e-01 -9.98643696e-01
      -9.98643696e-01 -9.98643696e-01 -9.98643696e-01 -9.98643696e-01
      -9.98643696e-01 -9.98643696e-01 -9.98643696e-01 -9.98643696e-01
      -9.98643696e-01 -9.98643696e-01 -9.98643696e-01 -9.98643696e-01
      -9.98643696e-01 -9.98643696e-01 -9.98643696e-01 -9.98643696e-01
      -9.98643696e-01 -9.98643696e-01 -9.98643696e-01 -9.98643696e-01
      -9.98643696e-01 -9.98643696e-01 -9.98643696e-01 -9.98643696e-01
      -9.98643696e-01 -9.98643696e-01 -9.98643696e-01 -9.98643696e-01
      -9.98643696e-01 -9.98643696e-01 -9.98643696e-01 -9.98643696e-01
      -9.98643696e-01 -9.98643696e-01 -9.98472273e-01 -9.98393059e-01
      -9.93736863e-01 -4.98920083e-01 -9.97104585e-01 -9.97196972e-01
      -6.44465864e-01 1. -9.93916214e-01 -9.98418093e-01 -9.98032033e-01
      -1. -9.97109294e-01</_>
    <_>
      -9.58122134e-01 -9.86861110e-01 -9.63191569e-01 -9.99708056e-01
      -9.58122134e-01 -9.96737480e-01 -9.94955003e-01 -9.97456968e-01
      -9.97878671e-01 -9.98174846e-01 -9.99713540e-01 -9.99714792e-01
      -9.99716043e-01 -9.99715567e-01 -9.99716163e-01 -9.99715924e-01
      -9.99714375e-01 -9.99715984e-01 -9.99715626e-01 -9.99716163e-01
      -9.99714375e-01 -9.99715626e-01 -9.99715269e-01 -9.99715984e-01
      -9.99716163e-01 -9.99716043e-01 -9.99716163e-01 -9.99716163e-01
      -9.99716163e-01 -9.99716163e-01 -9.99713600e-01 -9.99716163e-01
      -9.99716163e-01 -9.99716163e-01 -9.99716163e-01 -9.99715984e-01
      -9.99715924e-01 -9.99716163e-01 -9.99715924e-01 -9.99716163e-01
      -9.99714851e-01 -9.99715865e-01 -9.99715865e-01 -9.99715507e-01
      -9.99716163e-01 -9.99716163e-01 -9.99716163e-01 -9.99716163e-01
      -9.99716163e-01 -9.99716163e-01 -9.99713600e-01 -9.99714792e-01
      -9.99715805e-01 -9.99715686e-01 -9.99716163e-01 -9.99714792e-01
      -9.99714553e-01 -9.99715865e-01 -9.99714315e-01 -9.99716163e-01
      -9.99716043e-01 -9.99715924e-01 -9.99715686e-01 -9.99715626e-01
      -9.99716163e-01 -9.99715924e-01 -9.99715686e-01 -9.99715149e-01
      -9.99715626e-01 -9.99716163e-01 -9.99713659e-01 -9.99712586e-01
      -9.99715984e-01 -9.99715865e-01 -9.99716163e-01 -9.99714673e-01
      -9.99713242e-01 -9.99715149e-01 -9.99714851e-01 -9.99716163e-01
      -9.99716043e-01 -9.99714017e-01 -9.99715924e-01 -9.99715567e-01
      -9.99716163e-01 -9.99715269e-01 -9.99713361e-01 -9.99714971e-01
      -9.99715149e-01 -9.99716163e-01 -9.99713659e-01 -9.96292472e-01
      -9.98008847e-01 -4.98931199e-01 -9.99399662e-01 -9.99421000e-01
      -9.16392386e-01 1. -9.98068929e-01 -9.96344924e-01 -9.99560654e-01
      -1. -9.99398589e-01</_>
    <_>
      -9.00416553e-01 -9.82864439e-01 -8.83930385e-01 -9.99476910e-01
      -9.00416553e-01 -9.95017290e-01 -9.92866755e-01 -9.97920215e-01
      -9.97230709e-01 -9.97526824e-01 -9.99519527e-01 -9.99519169e-01
      -9.99520421e-01 -9.99517262e-01 -9.99520659e-01 -9.99520540e-01
      -9.99518573e-01 -9.99520421e-01 -9.99518991e-01 -9.99520659e-01
      -9.99520540e-01 -9.99518037e-01 -9.99519765e-01 -9.99520361e-01
      -9.99520659e-01 -9.99518394e-01 -9.99519587e-01 -9.99518156e-01
      -9.99518931e-01 -9.99520659e-01 -9.99519467e-01 -9.99518216e-01
      -9.99516368e-01 -9.99519825e-01 -9.99520659e-01 -9.99520540e-01
      -9.99517739e-01 -9.99520481e-01 -9.99520063e-01 -9.99520659e-01
      -9.99517858e-01 -9.99517679e-01 -9.99518931e-01 -9.99516547e-01
      -9.99520659e-01 -9.99518871e-01 -9.99518573e-01 -9.99519289e-01
      -9.99516666e-01 -9.99520659e-01 -9.99518752e-01 -9.99518275e-01
      -9.99518573e-01 -9.99517083e-01 -9.99520659e-01 -9.99519825e-01
      -9.99515772e-01 -9.99518096e-01 -9.99519348e-01 -9.99520659e-01
      -9.99518931e-01 -9.99517977e-01 -9.99518752e-01 -9.99518096e-01
      -9.99520659e-01 -9.99518871e-01 -9.99519885e-01 -9.99517560e-01
      -9.99519885e-01 -9.99520659e-01 -9.99517322e-01 -9.99519110e-01
      -9.99515712e-01 -9.99517798e-01 -9.99520659e-01 -9.99519348e-01
      -9.99515176e-01 -9.99516904e-01 -9.99518454e-01 -9.99520659e-01
      -9.99518931e-01 -9.99515712e-01 -9.99518692e-01 -9.99513865e-01
      -9.99520659e-01 -9.99519408e-01 -9.99516666e-01 -9.99518275e-01
      -9.99517858e-01 -9.99520659e-01 -9.99500990e-01 -9.97584403e-01
      -9.97295916e-01 -4.99156386e-01 -9.98971283e-01 -9.99006689e-01
      -8.01238000e-01 1. -9.97429788e-01 -9.97660756e-01 -9.99247670e-01
      -1. -9.98970747e-01</_>
    <_>
      -9.25952256e-01 -9.71401334e-01 -9.09496486e-01 -9.98605788e-01
      -9.25952256e-01 -9.90005493e-01 -9.88073885e-01 -9.92867887e-01
      -9.94164646e-01 -9.94640887e-01 -9.98703063e-01 -9.98703063e-01
      -9.98703063e-01 -9.98703063e-01 -9.98703063e-01 -9.98703063e-01
      -9.98703063e-01 -9.98703063e-01 -9.98703063e-01 -9.98703063e-01
      -9.98703063e-01 -9.98703063e-01 -9.98703063e-01 -9.98703063e-01
      -9.98703063e-01 -9.98701870e-01 -9.98703003e-01 -9.98697340e-01
      -9.98703063e-01 -9.98703063e-01 -9.98701870e-01 -9.98702645e-01
      -9.98689473e-01 -9.98702228e-01 -9.98703063e-01 -9.98703063e-01
      -9.98703063e-01 -9.98703063e-01 -9.98703063e-01 -9.98703063e-01
      -9.98703063e-01 -9.98703063e-01 -9.98703063e-01 -9.98703063e-01
      -9.98703063e-01 -9.98694479e-01 -9.98701930e-01 -9.98700082e-01
      -9.98696685e-01 -9.98703063e-01 -9.98698950e-01 -9.98702645e-01
      -9.98702407e-01 -9.98691738e-01 -9.98703063e-01 -9.98703063e-01
      -9.98703063e-01 -9.98703063e-01 -9.98703063e-01 -9.98703063e-01
      -9.98703063e-01 -9.98703063e-01 -9.98703063e-01 -9.98703063e-01
      -9.98703063e-01 -9.98703063e-01 -9.98702645e-01 -9.98702466e-01
      -9.98703063e-01 -9.98703063e-01 -9.98701036e-01 -9.98700917e-01
      -9.98690128e-01 -9.98702288e-01 -9.98703063e-01 -9.98701811e-01
      -9.98695672e-01 -9.98700857e-01 -9.98701572e-01 -9.98703063e-01
      -9.98703003e-01 -9.98699903e-01 -9.98702824e-01 -9.98697877e-01
      -9.98703063e-01 -9.98703063e-01 -9.98702288e-01 -9.98703063e-01
      -9.98700321e-01 -9.98703063e-01 -9.98675466e-01 -9.98178363e-01
      -9.91966367e-01 -4.98896092e-01 -9.97217059e-01 -9.97322559e-01
      -8.53045881e-01 1. -9.92309332e-01 -9.98224556e-01 -9.98002172e-01
      -1. -9.97217000e-01</_>
    <_>
      -9.61401641e-01 -9.86410379e-01 -9.74822760e-01 -9.99683380e-01
      -9.61401641e-01 -9.97021377e-01 -9.95487392e-01 -9.97118771e-01
      -9.97813761e-01 -9.96888220e-01 -9.99689400e-01 -9.99692142e-01
      -9.99692142e-01 -9.99692082e-01 -9.99692142e-01 -9.99690890e-01
      -9.99692082e-01 -9.99691427e-01 -9.99691665e-01 -9.99692142e-01
      -9.99692142e-01 -9.99692142e-01 -9.99692142e-01 -9.99692142e-01
      -9.99692142e-01 -9.99692082e-01 -9.99692142e-01 -9.99692142e-01
      -9.99692142e-01 -9.99692142e-01 -9.99689341e-01 -9.99690592e-01
      -9.99691844e-01 -9.99691665e-01 -9.99692142e-01 -9.99691606e-01
      -9.99691367e-01 -9.99691963e-01 -9.99690890e-01 -9.99692142e-01
      -9.99692142e-01 -9.99692142e-01 -9.99692142e-01 -9.99692142e-01
      -9.99692142e-01 -9.99692142e-01 -9.99692142e-01 -9.99692142e-01
      -9.99692142e-01 -9.99692142e-01 -9.99688506e-01 -9.99690354e-01
      -9.99691606e-01 -9.99690592e-01 -9.99692142e-01 -9.99691129e-01
      -9.99690831e-01 -9.99691308e-01 -9.99690175e-01 -9.99692142e-01
      -9.99691367e-01 -9.99690771e-01 -9.99690652e-01 -9.99691367e-01
      -9.99692142e-01 -9.99690652e-01 -9.99691963e-01 -9.99691248e-01
      -9.99691486e-01 -9.99692142e-01 -9.99688148e-01 -9.99690235e-01
      -9.99691784e-01 -9.99688804e-01 -9.99692142e-01 -9.99692142e-01
      -9.99690056e-01 -9.99692142e-01 -9.99692142e-01 -9.99692142e-01
      -9.99692142e-01 -9.99690056e-01 -9.99692142e-01 -9.99692142e-01
      -9.99692142e-01 -9.99691963e-01 -9.99690115e-01 -9.99692142e-01
      -9.99692082e-01 -9.99692142e-01 -9.99688625e-01 -9.95308697e-01
      -9.97936726e-01 -4.98673290e-01 -9.99352992e-01 -9.99371886e-01
      -9.22995925e-01 1. -9.97994721e-01 -9.95369017e-01 -9.99541163e-01
      -1. -9.99351501e-01</_>
    <_>
      -9.64435637e-01 -9.79161024e-01 -9.92827535e-01 -9.99243319e-01
      -9.64435637e-01 -9.94167805e-01 -9.90647733e-01 -9.97197151e-01
      -9.96375680e-01 -9.96880472e-01 -9.99306500e-01 -9.99306142e-01
      -9.99306679e-01 -9.99300361e-01 -9.99306977e-01 -9.99306560e-01
      -9.99305665e-01 -9.99306917e-01 -9.99302924e-01 -9.99306977e-01
      -9.99306321e-01 -9.99303579e-01 -9.99304235e-01 -9.99306738e-01
      -9.99306977e-01 -9.99305785e-01 -9.99306381e-01 -9.99301076e-01
      -9.99306202e-01 -9.99306977e-01 -9.99303937e-01 -9.99306083e-01
      -9.99300480e-01 -9.99306440e-01 -9.99306977e-01 -9.99306977e-01
      -9.99306977e-01 -9.99306977e-01 -9.99306977e-01 -9.99306977e-01
      -9.99305069e-01 -9.99306440e-01 -9.99306142e-01 -9.99303818e-01
      -9.99306977e-01 -9.99304533e-01 -9.99306738e-01 -9.99305725e-01
      -9.99303997e-01 -9.99306977e-01 -9.99305487e-01 -9.99306679e-01
      -9.99303818e-01 -9.99300122e-01 -9.99306977e-01 -9.99305487e-01
      -9.99304295e-01 -9.99304891e-01 -9.99305964e-01 -9.99306977e-01
      -9.99305248e-01 -9.99305904e-01 -9.99304652e-01 -9.99303520e-01
      -9.99306977e-01 -9.99306977e-01 -9.99306977e-01 -9.99306977e-01
      -9.99306977e-01 -9.99306977e-01 -9.99305606e-01 -9.99306083e-01
      -9.99303699e-01 -9.99306321e-01 -9.99306977e-01 -9.99306381e-01
      -9.99300957e-01 -9.99303997e-01 -9.99305189e-01 -9.99306977e-01
      -9.99305785e-01 -9.99302626e-01 -9.99306560e-01 -9.99300420e-01
      -9.99306977e-01 -9.99306083e-01 -9.99305964e-01 -9.99305189e-01
      -9.99302864e-01 -9.99306977e-01 -9.99281824e-01 -9.98803735e-01
      -9.95883703e-01 -4.99354392e-01 -9.98497427e-01 -9.98570204e-01
      -9.29458141e-01 1. -9.96095955e-01 -9.98852789e-01 -9.98844981e-01
      -1. -9.98497784e-01</_>
    <_>
      -9.85057473e-01 -9.91581321e-01 -9.82290745e-01 -9.99893069e-01
      -9.85057473e-01 -9.96887445e-01 -9.96571898e-01 -9.98835385e-01
      -9.99043941e-01 -9.98742759e-01 -9.99892890e-01 -9.99894619e-01
      -9.99894261e-01 -9.99893665e-01 -9.99895096e-01 -9.99892831e-01
      -9.99893963e-01 -9.99893308e-01 -9.99893904e-01 -9.99895096e-01
      -9.99894023e-01 -9.99894857e-01 -9.99894559e-01 -9.99894500e-01
      -9.99895096e-01 -9.99895096e-01 -9.99895096e-01 -9.99895096e-01
      -9.99895096e-01 -9.99895096e-01 -9.99893248e-01 -9.99894500e-01
      -9.99894083e-01 -9.99893785e-01 -9.99895096e-01 -9.99893069e-01
      -9.99893785e-01 -9.99893963e-01 -9.99893665e-01 -9.99895096e-01
      -9.99894857e-01 -9.99893427e-01 -9.99893546e-01 -9.99894559e-01
      -9.99895096e-01 -9.99895096e-01 -9.99894679e-01 -9.99894679e-01
      -9.99895096e-01 -9.99895096e-01 -9.99893427e-01 -9.99893844e-01
      -9.99894023e-01 -9.99893785e-01 -9.99895096e-01 -9.99893367e-01
      -9.99893308e-01 -9.99893546e-01 -9.99893725e-01 -9.99895096e-01
      -9.99893486e-01 -9.99893069e-01 -9.99892890e-01 -9.99893308e-01
      -9.99895096e-01 -9.99894798e-01 -9.99894798e-01 -9.99894559e-01
      -9.99894738e-01 -9.99895096e-01 -9.99893606e-01 -9.99891341e-01
      -9.99891996e-01 -9.99892116e-01 -9.99895096e-01 -9.99893129e-01
      -9.99894381e-01 -9.99893606e-01 -9.99893844e-01 -9.99895096e-01
      -9.99893188e-01 -9.99894440e-01 -9.99893904e-01 -9.99893129e-01
      -9.99895096e-01 -9.99894202e-01 -9.99894679e-01 -9.99893963e-01
      -9.99894559e-01 -9.99895096e-01 -9.99894619e-01 -9.98838067e-01
      -9.98999774e-01 -4.99657124e-01 -9.99757707e-01 -9.99788165e-01
      -9.70215321e-01 1. -9.99093413e-01 -9.98935759e-01 -9.99744296e-01
      -1. -9.99757588e-01</_>
    <_>
      -9.74674046e-01 -9.89076316e-01 -9.77023959e-01 -9.99817193e-01
      -9.74674046e-01 -9.95185852e-01 -9.95983958e-01 -9.97722089e-01
      -9.99764323e-01 -9.97996509e-01 -9.99818563e-01 -9.99816835e-01
      -9.99817729e-01 -9.99816537e-01 -9.99821544e-01 -9.99817193e-01
      -9.99816895e-01 -9.99817252e-01 -9.99815881e-01 -9.99821544e-01
      -9.99819815e-01 -9.99818921e-01 -9.99819279e-01 -9.99818206e-01
      -9.99821544e-01 -9.99817848e-01 -9.99816537e-01 -9.99815822e-01
      -9.99816120e-01 -9.99821544e-01 -9.99820471e-01 -9.99819517e-01
      -9.99819875e-01 -9.99819398e-01 -9.99821544e-01 -9.99819279e-01
      -9.99817491e-01 -9.99817431e-01 -9.99816775e-01 -9.99821544e-01
      -9.99818504e-01 -9.99818683e-01 -9.99817669e-01 -9.99817193e-01
      -9.99821544e-01 -9.99819756e-01 -9.99818683e-01 -9.99819398e-01
      -9.99818861e-01 -9.99821544e-01 -9.99820173e-01 -9.99818027e-01
      -9.99818921e-01 -9.99819160e-01 -9.99821544e-01 -9.99819279e-01
      -9.99818683e-01 -9.99818087e-01 -9.99817550e-01 -9.99821544e-01
      -9.99819636e-01 -9.99818742e-01 -9.99819040e-01 -9.99817789e-01
      -9.99821544e-01 -9.99819279e-01 -9.99817610e-01 -9.99816775e-01
      -9.99816239e-01 -9.99821544e-01 -9.99818504e-01 -9.99818385e-01
      -9.99817789e-01 -9.99817729e-01 -9.99821544e-01 -9.99818563e-01
      -9.99819815e-01 -9.99818444e-01 -9.99818742e-01 -9.99821544e-01
      -9.99818802e-01 -9.99818921e-01 -9.99818504e-01 -9.99817729e-01
      -9.99821544e-01 -9.99818563e-01 -9.99816656e-01 -9.99817073e-01
      -9.99814868e-01 -9.99821544e-01 -9.99820352e-01 -9.99626815e-01
      -9.98413920e-01 -4.99817759e-01 -9.99591291e-01 -9.99646008e-01
      -9.49532270e-01 1. -9.98536348e-01 -9.99692738e-01 -9.99598980e-01
      -1. -9.99591291e-01</_>
    <_>
      -7.42686212e-01 -9.06705916e-01 -6.97703063e-01 -9.85349476e-01
      -7.42686212e-01 -9.64572251e-01 -9.61996675e-01 -9.61609125e-01
      -9.86904085e-01 -9.72621679e-01 -9.87844288e-01 -9.87844288e-01
      -9.87844288e-01 -9.87844288e-01 -9.87844288e-01 -9.87844288e-01
      -9.87844288e-01 -9.87844288e-01 -9.87844288e-01 -9.87844288e-01
      -9.87844288e-01 -9.87844288e-01 -9.87844288e-01 -9.87844288e-01
      -9.87844288e-01 -9.87844288e-01 -9.87844288e-01 -9.87844288e-01
      -9.87844288e-01 -9.87844288e-01 -9.87844288e-01 -9.87844288e-01
      -9.87844288e-01 -9.87844288e-01 -9.87844288e-01 -9.87844288e-01
      -9.87844288e-01 -9.87844288e-01 -9.87844288e-01 -9.87844288e-01
      -9.87844288e-01 -9.87844288e-01 -9.87844288e-01 -9.87844288e-01
      -9.87844288e-01 -9.87844288e-01 -9.87844288e-01 -9.87844288e-01
      -9.87844288e-01 -9.87844288e-01 -9.87844288e-01 -9.87844288e-01
      -9.87844288e-01 -9.87844288e-01 -9.87844288e-01 -9.87844288e-01
      -9.87844288e-01 -9.87844288e-01 -9.87844288e-01 -9.87844288e-01
      -9.87844288e-01 -9.87844288e-01 -9.87844288e-01 -9.87844288e-01
      -9.87844288e-01 -9.87844288e-01 -9.87844288e-01 -9.87844288e-01
      -9.87844288e-01 -9.87844288e-01 -9.87844288e-01 -9.87844288e-01
      -9.87844288e-01 -9.87844288e-01 -9.87844288e-01 -9.87844288e-01
      -9.87844288e-01 -9.87844288e-01 -9.87844288e-01 -9.87844288e-01
      -9.87844288e-01 -9.87844288e-01 -9.87844288e-01 -9.87844288e-01
      -9.87844288e-01 -9.87844288e-01 -9.87844288e-01 -9.87844288e-01
      -9.87844288e-01 -9.87844288e-01 -9.86735702e-01 -9.87027407e-01
      -9.49685097e-01 -4.90678996e-01 -9.74666893e-01 -9.75029886e-01
      -4.97015208e-01 1. -9.50318158e-01 -9.87071157e-01 -9.84899700e-01
      -1. -9.74703014e-01</_>
    <_>
      -7.83770025e-01 -9.04832602e-01 -8.36977899e-01 -9.84196484e-01
      -7.83770025e-01 -9.60328937e-01 -9.57213044e-01 -9.73993540e-01
      -9.77629066e-01 -9.73827541e-01 -9.87275004e-01 -9.87275004e-01
      -9.87275004e-01 -9.87275004e-01 -9.87275004e-01 -9.87275004e-01
      -9.87275004e-01 -9.87275004e-01 -9.87275004e-01 -9.87275004e-01
      -9.87275004e-01 -9.87275004e-01 -9.87275004e-01 -9.87275004e-01
      -9.87275004e-01 -9.87275004e-01 -9.87275004e-01 -9.87275004e-01
      -9.87275004e-01 -9.87275004e-01 -9.87275004e-01 -9.87275004e-01
      -9.87275004e-01 -9.87275004e-01 -9.87275004e-01 -9.87275004e-01
      -9.87275004e-01 -9.87275004e-01 -9.87275004e-01 -9.87275004e-01
      -9.87275004e-01 -9.87275004e-01 -9.87275004e-01 -9.87275004e-01
      -9.87275004e-01 -9.87275004e-01 -9.87275004e-01 -9.87275004e-01
      -9.87275004e-01 -9.87275004e-01 -9.87275004e-01 -9.87275004e-01
      -9.87275004e-01 -9.87275004e-01 -9.87275004e-01 -9.87275004e-01
      -9.87275004e-01 -9.87275004e-01 -9.87275004e-01 -9.87275004e-01
      -9.87275004e-01 -9.87275004e-01 -9.87275004e-01 -9.87275004e-01
      -9.87275004e-01 -9.87275004e-01 -9.87275004e-01 -9.87275004e-01
      -9.87275004e-01 -9.87275004e-01 -9.87275004e-01 -9.87275004e-01
      -9.87275004e-01 -9.87275004e-01 -9.87275004e-01 -9.87275004e-01
      -9.87275004e-01 -9.87275004e-01 -9.87275004e-01 -9.87275004e-01
      -9.87275004e-01 -9.87275004e-01 -9.87275004e-01 -9.87275004e-01
      -9.87275004e-01 -9.87275004e-01 -9.87275004e-01 -9.87275004e-01
      -9.87275004e-01 -9.87275004e-01 -9.85414803e-01 -9.86687720e-01
      -9.54749525e-01 -4.90309358e-01 -9.73619699e-01 -9.73903120e-01
      -5.80025375e-01 1. -9.55163181e-01 -9.86712635e-01 -9.84857023e-01
      -1. -9.73719895e-01</_>
    <_>
      -9.73511100e-01 -9.88719523e-01 -9.79188859e-01 -9.99779105e-01
      -9.73511100e-01 -9.98098314e-01 -9.96138215e-01 -9.97017503e-01
      -9.97629941e-01 -9.97652411e-01 -9.99784112e-01 -9.99785900e-01
      -9.99786079e-01 -9.99785841e-01 -9.99786198e-01 -9.99784946e-01
      -9.99785304e-01 -9.99785841e-01 -9.99785364e-01 -9.99786198e-01
      -9.99786198e-01 -9.99786198e-01 -9.99786198e-01 -9.99786198e-01
      -9.99786198e-01 -9.99786198e-01 -9.99786198e-01 -9.99786198e-01
      -9.99786198e-01 -9.99786198e-01 -9.99784231e-01 -9.99784470e-01
      -9.99785900e-01 -9.99785542e-01 -9.99786198e-01 -9.99785125e-01
      -9.99785066e-01 -9.99785483e-01 -9.99785185e-01 -9.99786198e-01
      -9.99786079e-01 -9.99785721e-01 -9.99785781e-01 -9.99785781e-01
      -9.99786198e-01 -9.99785423e-01 -9.99786079e-01 -9.99785423e-01
      -9.99785841e-01 -9.99786198e-01 -9.99784172e-01 -9.99784887e-01
      -9.99786198e-01 -9.99785960e-01 -9.99786198e-01 -9.99784648e-01
      -9.99785900e-01 -9.99785841e-01 -9.99785542e-01 -9.99786198e-01
      -9.99786198e-01 -9.99786198e-01 -9.99786198e-01 -9.99786198e-01
      -9.99786198e-01 -9.99786079e-01 -9.99786139e-01 -9.99785960e-01
      -9.99786079e-01 -9.99786198e-01 -9.99783576e-01 -9.99783456e-01
      -9.99785721e-01 -9.99785483e-01 -9.99786198e-01 -9.99784887e-01
      -9.99783337e-01 -9.99785244e-01 -9.99785185e-01 -9.99786198e-01
      -9.99785423e-01 -9.99784708e-01 -9.99785960e-01 -9.99785900e-01
      -9.99786198e-01 -9.99786019e-01 -9.99784768e-01 -9.99786198e-01
      -9.99786139e-01 -9.99786198e-01 -9.99782979e-01 -9.96821702e-01
      -9.98587310e-01 -4.99098420e-01 -9.99547422e-01 -9.99563217e-01
      -9.47158575e-01 1. -9.98633027e-01 -9.96868670e-01 -9.99667883e-01
      -1. -9.99546707e-01</_>
    <_>
      -9.88614380e-01 -9.92688000e-01 -9.81707752e-01 -9.99906182e-01
      -9.88614380e-01 -9.97826695e-01 -9.97617185e-01 -9.98150349e-01
      -9.98977482e-01 -9.99026895e-01 -9.99911726e-01 -9.99911368e-01
      -9.99911666e-01 -9.99911427e-01 -9.99911726e-01 -9.99911726e-01
      -9.99911368e-01 -9.99911726e-01 -9.99911427e-01 -9.99911726e-01
      -9.99911010e-01 -9.99911308e-01 -9.99911249e-01 -9.99911129e-01
      -9.99911726e-01 -9.99911726e-01 -9.99911666e-01 -9.99911726e-01
      -9.99911726e-01 -9.99911726e-01 -9.99911726e-01 -9.99911726e-01
      -9.99911726e-01 -9.99911726e-01 -9.99911726e-01 -9.99911726e-01
      -9.99911726e-01 -9.99911726e-01 -9.99911726e-01 -9.99911726e-01
      -9.99910653e-01 -9.99911427e-01 -9.99910414e-01 -9.99910951e-01
      -9.99911726e-01 -9.99911726e-01 -9.99911726e-01 -9.99911726e-01
      -9.99911726e-01 -9.99911726e-01 -9.99911726e-01 -9.99911726e-01
      -9.99911726e-01 -9.99911726e-01 -9.99911726e-01 -9.99911726e-01
      -9.99911726e-01 -9.99911726e-01 -9.99911726e-01 -9.99911726e-01
      -9.99910414e-01 -9.99911487e-01 -9.99910176e-01 -9.99911308e-01
      -9.99911726e-01 -9.99911010e-01 -9.99911726e-01 -9.99911189e-01
      -9.99911606e-01 -9.99911726e-01 -9.99911726e-01 -9.99911726e-01
      -9.99911726e-01 -9.99911726e-01 -9.99911726e-01 -9.99911726e-01
      -9.99911726e-01 -9.99911726e-01 -9.99911726e-01 -9.99911726e-01
      -9.99911726e-01 -9.99911666e-01 -9.99911726e-01 -9.99911308e-01
      -9.99911726e-01 -9.99911189e-01 -9.99911547e-01 -9.99910116e-01
      -9.99911308e-01 -9.99911726e-01 -9.99910295e-01 -9.99194324e-01
      -9.99390006e-01 -4.99754369e-01 -9.99807775e-01 -9.99818802e-01
      -9.77305770e-01 1. -9.99415338e-01 -9.99214411e-01 -9.99844134e-01
      -1. -9.99807775e-01</_>
    <_>
      -9.40352857e-01 -9.74235713e-01 -9.14891839e-01 -9.98884439e-01
      -9.40352857e-01 -9.91798937e-01 -9.87885594e-01 -9.95176256e-01
      -9.93927658e-01 -9.95611489e-01 -9.98939753e-01 -9.98939753e-01
      -9.98939753e-01 -9.98939753e-01 -9.98939753e-01 -9.98939753e-01
      -9.98939753e-01 -9.98939753e-01 -9.98939753e-01 -9.98939753e-01
      -9.98939753e-01 -9.98939753e-01 -9.98939753e-01 -9.98939753e-01
      -9.98939753e-01 -9.98939753e-01 -9.98939753e-01 -9.98939753e-01
      -9.98939753e-01 -9.98939753e-01 -9.98935878e-01 -9.98938799e-01
      -9.98932838e-01 -9.98938620e-01 -9.98939753e-01 -9.98939753e-01
      -9.98939753e-01 -9.98939753e-01 -9.98939753e-01 -9.98939753e-01
      -9.98939753e-01 -9.98939753e-01 -9.98939753e-01 -9.98939753e-01
      -9.98939753e-01 -9.98936832e-01 -9.98939276e-01 -9.98939097e-01
      -9.98935163e-01 -9.98939753e-01 -9.98935521e-01 -9.98939216e-01
      -9.98938382e-01 -9.98930752e-01 -9.98939753e-01 -9.98939753e-01
      -9.98939753e-01 -9.98939753e-01 -9.98939753e-01 -9.98939753e-01
      -9.98938799e-01 -9.98938918e-01 -9.98937786e-01 -9.98932123e-01
      -9.98939753e-01 -9.98935759e-01 -9.98939693e-01 -9.98936474e-01
      -9.98937964e-01 -9.98939753e-01 -9.98937488e-01 -9.98939276e-01
      -9.98928785e-01 -9.98938501e-01 -9.98939753e-01 -9.98936892e-01
      -9.98932600e-01 -9.98936474e-01 -9.98937905e-01 -9.98939753e-01
      -9.98936236e-01 -9.98939157e-01 -9.98939753e-01 -9.98933315e-01
      -9.98939753e-01 -9.98939455e-01 -9.98939693e-01 -9.98939753e-01
      -9.98938322e-01 -9.98939753e-01 -9.98918772e-01 -9.98449922e-01
      -9.93366241e-01 -4.99082237e-01 -9.97722268e-01 -9.97814119e-01
      -8.81631911e-01 1. -9.93671298e-01 -9.98494446e-01 -9.98338640e-01
      -1. -9.97722149e-01</_>
    <_>
      -9.81800854e-01 -9.86118078e-01 -9.77767289e-01 -9.99661207e-01
      -9.81800854e-01 -9.93660688e-01 -9.97722507e-01 -9.97187078e-01
      -9.98340845e-01 -9.97985303e-01 -9.99678433e-01 -9.99678433e-01
      -9.99678433e-01 -9.99678433e-01 -9.99678433e-01 -9.99677479e-01
      -9.99677956e-01 -9.99677479e-01 -9.99677718e-01 -9.99678433e-01
      -9.99674439e-01 -9.99671519e-01 -9.99670863e-01 -9.99670029e-01
      -9.99678433e-01 -9.99676883e-01 -9.99675572e-01 -9.99675095e-01
      -9.99676228e-01 -9.99678433e-01 -9.99678433e-01 -9.99678433e-01
      -9.99678433e-01 -9.99678433e-01 -9.99678433e-01 -9.99678433e-01
      -9.99677300e-01 -9.99678314e-01 -9.99678314e-01 -9.99678433e-01
      -9.99678433e-01 -9.99678433e-01 -9.99678433e-01 -9.99678433e-01
      -9.99678433e-01 -9.99677956e-01 -9.99678373e-01 -9.99678314e-01
      -9.99678016e-01 -9.99678433e-01 -9.99675691e-01 -9.99677658e-01
      -9.99677777e-01 -9.99675214e-01 -9.99678433e-01 -9.99673665e-01
      -9.99675572e-01 -9.99677539e-01 -9.99675214e-01 -9.99678433e-01
      -9.99673307e-01 -9.99675691e-01 -9.99676943e-01 -9.99675810e-01
      -9.99678433e-01 -9.99678373e-01 -9.99676883e-01 -9.99677777e-01
      -9.99678254e-01 -9.99678433e-01 -9.99677718e-01 -9.99677658e-01
      -9.99678254e-01 -9.99676704e-01 -9.99678433e-01 -9.99677122e-01
      -9.99677002e-01 -9.99675751e-01 -9.99677300e-01 -9.99678433e-01
      -9.99675572e-01 -9.99677718e-01 -9.99675930e-01 -9.99675333e-01
      -9.99678433e-01 -9.99678433e-01 -9.99678433e-01 -9.99678433e-01
      -9.99678433e-01 -9.99678433e-01 -9.99673486e-01 -9.98125553e-01
      -9.97902393e-01 -4.99370456e-01 -9.99313831e-01 -9.99339998e-01
      -9.63907778e-01 1. -9.97977555e-01 -9.98153269e-01 -9.99493539e-01
      -1. -9.99313354e-01</_>
    <_>
      -9.77052093e-01 -9.81558621e-01 -9.90500510e-01 -9.99210715e-01
      -9.77052093e-01 -9.96065378e-01 -9.89953399e-01 -9.97998178e-01
      -9.96941149e-01 -9.97166872e-01 -9.99405801e-01 -9.99403715e-01
      -9.99402761e-01 -9.99405444e-01 -9.99405801e-01 -9.99405444e-01
      -9.99404848e-01 -9.99403119e-01 -9.99405384e-01 -9.99405801e-01
      -9.99405801e-01 -9.99405801e-01 -9.99405801e-01 -9.99405801e-01
      -9.99405801e-01 -9.99405801e-01 -9.99405801e-01 -9.99405801e-01
      -9.99405801e-01 -9.99405801e-01 -9.99405801e-01 -9.99405801e-01
      -9.99405801e-01 -9.99405801e-01 -9.99405801e-01 -9.99402702e-01
      -9.99405563e-01 -9.99402463e-01 -9.99405503e-01 -9.99405801e-01
      -9.99405801e-01 -9.99405801e-01 -9.99405801e-01 -9.99405801e-01
      -9.99405801e-01 -9.99405801e-01 -9.99405801e-01 -9.99405801e-01
      -9.99405801e-01 -9.99405801e-01 -9.99405801e-01 -9.99405801e-01
      -9.99405801e-01 -9.99405801e-01 -9.99405801e-01 -9.99402344e-01
      -9.99405682e-01 -9.99404967e-01 -9.99403656e-01 -9.99405801e-01
      -9.99404132e-01 -9.99405801e-01 -9.99405801e-01 -9.99405801e-01
      -9.99405801e-01 -9.99405801e-01 -9.99405801e-01 -9.99405801e-01
      -9.99405801e-01 -9.99405801e-01 -9.99405563e-01 -9.99404490e-01
      -9.99405801e-01 -9.99404252e-01 -9.99405801e-01 -9.99404609e-01
      -9.99405503e-01 -9.99405742e-01 -9.99400973e-01 -9.99405801e-01
      -9.99405801e-01 -9.99405801e-01 -9.99405801e-01 -9.99405801e-01
      -9.99405801e-01 -9.99405801e-01 -9.99405801e-01 -9.99405801e-01
      -9.99405801e-01 -9.99405801e-01 -9.99305069e-01 -9.98833776e-01
      -9.97936666e-01 -4.99411434e-01 -9.98770118e-01 -9.98784721e-01
      -9.54713881e-01 1. -9.97971117e-01 -9.98843670e-01 -9.99276459e-01
      -1. -9.98775303e-01</_>
    <_>
      -9.42262530e-01 -9.70082760e-01 -9.98549402e-01 -9.98273194e-01
      -9.42262530e-01 -9.87328947e-01 -9.89874542e-01 -9.92929101e-01
      -9.95159030e-01 -9.96427059e-01 -9.98545110e-01 -9.98546422e-01
      -9.98548210e-01 -9.98538017e-01 -9.98549402e-01 -9.98548567e-01
      -9.98543203e-01 -9.98547792e-01 -9.98544097e-01 -9.98549402e-01
      -9.98549402e-01 -9.98541713e-01 -9.98545766e-01 -9.98549283e-01
      -9.98549402e-01 -9.98544753e-01 -9.98544157e-01 -9.98538315e-01
      -9.98547375e-01 -9.98549402e-01 -9.98549402e-01 -9.98547077e-01
      -9.98549402e-01 -9.98549283e-01 -9.98549402e-01 -9.98549402e-01
      -9.98549402e-01 -9.98549402e-01 -9.98549402e-01 -9.98549402e-01
      -9.98549402e-01 -9.98549402e-01 -9.98549402e-01 -9.98549402e-01
      -9.98549402e-01 -9.98548985e-01 -9.98548627e-01 -9.98548090e-01
      -9.98549402e-01 -9.98549402e-01 -9.98547256e-01 -9.98548627e-01
      -9.98545825e-01 -9.98549402e-01 -9.98549402e-01 -9.98549402e-01
      -9.98549402e-01 -9.98549402e-01 -9.98549402e-01 -9.98549402e-01
      -9.98549402e-01 -9.98549402e-01 -9.98549402e-01 -9.98549402e-01
      -9.98549402e-01 -9.98545647e-01 -9.98548985e-01 -9.98549402e-01
      -9.98544395e-01 -9.98549402e-01 -9.98543262e-01 -9.98544514e-01
      -9.98531938e-01 -9.98546898e-01 -9.98549402e-01 -9.98548090e-01
      -9.98542607e-01 -9.98544991e-01 -9.98548746e-01 -9.98549402e-01
      -9.98548567e-01 -9.98544395e-01 -9.98547912e-01 -9.98542607e-01
      -9.98549402e-01 -9.98547256e-01 -9.98548329e-01 -9.98549223e-01
      -9.98540103e-01 -9.98549402e-01 -9.98368263e-01 -9.97463167e-01
      -9.94276881e-01 -4.98640418e-01 -9.96937156e-01 -9.96996522e-01
      -8.85868728e-01 1. -9.94441211e-01 -9.97496307e-01 -9.98063684e-01
      -1. -9.96946156e-01</_>
    <_>
      -9.30361629e-01 -9.78771210e-01 -9.35979486e-01 -9.99234080e-01
      -9.30361629e-01 -9.93495286e-01 -9.97305155e-01 -9.97896433e-01
      -9.96114790e-01 -9.97485757e-01 -9.99266028e-01 -9.99271393e-01
      -9.99273419e-01 -9.99271929e-01 -9.99274731e-01 -9.99274731e-01
      -9.99274731e-01 -9.99274731e-01 -9.99274731e-01 -9.99274731e-01
      -9.99274731e-01 -9.99274731e-01 -9.99274731e-01 -9.99274731e-01
      -9.99274731e-01 -9.99274492e-01 -9.99274731e-01 -9.99274671e-01
      -9.99274671e-01 -9.99274731e-01 -9.99264538e-01 -9.99272823e-01
      -9.99272883e-01 -9.99269187e-01 -9.99274731e-01 -9.99274313e-01
      -9.99273717e-01 -9.99273419e-01 -9.99272346e-01 -9.99274731e-01
      -9.99272525e-01 -9.99272525e-01 -9.99269843e-01 -9.99270976e-01
      -9.99274731e-01 -9.99272227e-01 -9.99271870e-01 -9.99270976e-01
      -9.99271870e-01 -9.99274731e-01 -9.99266565e-01 -9.99274492e-01
      -9.99274313e-01 -9.99272525e-01 -9.99274731e-01 -9.99274731e-01
      -9.99274731e-01 -9.99274731e-01 -9.99274731e-01 -9.99274731e-01
      -9.99274731e-01 -9.99274731e-01 -9.99274731e-01 -9.99274731e-01
      -9.99274731e-01 -9.99274731e-01 -9.99274731e-01 -9.99274731e-01
      -9.99274731e-01 -9.99274731e-01 -9.99265909e-01 -9.99267340e-01
      -9.99272883e-01 -9.99270082e-01 -9.99274731e-01 -9.99274731e-01
      -9.99269903e-01 -9.99274671e-01 -9.99274671e-01 -9.99274731e-01
      -9.99274731e-01 -9.99269903e-01 -9.99274671e-01 -9.99274671e-01
      -9.99274731e-01 -9.99274135e-01 -9.99269962e-01 -9.99274671e-01
      -9.99274552e-01 -9.99274731e-01 -9.99252439e-01 -9.90151584e-01
      -9.96075273e-01 -4.97175187e-01 -9.98490751e-01 -9.98516023e-01
      -8.61253798e-01 1. -9.96160030e-01 -9.90240455e-01 -9.99006510e-01
      -1. -9.98483956e-01</_>
    <_>
      -9.47276056e-01 -9.62579548e-01 -9.97813582e-01 -9.97342944e-01
      -9.47276056e-01 -9.83963311e-01 -9.84840512e-01 -9.93078470e-01
      -9.97080684e-01 -9.94926393e-01 -9.97811913e-01 -9.97812688e-01
      -9.97813046e-01 -9.97803152e-01 -9.97813582e-01 -9.97799337e-01
      -9.97802496e-01 -9.97800350e-01 -9.97804165e-01 -9.97813582e-01
      -9.97802138e-01 -9.97804523e-01 -9.97800827e-01 -9.97810245e-01
      -9.97813582e-01 -9.97807086e-01 -9.97811377e-01 -9.97808874e-01
      -9.97813046e-01 -9.97813582e-01 -9.97800231e-01 -9.97811019e-01
      -9.97808337e-01 -9.97798204e-01 -9.97813582e-01 -9.97813582e-01
      -9.97813582e-01 -9.97813582e-01 -9.97813582e-01 -9.97813582e-01
      -9.97801363e-01 -9.97812033e-01 -9.97799337e-01 -9.97812152e-01
      -9.97813582e-01 -9.97795224e-01 -9.97806072e-01 -9.97802734e-01
      -9.97804523e-01 -9.97813582e-01 -9.97807980e-01 -9.97809350e-01
      -9.97802377e-01 -9.97804046e-01 -9.97813582e-01 -9.97813582e-01
      -9.97813582e-01 -9.97813582e-01 -9.97813582e-01 -9.97813582e-01
      -9.97806191e-01 -9.97812927e-01 -9.97801840e-01 -9.97812688e-01
      -9.97813582e-01 -9.97798324e-01 -9.97807741e-01 -9.97799575e-01
      -9.97800469e-01 -9.97813582e-01 -9.97803509e-01 -9.97807086e-01
      -9.97793615e-01 -9.97809768e-01 -9.97813582e-01 -9.97811913e-01
      -9.97803926e-01 -9.97804284e-01 -9.97812450e-01 -9.97813582e-01
      -9.97813582e-01 -9.97806311e-01 -9.97810662e-01 -9.97802734e-01
      -9.97813582e-01 -9.97809112e-01 -9.97812271e-01 -9.97809112e-01
      -9.97804284e-01 -9.97813582e-01 -9.97619867e-01 -9.96402502e-01
      -9.90038872e-01 -4.98007506e-01 -9.95339572e-01 -9.95468855e-01
      -8.96625459e-01 1. -9.90439117e-01 -9.96473193e-01 -9.96854246e-01
      -1. -9.95344818e-01</_>
    <_>
      -9.59769249e-01 -9.88976002e-01 -9.77645099e-01 -9.99789000e-01
      -9.59769249e-01 -9.94165838e-01 -9.98565316e-01 -9.96572733e-01
      -9.98851776e-01 -9.99184787e-01 -9.99793649e-01 -9.99795437e-01
      -9.99795437e-01 -9.99795437e-01 -9.99795437e-01 -9.99795318e-01
      -9.99794900e-01 -9.99795437e-01 -9.99794304e-01 -9.99795437e-01
      -9.99795377e-01 -9.99794662e-01 -9.99795198e-01 -9.99794841e-01
      -9.99795437e-01 -9.99795377e-01 -9.99794602e-01 -9.99794960e-01
      -9.99794662e-01 -9.99795437e-01 -9.99793589e-01 -9.99795437e-01
      -9.99795437e-01 -9.99795437e-01 -9.99795437e-01 -9.99794304e-01
      -9.99795020e-01 -9.99793887e-01 -9.99794960e-01 -9.99795437e-01
      -9.99795437e-01 -9.99795377e-01 -9.99795318e-01 -9.99795437e-01
      -9.99795437e-01 -9.99795377e-01 -9.99795437e-01 -9.99795437e-01
      -9.99795437e-01 -9.99795437e-01 -9.99793530e-01 -9.99794364e-01
      -9.99794781e-01 -9.99793887e-01 -9.99795437e-01 -9.99795198e-01
      -9.99794960e-01 -9.99795258e-01 -9.99795377e-01 -9.99795437e-01
      -9.99795437e-01 -9.99794424e-01 -9.99795079e-01 -9.99795139e-01
      -9.99795437e-01 -9.99795377e-01 -9.99794543e-01 -9.99795079e-01
      -9.99795139e-01 -9.99795437e-01 -9.99793649e-01 -9.99794126e-01
      -9.99795437e-01 -9.99795437e-01 -9.99795437e-01 -9.99795437e-01
      -9.99794066e-01 -9.99795437e-01 -9.99795437e-01 -9.99795437e-01
      -9.99795437e-01 -9.99794066e-01 -9.99795437e-01 -9.99795437e-01
      -9.99795437e-01 -9.99795079e-01 -9.99794126e-01 -9.99795437e-01
      -9.99795437e-01 -9.99795437e-01 -9.99793768e-01 -9.97387528e-01
      -9.98583257e-01 -4.99244839e-01 -9.99569952e-01 -9.99583125e-01
      -9.19631362e-01 1. -9.98616040e-01 -9.97414172e-01 -9.99698758e-01
      -1. -9.99569476e-01</_>
    <_>
      -6.79216444e-01 -9.02542889e-01 -6.30237222e-01 -9.83451068e-01
      -6.79216444e-01 -9.76680994e-01 -9.55472052e-01 -9.63254869e-01
      -9.81225908e-01 -9.69754755e-01 -9.87019062e-01 -9.87019062e-01
      -9.87019062e-01 -9.87019062e-01 -9.87019062e-01 -9.87019062e-01
      -9.87019062e-01 -9.87019062e-01 -9.87019062e-01 -9.87019062e-01
      -9.87019062e-01 -9.87019062e-01 -9.87019062e-01 -9.87019062e-01
      -9.87019062e-01 -9.87019062e-01 -9.87019062e-01 -9.87019062e-01
      -9.87019062e-01 -9.87019062e-01 -9.87019062e-01 -9.87019062e-01
      -9.87019062e-01 -9.87019062e-01 -9.87019062e-01 -9.87019062e-01
      -9.87019062e-01 -9.87019062e-01 -9.87019062e-01 -9.87019062e-01
      -9.87019062e-01 -9.87019062e-01 -9.87019062e-01 -9.87019062e-01
      -9.87019062e-01 -9.87019062e-01 -9.87019062e-01 -9.87019062e-01
      -9.87019062e-01 -9.87019062e-01 -9.87019062e-01 -9.87019062e-01
      -9.87019062e-01 -9.87019062e-01 -9.87019062e-01 -9.87019062e-01
      -9.87019062e-01 -9.87019062e-01 -9.87019062e-01 -9.87019062e-01
      -9.87019062e-01 -9.87019062e-01 -9.87019062e-01 -9.87019062e-01
      -9.87019062e-01 -9.87019062e-01 -9.87019062e-01 -9.87019062e-01
      -9.87019062e-01 -9.87019062e-01 -9.87019062e-01 -9.87019062e-01
      -9.87019062e-01 -9.87019062e-01 -9.87019062e-01 -9.87019062e-01
      -9.87019062e-01 -9.87019062e-01 -9.87019062e-01 -9.87019062e-01
      -9.87019062e-01 -9.87019062e-01 -9.87019062e-01 -9.87019062e-01
      -9.87019062e-01 -9.87019062e-01 -9.87019062e-01 -9.87019062e-01
      -9.87019062e-01 -9.87019062e-01 -9.84904766e-01 -9.86094117e-01
      -9.52120960e-01 -4.90033031e-01 -9.72761035e-01 -9.73192930e-01
      -3.70796144e-01 1. -9.52793241e-01 -9.86150384e-01 -9.83638525e-01
      -1. -9.72868979e-01</_>
    <_>
      -9.10179794e-01 -9.76333797e-01 -9.26175535e-01 -9.99067008e-01
      -9.10179794e-01 -9.91332293e-01 -9.96622622e-01 -9.93930697e-01
      -9.96988118e-01 -9.97566044e-01 -9.99095261e-01 -9.99100029e-01
      -9.99102056e-01 -9.99101281e-01 -9.99103606e-01 -9.99102175e-01
      -9.99102950e-01 -9.99103308e-01 -9.99100208e-01 -9.99103606e-01
      -9.99103606e-01 -9.99103606e-01 -9.99103606e-01 -9.99103606e-01
      -9.99103606e-01 -9.99103606e-01 -9.99103606e-01 -9.99103606e-01
      -9.99103606e-01 -9.99103606e-01 -9.99091923e-01 -9.99101102e-01
      -9.99101400e-01 -9.99095976e-01 -9.99103606e-01 -9.99102950e-01
      -9.99103129e-01 -9.99102056e-01 -9.99101520e-01 -9.99103606e-01
      -9.99102175e-01 -9.99101460e-01 -9.99100268e-01 -9.99101520e-01
      -9.99103606e-01 -9.99101043e-01 -9.99103129e-01 -9.99101758e-01
      -9.99101996e-01 -9.99103606e-01 -9.99094129e-01 -9.99103367e-01
      -9.99103248e-01 -9.99100864e-01 -9.99103606e-01 -9.99103606e-01
      -9.99103606e-01 -9.99103606e-01 -9.99103606e-01 -9.99103606e-01
      -9.99102116e-01 -9.99102414e-01 -9.99101937e-01 -9.99102116e-01
      -9.99103606e-01 -9.99100983e-01 -9.99101460e-01 -9.99100566e-01
      -9.99101341e-01 -9.99103606e-01 -9.99094844e-01 -9.99095738e-01
      -9.99102294e-01 -9.99100447e-01 -9.99103606e-01 -9.99103606e-01
      -9.99097705e-01 -9.99103606e-01 -9.99103606e-01 -9.99103606e-01
      -9.99103606e-01 -9.99097705e-01 -9.99103606e-01 -9.99103606e-01
      -9.99103606e-01 -9.99102652e-01 -9.99097764e-01 -9.99103487e-01
      -9.99103367e-01 -9.99103606e-01 -9.99083996e-01 -9.91192698e-01
      -9.94869888e-01 -4.97349918e-01 -9.98138905e-01 -9.98170018e-01
      -8.21009040e-01 1. -9.94977951e-01 -9.91272449e-01 -9.98783350e-01
      -1. -9.98131514e-01</_>
    <_>
      -9.85132992e-01 -9.93211269e-01 -9.79552925e-01 -9.99919593e-01
      -9.85132992e-01 -9.96825099e-01 -9.98813629e-01 -9.97959077e-01
      -9.99414265e-01 -9.99547660e-01 -9.99921322e-01 -9.99920905e-01
      -9.99921322e-01 -9.99921262e-01 -9.99921322e-01 -9.99920905e-01
      -9.99921083e-01 -9.99920905e-01 -9.99921262e-01 -9.99921322e-01
      -9.99921322e-01 -9.99921322e-01 -9.99921322e-01 -9.99921322e-01
      -9.99921322e-01 -9.99921322e-01 -9.99921322e-01 -9.99921322e-01
      -9.99921322e-01 -9.99921322e-01 -9.99921322e-01 -9.99920845e-01
      -9.99921322e-01 -9.99921262e-01 -9.99921322e-01 -9.99920726e-01
      -9.99921083e-01 -9.99921143e-01 -9.99921262e-01 -9.99921322e-01
      -9.99921322e-01 -9.99921322e-01 -9.99921322e-01 -9.99921322e-01
      -9.99921322e-01 -9.99921322e-01 -9.99921322e-01 -9.99921322e-01
      -9.99921322e-01 -9.99921322e-01 -9.99921322e-01 -9.99920905e-01
      -9.99921322e-01 -9.99921262e-01 -9.99921322e-01 -9.99921143e-01
      -9.99920964e-01 -9.99921203e-01 -9.99921203e-01 -9.99921322e-01
      -9.99921322e-01 -9.99921024e-01 -9.99921322e-01 -9.99921262e-01
      -9.99921322e-01 -9.99921322e-01 -9.99920666e-01 -9.99921322e-01
      -9.99921203e-01 -9.99921322e-01 -9.99921322e-01 -9.99920845e-01
      -9.99921322e-01 -9.99921262e-01 -9.99921322e-01 -9.99921083e-01
      -9.99920905e-01 -9.99920845e-01 -9.99920905e-01 -9.99921322e-01
      -9.99921322e-01 -9.99920845e-01 -9.99921322e-01 -9.99921262e-01
      -9.99921322e-01 -9.99921322e-01 -9.99921262e-01 -9.99921322e-01
      -9.99921322e-01 -9.99921322e-01 -9.99920726e-01 -9.99534965e-01
      -9.99431431e-01 -4.99844342e-01 -9.99831617e-01 -9.99839544e-01
      -9.70347047e-01 1. -9.99448538e-01 -9.99543130e-01 -9.99873281e-01
      -1. -9.99831617e-01</_>
    <_>
      -9.62866306e-01 -9.86223936e-01 -9.74432468e-01 -9.99671936e-01
      -9.62866306e-01 -9.97548759e-01 -9.95460510e-01 -9.96667624e-01
      -9.97663260e-01 -9.96818483e-01 -9.99679446e-01 -9.99682307e-01
      -9.99682307e-01 -9.99682248e-01 -9.99682307e-01 -9.99680936e-01
      -9.99682248e-01 -9.99681532e-01 -9.99681532e-01 -9.99682307e-01
      -9.99682307e-01 -9.99682307e-01 -9.99682307e-01 -9.99682307e-01
      -9.99682307e-01 -9.99682307e-01 -9.99682307e-01 -9.99682307e-01
      -9.99682307e-01 -9.99682307e-01 -9.99679446e-01 -9.99680877e-01
      -9.99681890e-01 -9.99681711e-01 -9.99682307e-01 -9.99681056e-01
      -9.99680936e-01 -9.99682009e-01 -9.99680519e-01 -9.99682307e-01
      -9.99682307e-01 -9.99682307e-01 -9.99682307e-01 -9.99682307e-01
      -9.99682307e-01 -9.99682248e-01 -9.99682307e-01 -9.99682307e-01
      -9.99682307e-01 -9.99682307e-01 -9.99678016e-01 -9.99679804e-01
      -9.99681890e-01 -9.99680877e-01 -9.99682307e-01 -9.99681354e-01
      -9.99681830e-01 -9.99681294e-01 -9.99680400e-01 -9.99682307e-01
      -9.99681056e-01 -9.99679267e-01 -9.99680400e-01 -9.99681115e-01
      -9.99682307e-01 -9.99680877e-01 -9.99681056e-01 -9.99681294e-01
      -9.99681592e-01 -9.99682307e-01 -9.99678612e-01 -9.99680161e-01
      -9.99682128e-01 -9.99678850e-01 -9.99682307e-01 -9.99682307e-01
      -9.99680161e-01 -9.99682307e-01 -9.99682307e-01 -9.99682307e-01
      -9.99682307e-01 -9.99680161e-01 -9.99682307e-01 -9.99682307e-01
      -9.99682307e-01 -9.99682069e-01 -9.99680161e-01 -9.99682307e-01
      -9.99682248e-01 -9.99682307e-01 -9.99678314e-01 -9.95405316e-01
      -9.97909546e-01 -4.98692453e-01 -9.99333084e-01 -9.99351859e-01
      -9.25939739e-01 1. -9.97965932e-01 -9.95464385e-01 -9.99530554e-01
      -1. -9.99331653e-01</_>
    <_>
      -9.72573638e-01 -9.80068624e-01 -9.80232656e-01 -9.99290884e-01
      -9.72573638e-01 -9.91438210e-01 -9.95650828e-01 -9.95499253e-01
      -9.98062968e-01 -9.97219682e-01 -9.99309123e-01 -9.99309123e-01
      -9.99309123e-01 -9.99309123e-01 -9.99309123e-01 -9.99309123e-01
      -9.99309123e-01 -9.99309123e-01 -9.99309123e-01 -9.99309123e-01
      -9.99308288e-01 -9.99309003e-01 -9.99308288e-01 -9.99308288e-01
      -9.99309123e-01 -9.99306023e-01 -9.99308646e-01 -9.99303222e-01
      -9.99305069e-01 -9.99309123e-01 -9.99309123e-01 -9.99309123e-01
      -9.99309123e-01 -9.99309123e-01 -9.99309123e-01 -9.99309123e-01
      -9.99309123e-01 -9.99309123e-01 -9.99309123e-01 -9.99309123e-01
      -9.99309123e-01 -9.99309123e-01 -9.99309123e-01 -9.99309123e-01
      -9.99309123e-01 -9.99309123e-01 -9.99309123e-01 -9.99309123e-01
      -9.99309123e-01 -9.99309123e-01 -9.99309123e-01 -9.99309123e-01
      -9.99309123e-01 -9.99309123e-01 -9.99309123e-01 -9.99309123e-01
      -9.99309123e-01 -9.99309123e-01 -9.99309123e-01 -9.99309123e-01
      -9.99309123e-01 -9.99309123e-01 -9.99309123e-01 -9.99309123e-01
      -9.99309123e-01 -9.99309123e-01 -9.99309123e-01 -9.99309123e-01
      -9.99309123e-01 -9.99309123e-01 -9.99309123e-01 -9.99309123e-01
      -9.99309123e-01 -9.99309123e-01 -9.99309123e-01 -9.99309123e-01
      -9.99309123e-01 -9.99309123e-01 -9.99309123e-01 -9.99309123e-01
      -9.99309123e-01 -9.99309123e-01 -9.99309123e-01 -9.99309123e-01
      -9.99309123e-01 -9.99309123e-01 -9.99309123e-01 -9.99309123e-01
      -9.99309123e-01 -9.99309123e-01 -9.99299586e-01 -9.96382952e-01
      -9.95914578e-01 -4.98750240e-01 -9.98577595e-01 -9.98598218e-01
      -9.45834458e-01 1. -9.95953381e-01 -9.96396244e-01 -9.99123514e-01
      -1. -9.98575509e-01</_>
    <_>
      -9.68050241e-01 -9.90103304e-01 -9.62786257e-01 -9.99850094e-01
      -9.68050241e-01 -9.97313261e-01 -9.96011734e-01 -9.98209774e-01
      -9.98528183e-01 -9.98333275e-01 -9.99851346e-01 -9.99853075e-01
      -9.99852598e-01 -9.99852479e-01 -9.99853790e-01 -9.99851823e-01
      -9.99852657e-01 -9.99850810e-01 -9.99851763e-01 -9.99853790e-01
      -9.99852836e-01 -9.99852836e-01 -9.99853253e-01 -9.99853134e-01
      -9.99853790e-01 -9.99853730e-01 -9.99852359e-01 -9.99852896e-01
      -9.99853671e-01 -9.99853790e-01 -9.99851227e-01 -9.99853373e-01
      -9.99853492e-01 -9.99852836e-01 -9.99853790e-01 -9.99851763e-01
      -9.99851942e-01 -9.99851942e-01 -9.99851882e-01 -9.99853790e-01
      -9.99853730e-01 -9.99853611e-01 -9.99853611e-01 -9.99853730e-01
      -9.99853790e-01 -9.99853790e-01 -9.99853790e-01 -9.99853790e-01
      -9.99853790e-01 -9.99853790e-01 -9.99852180e-01 -9.99853373e-01
      -9.99853313e-01 -9.99853015e-01 -9.99853790e-01 -9.99850333e-01
      -9.99850988e-01 -9.99851108e-01 -9.99850929e-01 -9.99853790e-01
      -9.99852061e-01 -9.99852180e-01 -9.99852002e-01 -9.99851942e-01
      -9.99853730e-01 -9.99853253e-01 -9.99853194e-01 -9.99852955e-01
      -9.99853313e-01 -9.99853790e-01 -9.99853611e-01 -9.99853253e-01
      -9.99853373e-01 -9.99853551e-01 -9.99853790e-01 -9.99850869e-01
      -9.99853134e-01 -9.99852836e-01 -9.99852717e-01 -9.99853790e-01
      -9.99851108e-01 -9.99853075e-01 -9.99852479e-01 -9.99851823e-01
      -9.99853790e-01 -9.99853313e-01 -9.99853671e-01 -9.99852121e-01
      -9.99853373e-01 -9.99853790e-01 -9.99852777e-01 -9.99088466e-01
      -9.98701990e-01 -4.99698848e-01 -9.99664783e-01 -9.99703407e-01
      -9.36230958e-01 1. -9.98809159e-01 -9.99161959e-01 -9.99667346e-01
      -1. -9.99664664e-01</_>
    <_>
      -9.82510984e-01 -9.91090715e-01 -9.70069885e-01 -9.99872088e-01
      -9.82510984e-01 -9.96262312e-01 -9.98127162e-01 -9.98053968e-01
      -9.98139381e-01 -9.98315215e-01 -9.99874830e-01 -9.99874771e-01
      -9.99874830e-01 -9.99874771e-01 -9.99875188e-01 -9.99874175e-01
      -9.99874890e-01 -9.99874234e-01 -9.99874473e-01 -9.99875188e-01
      -9.99874949e-01 -9.99874771e-01 -9.99874055e-01 -9.99874830e-01
      -9.99875188e-01 -9.99875188e-01 -9.99875009e-01 -9.99874711e-01
      -9.99875188e-01 -9.99875188e-01 -9.99874532e-01 -9.99873996e-01
      -9.99874353e-01 -9.99874711e-01 -9.99875188e-01 -9.99874830e-01
      -9.99875188e-01 -9.99875188e-01 -9.99875009e-01 -9.99875188e-01
      -9.99875188e-01 -9.99875188e-01 -9.99875188e-01 -9.99875188e-01
      -9.99875188e-01 -9.99875188e-01 -9.99875188e-01 -9.99875188e-01
      -9.99875188e-01 -9.99875188e-01 -9.99874413e-01 -9.99874413e-01
      -9.99874651e-01 -9.99874532e-01 -9.99875188e-01 -9.99875188e-01
      -9.99875188e-01 -9.99875188e-01 -9.99875188e-01 -9.99875188e-01
      -9.99875188e-01 -9.99875188e-01 -9.99875188e-01 -9.99875188e-01
      -9.99875188e-01 -9.99872506e-01 -9.99874651e-01 -9.99874771e-01
      -9.99874532e-01 -9.99875188e-01 -9.99875009e-01 -9.99873936e-01
      -9.99874592e-01 -9.99874890e-01 -9.99875188e-01 -9.99875188e-01
      -9.99874413e-01 -9.99874890e-01 -9.99875128e-01 -9.99875188e-01
      -9.99874771e-01 -9.99874055e-01 -9.99874115e-01 -9.99874651e-01
      -9.99875188e-01 -9.99870896e-01 -9.99874830e-01 -9.99873459e-01
      -9.99874413e-01 -9.99875188e-01 -9.99874473e-01 -9.98567700e-01
      -9.98932242e-01 -4.99579579e-01 -9.99721766e-01 -9.99747396e-01
      -9.65148747e-01 1. -9.98999953e-01 -9.98619139e-01 -9.99743760e-01
      -1. -9.99721587e-01</_>
    <_>
      -9.46105540e-01 -9.87084329e-01 -9.51236606e-01 -9.99740660e-01
      -9.46105540e-01 -9.95446265e-01 -9.94051099e-01 -9.98299301e-01
      -9.99065340e-01 -9.97484922e-01 -9.99746442e-01 -9.99746442e-01
      -9.99746442e-01 -9.99746442e-01 -9.99746442e-01 -9.99744952e-01
      -9.99744833e-01 -9.99743521e-01 -9.99744177e-01 -9.99746442e-01
      -9.99744296e-01 -9.99745190e-01 -9.99742746e-01 -9.99743342e-01
      -9.99746442e-01 -9.99746144e-01 -9.99746442e-01 -9.99746084e-01
      -9.99746144e-01 -9.99746442e-01 -9.99744594e-01 -9.99746263e-01
      -9.99746382e-01 -9.99745369e-01 -9.99746442e-01 -9.99742389e-01
      -9.99744475e-01 -9.99743760e-01 -9.99743760e-01 -9.99746442e-01
      -9.99742746e-01 -9.99744058e-01 -9.99743462e-01 -9.99742031e-01
      -9.99746442e-01 -9.99746382e-01 -9.99746025e-01 -9.99745488e-01
      -9.99746442e-01 -9.99746442e-01 -9.99745607e-01 -9.99746263e-01
      -9.99745965e-01 -9.99745667e-01 -9.99746442e-01 -9.99744296e-01
      -9.99745250e-01 -9.99743998e-01 -9.99743998e-01 -9.99746442e-01
      -9.99743521e-01 -9.99744594e-01 -9.99743044e-01 -9.99742270e-01
      -9.99746442e-01 -9.99746203e-01 -9.99745905e-01 -9.99745905e-01
      -9.99745786e-01 -9.99746442e-01 -9.99745429e-01 -9.99746382e-01
      -9.99746263e-01 -9.99746323e-01 -9.99746442e-01 -9.99744415e-01
      -9.99746084e-01 -9.99744773e-01 -9.99744654e-01 -9.99746442e-01
      -9.99743342e-01 -9.99745727e-01 -9.99744117e-01 -9.99743283e-01
      -9.99746442e-01 -9.99745548e-01 -9.99744833e-01 -9.99742746e-01
      -9.99744356e-01 -9.99746442e-01 -9.99744892e-01 -9.98787165e-01
      -9.97855365e-01 -4.99570042e-01 -9.99427617e-01 -9.99480426e-01
      -8.92458916e-01 1. -9.98007715e-01 -9.98875737e-01 -9.99469042e-01
      -1. -9.99427378e-01</_>
    <_>
      -9.71731007e-01 -9.90546048e-01 -9.66492891e-01 -9.99861956e-01
      -9.71731007e-01 -9.97579157e-01 -9.96301174e-01 -9.98331904e-01
      -9.98442233e-01 -9.98022079e-01 -9.99864101e-01 -9.99865651e-01
      -9.99865353e-01 -9.99865055e-01 -9.99865890e-01 -9.99863863e-01
      -9.99864757e-01 -9.99863267e-01 -9.99864042e-01 -9.99865890e-01
      -9.99865532e-01 -9.99865115e-01 -9.99865353e-01 -9.99865592e-01
      -9.99865890e-01 -9.99865711e-01 -9.99865055e-01 -9.99865234e-01
      -9.99865592e-01 -9.99865890e-01 -9.99863744e-01 -9.99865413e-01
      -9.99865234e-01 -9.99864936e-01 -9.99865890e-01 -9.99863982e-01
      -9.99864876e-01 -9.99864638e-01 -9.99864280e-01 -9.99865890e-01
      -9.99865830e-01 -9.99865770e-01 -9.99865711e-01 -9.99865890e-01
      -9.99865890e-01 -9.99865890e-01 -9.99865890e-01 -9.99865890e-01
      -9.99865890e-01 -9.99865890e-01 -9.99864161e-01 -9.99864817e-01
      -9.99864757e-01 -9.99863505e-01 -9.99865890e-01 -9.99862850e-01
      -9.99863267e-01 -9.99863029e-01 -9.99862731e-01 -9.99865890e-01
      -9.99864221e-01 -9.99864161e-01 -9.99863923e-01 -9.99863684e-01
      -9.99865890e-01 -9.99865174e-01 -9.99865770e-01 -9.99865651e-01
      -9.99865353e-01 -9.99865890e-01 -9.99865770e-01 -9.99865830e-01
      -9.99865770e-01 -9.99865294e-01 -9.99865890e-01 -9.99862731e-01
      -9.99865234e-01 -9.99864936e-01 -9.99864399e-01 -9.99865890e-01
      -9.99864161e-01 -9.99865532e-01 -9.99864519e-01 -9.99864399e-01
      -9.99865890e-01 -9.99865770e-01 -9.99865830e-01 -9.99864697e-01
      -9.99865711e-01 -9.99865890e-01 -9.99865055e-01 -9.99262333e-01
      -9.98802423e-01 -4.99748826e-01 -9.99693036e-01 -9.99729156e-01
      -9.43583429e-01 1. -9.98899579e-01 -9.99327481e-01 -9.99695241e-01
      -1. -9.99692976e-01</_>
    <_>
      -6.94827318e-01 -8.95359814e-01 -6.29413664e-01 -9.83354449e-01
      -6.94827318e-01 -9.67871189e-01 -9.49502468e-01 -9.68032598e-01
      -9.79563057e-01 -9.72310543e-01 -9.85055983e-01 -9.85055983e-01
      -9.85055983e-01 -9.85055983e-01 -9.85055983e-01 -9.85055983e-01
      -9.85055983e-01 -9.85055983e-01 -9.85055983e-01 -9.85055983e-01
      -9.85055983e-01 -9.85055983e-01 -9.85055983e-01 -9.85055983e-01
      -9.85055983e-01 -9.85055983e-01 -9.85055983e-01 -9.85055983e-01
      -9.85055983e-01 -9.85055983e-01 -9.85055983e-01 -9.85055983e-01
      -9.85055983e-01 -9.85055983e-01 -9.85055983e-01 -9.85055983e-01
      -9.85055983e-01 -9.85055983e-01 -9.85055983e-01 -9.85055983e-01
      -9.85055983e-01 -9.85055983e-01 -9.85055983e-01 -9.85055983e-01
      -9.85055983e-01 -9.85055983e-01 -9.85055983e-01 -9.85055983e-01
      -9.85055983e-01 -9.85055983e-01 -9.85055983e-01 -9.85055983e-01
      -9.85055983e-01 -9.85055983e-01 -9.85055983e-01 -9.85055983e-01
      -9.85055983e-01 -9.85055983e-01 -9.85055983e-01 -9.85055983e-01
      -9.85055983e-01 -9.85055983e-01 -9.85055983e-01 -9.85055983e-01
      -9.85055983e-01 -9.85055983e-01 -9.85055983e-01 -9.85055983e-01
      -9.85055983e-01 -9.85055983e-01 -9.85055983e-01 -9.85055983e-01
      -9.85055983e-01 -9.85055983e-01 -9.85055983e-01 -9.85055983e-01
      -9.85055983e-01 -9.85055983e-01 -9.85055983e-01 -9.85055983e-01
      -9.85055983e-01 -9.85055983e-01 -9.85055983e-01 -9.85055983e-01
      -9.85055983e-01 -9.85055983e-01 -9.85055983e-01 -9.85055983e-01
      -9.85055983e-01 -9.85055983e-01 -9.84060585e-01 -9.84224498e-01
      -9.35547531e-01 -4.88584101e-01 -9.68903959e-01 -9.69296455e-01
      -4.04150277e-01 1. -9.36166406e-01 -9.84265625e-01 -9.81804609e-01
      -1. -9.68932271e-01</_>
    <_>
      -8.34915638e-01 -9.16143715e-01 -7.60220587e-01 -9.87759411e-01
      -8.34915638e-01 -9.67345595e-01 -9.58057642e-01 -9.78587985e-01
      -9.80766892e-01 -9.81338620e-01 -9.89972711e-01 -9.89972711e-01
      -9.89972711e-01 -9.89972711e-01 -9.89972711e-01 -9.89972711e-01
      -9.89972711e-01 -9.89972711e-01 -9.89972711e-01 -9.89972711e-01
      -9.89972711e-01 -9.89972711e-01 -9.89972711e-01 -9.89972711e-01
      -9.89972711e-01 -9.89972711e-01 -9.89972711e-01 -9.89972711e-01
      -9.89972711e-01 -9.89972711e-01 -9.89972711e-01 -9.89972711e-01
      -9.89972711e-01 -9.89972711e-01 -9.89972711e-01 -9.89972711e-01
      -9.89972711e-01 -9.89972711e-01 -9.89972711e-01 -9.89972711e-01
      -9.89972711e-01 -9.89972711e-01 -9.89972711e-01 -9.89972711e-01
      -9.89972711e-01 -9.89972711e-01 -9.89972711e-01 -9.89972711e-01
      -9.89972711e-01 -9.89972711e-01 -9.89972711e-01 -9.89972711e-01
      -9.89972711e-01 -9.89972711e-01 -9.89972711e-01 -9.89972711e-01
      -9.89972711e-01 -9.89972711e-01 -9.89972711e-01 -9.89972711e-01
      -9.89972711e-01 -9.89972711e-01 -9.89972711e-01 -9.89972711e-01
      -9.89972711e-01 -9.89972711e-01 -9.89972711e-01 -9.89972711e-01
      -9.89972711e-01 -9.89972711e-01 -9.89972711e-01 -9.89972711e-01
      -9.89972711e-01 -9.89972711e-01 -9.89972711e-01 -9.89972711e-01
      -9.89972711e-01 -9.89972711e-01 -9.89972711e-01 -9.89972711e-01
      -9.89972711e-01 -9.89972711e-01 -9.89972711e-01 -9.89972711e-01
      -9.89972711e-01 -9.89972711e-01 -9.89972711e-01 -9.89972711e-01
      -9.89972711e-01 -9.89972711e-01 -9.88586485e-01 -9.89282608e-01
      -9.63674128e-01 -4.92306918e-01 -9.79039729e-01 -9.79343355e-01
      -6.79545522e-01 1. -9.64174449e-01 -9.89319324e-01 -9.87517595e-01
      -1. -9.79126275e-01</_>
    <_>
      -9.11785364e-01 -9.66133535e-01 -8.58098686e-01 -9.98205900e-01
      -9.11785364e-01 -9.87806976e-01 -9.88528132e-01 -9.94818807e-01
      -9.91910875e-01 -9.97037411e-01 -9.98267174e-01 -9.98259664e-01
      -9.98261213e-01 -9.98266518e-01 -9.98267472e-01 -9.98267472e-01
      -9.98267472e-01 -9.98267472e-01 -9.98267472e-01 -9.98267472e-01
      -9.98267472e-01 -9.98267472e-01 -9.98267472e-01 -9.98267472e-01
      -9.98267472e-01 -9.98267472e-01 -9.98267472e-01 -9.98267472e-01
      -9.98267472e-01 -9.98267472e-01 -9.98256922e-01 -9.98266339e-01
      -9.98266816e-01 -9.98259962e-01 -9.98267472e-01 -9.98262882e-01
      -9.98256385e-01 -9.98255074e-01 -9.98263478e-01 -9.98267472e-01
      -9.98267472e-01 -9.98267472e-01 -9.98267472e-01 -9.98267472e-01
      -9.98267472e-01 -9.98267472e-01 -9.98267472e-01 -9.98267472e-01
      -9.98267472e-01 -9.98267472e-01 -9.98257458e-01 -9.98257995e-01
      -9.98263419e-01 -9.98258293e-01 -9.98267472e-01 -9.98267472e-01
      -9.98267472e-01 -9.98267472e-01 -9.98267472e-01 -9.98267472e-01
      -9.98267472e-01 -9.98267472e-01 -9.98267472e-01 -9.98267472e-01
      -9.98267472e-01 -9.98267472e-01 -9.98267472e-01 -9.98267472e-01
      -9.98267472e-01 -9.98267472e-01 -9.98264670e-01 -9.98264670e-01
      -9.98267353e-01 -9.98264670e-01 -9.98267472e-01 -9.98267472e-01
      -9.98267472e-01 -9.98267472e-01 -9.98267472e-01 -9.98267472e-01
      -9.98267472e-01 -9.98267472e-01 -9.98267472e-01 -9.98267472e-01
      -9.98267472e-01 -9.98267472e-01 -9.98267472e-01 -9.98259544e-01
      -9.98267353e-01 -9.98267472e-01 -9.98236895e-01 -9.94463444e-01
      -9.88848448e-01 -4.97749329e-01 -9.96243775e-01 -9.96408880e-01
      -8.25332165e-01 1. -9.89223003e-01 -9.94583130e-01 -9.97222900e-01
      -1. -9.96237040e-01</_>
    <_>
      -9.45225477e-01 -9.74920332e-01 -9.30997014e-01 -9.98765171e-01
      -9.45225477e-01 -9.94819701e-01 -9.89565194e-01 -9.93228793e-01
      -9.98180091e-01 -9.93861973e-01 -9.98992741e-01 -9.98994112e-01
      -9.98994291e-01 -9.98984158e-01 -9.98994291e-01 -9.98994172e-01
      -9.98989999e-01 -9.98994291e-01 -9.98990297e-01 -9.98994291e-01
      -9.98993695e-01 -9.98986542e-01 -9.98992920e-01 -9.98993814e-01
      -9.98994291e-01 -9.98990774e-01 -9.98994231e-01 -9.98984993e-01
      -9.98993635e-01 -9.98994291e-01 -9.98991430e-01 -9.98993814e-01
      -9.98983741e-01 -9.98994291e-01 -9.98994291e-01 -9.98994291e-01
      -9.98994291e-01 -9.98994291e-01 -9.98994291e-01 -9.98994291e-01
      -9.98994291e-01 -9.98994291e-01 -9.98994291e-01 -9.98994291e-01
      -9.98994291e-01 -9.98989701e-01 -9.98994112e-01 -9.98990119e-01
      -9.98988569e-01 -9.98994291e-01 -9.98992801e-01 -9.98993576e-01
      -9.98992980e-01 -9.98983979e-01 -9.98994291e-01 -9.98994291e-01
      -9.98994291e-01 -9.98994291e-01 -9.98994291e-01 -9.98994291e-01
      -9.98994291e-01 -9.98994291e-01 -9.98994291e-01 -9.98994291e-01
      -9.98994291e-01 -9.98990715e-01 -9.98993993e-01 -9.98987019e-01
      -9.98991370e-01 -9.98994291e-01 -9.98991489e-01 -9.98994052e-01
      -9.98983443e-01 -9.98992622e-01 -9.98994291e-01 -9.98993993e-01
      -9.98988211e-01 -9.98992145e-01 -9.98994291e-01 -9.98994291e-01
      -9.98993874e-01 -9.98990774e-01 -9.98994291e-01 -9.98989582e-01
      -9.98994291e-01 -9.98989880e-01 -9.98993993e-01 -9.98994291e-01
      -9.98985171e-01 -9.98994291e-01 -9.98882711e-01 -9.98317480e-01
      -9.95507956e-01 -4.99076575e-01 -9.97842610e-01 -9.97928977e-01
      -8.91275525e-01 1. -9.95687783e-01 -9.98372734e-01 -9.98435020e-01
      -1. -9.97847140e-01</_>
    <_>
      -9.87589180e-01 -9.91556346e-01 -9.78922844e-01 -9.99878645e-01
      -9.87589180e-01 -9.98652518e-01 -9.95474100e-01 -9.99532044e-01
      -9.98804331e-01 -9.98031437e-01 -9.99880373e-01 -9.99880195e-01
      -9.99880433e-01 -9.99880672e-01 -9.99881387e-01 -9.99881089e-01
      -9.99880016e-01 -9.99880970e-01 -9.99880791e-01 -9.99881387e-01
      -9.99880970e-01 -9.99880970e-01 -9.99880314e-01 -9.99880672e-01
      -9.99881387e-01 -9.99880850e-01 -9.99880195e-01 -9.99880850e-01
      -9.99881029e-01 -9.99881387e-01 -9.99879777e-01 -9.99880135e-01
      -9.99879181e-01 -9.99879599e-01 -9.99881387e-01 -9.99881268e-01
      -9.99880731e-01 -9.99880016e-01 -9.99880314e-01 -9.99881387e-01
      -9.99880552e-01 -9.99880314e-01 -9.99880195e-01 -9.99880075e-01
      -9.99881387e-01 -9.99881387e-01 -9.99881387e-01 -9.99881387e-01
      -9.99881387e-01 -9.99881387e-01 -9.99881387e-01 -9.99881387e-01
      -9.99881387e-01 -9.99881387e-01 -9.99881387e-01 -9.99881387e-01
      -9.99881387e-01 -9.99881387e-01 -9.99881387e-01 -9.99881387e-01
      -9.99880433e-01 -9.99881327e-01 -9.99881148e-01 -9.99880791e-01
      -9.99881387e-01 -9.99881387e-01 -9.99881387e-01 -9.99881387e-01
      -9.99881387e-01 -9.99881387e-01 -9.99880672e-01 -9.99881089e-01
      -9.99880910e-01 -9.99879122e-01 -9.99881387e-01 -9.99880433e-01
      -9.99881029e-01 -9.99880314e-01 -9.99880075e-01 -9.99881387e-01
      -9.99880850e-01 -9.99881387e-01 -9.99880731e-01 -9.99881089e-01
      -9.99881387e-01 -9.99881387e-01 -9.99881387e-01 -9.99881387e-01
      -9.99881387e-01 -9.99881387e-01 -9.99880314e-01 -9.98210728e-01
      -9.99115646e-01 -4.99493420e-01 -9.99743760e-01 -9.99758601e-01
      -9.75289047e-01 1. -9.99158502e-01 -9.98253465e-01 -9.99786377e-01
      -1. -9.99743521e-01</_>
    <_>
      -9.79211032e-01 -9.84990895e-01 -9.88139689e-01 -9.99616623e-01
      -9.79211032e-01 -9.92644191e-01 -9.97433364e-01 -9.98297155e-01
      -9.98133361e-01 -9.98089433e-01 -9.99631703e-01 -9.99630868e-01
      -9.99631524e-01 -9.99631643e-01 -9.99631703e-01 -9.99631703e-01
      -9.99629617e-01 -9.99631166e-01 -9.99631643e-01 -9.99631703e-01
      -9.99631703e-01 -9.99629557e-01 -9.99631166e-01 -9.99631524e-01
      -9.99631703e-01 -9.99631703e-01 -9.99630749e-01 -9.99631703e-01
      -9.99631703e-01 -9.99631703e-01 -9.99631703e-01 -9.99631703e-01
      -9.99631703e-01 -9.99631703e-01 -9.99631703e-01 -9.99631703e-01
      -9.99631703e-01 -9.99631703e-01 -9.99631703e-01 -9.99631703e-01
      -9.99629974e-01 -9.99626279e-01 -9.99625146e-01 -9.99627233e-01
      -9.99631703e-01 -9.99628246e-01 -9.99625444e-01 -9.99625862e-01
      -9.99625444e-01 -9.99631703e-01 -9.99631703e-01 -9.99631703e-01
      -9.99631703e-01 -9.99631703e-01 -9.99631703e-01 -9.99630988e-01
      -9.99630928e-01 -9.99631047e-01 -9.99629974e-01 -9.99631703e-01
      -9.99631405e-01 -9.99628484e-01 -9.99630451e-01 -9.99631405e-01
      -9.99631703e-01 -9.99631166e-01 -9.99628782e-01 -9.99630451e-01
      -9.99630392e-01 -9.99631703e-01 -9.99630451e-01 -9.99631643e-01
      -9.99631107e-01 -9.99629974e-01 -9.99631703e-01 -9.99629021e-01
      -9.99630809e-01 -9.99629974e-01 -9.99626219e-01 -9.99631703e-01
      -9.99625564e-01 -9.99629736e-01 -9.99629855e-01 -9.99627173e-01
      -9.99631703e-01 -9.99630451e-01 -9.99630034e-01 -9.99629855e-01
      -9.99630988e-01 -9.99631703e-01 -9.99626338e-01 -9.98321950e-01
      -9.97521639e-01 -4.99396503e-01 -9.99206662e-01 -9.99242306e-01
      -9.58764374e-01 1. -9.97616827e-01 -9.98356164e-01 -9.99396682e-01
      -1. -9.99206185e-01</_>
    <_>
      -8.02688897e-01 -9.26772952e-01 -7.53118694e-01 -9.90476727e-01
      -8.02688897e-01 -9.61486936e-01 -9.75433707e-01 -9.83374178e-01
      -9.82239008e-01 -9.84886110e-01 -9.92092073e-01 -9.92102981e-01
      -9.92105663e-01 -9.92084146e-01 -9.92105663e-01 -9.92105663e-01
      -9.92096007e-01 -9.92105663e-01 -9.92096424e-01 -9.92105663e-01
      -9.92105186e-01 -9.92098212e-01 -9.92100835e-01 -9.92105186e-01
      -9.92105663e-01 -9.92100358e-01 -9.92102981e-01 -9.92067516e-01
      -9.92105663e-01 -9.92105663e-01 -9.92081106e-01 -9.92100835e-01
      -9.92093384e-01 -9.92092490e-01 -9.92105663e-01 -9.92105663e-01
      -9.92105663e-01 -9.92105663e-01 -9.92105663e-01 -9.92105663e-01
      -9.92105663e-01 -9.92105663e-01 -9.92105663e-01 -9.92105663e-01
      -9.92105663e-01 -9.92078483e-01 -9.92101669e-01 -9.92074966e-01
      -9.92105663e-01 -9.92105663e-01 -9.92079794e-01 -9.92105186e-01
      -9.92091596e-01 -9.92101669e-01 -9.92105663e-01 -9.92105663e-01
      -9.92105663e-01 -9.92105663e-01 -9.92105663e-01 -9.92105663e-01
      -9.92105663e-01 -9.92105663e-01 -9.92105663e-01 -9.92105663e-01
      -9.92105663e-01 -9.92105663e-01 -9.92105663e-01 -9.92105663e-01
      -9.92105663e-01 -9.92105663e-01 -9.92105663e-01 -9.92105663e-01
      -9.92105663e-01 -9.92105663e-01 -9.92105663e-01 -9.92105663e-01
      -9.92105663e-01 -9.92105663e-01 -9.92105663e-01 -9.92105663e-01
      -9.92105663e-01 -9.92105663e-01 -9.92105663e-01 -9.92105663e-01
      -9.92105663e-01 -9.92105663e-01 -9.92105663e-01 -9.92105663e-01
      -9.92105663e-01 -9.92105663e-01 -9.91208017e-01 -9.91163075e-01
      -9.69243348e-01 -4.93843496e-01 -9.83578444e-01 -9.83793437e-01
      -6.12946153e-01 1. -9.69870508e-01 -9.91195738e-01 -9.90276396e-01
      -1. -9.83613014e-01</_>
    <_>
      -9.84340966e-01 -9.93324757e-01 -9.79089737e-01 -9.99921620e-01
      -9.84340966e-01 -9.99588072e-01 -9.97028530e-01 -9.98709083e-01
      -9.99689102e-01 -9.98672962e-01 -9.99927163e-01 -9.99927282e-01
      -9.99927342e-01 -9.99926686e-01 -9.99927342e-01 -9.99927342e-01
      -9.99926984e-01 -9.99927342e-01 -9.99927104e-01 -9.99927342e-01
      -9.99927342e-01 -9.99926925e-01 -9.99927163e-01 -9.99927342e-01
      -9.99927342e-01 -9.99927282e-01 -9.99927104e-01 -9.99926805e-01
      -9.99927223e-01 -9.99927342e-01 -9.99926925e-01 -9.99927282e-01
      -9.99926567e-01 -9.99926925e-01 -9.99927342e-01 -9.99927163e-01
      -9.99927282e-01 -9.99927044e-01 -9.99927163e-01 -9.99927342e-01
      -9.99927282e-01 -9.99926984e-01 -9.99927282e-01 -9.99926925e-01
      -9.99927342e-01 -9.99927104e-01 -9.99927044e-01 -9.99926627e-01
      -9.99926746e-01 -9.99927342e-01 -9.99926925e-01 -9.99927223e-01
      -9.99926805e-01 -9.99926627e-01 -9.99927342e-01 -9.99927342e-01
      -9.99927342e-01 -9.99927342e-01 -9.99927342e-01 -9.99927342e-01
      -9.99927223e-01 -9.99926925e-01 -9.99927163e-01 -9.99927282e-01
      -9.99927342e-01 -9.99927044e-01 -9.99926865e-01 -9.99926507e-01
      -9.99926507e-01 -9.99927342e-01 -9.99926925e-01 -9.99927104e-01
      -9.99926686e-01 -9.99927104e-01 -9.99927342e-01 -9.99927342e-01
      -9.99927104e-01 -9.99927282e-01 -9.99927282e-01 -9.99927342e-01
      -9.99927342e-01 -9.99926925e-01 -9.99927342e-01 -9.99927223e-01
      -9.99927342e-01 -9.99926984e-01 -9.99927104e-01 -9.99927044e-01
      -9.99926388e-01 -9.99927342e-01 -9.99925196e-01 -9.98709440e-01
      -9.99505281e-01 -4.99641299e-01 -9.99840975e-01 -9.99849916e-01
      -9.68713284e-01 1. -9.99535441e-01 -9.98762667e-01 -9.99864578e-01
      -1. -9.99840915e-01</_>
    <_>
      -9.83650565e-01 -9.91488636e-01 -9.68710721e-01 -9.99886751e-01
      -9.83650565e-01 -9.96670365e-01 -9.98924375e-01 -9.98087406e-01
      -9.98045981e-01 -9.98287797e-01 -9.99888420e-01 -9.99888301e-01
      -9.99888539e-01 -9.99888241e-01 -9.99888718e-01 -9.99888062e-01
      -9.99888599e-01 -9.99887884e-01 -9.99888003e-01 -9.99888718e-01
      -9.99888480e-01 -9.99888420e-01 -9.99887645e-01 -9.99888361e-01
      -9.99888718e-01 -9.99888659e-01 -9.99888301e-01 -9.99887943e-01
      -9.99888718e-01 -9.99888718e-01 -9.99888062e-01 -9.99887526e-01
      -9.99887884e-01 -9.99888003e-01 -9.99888718e-01 -9.99888718e-01
      -9.99888718e-01 -9.99888718e-01 -9.99888718e-01 -9.99888718e-01
      -9.99888599e-01 -9.99888599e-01 -9.99888599e-01 -9.99888539e-01
      -9.99888718e-01 -9.99888659e-01 -9.99888420e-01 -9.99888718e-01
      -9.99888599e-01 -9.99888718e-01 -9.99887884e-01 -9.99887347e-01
      -9.99887824e-01 -9.99887764e-01 -9.99888718e-01 -9.99888718e-01
      -9.99888718e-01 -9.99888718e-01 -9.99888718e-01 -9.99888718e-01
      -9.99888718e-01 -9.99888718e-01 -9.99888718e-01 -9.99888718e-01
      -9.99888718e-01 -9.99884367e-01 -9.99887824e-01 -9.99888122e-01
      -9.99886692e-01 -9.99888718e-01 -9.99888599e-01 -9.99888182e-01
      -9.99888420e-01 -9.99888599e-01 -9.99888718e-01 -9.99888659e-01
      -9.99888122e-01 -9.99888361e-01 -9.99888718e-01 -9.99888718e-01
      -9.99888599e-01 -9.99887884e-01 -9.99888241e-01 -9.99888539e-01
      -9.99888718e-01 -9.99882638e-01 -9.99888599e-01 -9.99886990e-01
      -9.99886870e-01 -9.99888718e-01 -9.99888182e-01 -9.98671949e-01
      -9.99001741e-01 -4.99612480e-01 -9.99748409e-01 -9.99774992e-01
      -9.67408895e-01 1. -9.99076307e-01 -9.98731256e-01 -9.99756217e-01
      -1. -9.99748290e-01</_>
    <_>
      -9.48460519e-01 -9.81331706e-01 -9.58615959e-01 -9.99452114e-01
      -9.48460519e-01 -9.92738962e-01 -9.95961189e-01 -9.97414708e-01
      -9.98073697e-01 -9.96000528e-01 -9.99466658e-01 -9.99467492e-01
      -9.99466956e-01 -9.99468148e-01 -9.99473870e-01 -9.99470294e-01
      -9.99471843e-01 -9.99467134e-01 -9.99468505e-01 -9.99473870e-01
      -9.99472022e-01 -9.99470830e-01 -9.99470651e-01 -9.99470651e-01
      -9.99473870e-01 -9.99472976e-01 -9.99472082e-01 -9.99466717e-01
      -9.99470353e-01 -9.99473870e-01 -9.99469578e-01 -9.99467731e-01
      -9.99470353e-01 -9.99471724e-01 -9.99473870e-01 -9.99470711e-01
      -9.99470770e-01 -9.99470294e-01 -9.99468505e-01 -9.99473870e-01
      -9.99470651e-01 -9.99470532e-01 -9.99469161e-01 -9.99468803e-01
      -9.99473870e-01 -9.99472320e-01 -9.99472082e-01 -9.99472141e-01
      -9.99472737e-01 -9.99473870e-01 -9.99473870e-01 -9.99473870e-01
      -9.99473870e-01 -9.99473870e-01 -9.99473870e-01 -9.99473870e-01
      -9.99473870e-01 -9.99473870e-01 -9.99473870e-01 -9.99473870e-01
      -9.99470353e-01 -9.99473035e-01 -9.99473214e-01 -9.99473274e-01
      -9.99473870e-01 -9.99473035e-01 -9.99473870e-01 -9.99472022e-01
      -9.99473691e-01 -9.99473870e-01 -9.99472797e-01 -9.99471724e-01
      -9.99472022e-01 -9.99467254e-01 -9.99473870e-01 -9.99473572e-01
      -9.99472499e-01 -9.99473453e-01 -9.99472141e-01 -9.99473870e-01
      -9.99472618e-01 -9.99472737e-01 -9.99472201e-01 -9.99472082e-01
      -9.99473870e-01 -9.99472082e-01 -9.99471843e-01 -9.99470592e-01
      -9.99472618e-01 -9.99473870e-01 -9.99465823e-01 -9.95353043e-01
      -9.96165276e-01 -4.98575538e-01 -9.98827994e-01 -9.98909354e-01
      -8.97399843e-01 1. -9.96381164e-01 -9.95500028e-01 -9.98995543e-01
      -1. -9.98825610e-01</_>
    <_>
      -9.63308394e-01 -9.87063468e-01 -9.63535547e-01 -9.99719203e-01
      -9.63308394e-01 -9.98476565e-01 -9.95932758e-01 -9.97124791e-01
      -9.97570276e-01 -9.96768355e-01 -9.99726772e-01 -9.99727845e-01
      -9.99729216e-01 -9.99728620e-01 -9.99729276e-01 -9.99728560e-01
      -9.99727309e-01 -9.99727905e-01 -9.99728322e-01 -9.99729276e-01
      -9.99729276e-01 -9.99727666e-01 -9.99729216e-01 -9.99728858e-01
      -9.99729276e-01 -9.99726593e-01 -9.99728620e-01 -9.99726415e-01
      -9.99728203e-01 -9.99729276e-01 -9.99726653e-01 -9.99727190e-01
      -9.99728858e-01 -9.99728143e-01 -9.99729276e-01 -9.99727845e-01
      -9.99728620e-01 -9.99729037e-01 -9.99728441e-01 -9.99729276e-01
      -9.99729276e-01 -9.99729276e-01 -9.99729276e-01 -9.99729276e-01
      -9.99729276e-01 -9.99727130e-01 -9.99728918e-01 -9.99727726e-01
      -9.99728858e-01 -9.99729276e-01 -9.99726772e-01 -9.99727666e-01
      -9.99729216e-01 -9.99728858e-01 -9.99729276e-01 -9.99727428e-01
      -9.99728680e-01 -9.99728560e-01 -9.99727786e-01 -9.99729276e-01
      -9.99728620e-01 -9.99728262e-01 -9.99728441e-01 -9.99728262e-01
      -9.99729276e-01 -9.99727964e-01 -9.99727845e-01 -9.99727249e-01
      -9.99728143e-01 -9.99729276e-01 -9.99725401e-01 -9.99727249e-01
      -9.99728620e-01 -9.99728203e-01 -9.99729276e-01 -9.99727726e-01
      -9.99727368e-01 -9.99729097e-01 -9.99728799e-01 -9.99729276e-01
      -9.99729276e-01 -9.99727368e-01 -9.99729216e-01 -9.99729216e-01
      -9.99729276e-01 -9.99729097e-01 -9.99727368e-01 -9.99729216e-01
      -9.99729216e-01 -9.99729276e-01 -9.99726236e-01 -9.95934844e-01
      -9.98087466e-01 -4.98848230e-01 -9.99421060e-01 -9.99445379e-01
      -9.26754117e-01 1. -9.98163044e-01 -9.96006846e-01 -9.99554932e-01
      -1. -9.99419928e-01</_>
    <_>
      -9.45671856e-01 -9.83782887e-01 -9.46850538e-01 -9.99559581e-01
      -9.45671856e-01 -9.93889034e-01 -9.96103108e-01 -9.96564448e-01
      -9.98171508e-01 -9.97346103e-01 -9.99567866e-01 -9.99571681e-01
      -9.99571681e-01 -9.99571621e-01 -9.99571681e-01 -9.99568701e-01
      -9.99569118e-01 -9.99569476e-01 -9.99570787e-01 -9.99571681e-01
      -9.99571681e-01 -9.99571681e-01 -9.99571681e-01 -9.99571681e-01
      -9.99571681e-01 -9.99570429e-01 -9.99571681e-01 -9.99571204e-01
      -9.99571502e-01 -9.99571681e-01 -9.99567926e-01 -9.99569297e-01
      -9.99570310e-01 -9.99570906e-01 -9.99571681e-01 -9.99570489e-01
      -9.99571085e-01 -9.99571562e-01 -9.99569476e-01 -9.99571681e-01
      -9.99571681e-01 -9.99571681e-01 -9.99571681e-01 -9.99571681e-01
      -9.99571681e-01 -9.99571681e-01 -9.99571681e-01 -9.99571681e-01
      -9.99571681e-01 -9.99571681e-01 -9.99566376e-01 -9.99570072e-01
      -9.99571145e-01 -9.99568462e-01 -9.99571681e-01 -9.99571264e-01
      -9.99570966e-01 -9.99570251e-01 -9.99569714e-01 -9.99571681e-01
      -9.99570906e-01 -9.99570727e-01 -9.99569714e-01 -9.99570310e-01
      -9.99571681e-01 -9.99570608e-01 -9.99570608e-01 -9.99570131e-01
      -9.99570847e-01 -9.99571681e-01 -9.99566257e-01 -9.99568939e-01
      -9.99570847e-01 -9.99568820e-01 -9.99571681e-01 -9.99571681e-01
      -9.99568820e-01 -9.99571681e-01 -9.99571681e-01 -9.99571681e-01
      -9.99571562e-01 -9.99568224e-01 -9.99571145e-01 -9.99571323e-01
      -9.99571681e-01 -9.99571085e-01 -9.99568760e-01 -9.99570489e-01
      -9.99571443e-01 -9.99571681e-01 -9.99566555e-01 -9.93610442e-01
      -9.97174680e-01 -4.98188466e-01 -9.99099553e-01 -9.99124110e-01
      -8.91610801e-01 1. -9.97257411e-01 -9.93690014e-01 -9.99365449e-01
      -1. -9.99096811e-01</_>
    <_>
      -9.56924975e-01 -9.88740742e-01 -9.45403159e-01 -9.99789357e-01
      -9.56924975e-01 -9.94022965e-01 -9.99347270e-01 -9.96110201e-01
      -9.99020517e-01 -9.99475300e-01 -9.99793112e-01 -9.99794960e-01
      -9.99794960e-01 -9.99794960e-01 -9.99795020e-01 -9.99794960e-01
      -9.99794185e-01 -9.99794900e-01 -9.99794543e-01 -9.99795020e-01
      -9.99794960e-01 -9.99793947e-01 -9.99794781e-01 -9.99794662e-01
      -9.99795020e-01 -9.99794841e-01 -9.99794066e-01 -9.99794543e-01
      -9.99794781e-01 -9.99795020e-01 -9.99791920e-01 -9.99794006e-01
      -9.99794841e-01 -9.99794424e-01 -9.99795020e-01 -9.99794006e-01
      -9.99794483e-01 -9.99794126e-01 -9.99794006e-01 -9.99795020e-01
      -9.99795020e-01 -9.99795020e-01 -9.99795020e-01 -9.99795020e-01
      -9.99795020e-01 -9.99794960e-01 -9.99795020e-01 -9.99794960e-01
      -9.99794960e-01 -9.99795020e-01 -9.99791622e-01 -9.99789417e-01
      -9.99789834e-01 -9.99789178e-01 -9.99795020e-01 -9.99793887e-01
      -9.99789655e-01 -9.99790251e-01 -9.99791026e-01 -9.99795020e-01
      -9.99794841e-01 -9.99792933e-01 -9.99793649e-01 -9.99794066e-01
      -9.99795020e-01 -9.99794960e-01 -9.99794304e-01 -9.99794662e-01
      -9.99794364e-01 -9.99795020e-01 -9.99792755e-01 -9.99792397e-01
      -9.99794126e-01 -9.99792695e-01 -9.99795020e-01 -9.99794900e-01
      -9.99793231e-01 -9.99794781e-01 -9.99794781e-01 -9.99795020e-01
      -9.99795020e-01 -9.99793589e-01 -9.99794960e-01 -9.99794960e-01
      -9.99795020e-01 -9.99794662e-01 -9.99793589e-01 -9.99794960e-01
      -9.99794960e-01 -9.99795020e-01 -9.99793231e-01 -9.97338057e-01
      -9.98508513e-01 -4.99231786e-01 -9.99560118e-01 -9.99580562e-01
      -9.13942456e-01 1. -9.98561263e-01 -9.97376561e-01 -9.99663174e-01
      -1. -9.99559581e-01</_>
    <_>
      -9.64301229e-01 -9.89614487e-01 -9.65958655e-01 -9.99835312e-01
      -9.64301229e-01 -9.98221934e-01 -9.95513082e-01 -9.98585224e-01
      -9.98319626e-01 -9.97770071e-01 -9.99838531e-01 -9.99839902e-01
      -9.99837995e-01 -9.99837875e-01 -9.99840617e-01 -9.99837697e-01
      -9.99839664e-01 -9.99837756e-01 -9.99838114e-01 -9.99840617e-01
      -9.99840260e-01 -9.99839246e-01 -9.99839723e-01 -9.99840081e-01
      -9.99840617e-01 -9.99840438e-01 -9.99838948e-01 -9.99839962e-01
      -9.99840319e-01 -9.99840617e-01 -9.99836981e-01 -9.99838710e-01
      -9.99838531e-01 -9.99837875e-01 -9.99840617e-01 -9.99839187e-01
      -9.99839723e-01 -9.99838769e-01 -9.99838829e-01 -9.99840617e-01
      -9.99840617e-01 -9.99840617e-01 -9.99840617e-01 -9.99840617e-01
      -9.99840617e-01 -9.99840498e-01 -9.99840558e-01 -9.99840558e-01
      -9.99840498e-01 -9.99840617e-01 -9.99837995e-01 -9.99838769e-01
      -9.99838293e-01 -9.99838173e-01 -9.99840617e-01 -9.99837101e-01
      -9.99838114e-01 -9.99837756e-01 -9.99836683e-01 -9.99840617e-01
      -9.99839842e-01 -9.99839604e-01 -9.99839604e-01 -9.99839962e-01
      -9.99840617e-01 -9.99840558e-01 -9.99840558e-01 -9.99840617e-01
      -9.99840558e-01 -9.99840617e-01 -9.99840558e-01 -9.99839544e-01
      -9.99840379e-01 -9.99840558e-01 -9.99840617e-01 -9.99837816e-01
      -9.99838352e-01 -9.99837875e-01 -9.99838233e-01 -9.99840617e-01
      -9.99838352e-01 -9.99839604e-01 -9.99838591e-01 -9.99837875e-01
      -9.99840617e-01 -9.99839783e-01 -9.99840558e-01 -9.99838293e-01
      -9.99840379e-01 -9.99840617e-01 -9.99839425e-01 -9.99199688e-01
      -9.98586297e-01 -4.99720007e-01 -9.99632835e-01 -9.99677241e-01
      -9.28745151e-01 1. -9.98705864e-01 -9.99278784e-01 -9.99633193e-01
      -1. -9.99632776e-01</_>
    <_>
      -7.98838973e-01 -9.34479952e-01 -7.63425291e-01 -9.91192698e-01
      -7.98838973e-01 -9.68743265e-01 -9.80138421e-01 -9.78775680e-01
      -9.87554550e-01 -9.88455355e-01 -9.93549168e-01 -9.93549168e-01
      -9.93549168e-01 -9.93548095e-01 -9.93549168e-01 -9.93549168e-01
      -9.93549168e-01 -9.93549168e-01 -9.93549168e-01 -9.93549168e-01
      -9.93549168e-01 -9.93549168e-01 -9.93549168e-01 -9.93549168e-01
      -9.93549168e-01 -9.93549168e-01 -9.93545234e-01 -9.93538797e-01
      -9.93549168e-01 -9.93549168e-01 -9.93549168e-01 -9.93549168e-01
      -9.93549168e-01 -9.93549168e-01 -9.93549168e-01 -9.93549168e-01
      -9.93549168e-01 -9.93549168e-01 -9.93549168e-01 -9.93549168e-01
      -9.93549168e-01 -9.93549168e-01 -9.93549168e-01 -9.93549168e-01
      -9.93549168e-01 -9.93549168e-01 -9.93549168e-01 -9.93549168e-01
      -9.93549168e-01 -9.93549168e-01 -9.93548810e-01 -9.93544519e-01
      -9.93546307e-01 -9.93549168e-01 -9.93549168e-01 -9.93549168e-01
      -9.93549168e-01 -9.93549168e-01 -9.93549168e-01 -9.93549168e-01
      -9.93549168e-01 -9.93549168e-01 -9.93549168e-01 -9.93549168e-01
      -9.93549168e-01 -9.93549168e-01 -9.93549168e-01 -9.93549168e-01
      -9.93549168e-01 -9.93549168e-01 -9.93548810e-01 -9.93545949e-01
      -9.93537724e-01 -9.93549168e-01 -9.93549168e-01 -9.93549168e-01
      -9.93549168e-01 -9.93549168e-01 -9.93549168e-01 -9.93549168e-01
      -9.93549168e-01 -9.93549168e-01 -9.93549168e-01 -9.93546665e-01
      -9.93549168e-01 -9.93549168e-01 -9.93549168e-01 -9.93549168e-01
      -9.93549168e-01 -9.93549168e-01 -9.92058098e-01 -9.92968619e-01
      -9.79800999e-01 -4.95016724e-01 -9.86579776e-01 -9.86741126e-01
      -6.03905439e-01 1. -9.80168283e-01 -9.92988467e-01 -9.92207170e-01
      -1. -9.86693859e-01</_>
    <_>
      -9.89757895e-01 -9.93445277e-01 -9.83308434e-01 -9.99929428e-01
      -9.89757895e-01 -9.98453438e-01 -9.96817172e-01 -9.98555720e-01
      -9.99240100e-01 -9.99130249e-01 -9.99931276e-01 -9.99930859e-01
      -9.99930859e-01 -9.99931216e-01 -9.99931335e-01 -9.99931097e-01
      -9.99930739e-01 -9.99930859e-01 -9.99931157e-01 -9.99931335e-01
      -9.99931276e-01 -9.99931037e-01 -9.99931037e-01 -9.99931276e-01
      -9.99931335e-01 -9.99931335e-01 -9.99931157e-01 -9.99931276e-01
      -9.99931335e-01 -9.99931335e-01 -9.99931335e-01 -9.99931216e-01
      -9.99931276e-01 -9.99931335e-01 -9.99931335e-01 -9.99930918e-01
      -9.99931037e-01 -9.99931097e-01 -9.99931037e-01 -9.99931335e-01
      -9.99931276e-01 -9.99931097e-01 -9.99931276e-01 -9.99931157e-01
      -9.99931335e-01 -9.99930859e-01 -9.99931216e-01 -9.99931216e-01
      -9.99931037e-01 -9.99931335e-01 -9.99931276e-01 -9.99930978e-01
      -9.99931097e-01 -9.99931157e-01 -9.99931335e-01 -9.99931276e-01
      -9.99931157e-01 -9.99931157e-01 -9.99931216e-01 -9.99931335e-01
      -9.99930859e-01 -9.99931157e-01 -9.99930978e-01 -9.99931157e-01
      -9.99931335e-01 -9.99930918e-01 -9.99931335e-01 -9.99931276e-01
      -9.99931216e-01 -9.99931335e-01 -9.99930978e-01 -9.99930978e-01
      -9.99930382e-01 -9.99930263e-01 -9.99931335e-01 -9.99930263e-01
      -9.99931216e-01 -9.99930501e-01 -9.99930561e-01 -9.99931335e-01
      -9.99930859e-01 -9.99931335e-01 -9.99930441e-01 -9.99931216e-01
      -9.99931335e-01 -9.99930859e-01 -9.99931276e-01 -9.99930441e-01
      -9.99931276e-01 -9.99931335e-01 -9.99930978e-01 -9.99789834e-01
      -9.99414206e-01 -4.99913067e-01 -9.99847353e-01 -9.99863863e-01
      -9.79579687e-01 1. -9.99448597e-01 -9.99808729e-01 -9.99858856e-01
      -1. -9.99847353e-01</_>
    <_>
      -9.69274044e-01 -9.79810953e-01 -9.46870327e-01 -9.99182403e-01
      -9.69274044e-01 -9.91859674e-01 -9.93794203e-01 -9.94421661e-01
      -9.97821629e-01 -9.97269273e-01 -9.99335587e-01 -9.99334633e-01
      -9.99336958e-01 -9.99328375e-01 -9.99337137e-01 -9.99335945e-01
      -9.99330401e-01 -9.99335945e-01 -9.99334872e-01 -9.99337137e-01
      -9.99336004e-01 -9.99332786e-01 -9.99334693e-01 -9.99332547e-01
      -9.99337137e-01 -9.99335349e-01 -9.99335885e-01 -9.99333322e-01
      -9.99335527e-01 -9.99337137e-01 -9.99335468e-01 -9.99335587e-01
      -9.99334216e-01 -9.99336898e-01 -9.99337137e-01 -9.99337137e-01
      -9.99337137e-01 -9.99337137e-01 -9.99337137e-01 -9.99337137e-01
      -9.99336958e-01 -9.99334097e-01 -9.99337137e-01 -9.99337077e-01
      -9.99337137e-01 -9.99332666e-01 -9.99337077e-01 -9.99336243e-01
      -9.99334455e-01 -9.99337137e-01 -9.99334455e-01 -9.99335706e-01
      -9.99334574e-01 -9.99331415e-01 -9.99337137e-01 -9.99337077e-01
      -9.99334097e-01 -9.99336064e-01 -9.99335945e-01 -9.99337137e-01
      -9.99335647e-01 -9.99334097e-01 -9.99332368e-01 -9.99335706e-01
      -9.99337137e-01 -9.99333680e-01 -9.99332547e-01 -9.99328375e-01
      -9.99336243e-01 -9.99337137e-01 -9.99335051e-01 -9.99336958e-01
      -9.99330640e-01 -9.99336362e-01 -9.99337137e-01 -9.99336898e-01
      -9.99333799e-01 -9.99335706e-01 -9.99336720e-01 -9.99337137e-01
      -9.99337018e-01 -9.99333858e-01 -9.99336958e-01 -9.99335051e-01
      -9.99337137e-01 -9.99336362e-01 -9.99336481e-01 -9.99337077e-01
      -9.99330759e-01 -9.99337137e-01 -9.99285579e-01 -9.98621285e-01
      -9.96571124e-01 -4.99323756e-01 -9.98577297e-01 -9.98624861e-01
      -9.39125836e-01 1. -9.96733546e-01 -9.98656034e-01 -9.98993397e-01
      -1. -9.98578131e-01</_>
    <_>
      -9.10164535e-01 -9.72763360e-01 -9.36800897e-01 -9.98375237e-01
      -9.10164535e-01 -9.84256864e-01 -9.97267902e-01 -9.93589282e-01
      -9.97794628e-01 -9.98085558e-01 -9.98798668e-01 -9.98800576e-01
      -9.98796880e-01 -9.98798549e-01 -9.98812377e-01 -9.98812377e-01
      -9.98812377e-01 -9.98812377e-01 -9.98812377e-01 -9.98812377e-01
      -9.98812377e-01 -9.98812377e-01 -9.98812377e-01 -9.98812377e-01
      -9.98812377e-01 -9.98811305e-01 -9.98811066e-01 -9.98811305e-01
      -9.98809040e-01 -9.98812377e-01 -9.98798192e-01 -9.98790979e-01
      -9.98797357e-01 -9.98800457e-01 -9.98812377e-01 -9.98807251e-01
      -9.98805761e-01 -9.98800337e-01 -9.98804390e-01 -9.98812377e-01
      -9.98808086e-01 -9.98806059e-01 -9.98804212e-01 -9.98800576e-01
      -9.98812377e-01 -9.98806596e-01 -9.98803079e-01 -9.98797834e-01
      -9.98800457e-01 -9.98812377e-01 -9.98802602e-01 -9.98793304e-01
      -9.98806059e-01 -9.98809576e-01 -9.98812377e-01 -9.98812377e-01
      -9.98812377e-01 -9.98812377e-01 -9.98812377e-01 -9.98812377e-01
      -9.98812377e-01 -9.98812377e-01 -9.98812377e-01 -9.98812377e-01
      -9.98812377e-01 -9.98812020e-01 -9.98812377e-01 -9.98812258e-01
      -9.98812258e-01 -9.98812377e-01 -9.98803437e-01 -9.98797655e-01
      -9.98810291e-01 -9.98809636e-01 -9.98812377e-01 -9.98812139e-01
      -9.98803139e-01 -9.98810887e-01 -9.98811662e-01 -9.98812377e-01
      -9.98812377e-01 -9.98804331e-01 -9.98812318e-01 -9.98812318e-01
      -9.98812377e-01 -9.98812377e-01 -9.98803735e-01 -9.98812258e-01
      -9.98812079e-01 -9.98812377e-01 -9.98657167e-01 -9.95112062e-01
      -9.93967712e-01 -4.98184055e-01 -9.97497857e-01 -9.97551918e-01
      -8.21457624e-01 1. -9.94157791e-01 -9.95159924e-01 -9.98345554e-01
      -1. -9.97494638e-01</_>
    <_>
      -6.41026378e-01 -8.92781198e-01 -5.96478760e-01 -9.81305063e-01
      -6.41026378e-01 -9.53470707e-01 -9.56694067e-01 -9.71334279e-01
      -9.64513302e-01 -9.74262536e-01 -9.84415472e-01 -9.84415472e-01
      -9.84415472e-01 -9.84415472e-01 -9.84415472e-01 -9.84415472e-01
      -9.84415472e-01 -9.84415472e-01 -9.84415472e-01 -9.84415472e-01
      -9.84415472e-01 -9.84415472e-01 -9.84415472e-01 -9.84415472e-01
      -9.84415472e-01 -9.84415472e-01 -9.84415472e-01 -9.84415472e-01
      -9.84415472e-01 -9.84415472e-01 -9.84415472e-01 -9.84415472e-01
      -9.84415472e-01 -9.84415472e-01 -9.84415472e-01 -9.84415472e-01
      -9.84415472e-01 -9.84415472e-01 -9.84415472e-01 -9.84415472e-01
      -9.84415472e-01 -9.84415472e-01 -9.84415472e-01 -9.84415472e-01
      -9.84415472e-01 -9.84415472e-01 -9.84415472e-01 -9.84415472e-01
      -9.84415472e-01 -9.84415472e-01 -9.84415472e-01 -9.84415472e-01
      -9.84415472e-01 -9.84415472e-01 -9.84415472e-01 -9.84415472e-01
      -9.84415472e-01 -9.84415472e-01 -9.84415472e-01 -9.84415472e-01
      -9.84415472e-01 -9.84415472e-01 -9.84415472e-01 -9.84415472e-01
      -9.84415472e-01 -9.84415472e-01 -9.84415472e-01 -9.84415472e-01
      -9.84415472e-01 -9.84415472e-01 -9.84415472e-01 -9.84415472e-01
      -9.84415472e-01 -9.84415472e-01 -9.84415472e-01 -9.84415472e-01
      -9.84415472e-01 -9.84415472e-01 -9.84415472e-01 -9.84415472e-01
      -9.84415472e-01 -9.84415472e-01 -9.84415472e-01 -9.84415472e-01
      -9.84415472e-01 -9.84415472e-01 -9.84415472e-01 -9.84415472e-01
      -9.84415472e-01 -9.84415472e-01 -9.82713461e-01 -9.83546853e-01
      -9.39660132e-01 -4.88094449e-01 -9.67563450e-01 -9.67968702e-01
      -2.97114402e-01 1. -9.40291226e-01 -9.83589172e-01 -9.81035650e-01
      -1. -9.67637420e-01</_>
    <_>
      -9.81384397e-01 -9.91730273e-01 -9.80779350e-01 -9.99885261e-01
      -9.81384397e-01 -9.96160626e-01 -9.98996973e-01 -9.97554064e-01
      -9.99719203e-01 -9.99188304e-01 -9.99887109e-01 -9.99887049e-01
      -9.99885857e-01 -9.99886990e-01 -9.99887288e-01 -9.99887288e-01
      -9.99886513e-01 -9.99887168e-01 -9.99887228e-01 -9.99887288e-01
      -9.99886692e-01 -9.99886513e-01 -9.99886930e-01 -9.99886751e-01
      -9.99887288e-01 -9.99887109e-01 -9.99886036e-01 -9.99886632e-01
      -9.99886990e-01 -9.99887288e-01 -9.99887168e-01 -9.99887228e-01
      -9.99887109e-01 -9.99887228e-01 -9.99887288e-01 -9.99887228e-01
      -9.99886751e-01 -9.99886930e-01 -9.99887228e-01 -9.99887288e-01
      -9.99886990e-01 -9.99887049e-01 -9.99887168e-01 -9.99887049e-01
      -9.99887288e-01 -9.99887288e-01 -9.99887288e-01 -9.99887288e-01
      -9.99887288e-01 -9.99887288e-01 -9.99887228e-01 -9.99886632e-01
      -9.99887168e-01 -9.99887049e-01 -9.99887288e-01 -9.99887049e-01
      -9.99887228e-01 -9.99887168e-01 -9.99887168e-01 -9.99887288e-01
      -9.99887288e-01 -9.99887288e-01 -9.99887288e-01 -9.99887288e-01
      -9.99887288e-01 -9.99887288e-01 -9.99887288e-01 -9.99887288e-01
      -9.99887288e-01 -9.99887288e-01 -9.99887228e-01 -9.99886274e-01
      -9.99887228e-01 -9.99886990e-01 -9.99887288e-01 -9.99887168e-01
      -9.99886572e-01 -9.99886930e-01 -9.99887228e-01 -9.99887288e-01
      -9.99887288e-01 -9.99887288e-01 -9.99887288e-01 -9.99887288e-01
      -9.99887288e-01 -9.99887288e-01 -9.99887228e-01 -9.99886870e-01
      -9.99887288e-01 -9.99887288e-01 -9.99886632e-01 -9.99512374e-01
      -9.99123156e-01 -4.99821216e-01 -9.99754608e-01 -9.99771237e-01
      -9.62876558e-01 1. -9.99155939e-01 -9.99526620e-01 -9.99801993e-01
      -1. -9.99754608e-01</_>
    <_>
      -7.16401875e-01 -9.08466280e-01 -6.30099356e-01 -9.86337185e-01
      -7.16401875e-01 -9.58238065e-01 -9.57934499e-01 -9.78883982e-01
      -9.77470875e-01 -9.78423297e-01 -9.88280594e-01 -9.88280594e-01
      -9.88280594e-01 -9.88280594e-01 -9.88280594e-01 -9.88280594e-01
      -9.88280594e-01 -9.88280594e-01 -9.88280594e-01 -9.88280594e-01
      -9.88280594e-01 -9.88280594e-01 -9.88280594e-01 -9.88280594e-01
      -9.88280594e-01 -9.88280594e-01 -9.88280594e-01 -9.88280594e-01
      -9.88280594e-01 -9.88280594e-01 -9.88280594e-01 -9.88280594e-01
      -9.88280594e-01 -9.88280594e-01 -9.88280594e-01 -9.88280594e-01
      -9.88280594e-01 -9.88280594e-01 -9.88280594e-01 -9.88280594e-01
      -9.88280594e-01 -9.88280594e-01 -9.88280594e-01 -9.88280594e-01
      -9.88280594e-01 -9.88280594e-01 -9.88280594e-01 -9.88280594e-01
      -9.88280594e-01 -9.88280594e-01 -9.88280594e-01 -9.88280594e-01
      -9.88280594e-01 -9.88280594e-01 -9.88280594e-01 -9.88280594e-01
      -9.88280594e-01 -9.88280594e-01 -9.88280594e-01 -9.88280594e-01
      -9.88280594e-01 -9.88280594e-01 -9.88280594e-01 -9.88280594e-01
      -9.88280594e-01 -9.88280594e-01 -9.88280594e-01 -9.88280594e-01
      -9.88280594e-01 -9.88280594e-01 -9.88280594e-01 -9.88280594e-01
      -9.88280594e-01 -9.88280594e-01 -9.88280594e-01 -9.88280594e-01
      -9.88280594e-01 -9.88280594e-01 -9.88280594e-01 -9.88280594e-01
      -9.88280594e-01 -9.88280594e-01 -9.88280594e-01 -9.88280594e-01
      -9.88280594e-01 -9.88280594e-01 -9.88280594e-01 -9.88280594e-01
      -9.88280594e-01 -9.88280594e-01 -9.87271667e-01 -9.87528145e-01
      -9.51261401e-01 -4.91022348e-01 -9.75498080e-01 -9.75852489e-01
      -4.44120735e-01 1. -9.51824248e-01 -9.87570047e-01 -9.85450387e-01
      -1. -9.75536525e-01</_>
    <_>
      -9.47044373e-01 -9.81682122e-01 -9.24919724e-01 -9.99365389e-01
      -9.47044373e-01 -9.92640257e-01 -9.93704915e-01 -9.95416343e-01
      -9.97922480e-01 -9.97454166e-01 -9.99464393e-01 -9.99463677e-01
      -9.99464750e-01 -9.99457836e-01 -9.99465764e-01 -9.99465346e-01
      -9.99461889e-01 -9.99462962e-01 -9.99462008e-01 -9.99465764e-01
      -9.99465108e-01 -9.99462068e-01 -9.99462187e-01 -9.99462545e-01
      -9.99465764e-01 -9.99464571e-01 -9.99465346e-01 -9.99463081e-01
      -9.99464929e-01 -9.99465764e-01 -9.99465764e-01 -9.99465764e-01
      -9.99465764e-01 -9.99465764e-01 -9.99465764e-01 -9.99465764e-01
      -9.99465764e-01 -9.99465764e-01 -9.99465764e-01 -9.99465764e-01
      -9.99465764e-01 -9.99465764e-01 -9.99465764e-01 -9.99465764e-01
      -9.99465764e-01 -9.99465764e-01 -9.99465764e-01 -9.99465764e-01
