<?xml version="1.0"?>
<opencv_storage>
<my_svm type_id="opencv-ml-svm">
  <svm_type>C_SVC</svm_type>
  <kernel><type>LINEAR</type></kernel>
  <C>1.</C>
  <term_criteria><epsilon>2.2204460492503131e-16</epsilon>
    <iterations>100</iterations></term_criteria>
  <var_all>103</var_all>
  <var_count>103</var_count>
  <class_count>2</class_count>
  <class_labels type_id="opencv-matrix">
    <rows>1</rows>
    <cols>2</cols>
    <dt>i</dt>
    <data>
      -1 1</data></class_labels>
  <sv_total>1</sv_total>
  <support_vectors>
    <_>
      -2.81956795e-06 4.51949882e-06 -1.36172530e-04 4.41498607e-08
      -2.81950520e-06 8.42524969e-06 2.33638116e-06 -1.95360717e-05
      -8.19843899e-06 -6.24433187e-06 2.62832174e-07 1.56487033e-07
      5.18400554e-07 3.00258449e-07 5.34164640e-12 2.75474576e-07
      1.24166206e-07 3.69003317e-07 3.12082079e-07 4.28574176e-10
      2.60342858e-07 1.08274676e-07 2.94269881e-07 3.73304971e-07
      2.14287088e-10 2.42319175e-07 1.53817865e-07 2.75763767e-07
      4.11473906e-07 0. 1.91366595e-07 2.05963403e-07 3.89342745e-07
      2.47791547e-07 1.65169170e-10 1.63636798e-07 1.76694911e-07
      3.18542817e-07 2.28701239e-07 0. 1.78643788e-07 1.28188347e-07
      2.69002044e-07 2.92259699e-07 6.42861264e-10 7.55334284e-08
      1.68657806e-07 1.22096182e-07 3.15472249e-07 2.14287088e-10
      1.98549671e-07 1.69046814e-07 1.22973191e-07 1.92959476e-07
      -1.63726428e-11 2.85520514e-07 1.55181553e-07 2.58881812e-07
      3.79258978e-07 8.57148352e-10 2.85701361e-07 1.77512931e-07
      4.30028564e-07 3.25004379e-07 -1.63726428e-11 2.02210572e-07
      1.68427761e-07 3.71304480e-07 2.80564365e-07 4.28574176e-10
      2.40779457e-07 1.38142170e-07 1.74725898e-07 3.09962672e-07 0.
      2.76834101e-07 7.19459763e-08 1.98086553e-07 2.60855870e-07
      2.14287088e-10 3.16017434e-07 9.41981853e-08 3.51847035e-07
      2.81148715e-07 0. 2.76591294e-07 1.28439908e-07 4.58972664e-07
      2.62179043e-07 2.14287088e-10 9.18729341e-08 1.25434235e-04
      5.10241989e-06 1.13750966e-05 -7.95333790e-08 -1.43912553e-06
      -5.71274040e-06 -7.99344489e-05 -3.73053382e-07 7.70462430e-05
      4.55390955e-06 1.25130543e-06 -1.07385674e-07</_></support_vectors>
  <decision_functions>
    <_>
      <sv_count>1</sv_count>
      <rho>-1.1066400523118474e+00</rho>
      <alpha>
        1.</alpha>
      <index>
        0</index></_></decision_functions></my_svm>
</opencv_storage>
