<?xml version="1.0"?>
<opencv_storage>
<my_svm type_id="opencv-ml-svm">
  <svm_type>C_SVC</svm_type>
  <kernel><type>RBF</type>
    <gamma>5.0625000000000009e-01</gamma></kernel>
  <C>2.5000000000000000e+00</C>
  <term_criteria><epsilon>9.9999999747524271e-07</epsilon>
    <iterations>10000</iterations></term_criteria>
  <var_all>5</var_all>
  <var_count>5</var_count>
  <class_count>2</class_count>
  <class_labels type_id="opencv-matrix">
    <rows>1</rows>
    <cols>2</cols>
    <dt>i</dt>
    <data>
      -1 1</data></class_labels>
  <sv_total>578</sv_total>
  <support_vectors>
    <_>
      -6.49218678e-01 1.58721662e+00 -1.15595460e+00 -5.67585826e-01
      2.24603757e-01</_>
    <_>
      1.24727465e-01 1.22413136e-01 3.63115937e-01 -1.38479710e+00
      3.56827050e-01</_>
    <_>
      -1.85250700e+00 2.33318973e+00 -2.11607933e+00 -5.25510311e-01
      1.02089500e+00</_>
    <_>
      -1.85250700e+00 -1.12038863e+00 5.50933778e-01 -2.62928128e+00
      3.17460656e+00</_>
    <_>
      5.93200982e-01 -8.69793713e-01 1.00627732e+00 -2.52234712e-02
      -2.88794607e-01</_>
    <_>
      -1.85250700e+00 1.36964142e+00 -5.15871584e-01 -1.45116961e+00
      1.39808547e+00</_>
    <_>
      2.76310965e-02 -1.19593561e+00 -4.49196070e-01 -1.74881831e-01
      1.08637953e+00</_>
    <_>
      -2.92688668e-01 -1.12038863e+00 -1.76047754e+00 1.29775798e+00
      1.13731194e+00</_>
    <_>
      8.29983056e-01 -1.35905945e+00 9.41642702e-01 5.59874654e-01
      -3.93903315e-01</_>
    <_>
      -6.95498943e-01 1.81344792e-01 9.61243451e-01 3.91517997e-01
      -2.41779894e-01</_>
    <_>
      -3.71185988e-01 -1.09291697e+00 1.42983592e+00 3.82936358e-01
      1.69596851e-01</_>
    <_>
      7.16497123e-01 -8.14610273e-02 6.61140680e-01 -5.60283482e-01
      -4.85789120e-01</_>
    <_>
      -3.87830198e-01 -3.73406768e-01 7.60698795e-01 -9.74629998e-01
      6.79492831e-01</_>
    <_>
      -7.96990871e-01 1.10626042e+00 -1.27386463e+00 4.71012712e-01
      1.93722606e-01</_>
    <_>
      -8.49766672e-01 9.34490681e-01 -2.11607933e+00 1.78863776e+00
      7.79186636e-02</_>
    <_>
      -6.18992485e-02 -9.69294548e-01 -1.83032787e+00 2.63403863e-01
      1.41380191e+00</_>
    <_>
      -1.85250700e+00 -1.12038863e+00 -2.11607933e+00 -1.81114817e+00
      3.98952436e+00</_>
    <_>
      -5.99081635e-01 8.43834281e-01 -7.82572746e-01 -1.74881831e-01
      3.22394013e-01</_>
    <_>
      8.37771714e-01 -3.83344531e-01 -1.64606407e-01 -1.15018703e-01
      -2.14259386e-01</_>
    <_>
      -3.09829533e-01 1.85500205e+00 -2.11607933e+00 7.69118130e-01
      -4.29837853e-01</_>
    <_>
      1.23540187e+00 -1.06835616e+00 4.27297473e-01 3.94018531e-01
      -5.68079293e-01</_>
    <_>
      -1.35113680e+00 2.56630659e+00 -1.31597531e+00 3.15998018e-01
      -2.88794488e-01</_>
    <_>
      -4.59812045e-01 9.94928122e-01 -7.82572746e-01 2.34184712e-01
      -8.50649104e-02</_>
    <_>
      1.06591630e+00 -7.86628604e-01 1.10821998e+00 -5.41210175e-01
      -4.80361074e-01</_>
    <_>
      6.26176953e-01 -3.73406768e-01 -1.21708608e+00 6.80021346e-01
      2.02333014e-02</_>
    <_>
      -1.08610764e-01 7.45294392e-01 6.66890860e-01 -1.02858603e+00
      -2.09074274e-01</_>
    <_>
      6.70945525e-01 -8.88244152e-01 1.80495977e+00 -1.91136211e-01
      -6.16650581e-01</_>
    <_>
      7.67264962e-01 -4.67008889e-01 -9.62776303e-01 -2.41216913e-01
      3.22394013e-01</_>
    <_>
      9.36805785e-01 -3.75558883e-01 -7.07445621e-01 8.44903588e-01
      -5.21218359e-01</_>
    <_>
      -8.76839012e-02 1.94734126e-01 -4.51863110e-01 3.15998018e-01
      -1.00924307e-02</_>
    <_>
      3.18372659e-02 -7.95891345e-01 9.98419166e-01 4.34599847e-01
      -1.53430656e-01</_>
    <_>
      -2.97870845e-01 -5.21888398e-02 9.85098660e-01 -9.16909695e-01
      2.65539259e-01</_>
    <_>
      -1.10973644e+00 2.89822608e-01 2.54598975e-01 9.78292748e-02
      4.58213598e-01</_>
    <_>
      -8.84268209e-02 -7.17471123e-01 1.58810532e+00 -1.40208161e+00
      5.26123405e-01</_>
    <_>
      9.52778459e-01 -8.39785397e-01 1.69393933e+00 -1.22676730e+00
      -2.88794488e-01</_>
    <_>
      -1.52947098e-01 -6.69667423e-01 1.40980232e+00 1.16318002e-01
      -1.33407593e-01</_>
    <_>
      -1.85250700e+00 -3.51182461e-01 -2.11607933e+00 2.72577214e+00
      1.21139538e+00</_>
    <_>
      9.99108851e-01 -8.58351409e-01 6.44185960e-01 8.03445160e-01
      -8.40146303e-01</_>
    <_>
      -8.97516131e-01 -1.12038851e+00 -3.38070482e-01 2.04576540e+00
      5.55227697e-01</_>
    <_>
      4.07788567e-02 -7.31559157e-01 7.93389559e-01 5.63154221e-01
      -1.73395351e-01</_>
    <_>
      -8.24055374e-01 7.39230633e-01 -8.85150135e-01 3.91517997e-01
      3.22394013e-01</_>
    <_>
      4.07788567e-02 1.05269417e-01 -6.61344886e-01 8.72099757e-01
      -2.24683806e-01</_>
    <_>
      -5.25350630e-01 3.90551925e-01 -8.21793497e-01 2.94341445e-01
      3.58346164e-01</_>
    <_>
      2.04396397e-01 4.60287809e-01 -6.45306930e-02 -7.41281629e-01
      -5.37219159e-02</_>
    <_>
      2.79303163e-01 4.11966830e-01 7.81934917e-01 -1.00589907e+00
      -3.32107037e-01</_>
    <_>
      1.04798138e+00 -5.30996978e-01 6.61140680e-01 -1.95166245e-01
      -6.07016683e-01</_>
    <_>
      6.54343784e-01 -2.49375790e-01 4.72492248e-01 -4.63634670e-01
      -2.88794488e-01</_>
    <_>
      -8.49766672e-01 -1.24126387e+00 -5.15871465e-01 -2.62928128e+00
      3.01162291e+00</_>
    <_>
      -1.81273088e-01 1.29711640e+00 -2.11607933e+00 1.46138453e+00
      -4.92523968e-01</_>
    <_>
      -1.85250700e+00 -2.32914114e+00 -2.11607933e+00 1.20971155e+01
      -2.12235975e+00</_>
    <_>
      -1.42580903e+00 -9.40361679e-01 -7.32608065e-02 1.13064969e+00
      1.15465033e+00</_>
    <_>
      1.28214628e-01 -8.51776898e-01 4.52155352e-01 -8.39781985e-02
      3.22394013e-01</_>
    <_>
      8.60477269e-01 -6.55483961e-01 5.58007896e-01 6.12869501e-01
      -7.41106391e-01</_>
    <_>
      2.46251762e-01 4.53800619e-01 9.85098660e-01 -6.88593328e-01
      -5.87281883e-01</_>
    <_>
      -9.40924883e-01 -1.83465147e+00 -1.38871205e+00 -6.21136308e-01
      2.87827301e+00</_>
    <_>
      -1.12763453e+00 3.01106013e-02 -1.88118130e-01 3.21156494e-02
      8.82036150e-01</_>
    <_>
      -4.92859125e-01 2.52262414e-01 8.67358983e-01 -3.82881939e-01
      -9.09811910e-03</_>
    <_>
      -1.85250700e+00 5.71864963e-01 -2.11607933e+00 -2.62928128e+00
      3.25609851e+00</_>
    <_>
      -5.99081635e-01 -5.16012371e-01 -1.44932604e+00 1.05231786e+00
      9.33582544e-01</_>
    <_>
      2.58525252e-01 -8.02295864e-01 1.81425571e+00 -5.62418640e-01
      -1.92290977e-01</_>
    <_>
      -1.85250700e+00 8.13615441e-01 1.75312404e-02 -6.65761709e-01
      1.13731194e+00</_>
    <_>
      8.32426071e-01 -9.61863756e-01 7.69541264e-01 5.09131014e-01
      -5.59320509e-01</_>
    <_>
      7.02245474e-01 -1.81103259e-01 7.52882510e-02 6.06773913e-01
      -7.20908582e-01</_>
    <_>
      1.82038680e-01 3.58094499e-02 4.34976757e-01 -1.13529897e+00
      2.16100410e-01</_>
    <_>
      7.86283433e-01 -6.93235397e-01 1.25277925e+00 -7.46959925e-01
      -3.02580655e-01</_>
    <_>
      1.20462787e+00 -7.37125695e-01 7.93275833e-02 7.82932341e-01
      -8.03087234e-01</_>
    <_>
      -1.50673449e+00 2.17241955e+00 -4.60691959e-01 -1.10586107e+00
      4.06695843e-01</_>
    <_>
      1.15233779e+00 -1.08375978e+00 5.23994267e-01 1.28784096e+00
      -9.86413658e-01</_>
    <_>
      4.35625255e-01 -8.68903220e-01 1.53540158e+00 -2.57244170e-01
      -3.01100314e-01</_>
    <_>
      1.90776920e+00 -9.69294548e-01 -1.15819521e-01 -2.62928128e+00
      6.27988160e-01</_>
    <_>
      3.35290074e-01 -5.44888042e-02 6.47916019e-01 -4.87260073e-01
      -2.55456954e-01</_>
    <_>
      -6.95498943e-01 4.18733619e-02 1.16639829e+00 3.91517997e-01
      -2.41779894e-01</_>
    <_>
      7.94727445e-01 -3.27446848e-01 -8.35912943e-01 3.15998018e-01
      -1.27440631e-01</_>
    <_>
      -1.85250700e+00 -1.64921784e+00 8.84310365e-01 1.31918028e-01
      2.00316215e+00</_>
    <_>
      -4.20020759e-01 -7.75030732e-01 1.99874103e+00 -5.25510311e-01
      1.82693824e-01</_>
    <_>
      -1.67903140e-01 1.94734126e-01 4.44253385e-01 -3.90868902e-01
      -1.00924307e-02</_>
    <_>
      7.86965564e-02 1.68947220e-01 -3.38070601e-01 4.25082296e-01
      -2.20884696e-01</_>
    <_>
      -1.55561805e-01 -1.32494676e+00 1.33052218e+00 8.94380882e-02
      3.60005617e-01</_>
    <_>
      -1.85250700e+00 1.67882752e+00 -1.27386463e+00 1.24608636e+00
      1.93722606e-01</_>
    <_>
      -2.65892595e-01 -1.25845417e-01 1.02356899e+00 -7.65180469e-01
      1.98608920e-01</_>
    <_>
      3.94558907e-02 2.36607000e-01 1.48365885e-01 -2.67500818e-01
      -1.15816653e-01</_>
    <_>
      6.24851465e-01 -6.65328801e-01 1.55498564e+00 -5.50260544e-01
      -4.39793974e-01</_>
    <_>
      -1.85250700e+00 8.83638337e-02 -2.11607933e+00 3.09765077e+00
      7.29852974e-01</_>
    <_>
      -1.85250700e+00 3.90551925e-01 -2.11607933e+00 4.73391676e+00
      -2.88794488e-01</_>
    <_>
      -2.81950027e-01 -1.93593240e+00 2.12543535e+00 1.09667420e+00
      -1.60963647e-03</_>
    <_>
      8.29240441e-01 -5.58178127e-01 7.68016100e-01 -1.46342292e-01
      -5.01999736e-01</_>
    <_>
      -1.85250700e+00 -1.34016180e+00 -2.11607933e+00 -2.62928128e+00
      4.54515076e+00</_>
    <_>
      -6.72812521e-01 1.19046175e+00 -1.64542985e+00 -3.05054020e-02
      4.66203064e-01</_>
    <_>
      3.93631399e-01 -3.27446848e-01 -3.23846489e-01 1.25848734e+00
      -5.38159311e-01</_>
    <_>
      1.60655832e+00 -1.10633337e+00 3.64863038e-01 9.09620106e-01
      -1.04211986e+00</_>
    <_>
      -3.90405357e-02 -1.88106254e-01 1.37373543e+00 -2.00992599e-01
      -3.66818637e-01</_>
    <_>
      -5.99081635e-01 1.07047522e+00 -4.49196070e-01 -1.74881831e-01
      1.67998783e-02</_>
    <_>
      -1.85250700e+00 -2.89371312e-01 -2.11607933e+00 -7.88481772e-01
      2.91994476e+00</_>
    <_>
      5.51322460e-01 -7.64386177e-01 9.52812374e-01 1.94959089e-01
      -4.14381117e-01</_>
    <_>
      3.34320188e-01 -2.45972052e-01 3.52326334e-01 -4.43288311e-02
      -2.10770443e-01</_>
    <_>
      -1.22579432e+00 1.07047522e+00 -1.61601436e+00 2.89311743e+00
      -5.17990172e-01</_>
    <_>
      -8.20274293e-01 -8.93938616e-02 2.37167597e-01 -3.05054020e-02
      5.74059725e-01</_>
    <_>
      6.32917881e-01 -4.69521880e-01 -6.45306930e-02 -2.37815142e-01
      8.96407571e-03</_>
    <_>
      2.82359391e-01 -2.23572358e-01 7.74618566e-01 2.20988885e-01
      -5.13554096e-01</_>
    <_>
      -7.68463373e-01 2.30259057e-02 1.56007397e+00 -8.38233054e-01
      2.56319642e-01</_>
    <_>
      -9.67736125e-01 1.51042557e+00 -1.17478061e+00 -3.05054020e-02
      2.50489503e-01</_>
    <_>
      -6.27785981e-01 -8.69514048e-02 9.37752366e-01 -3.80976528e-01
      2.85069436e-01</_>
    <_>
      -4.52425107e-02 1.10598644e-02 2.09804073e-01 2.48947423e-02
      -7.55891129e-02</_>
    <_>
      -7.38351107e-01 3.71462131e+00 -2.11607933e+00 6.43251240e-01
      -1.30744183e+00</_>
    <_>
      -9.12437975e-01 -9.69294548e-01 -1.11594939e+00 2.89311743e+00
      3.98792505e-01</_>
    <_>
      -1.08116829e+00 1.85500205e+00 -2.11607933e+00 7.69118130e-01
      1.34336054e-01</_>
    <_>
      -1.85250700e+00 8.83638337e-02 -2.11607933e+00 -2.62928128e+00
      3.58206582e+00</_>
    <_>
      -1.85250700e+00 3.11024499e+00 -2.11607933e+00 -2.62928128e+00
      1.54477084e+00</_>
    <_>
      2.88174659e-01 -8.62340391e-01 1.30009484e+00 -1.80195570e+00
      6.79492831e-01</_>
    <_>
      -7.68463373e-01 2.08117175e+00 -3.86124849e-01 -2.23127055e+00
      4.54542786e-01</_>
    <_>
      -1.85250700e+00 1.66714251e+00 4.96504843e-01 -2.02820396e+00
      1.02089500e+00</_>
    <_>
      -8.15189481e-01 2.17241955e+00 -1.01248765e+00 -1.61366773e+00
      4.06695843e-01</_>
    <_>
      -1.85250700e+00 -3.51182461e-01 -2.11607933e+00 -3.98009062e-01
      2.76714778e+00</_>
    <_>
      1.47851372e+00 -9.87922609e-01 3.49994272e-01 1.00188494e+00
      -1.06743181e+00</_>
    <_>
      -1.28758287e+00 1.22413136e-01 -3.13028246e-01 2.74515241e-01
      8.73324275e-01</_>
    <_>
      -5.58648586e-01 1.27355754e-01 -1.34178519e+00 -1.65336318e-02
      9.53298032e-01</_>
    <_>
      -1.85250700e+00 6.37796819e-01 6.60223365e-02 -2.62928128e+00
      2.21152210e+00</_>
    <_>
      4.61509138e-01 -1.49231243e+00 1.81655109e-01 2.27951765e+00
      -5.42672753e-01</_>
    <_>
      4.92418520e-02 2.02986956e-01 -1.84794024e-01 -3.44150931e-01
      9.05638412e-02</_>
    <_>
      -5.33111811e-01 -8.97723675e-01 -1.27386463e+00 2.40869641e+00
      3.86729628e-01</_>
    <_>
      1.64018404e+00 -1.13736546e+00 8.64538923e-02 6.38655066e-01
      -7.83239067e-01</_>
    <_>
      -2.48122528e-01 1.36713997e-01 4.44253147e-01 -6.65761709e-01
      2.24603757e-01</_>
    <_>
      -7.13029325e-01 8.85041714e-01 2.24812388e+00 -1.95989966e+00
      -1.22106671e-01</_>
    <_>
      -5.15519857e-01 1.29711640e+00 -2.11607933e+00 1.29775798e+00
      -1.66556701e-01</_>
    <_>
      1.45842791e+00 -7.89692283e-01 -1.03239395e-01 4.27140415e-01
      -6.92409515e-01</_>
    <_>
      -2.26441547e-01 1.70036405e-01 4.63638455e-02 -2.03226519e+00
      1.04921269e+00</_>
    <_>
      1.24727465e-01 -1.25658607e+00 -3.13028246e-01 6.89343154e-01
      5.63425899e-01</_>
    <_>
      9.83111024e-01 -9.02416945e-01 -2.79775292e-01 1.83692086e+00
      -8.89963508e-01</_>
    <_>
      1.15487933e-01 1.10957243e-01 -6.20558083e-01 5.36205590e-01
      -1.34569332e-01</_>
    <_>
      2.62648374e-01 -1.13927543e+00 1.00932658e+00 -4.43331838e-01
      3.41493607e-01</_>
    <_>
      8.63248110e-01 -1.12038863e+00 1.32881248e+00 -7.26151392e-02
      -4.41591561e-01</_>
    <_>
      -1.54864633e+00 8.02626908e-01 1.76321244e+00 -8.44263494e-01
      2.11268738e-01</_>
    <_>
      3.30329031e-01 -5.53015053e-01 2.12936997e+00 -9.26228642e-01
      -3.76107126e-01</_>
    <_>
      -1.85250700e+00 -2.32914114e+00 -1.15819521e-01 -7.88481772e-01
      3.37833619e+00</_>
    <_>
      -9.88075674e-01 -1.20375085e+00 1.19469535e+00 1.63655907e-01
      9.12506819e-01</_>
    <_>
      7.07681060e-01 -7.08898485e-01 1.40210807e+00 -2.27103159e-01
      -5.61878741e-01</_>
    <_>
      -1.85250700e+00 -2.32914114e+00 -2.11607933e+00 -2.62928128e+00
      -2.12235975e+00</_>
    <_>
      -9.40924883e-01 6.37796819e-01 -6.61344886e-01 1.38700879e+00
      -1.22106671e-01</_>
    <_>
      3.95014405e-01 -6.41055822e-01 3.67001683e-01 -1.10586107e+00
      5.33148468e-01</_>
    <_>
      7.29399264e-01 -7.00582266e-01 9.50187266e-01 -7.20026791e-02
      -4.53485936e-01</_>
    <_>
      1.38307953e+00 -1.09579194e+00 6.74980760e-01 4.95796949e-01
      -8.21807683e-01</_>
    <_>
      7.03497887e-01 -8.89303505e-01 6.29375339e-01 -3.91446471e-01
      -1.17641478e-03</_>
    <_>
      2.27250621e-01 8.83638337e-02 -3.38070601e-01 -4.47592944e-01
      1.59410238e-01</_>
    <_>
      9.49267387e-01 7.05880672e-02 1.84293033e-03 -1.54645801e+00
      3.47759537e-02</_>
    <_>
      -7.68463373e-01 2.30259057e-02 -1.68359065e+00 1.56793788e-01
      1.24743605e+00</_>
    <_>
      -4.35591370e-01 -3.18933189e-01 2.05837584e+00 -1.02858603e+00
      1.09806791e-01</_>
    <_>
      4.70915556e-01 -7.37125695e-01 -3.59753639e-01 -1.37215006e+00
      1.00811744e+00</_>
    <_>
      1.07737221e-01 2.88307905e-01 4.96155806e-02 -6.36235118e-01
      2.82883402e-02</_>
    <_>
      6.01006389e-01 -1.28755653e+00 9.48148310e-01 -2.00992599e-01
      1.01325750e-01</_>
    <_>
      2.50012964e-01 3.96238118e-02 -6.96540117e-01 3.39750022e-01
      -5.22054210e-02</_>
    <_>
      -4.69416916e-01 -1.95401096e+00 6.42899752e-01 -5.98054230e-01
      1.67122352e+00</_>
    <_>
      2.50012964e-01 2.15087712e-01 -5.67491114e-01 -1.35295004e-01
      6.94179162e-03</_>
    <_>
      4.91561234e-01 -1.12823761e+00 1.10511816e+00 8.13252866e-01
      -5.03107309e-01</_>
    <_>
      -2.30427027e-01 8.70497882e-01 -4.68806505e-01 -4.63634670e-01
      3.47759537e-02</_>
    <_>
      3.47052395e-01 -1.41672790e+00 5.68140328e-01 2.02616000e+00
      -5.60872018e-01</_>
    <_>
      1.16186571e+00 -1.39476800e+00 5.34571648e-01 2.61790305e-01
      -2.77545601e-01</_>
    <_>
      -3.17700386e-01 -7.75030851e-01 3.33218396e-01 9.77183163e-01
      1.22822240e-01</_>
    <_>
      9.81324255e-01 -4.37180698e-01 3.19019675e-01 -3.88307810e-01
      -3.68514687e-01</_>
    <_>
      -3.36736768e-01 -1.15437545e-01 9.54086900e-01 -7.45672464e-01
      2.65539259e-01</_>
    <_>
      -9.80558872e-01 1.45477974e+00 -2.11607933e+00 5.72109342e-01
      4.28687632e-01</_>
    <_>
      -2.92688668e-01 -7.57762849e-01 7.28734672e-01 8.06877851e-01
      -3.57312290e-03</_>
    <_>
      4.45693433e-02 3.17046762e-01 4.78852421e-01 -1.30257881e+00
      1.90245256e-01</_>
    <_>
      -1.35113680e+00 9.34490681e-01 -2.11607933e+00 1.78863776e+00
      4.44631606e-01</_>
    <_>
      -2.93428805e-02 -1.71368286e-01 -1.32350624e-01 1.14359713e+00
      -3.64561707e-01</_>
    <_>
      -1.48787415e+00 6.37796521e-01 -7.94511959e-02 -2.19507456e-01
      8.11344504e-01</_>
    <_>
      1.16325355e+00 -4.47849542e-01 1.13246286e+00 -1.07913435e+00
      -5.23159981e-01</_>
    <_>
      8.26059803e-02 -5.16012371e-01 1.25277925e+00 3.41833830e-01
      -4.49633598e-01</_>
    <_>
      8.50531876e-01 -1.00476885e+00 9.45187688e-01 -5.80391467e-01
      -8.15219805e-02</_>
    <_>
      6.41354859e-01 -9.19973731e-01 8.68764162e-01 2.70216376e-01
      -3.74297619e-01</_>
    <_>
      -2.23053902e-01 7.98505783e-01 -1.11594939e+00 -1.89296150e+00
      1.08637953e+00</_>
    <_>
      -4.97452438e-01 1.70036405e-01 -1.46734631e+00 1.54983139e+00
      1.57207847e-01</_>
    <_>
      8.82239401e-01 -4.92465258e-01 3.13856378e-02 6.85751617e-01
      -6.61857545e-01</_>
    <_>
      -1.01689005e+00 -1.42257667e+00 -7.82572746e-01 2.27951765e+00
      9.33582544e-01</_>
    <_>
      6.92910910e-01 2.65027642e-01 5.91964781e-01 -1.04336166e+00
      -4.29837972e-01</_>
    <_>
      -1.24478555e+00 2.28609562e+00 1.27830100e+00 -2.62928128e+00
      1.00143678e-01</_>
    <_>
      -9.77113247e-02 2.79263798e-02 -3.82520676e-01 1.42047775e+00
      -4.72150952e-01</_>
    <_>
      1.42442226e+00 -8.71527731e-01 1.84873223e-01 4.02623892e-01
      -7.32205689e-01</_>
    <_>
      2.19270408e-01 3.68075073e-01 -3.96847814e-01 -3.16872060e-01
      -6.14930205e-02</_>
    <_>
      -1.85250700e+00 2.72304446e-01 1.36263347e+00 -6.81688339e-02
      5.88128090e-01</_>
    <_>
      1.33117393e-01 3.63624275e-01 -5.64059988e-02 -1.02541637e+00
      2.01366499e-01</_>
    <_>
      4.00842100e-01 -1.90056711e-01 6.70799553e-01 -2.30036855e-01
      -3.50600034e-01</_>
    <_>
      -7.91916251e-01 -2.78623533e-02 1.57670820e+00 -5.05281866e-01
      1.34336054e-01</_>
    <_>
      -1.85250700e+00 -2.56993979e-01 -2.11607933e+00 -1.92802429e+00
      3.46564889e+00</_>
    <_>
      9.72766101e-01 -7.21193254e-01 2.86080271e-01 1.14584553e+00
      -9.19744194e-01</_>
    <_>
      1.21390903e+00 -5.80766857e-01 1.69931978e-01 7.23603725e-01
      -9.27268088e-01</_>
    <_>
      -3.20542634e-01 8.43833983e-01 9.95435953e-01 -7.88481772e-01
      -3.90659153e-01</_>
    <_>
      -3.77888829e-01 -8.93938616e-02 7.07816899e-01 4.02623892e-01
      -1.80937603e-01</_>
    <_>
      -1.35935605e+00 5.24307191e-01 1.29419935e+00 2.62982845e-02
      4.18482646e-02</_>
    <_>
      1.51702523e+00 -1.05187631e+00 9.28850591e-01 6.49875939e-01
      -1.14247870e+00</_>
    <_>
      -7.68463373e-01 1.78715122e+00 -2.11607933e+00 -2.41216913e-01
      4.54542786e-01</_>
    <_>
      -4.93955553e-01 -4.34129208e-01 2.01348901e+00 3.09708286e-02
      -2.76965052e-01</_>
    <_>
      -1.85250700e+00 -1.24126375e+00 -1.04927397e+00 -1.15664148e+00
      3.25609851e+00</_>
    <_>
      -3.72013263e-02 1.54218217e-02 1.33264434e+00 -4.71102446e-01
      -3.52020919e-01</_>
    <_>
      -5.89878000e-02 -1.18008710e-01 9.55898464e-02 9.62522566e-01
      -3.93143862e-01</_>
    <_>
      2.55818814e-01 -8.78638029e-01 1.00227439e+00 3.91517997e-01
      -2.41779894e-01</_>
    <_>
      -7.50594556e-01 -5.77490851e-02 5.21625996e-01 -4.00247276e-02
      3.76124889e-01</_>
    <_>
      1.17163062e+00 -1.05131710e+00 7.28734672e-01 1.06400561e+00
      -1.00475800e+00</_>
    <_>
      7.86283135e-01 -2.74636179e-01 -7.28902280e-01 6.07790351e-01
      -3.51237953e-01</_>
    <_>
      6.54343784e-01 -5.74500501e-01 7.77538195e-02 -3.72817308e-01
      6.60890043e-02</_>
    <_>
      2.22128063e-01 -8.28620791e-01 1.88444018e+00 -5.98054230e-01
      -1.62341639e-01</_>
    <_>
      1.88468829e-01 -1.14877790e-01 -5.58354914e-01 6.28771067e-01
      -1.10305861e-01</_>
    <_>
      8.93091500e-01 -7.75030732e-01 9.31935608e-01 8.80894139e-02
      -5.94388664e-01</_>
    <_>
      1.23750842e+00 -4.88623679e-01 1.07774377e-01 6.18534148e-01
      -9.25833762e-01</_>
    <_>
      -1.85250700e+00 -1.53386474e-01 1.08433664e+00 3.26127768e+00
      -6.55507445e-01</_>
    <_>
      -1.85250700e+00 1.75039840e+00 -2.11607933e+00 -2.62928128e+00
      2.46155357e+00</_>
    <_>
      -1.85250700e+00 -1.53386474e-01 -1.04927397e+00 -2.62928128e+00
      3.25609851e+00</_>
    <_>
      1.47591686e+00 -9.57867205e-01 3.54607403e-02 6.50126517e-01
      -7.66445935e-01</_>
    <_>
      -1.16994865e-01 -8.64690900e-01 3.45778972e-01 -8.04818571e-02
      5.57466626e-01</_>
    <_>
      -4.20020759e-01 -1.03404915e+00 1.31293750e+00 -8.76138866e-01
      8.46269786e-01</_>
    <_>
      2.48472735e-01 -4.97792922e-02 -2.87270218e-01 1.75746635e-01
      -9.67065915e-02</_>
    <_>
      -1.85250700e+00 -1.21906233e+00 1.14965081e+00 3.76105607e-01
      1.46993148e+00</_>
    <_>
      -1.31048524e+00 -5.65015793e-01 9.11341012e-01 5.54804504e-01
      6.52766168e-01</_>
    <_>
      6.54343784e-01 -5.44342518e-01 -7.40900695e-01 9.37267840e-01
      -2.31495574e-01</_>
    <_>
      -7.53613532e-01 1.99256289e+00 -3.62426907e-01 -6.11966729e-01
      -3.13911825e-01</_>
    <_>
      3.29927832e-01 -9.85292733e-01 1.27259612e+00 -1.17131256e-01
      -9.46521759e-02</_>
    <_>
      4.03658807e-01 1.18582726e-01 1.08433664e+00 -7.88481772e-01
      -4.72150952e-01</_>
    <_>
      -4.20020759e-01 5.20061255e-01 -2.11069971e-01 -1.74881831e-01
      1.47768766e-01</_>
    <_>
      7.04480767e-01 -8.60506952e-01 2.04221964e-01 2.14699358e-02
      -3.20953690e-02</_>
    <_>
      -2.57238328e-01 3.90551925e-01 -1.02502847e+00 3.82936358e-01
      2.11268738e-01</_>
    <_>
      1.43350017e+00 -9.69294548e-01 3.16669047e-01 5.54804504e-01
      -8.09130609e-01</_>
    <_>
      9.15813446e-02 -7.75030851e-01 3.33218396e-01 -7.47024566e-02
      3.47340345e-01</_>
    <_>
      -2.92688668e-01 -1.48301435e+00 1.95332095e-01 1.46138453e+00
      4.03885812e-01</_>
    <_>
      -7.06518054e-01 -4.64208663e-01 1.69931978e-01 1.57826066e+00
      -2.68564913e-02</_>
    <_>
      -3.04158002e-01 -8.93938616e-02 7.07816899e-01 2.94341445e-01
      -1.80937603e-01</_>
    <_>
      -1.85250700e+00 -2.32914114e+00 -2.11607933e+00 4.73391676e+00
      1.54477084e+00</_>
    <_>
      -1.42580903e+00 2.06866026e+00 -1.09467006e+00 -2.00262618e+00
      1.15465033e+00</_>
    <_>
      -1.62967587e+00 1.29711640e+00 -1.04927397e+00 -1.32026827e+00
      1.46327901e+00</_>
    <_>
      -2.15379983e-01 6.68071508e-01 6.64530415e-03 -1.42712653e+00
      4.22179699e-01</_>
    <_>
      -3.33203435e-01 -1.83465147e+00 3.08478057e-01 1.16388130e+00
      7.66894698e-01</_>
    <_>
      -8.49766612e-01 2.09239230e-01 2.15114164e+00 -1.74881831e-01
      -4.11032051e-01</_>
    <_>
      -1.13626385e+00 2.61042744e-01 -2.11069971e-01 -5.25510311e-01
      1.02089500e+00</_>
    <_>
      -1.16096199e+00 2.17241955e+00 -1.56428349e+00 -5.98054230e-01
      4.06695843e-01</_>
    <_>
      7.73717821e-01 -4.29672897e-01 -2.74570167e-01 1.16919434e+00
      -7.25357533e-01</_>
    <_>
      -1.49740398e-01 -3.79172385e-01 9.03180778e-01 -9.62142050e-01
      4.37712520e-01</_>
    <_>
      7.72467732e-01 -8.48261118e-01 8.16238701e-01 -4.70437765e-01
      -1.25597581e-01</_>
    <_>
      -2.48122528e-01 -1.31378901e+00 -1.95829839e-01 1.29775798e+00
      5.17974377e-01</_>
    <_>
      -2.10593015e-01 -1.02491893e-01 1.34635878e+00 -2.17941523e-01
      -2.78071910e-01</_>
    <_>
      -8.49766672e-01 2.02236772e+00 -2.11607933e+00 -2.62928128e+00
      1.54477084e+00</_>
    <_>
      7.58398026e-02 -1.32465839e-01 3.45778972e-01 6.11182079e-02
      -1.47750899e-01</_>
    <_>
      6.73480034e-01 -4.19127703e-01 1.18205893e+00 -2.68561155e-01
      -6.10718191e-01</_>
    <_>
      5.17606437e-01 7.73751363e-02 4.05460268e-01 4.05248821e-01
      -8.11082840e-01</_>
    <_>
      -9.40924883e-01 -3.51182461e-01 -1.76433399e-01 4.94499832e-01
      7.66894698e-01</_>
    <_>
      -1.85250700e+00 -7.17471123e-01 -1.52340972e+00 -4.47592944e-01
      2.76714778e+00</_>
    <_>
      -1.54864633e+00 -6.80842221e-01 -2.11607933e+00 -1.29051793e+00
      3.21164846e+00</_>
    <_>
      1.52973816e-01 5.71864963e-01 -1.04927397e+00 -2.62928128e+00
      1.30029571e+00</_>
    <_>
      -3.87962954e-03 -1.96811706e-02 3.87039095e-01 -1.61170319e-01
      -7.36835524e-02</_>
    <_>
      -6.95498943e-01 -5.16012371e-01 5.50933778e-01 1.14671803e+00
      4.03070711e-02</_>
    <_>
      4.91561234e-01 -6.33748055e-01 1.41684711e+00 -1.43006578e-01
      -5.03107309e-01</_>
    <_>
      7.06209540e-01 -7.53594756e-01 1.52577305e+00 -1.00429964e+00
      -2.00277597e-01</_>
    <_>
      -6.95498943e-01 1.15764499e+00 -4.74840462e-01 -1.74881831e-01
      4.03070711e-02</_>
    <_>
      -1.85250700e+00 -1.60388958e+00 -1.04927397e+00 3.15998256e-01
      2.76714778e+00</_>
    <_>
      -1.18401349e+00 -1.60388958e+00 2.15114164e+00 -1.64752150e+00
      1.78924644e+00</_>
    <_>
      -1.81273088e-01 -9.89002466e-01 1.71050465e+00 -1.74881831e-01
      1.09806791e-01</_>
    <_>
      -8.35234165e-01 -5.94843984e-01 2.29028988e+00 -4.95021015e-01
      2.16100410e-01</_>
    <_>
      -1.85250700e+00 8.54963112e+00 -2.11607933e+00 -2.62928128e+00
      -2.12235975e+00</_>
    <_>
      7.53038645e-01 -5.30289054e-01 -1.23407495e+00 8.49395096e-01
      -4.33567278e-02</_>
    <_>
      -1.85250700e+00 -2.32914114e+00 -2.11607933e+00 2.27951765e+00
      2.76714778e+00</_>
    <_>
      -1.29047081e-01 5.60532749e-01 -1.11594939e+00 -5.58381796e-01
      5.13390362e-01</_>
    <_>
      -1.85250700e+00 2.74761963e+00 -2.11607933e+00 2.27951765e+00
      -6.55507445e-01</_>
    <_>
      -4.42868173e-02 -1.14020419e+00 1.29419959e+00 4.28658932e-01
      1.77045399e-03</_>
    <_>
      3.10266256e-01 -1.96048483e-01 -2.33481735e-01 5.47000289e-01
      -2.52842128e-01</_>
    <_>
      -1.85250700e+00 3.90551925e-01 -2.11607933e+00 -2.62928128e+00
      3.37833619e+00</_>
    <_>
      8.82806554e-02 -6.62232399e-01 -5.12950718e-02 1.64612401e+00
      -4.07089144e-01</_>
    <_>
      -1.85250700e+00 2.02438165e-03 5.50933778e-01 -2.62928128e+00
      2.41789746e+00</_>
    <_>
      9.78759944e-01 -7.29321599e-01 4.25427318e-01 9.65691924e-01
      -8.92792463e-01</_>
    <_>
      3.32952678e-01 -1.63178384e+00 -1.29545987e+00 1.33551788e+00
      7.92538941e-01</_>
    <_>
      1.73270965e+00 -9.31310117e-01 -1.49343491e-01 8.67209256e-01
      -9.95587826e-01</_>
    <_>
      -3.09829533e-01 1.85500205e+00 -2.11607933e+00 -3.63681763e-01
      1.34336054e-01</_>
    <_>
      -1.60182190e+00 1.20646000e+00 1.08433640e+00 -2.26112127e+00
      9.94701326e-01</_>
    <_>
      -2.35183954e-01 -5.74500501e-01 1.11014593e+00 3.39750022e-01
      -1.11352853e-01</_>
    <_>
      1.46463895e+00 -4.61069167e-01 -5.52056469e-02 5.68875432e-01
      -1.01110804e+00</_>
    <_>
      -9.65126216e-01 7.76669234e-02 8.57758284e-01 1.07482679e-01
      2.14219108e-01</_>
    <_>
      1.13954091e+00 -2.52816349e-01 3.47377583e-02 4.58511412e-01
      -8.99982870e-01</_>
    <_>
      -3.48396480e-01 -9.69294548e-01 1.08433640e+00 -1.89296150e+00
      1.36141431e+00</_>
    <_>
      4.41343427e-01 -2.67151564e-01 3.94050688e-01 6.57455474e-02
      -3.48714918e-01</_>
    <_>
      1.41893730e-01 -1.12706673e+00 1.15506387e+00 5.43809891e-01
      -1.36841446e-01</_>
    <_>
      -1.81273088e-01 2.89822608e-01 -1.07890761e+00 3.70540142e-01
      2.54484236e-01</_>
    <_>
      1.22587629e-01 -1.86352581e-01 -1.76433399e-01 1.16388130e+00
      -4.55482185e-01</_>
    <_>
      2.09202036e-01 1.10957243e-01 7.25411177e-01 -1.43137714e-02
      -5.45836449e-01</_>
    <_>
      -3.80244777e-02 5.71864963e-01 -4.39671069e-01 7.36752391e-01
      -5.15807331e-01</_>
    <_>
      6.32917881e-01 -2.83559978e-01 -3.38070482e-01 1.39784738e-01
      -1.79093897e-01</_>
    <_>
      1.20427978e+00 -7.17471123e-01 2.09009081e-01 6.43251240e-01
      -8.05953920e-01</_>
    <_>
      -1.85250700e+00 1.75039840e+00 -2.11607933e+00 1.97271752e+00
      1.69596851e-01</_>
    <_>
      -1.65967238e+00 5.99759221e-01 -2.69685537e-01 2.02718064e-01
      8.39553535e-01</_>
    <_>
      -4.50073004e-01 -5.79408586e-01 2.69573426e+00 -1.57718301e-01
      -4.29837972e-01</_>
    <_>
      -8.18754137e-01 -6.46856785e-01 2.85290107e-02 8.62544656e-01
      5.99633992e-01</_>
    <_>
      -7.38351107e-01 2.22669750e-01 -3.38070601e-01 -1.17482233e+00
      1.13731194e+00</_>
    <_>
      -1.10973644e+00 -1.52330613e+00 2.03260756e+00 -2.08385921e+00
      1.95222998e+00</_>
    <_>
      1.21557891e+00 -1.03018320e+00 5.11127532e-01 4.47876006e-01
      -6.44560933e-01</_>
    <_>
      2.22128063e-01 -1.20375085e+00 3.67001683e-01 1.63655907e-01
      4.06695843e-01</_>
    <_>
      -5.54843009e-01 -7.93314338e-01 2.02563524e+00 1.42746314e-01
      -5.15094697e-02</_>
    <_>
      -1.85250700e+00 3.11024499e+00 -2.11607933e+00 1.05231786e+00
      -2.88794488e-01</_>
    <_>
      1.10390067e+00 -1.00649405e+00 8.50871384e-01 6.83038890e-01
      -8.51682305e-01</_>
    <_>
      -9.93015289e-01 -3.08797657e-01 6.27134144e-01 3.15998018e-01
      4.97019291e-01</_>
    <_>
      -1.03947425e+00 1.78715122e+00 -8.18613410e-01 -1.03723836e+00
      4.54542786e-01</_>
    <_>
      4.99600023e-01 -7.17471123e-01 1.83505106e+00 -6.29400194e-01
      -4.01977479e-01</_>
    <_>
      -8.77620578e-01 2.39457965e-01 -1.00482380e+00 6.43251240e-01
      6.27988160e-01</_>
    <_>
      1.42349136e+00 -1.12382245e+00 2.02403799e-01 3.41099799e-01
      -5.38826108e-01</_>
    <_>
      -1.81273088e-01 -2.56993830e-01 5.50933778e-01 5.26375294e-01
      -2.01481745e-01</_>
    <_>
      9.18885827e-01 -4.70456421e-01 3.76706839e-01 -1.13213591e-01
      -4.63858545e-01</_>
    <_>
      -1.81273088e-01 -8.78638029e-01 2.84232527e-01 5.61438143e-01
      3.22394013e-01</_>
    <_>
      7.92758703e-01 -7.27358639e-01 4.37103771e-02 1.52663434e+00
      -8.62486720e-01</_>
    <_>
      3.38362083e-02 -1.74928784e-01 5.77339709e-01 4.32642668e-01
      -3.79565120e-01</_>
    <_>
      -3.85082215e-01 3.24217856e-01 2.25688159e-01 2.44161785e-01
      -1.54631302e-01</_>
    <_>
      -1.41949937e-01 -9.21299934e-01 1.27259612e+00 3.15998018e-01
      -8.36675707e-03</_>
    <_>
      3.75804693e-01 -8.90150011e-01 1.18593657e+00 9.78290513e-02
      -2.59690374e-01</_>
    <_>
      7.51294017e-01 -8.86651933e-01 1.15506387e+00 -1.88441932e-01
      -3.79966229e-01</_>
    <_>
      2.09202036e-01 3.14298719e-01 -6.20558083e-01 2.60945916e-01
      -2.03113869e-01</_>
    <_>
      -3.66965771e-01 -2.13824257e-01 9.95435953e-01 -8.56659472e-01
      3.90303820e-01</_>
    <_>
      1.51928067e+00 -9.93151486e-01 1.76616192e-01 7.29370415e-01
      -8.78537655e-01</_>
    <_>
      -4.20020759e-01 6.23668611e-01 1.69931978e-01 -3.15133214e-01
      -2.68564913e-02</_>
    <_>
      9.02274251e-01 -5.95710278e-01 7.85396457e-01 -4.44596022e-01
      -3.89539838e-01</_>
    <_>
      6.16703391e-01 -3.69001836e-01 -1.69041497e-03 6.43251240e-01
      -5.14548779e-01</_>
    <_>
      3.75804842e-01 -8.78638029e-01 1.75312404e-02 -1.12552112e-02
      3.22394013e-01</_>
    <_>
      -5.07367671e-01 1.91549867e-01 -9.45195556e-01 6.45715445e-02
      6.50348723e-01</_>
    <_>
      -1.00512087e+00 -3.08089592e-02 -3.13028246e-01 4.81929213e-01
      6.66725457e-01</_>
    <_>
      -1.00682247e+00 6.85458362e-01 -3.80914241e-01 -1.20986962e+00
      1.05876541e+00</_>
    <_>
      3.11680824e-01 -7.63850093e-01 1.56785238e+00 -1.92539319e-01
      -3.28367829e-01</_>
    <_>
      5.85662901e-01 -2.80057341e-01 4.04795945e-01 9.40933004e-02
      -4.64615792e-01</_>
    <_>
      -6.72812521e-01 8.70497882e-01 -2.11607933e+00 2.56827044e+00
      -3.96651268e-01</_>
    <_>
      4.97665614e-01 -7.14323342e-01 -1.11594939e+00 1.16736782e+00
      5.49990125e-02</_>
    <_>
      -7.38351107e-01 6.92740202e-01 -3.38070601e-01 -9.93015051e-01
      7.29852974e-01</_>
    <_>
      2.26344839e-01 -8.03459644e-01 1.29899824e+00 3.33956808e-01
      -3.78236711e-01</_>
    <_>
      1.90112144e-01 -7.17471123e-01 2.54598975e-01 9.15962338e-01
      -2.20884696e-01</_>
    <_>
      -2.52389520e-01 -1.30240440e-01 9.69740450e-02 1.90666825e-01
      1.40337765e-01</_>
    <_>
      -4.69416916e-01 -4.53490704e-01 9.18797553e-01 -1.10586107e+00
      7.86054194e-01</_>
    <_>
      2.09866658e-01 -5.54589629e-01 -1.86750740e-01 1.44397724e+00
      -4.05830681e-01</_>
    <_>
      1.96102247e-01 1.27355754e-01 -2.23360375e-01 2.20988885e-01
      -2.29647279e-01</_>
    <_>
      1.24833655e+00 -5.37857294e-01 3.90270084e-01 6.82679236e-01
      -1.06198478e+00</_>
    <_>
      1.20670068e+00 -3.00895452e-01 -1.27120361e-01 3.65917861e-01
      -7.96391666e-01</_>
    <_>
      8.82239401e-01 -2.09899828e-01 7.24116385e-01 2.39497140e-01
      -9.47607994e-01</_>
    <_>
      2.19270408e-01 -7.10811496e-01 1.32238364e+00 -5.60283482e-01
      -8.79367290e-04</_>
    <_>
      -1.82260368e-02 1.91549867e-01 3.05408090e-02 -6.53789222e-01
      2.03137636e-01</_>
    <_>
      1.57933164e+00 -8.74759853e-01 4.93885458e-01 4.81374681e-01
      -1.02418160e+00</_>
    <_>
      8.24819040e-03 3.62513691e-01 -7.96320319e-01 5.58907568e-01
      -1.56475440e-01</_>
    <_>
      7.70044744e-01 1.39790755e-02 -1.13133597e+00 7.69117892e-01
      -4.29837972e-01</_>
    <_>
      3.15580219e-01 -5.65015793e-01 1.48799229e+00 -2.41216913e-01
      -4.04424667e-01</_>
    <_>
      -5.99081635e-01 1.92037928e+00 -2.11607933e+00 5.92117906e-01
      -1.74196661e-01</_>
    <_>
      1.52973667e-01 5.16076386e-01 8.38150561e-01 -1.26992166e+00
      -2.04168290e-01</_>
    <_>
      4.11745280e-01 -2.23572358e-01 9.81097043e-01 -7.29101181e-01
      -2.29647279e-01</_>
    <_>
      1.04001307e+00 -1.07389808e+00 1.88444018e+00 -7.41281629e-01
      -5.23866951e-01</_>
    <_>
      1.22587629e-01 -1.01050198e+00 1.15707326e+00 -6.33181036e-02
      1.00143678e-01</_>
    <_>
      3.43274772e-01 -1.85149595e-01 8.04007947e-01 -1.56966493e-01
      -4.09247696e-01</_>
    <_>
      -1.16096199e+00 2.29746318e+00 -1.74821544e+00 7.90214762e-02
      6.94883317e-02</_>
    <_>
      -5.99081635e-01 1.29711640e+00 -2.11607933e+00 -1.74881831e-01
      6.27988160e-01</_>
    <_>
      2.96222419e-01 2.02454394e-03 -2.11069852e-01 5.26375294e-01
      -3.76107007e-01</_>
    <_>
      2.42771178e-01 -5.43074071e-01 -2.05383435e-01 1.10726702e+00
      -2.61427879e-01</_>
    <_>
      3.90464723e-01 -3.96727532e-01 -1.15819521e-01 3.74128431e-01
      -1.44039229e-01</_>
    <_>
      -3.81821126e-01 3.03771973e+00 -1.90271819e+00 5.12350023e-01
      -1.14445829e+00</_>
    <_>
      1.93901733e-01 3.35048020e-01 -1.46293318e+00 3.76105607e-01
      1.22822240e-01</_>
    <_>
      5.82719505e-01 -9.30441737e-01 1.69931978e-01 1.05620943e-01
      7.79186636e-02</_>
    <_>
      6.57787547e-02 -6.26376748e-01 8.06039274e-01 -6.81690574e-02
      4.60303165e-02</_>
    <_>
      -1.43469858e+00 2.43032169e+00 -1.44932604e+00 -7.88481772e-01
      4.75191206e-01</_>
    <_>
      -1.08116829e+00 1.85500205e+00 -8.85150135e-01 -1.49648154e+00
      6.98509991e-01</_>
    <_>
      -6.62815094e-01 -7.61860371e-01 2.22346735e+00 1.16318002e-01
      -7.12527484e-02</_>
    <_>
      1.57706070e+00 -4.51046944e-01 -3.11179496e-02 8.99804104e-03
      -8.32294285e-01</_>
    <_>
      1.76848441e-01 1.31533563e-01 3.60432893e-01 -3.50196064e-01
      -2.01481745e-01</_>
    <_>
      1.01246548e+00 -9.20728505e-01 1.52725112e+00 -7.22738743e-01
      -4.52505589e-01</_>
    <_>
      2.11958393e-01 -4.09357727e-01 1.17846620e+00 4.02623892e-01
      -6.12364829e-01</_>
    <_>
      1.66359544e+00 -1.19887900e+00 1.69931978e-01 -1.43006578e-01
      -4.07857209e-01</_>
    <_>
      -9.67736125e-01 3.43020916e+00 -2.11607933e+00 -1.32989335e+00
      3.47759537e-02</_>
    <_>
      -7.38351107e-01 1.90149260e+00 -2.11607933e+00 1.46138453e+00
      -4.92523968e-01</_>
    <_>
      4.61509138e-01 1.81344792e-01 -1.13133597e+00 1.22223794e+00
      -5.42672753e-01</_>
    <_>
      7.52651691e-01 -7.82648921e-01 1.49223244e+00 -2.47070044e-01
      -5.76412559e-01</_>
    <_>
      -2.51493007e-01 8.70497882e-01 -3.67952973e-01 -3.05054020e-02
      -2.11753830e-01</_>
    <_>
      -1.08610764e-01 -9.10170794e-01 1.53656900e+00 -6.81688339e-02
      3.00865807e-02</_>
    <_>
      -4.53334391e-01 2.00805813e-01 -1.37179661e+00 7.95461953e-01
      4.36103344e-01</_>
    <_>
      5.96044898e-01 -9.37670231e-01 6.74980760e-01 -2.31960908e-01
      9.69281420e-03</_>
    <_>
      7.93613374e-01 -6.67106450e-01 9.95435953e-01 -9.93015051e-01
      -8.50649104e-02</_>
    <_>
      8.91835153e-01 -8.40466857e-01 1.58966529e+00 -2.26553455e-01
      -6.94108844e-01</_>
    <_>
      7.57364988e-01 -4.66337621e-01 8.43209028e-01 9.40933004e-02
      -6.65554464e-01</_>
    <_>
      -6.18992485e-02 5.84815919e-01 1.69931978e-01 -1.05145299e+00
      1.04112402e-01</_>
    <_>
      1.08408964e+00 -6.97325230e-01 3.98533076e-01 3.15998018e-01
      -6.55507505e-01</_>
    <_>
      6.89651430e-01 -1.10336399e+00 5.88497221e-01 -1.40312940e-01
      4.69286740e-02</_>
    <_>
      -5.99081635e-01 -1.64921784e+00 1.88444018e+00 -1.70888150e+00
      1.54477084e+00</_>
    <_>
      4.17848468e-01 -8.92322123e-01 -9.08375263e-01 -1.28572449e-01
      7.83668160e-01</_>
    <_>
      5.22404313e-01 -3.88732627e-02 4.10564512e-01 8.58549535e-01
      -9.64318573e-01</_>
    <_>
      -6.12003624e-01 1.38209268e-01 3.58468771e-01 -8.07459176e-01
      5.99633992e-01</_>
    <_>
      9.85437512e-01 -4.81802404e-01 -2.59723864e-03 1.26071024e+00
      -1.01530147e+00</_>
    <_>
      3.96630108e-01 9.28642135e-03 -4.71005857e-01 1.23315960e-01
      -1.34569332e-01</_>
    <_>
      -2.22035006e-01 -6.48680329e-01 1.78686643e+00 -1.07283294e+00
      3.22393805e-01</_>
    <_>
      1.86964765e-01 -1.03843927e+00 5.96137404e-01 3.65917861e-01
      1.15211353e-01</_>
    <_>
      -3.20542634e-01 3.90551925e-01 -1.44932604e+00 2.96513326e-02
      6.27988160e-01</_>
    <_>
      -6.42303169e-01 6.71899438e-01 -7.36589730e-01 -3.44150931e-01
      5.33148468e-01</_>
    <_>
      -4.20020759e-01 3.02390575e+00 -2.11607933e+00 4.09499168e-01
      -9.58191335e-01</_>
    <_>
      -1.81273088e-01 -2.32914114e+00 5.50933778e-01 2.27951765e+00
      3.22394013e-01</_>
    <_>
      -1.01689005e+00 1.52375758e+00 -1.61601436e+00 1.51251769e+00
      -2.88794488e-01</_>
    <_>
      -2.05774587e-02 -8.64690900e-01 2.03830647e+00 -2.22081706e-01
      -2.18272701e-01</_>
    <_>
      -8.29652175e-02 5.50534010e-01 1.84293033e-03 -6.80199325e-01
      3.47759537e-02</_>
    <_>
      4.61509138e-01 -9.34426606e-01 -1.29545987e+00 3.78991723e+00
      -9.94011879e-01</_>
    <_>
      -1.85250700e+00 -5.16012371e-01 -2.11607933e+00 -1.40208161e+00
      3.37833619e+00</_>
    <_>
      7.78797150e-01 -8.63207340e-01 1.17512822e+00 -2.27103159e-01
      -4.05830681e-01</_>
    <_>
      -5.35380701e-03 -8.26152861e-01 2.20027089e+00 -5.94713449e-01
      -1.44039229e-01</_>
    <_>
      -5.65541983e-02 -5.43074071e-01 7.49964535e-01 4.47876006e-01
      -1.51961371e-01</_>
    <_>
      -9.58816782e-02 -1.05742447e-01 9.20811474e-01 5.95477104e-01
      -5.69851935e-01</_>
    <_>
      -1.81273088e-01 -2.56993979e-01 1.69393933e+00 -5.25510311e-01
      -2.01481745e-01</_>
    <_>
      -7.68463373e-01 1.19910944e+00 -1.68359065e+00 5.54804504e-01
      2.56319642e-01</_>
    <_>
      1.21947193e+00 -1.07147956e+00 2.42608532e-01 7.75665760e-01
      -6.59747064e-01</_>
    <_>
      7.41995931e-01 -1.99031889e-01 2.33876273e-01 -5.69645464e-01
      -2.24683806e-01</_>
    <_>
      -5.08628309e-01 -5.34704506e-01 5.23438692e-01 2.55270511e-01
      3.72801185e-01</_>
    <_>
      7.25968242e-01 7.97298923e-02 -1.72969788e-01 -4.20321763e-01
      -2.88794488e-01</_>
    <_>
      7.57364988e-01 -1.13694692e+00 7.59861916e-02 1.94959089e-01
      8.79653841e-02</_>
    <_>
      9.64179218e-01 -8.62340391e-01 4.15042415e-02 3.49090964e-01
      -3.09396327e-01</_>
    <_>
      -7.38350987e-01 1.12443745e+00 -1.35407543e+00 1.75746858e-01
      3.22394013e-01</_>
    <_>
      1.13650516e-01 1.72607563e-02 7.07816899e-01 1.13871023e-01
      -4.68555778e-01</_>
    <_>
      9.17493880e-01 -1.24727416e+00 1.59711015e+00 -3.51164669e-01
      -3.79966229e-01</_>
    <_>
      1.13650516e-01 -8.35976183e-01 -2.11607933e+00 1.41325903e+00
      7.53821135e-01</_>
    <_>
      -5.48944652e-01 -1.13247621e+00 1.56439853e+00 -1.25793889e-01
      5.17974138e-01</_>
    <_>
      1.26585811e-01 2.39453626e+00 -2.21096307e-01 -1.46667111e+00
      -8.67815077e-01</_>
    <_>
      -6.18992485e-02 -5.80766857e-01 5.98559082e-01 4.32404078e-04
      1.69596851e-01</_>
    <_>
      -7.54988566e-02 8.38096380e-01 -1.30584741e+00 -1.95401832e-02
      1.05770312e-01</_>
    <_>
      5.22404313e-01 1.96511114e+00 -2.11607933e+00 8.58549535e-01
      -1.15732539e+00</_>
    <_>
      1.21523726e+00 -7.89223611e-01 -5.81633449e-01 1.20361626e+00
      -6.82299376e-01</_>
    <_>
      -6.16251826e-01 6.51344359e-01 7.59861916e-02 1.94959089e-01
      -1.12973168e-01</_>
    <_>
      -9.88075674e-01 -7.83607438e-02 9.18797553e-01 1.63655907e-01
      2.80243009e-01</_>
    <_>
      -1.85250700e+00 -5.16012371e-01 1.88444018e+00 3.50671744e+00
      -8.99982870e-01</_>
    <_>
      1.52973667e-01 -8.22849512e-01 -1.46592736e-01 9.95677829e-01
      2.15012729e-02</_>
    <_>
      4.42922622e-01 -6.25237167e-01 -3.80914241e-01 7.41821468e-01
      -8.99741724e-02</_>
    <_>
      -3.90405357e-02 5.64149320e-01 -7.54200339e-01 6.60658121e-01
      -3.27806622e-01</_>
    <_>
      -1.95407830e-02 -3.40548277e-01 1.32522786e+00 -9.57077295e-02
      -3.08510214e-01</_>
    <_>
      6.47160888e-01 -1.78323612e-01 3.89285088e-02 8.30788970e-01
      -7.77394950e-01</_>
    <_>
      -7.72632837e-01 -1.49231243e+00 3.45778972e-01 1.44879794e+00
      6.98509991e-01</_>
    <_>
      5.96044898e-01 -1.00091887e+00 1.14015746e+00 6.24224901e-01
      -5.87281883e-01</_>
    <_>
      1.46907043e+00 -1.13927543e+00 4.84258533e-01 6.84158027e-01
      -8.61783624e-01</_>
    <_>
      -8.38688202e-03 -7.83607438e-02 2.75035769e-01 7.90214762e-02
      -9.91153270e-02</_>
    <_>
      1.19931149e+00 2.16426492e+00 -2.11607933e+00 -6.81688339e-02
      -1.32515752e+00</_>
    <_>
      -1.18401349e+00 -8.78638029e-01 -2.11607933e+00 3.26127768e+00
      8.11344981e-01</_>
    <_>
      -2.93427315e-02 4.18023437e-01 -4.99707788e-01 4.94499832e-01
      -2.70273715e-01</_>
    <_>
      1.74030769e+00 -9.19745445e-01 3.13386083e-01 5.60444295e-01
      -1.06824529e+00</_>
    <_>
      3.95014405e-01 -1.01618588e+00 3.67001683e-01 -9.02473927e-02
      2.80243009e-01</_>
    <_>
      -1.16096199e+00 1.79728961e+00 -1.56428349e+00 9.25366044e-01
      -9.91153270e-02</_>
    <_>
      5.67900598e-01 1.09204389e-01 -4.68451269e-02 2.90607661e-01
      -6.04926527e-01</_>
    <_>
      -3.09829533e-01 1.22738087e+00 -1.03901625e+00 -2.22081706e-01
      -6.70753140e-03</_>
    <_>
      4.61509287e-01 1.81344956e-01 -2.11607933e+00 3.60111713e+00
      -1.27609885e+00</_>
    <_>
      1.31404126e+00 -6.11440301e-01 -4.31649983e-01 2.02115941e+00
      -1.35033226e+00</_>
    <_>
      9.36179101e-01 -2.69255221e-01 -3.29685584e-02 2.46287286e-01
      -6.03429914e-01</_>
    <_>
      -9.31623042e-01 2.24040031e-01 -6.46500647e-01 7.55670443e-02
      7.96376765e-01</_>
    <_>
      7.01642990e-01 3.13473120e-02 -1.53560236e-01 -1.28572449e-01
      -3.92581224e-01</_>
    <_>
      4.11745280e-01 -7.49964535e-01 -5.12950718e-02 1.64612401e+00
      -5.84530890e-01</_>
    <_>
      1.35069132e+00 -8.18200409e-01 -1.15819521e-01 8.47784638e-01
      -7.98118234e-01</_>
    <_>
      6.71874344e-01 -5.79408586e-01 1.01719475e+00 -4.66663629e-01
      -3.27260941e-01</_>
    <_>
      -1.81273088e-01 -1.13094948e-01 2.54598975e-01 -1.53843713e+00
      8.65672529e-01</_>
    <_>
      -6.42303169e-01 -4.53490704e-01 -4.60691959e-01 9.25366044e-01
      5.33148468e-01</_>
    <_>
      1.06455564e+00 -9.84129250e-01 7.93389559e-01 2.08896846e-01
      -5.75497389e-01</_>
    <_>
      -1.14423797e-01 -1.53386638e-01 4.44253147e-01 7.08701968e-01
      -3.62137020e-01</_>
    <_>
      -1.96605667e-01 1.65990070e-01 5.26465535e-01 -1.97399482e-01
      -1.03755951e-01</_>
    <_>
      8.34261239e-01 -8.19646418e-01 7.93389320e-01 5.41473687e-01
      -6.83581352e-01</_>
    <_>
      4.75283116e-01 3.90551925e-01 -6.87322259e-01 -1.84036720e+00
      6.27988398e-01</_>
    <_>
      1.00530291e+00 -9.69294548e-01 1.32436728e+00 2.14699358e-02
      -6.92178905e-01</_>
    <_>
      1.73054969e+00 -1.15456927e+00 5.57789683e-01 1.11856771e+00
      -1.29277754e+00</_>
    <_>
      1.82420754e+00 -8.26834381e-01 1.69931978e-01 3.86123717e-01
      -1.03968310e+00</_>
    <_>
      -6.68050051e-02 -1.28597116e+00 -1.02004647e+00 1.80881047e+00
      4.89842921e-01</_>
    <_>
      -3.77888829e-01 -4.09357727e-01 -2.33481854e-01 3.86765838e+00
      -1.25950551e+00</_>
    <_>
      7.22096503e-01 2.30259057e-02 2.62608021e-01 -4.40222353e-01
      -4.37461853e-01</_>
    <_>
      -4.40196812e-01 -6.43697500e-01 8.13878536e-01 2.74515241e-01
      2.53527522e-01</_>
    <_>
      -1.85250700e+00 2.02236772e+00 1.08433640e+00 -2.62928128e+00
      8.11344743e-01</_>
    <_>
      -2.48122528e-01 7.16915071e-01 -1.47599614e+00 2.67222118e+00
      -9.48878050e-01</_>
    <_>
      -2.53935426e-01 -1.21853873e-01 -9.56508458e-01 5.72109342e-01
      4.28687632e-01</_>
    <_>
      1.52973667e-01 -1.16873872e+00 1.08433640e+00 3.15998018e-01
      2.90236361e-02</_>
    <_>
      -1.31048524e+00 -1.44707847e+00 9.11341012e-01 5.54804504e-01
      1.24743605e+00</_>
    <_>
      1.08886480e+00 -5.88537574e-01 1.75312404e-02 8.39603245e-01
      -8.18491101e-01</_>
    <_>
      -9.26900566e-01 1.81344792e-01 1.57670796e+00 -5.90241730e-01
      1.34336054e-01</_>
    <_>
      -8.29652175e-02 3.37224782e-01 2.37167597e-01 -1.74881831e-01
      -1.80937603e-01</_>
    <_>
      1.44598091e+00 -1.18400717e+00 3.57926309e-01 1.43985438e+00
      -1.13319957e+00</_>
    <_>
      1.05016232e+00 -6.11440301e-01 -8.52757335e-01 8.34758952e-02
      7.15815113e-04</_>
    <_>
      1.81845880e+00 -9.92682636e-01 2.42949277e-01 9.52814937e-01
      -1.23936522e+00</_>
    <_>
      -1.30306029e+00 3.53295833e-01 5.14399290e-01 1.94959089e-01
      3.89373541e-01</_>
    <_>
      8.94726753e-01 -1.13694692e+00 1.17201877e+00 6.04713000e-02
      -4.47870970e-01</_>
    <_>
      1.67939872e-01 -2.18334541e-01 3.34534720e-02 4.47876006e-01
      -2.06694618e-01</_>
    <_>
      2.76310965e-02 1.63910896e-01 2.17557266e-01 -6.35081708e-01
      9.31983590e-02</_>
    <_>
      -3.22903186e-01 1.54296422e+00 -1.84485757e+00 1.16318002e-01
      -9.09811910e-03</_>
    <_>
      7.35209882e-01 -1.27635670e+00 9.81097043e-01 3.07125902e+00
      -1.64918172e+00</_>
    <_>
      7.86965564e-02 -3.95137280e-01 7.28734434e-01 3.15998018e-01
      -2.75212497e-01</_>
    <_>
      1.03911626e+00 -3.55782390e-01 -3.29800785e-01 3.15998018e-01
      -5.19056141e-01</_>
    <_>
      -7.72632837e-01 -3.20752352e-01 -3.92778546e-01 5.42557955e-01
      6.98509991e-01</_>
    <_>
      -5.81427813e-01 2.11430097e+00 -9.89172459e-01 -7.62555063e-01
      -1.59670174e-01</_>
    <_>
      -4.20020759e-01 9.73343313e-01 -6.87322259e-01 1.31528950e+00
      -6.81701243e-01</_>
    <_>
      4.11745280e-01 1.27355754e-01 -5.12950718e-02 -9.66623724e-01
      1.25236437e-01</_>
    <_>
      3.15580219e-01 -7.12026298e-01 4.63638455e-02 9.52815175e-01
      -2.39238694e-01</_>
    <_>
      -1.01689005e+00 2.07417154e+00 -1.54457641e+00 5.26375115e-01
      -2.01481745e-01</_>
    <_>
      -6.53578341e-01 9.81789708e-01 -1.24640107e+00 8.92248333e-01
      -4.96338494e-02</_>
    <_>
      3.18374097e-01 1.38209268e-01 5.23438692e-01 -8.07459176e-01
      -1.56475440e-01</_>
    <_>
      2.18369856e-01 2.72304446e-01 4.92955267e-01 -8.68516505e-01
      -1.29354060e-01</_>
    <_>
      1.82038680e-01 -7.52507508e-01 1.13071930e+00 7.85535336e-01
      -5.27955115e-01</_>
    <_>
      -7.01821446e-01 3.45966697e-01 -8.04433644e-01 2.67714560e-01
      5.22783518e-01</_>
    <_>
      -2.21079681e-02 -1.29306746e+00 1.56693888e+00 7.60127604e-01
      -2.01481745e-01</_>
    <_>
      1.43111444e+00 -9.88447368e-01 6.44842625e-01 7.93050289e-01
      -1.06354046e+00</_>
    <_>
      1.41222894e+00 -1.14849913e+00 6.54306471e-01 4.91040587e-01
      -7.95749128e-01</_>
    <_>
      -7.96990871e-01 -3.88732627e-02 1.29826427e-01 2.12654978e-01
      4.51065212e-01</_>
    <_>
      1.58111894e+00 -7.13808358e-01 2.11495638e-01 5.39125025e-01
      -1.03333318e+00</_>
    <_>
      -9.40924883e-01 3.08137059e-01 5.50933778e-01 2.71372616e-01
      1.00143678e-01</_>
    <_>
      5.17606437e-01 -9.44570124e-01 2.53907061e+00 -1.15664172e+00
      -3.22132111e-01</_>
    <_>
      -2.14160029e-02 -4.37180847e-01 3.88593793e-01 5.98867089e-02
      1.09806575e-01</_>
    <_>
      3.35290074e-01 -1.04346800e+00 9.38862860e-01 -3.53383660e-01
      2.11268738e-01</_>
    <_>
      1.11156797e+00 -6.18642330e-01 2.99328774e-01 -6.84285522e-01
      -1.85007736e-01</_>
    <_>
      1.55302620e+00 -6.04958296e-01 -2.59723864e-03 8.16139817e-01
      -1.12600732e+00</_>
    <_>
      5.34969985e-01 -9.23041224e-01 1.25850844e+00 4.76285189e-01
      -5.75678885e-01</_>
    <_>
      -2.69232869e-01 3.77823973e+00 -1.83534110e+00 -1.59584999e+00
      -7.06975996e-01</_>
    <_>
      6.03183627e-01 -2.35849649e-01 -6.33343905e-02 1.06305146e+00
      -7.75250554e-01</_>
    <_>
      1.00011623e+00 -8.75512004e-01 1.40161896e+00 -1.53723389e-01
      -6.99766099e-01</_>
    <_>
      2.50723362e+00 -7.52507508e-01 -7.24594176e-01 1.21238732e+00
      -1.59089160e+00</_>
    <_>
      -1.85250700e+00 8.54963112e+00 -2.11607933e+00 -2.62928128e+00
      -2.12235975e+00</_>
    <_>
      -4.38385963e-01 -3.76540929e-01 1.16639829e+00 9.57917809e-01
      -4.29837972e-01</_>
    <_>
      -1.33523554e-01 5.38280532e-02 1.75312404e-02 1.75746635e-01
      -2.68564913e-02</_>
    <_>
      5.86591125e-01 -4.91510630e-01 1.12758517e+00 -9.37735677e-01
      -1.40126899e-01</_>
    <_>
      2.19823107e-01 -2.25911707e-01 1.72441959e+00 -4.69409704e-01
      -5.57717383e-01</_>
    <_>
      1.82038680e-01 -5.94843984e-01 1.13071930e+00 3.85441557e-02
      -2.62221098e-01</_>
    <_>
      -1.01689005e+00 2.20368075e+00 -2.11607933e+00 1.05231786e+00
      -2.88794488e-01</_>
    <_>
      -1.61931157e+00 7.06795454e-01 -2.55372584e-01 -2.31960908e-01
      9.47795987e-01</_>
    <_>
      3.75804842e-01 -5.16012371e-01 5.50933778e-01 -9.93015051e-01
      3.22394013e-01</_>
    <_>
      -4.69416916e-01 2.17241955e+00 -1.01248765e+00 -1.10586107e+00
      -9.91153270e-02</_>
    <_>
      -1.81273088e-01 4.18733619e-02 1.16639829e+00 -9.30081725e-01
      4.03070711e-02</_>
    <_>
      7.04480767e-01 -9.14900780e-01 1.08433616e+00 -4.20321971e-01
      -1.78780675e-01</_>
    <_>
      -1.20972466e+00 -2.37069488e-01 3.45778972e-01 7.69117892e-01
      5.10451972e-01</_>
    <_>
      1.50360322e+00 -8.19434047e-01 4.31190163e-01 1.03729069e+00
      -1.25422275e+00</_>
    <_>
      9.60937083e-01 -3.72527331e-01 -3.89236242e-01 7.60968328e-01
      -6.44954562e-01</_>
    <_>
      7.79686511e-01 -7.65317619e-01 7.84297466e-01 4.08037901e-01
      -6.09668434e-01</_>
    <_>
      1.04429853e+00 -7.33587742e-01 1.15545678e+00 -6.00311160e-01
      -4.92523968e-01</_>
    <_>
      1.37665689e+00 -8.54053319e-01 3.24915588e-01 2.36271763e+00
      -1.74943125e+00</_>
    <_>
      -6.18365049e-01 -1.49231243e+00 -3.92778546e-01 1.90191782e+00
      6.98509991e-01</_>
    <_>
      1.28912580e+00 -7.41680741e-01 3.56344908e-01 1.09972048e+00
      -1.14655685e+00</_>
    <_>
      2.50012964e-01 -1.80274892e+00 9.81097043e-01 1.64612401e+00
      -2.29647279e-01</_>
    <_>
      -6.29652977e-01 -7.37859458e-02 8.11129928e-01 6.45715445e-02
      1.13695294e-01</_>
    <_>
      -9.51271057e-02 1.48403668e+00 -3.01410645e-01 -8.07459176e-01
      -3.83308172e-01</_>
    <_>
      2.36535281e-01 8.83638337e-02 -1.15819521e-01 1.05231786e+00
      -6.96253419e-01</_>
    <_>
      -3.73054206e-01 -1.89054891e-01 1.81885779e+00 -6.97950721e-01
      -7.83853829e-02</_>
    <_>
      1.13142622e+00 -8.98714304e-01 9.29299116e-01 6.31927669e-01
      -9.54968691e-01</_>
    <_>
      -3.66965771e-01 -3.14553559e-01 -5.35627127e-01 1.73409545e+00
      -1.30338103e-01</_>
    <_>
      4.74220663e-02 5.33693790e-01 -9.47639495e-02 1.60983339e-01
      -4.23899204e-01</_>
    <_>
      -1.85250700e+00 -7.75030732e-01 -2.11607933e+00 -5.25510311e-01
      3.11639833e+00</_>
    <_>
      -4.94629443e-01 -9.69294548e-01 2.38450503e+00 1.31918028e-01
      -1.35997310e-01</_>
    <_>
      -1.08610764e-01 -2.32914114e+00 -2.88517252e-02 3.13322163e+00
      1.09806791e-01</_>
    <_>
      5.63734651e-01 -3.63097936e-01 1.16145456e+00 -6.77590191e-01
      -3.55067998e-01</_>
    <_>
      -3.85082215e-01 3.24217856e-01 -5.54901004e-01 2.44161785e-01
      2.03137636e-01</_>
    <_>
      4.39471036e-01 3.64650249e-01 -4.39671069e-01 -2.45007515e-01
      -2.36406803e-01</_>
    <_>
      -1.46683764e+00 1.43658781e+00 -8.85150135e-01 -1.49648154e+00
      1.26268411e+00</_>
    <_>
      -2.69232720e-01 -3.88732627e-02 -1.10542154e+00 -1.49046019e-01
      8.11344743e-01</_>
    <_>
      1.09672940e+00 -1.36924934e+00 -2.33481854e-01 3.43452907e+00
      -1.47521913e+00</_>
    <_>
      -5.66942394e-01 -6.55483782e-01 -2.69685656e-01 1.52431786e+00
      2.28365049e-01</_>
    <_>
      8.29983056e-01 -5.27560949e-01 -4.85294223e-01 2.78478533e-01
      -1.60328105e-01</_>
    <_>
      -6.95498943e-01 -7.94955194e-01 1.16639829e+00 9.57917809e-01
      4.03070711e-02</_>
    <_>
      6.54343784e-01 -6.80842221e-01 1.87250331e-01 4.82453965e-02
      -1.22106671e-01</_>
    <_>
      9.55165923e-01 -4.25356001e-01 1.16434669e+00 -4.20321971e-01
      -7.28850186e-01</_>
    <_>
      5.06882012e-01 -5.69339633e-01 8.25479150e-01 -2.47070044e-01
      -2.34866038e-01</_>
    <_>
      1.15487933e-01 -1.41410422e+00 1.17406750e+00 6.73835516e-01
      2.51952093e-03</_>
    <_>
      1.03774464e+00 -2.81372190e-01 3.31297457e-01 5.75875580e-01
      -1.00064921e+00</_>
    <_>
      -1.81273088e-01 2.02438165e-03 3.60432893e-01 4.32404078e-04
      -2.68564913e-02</_>
    <_>
      2.04396248e-01 -1.21336961e+00 3.45778972e-01 3.91517997e-01
      3.22394013e-01</_>
    <_>
      -1.26265979e+00 8.70497882e-01 -2.11607933e+00 1.70201194e+00
      4.66203064e-01</_>
    <_>
      1.07215250e+00 1.07047522e+00 -2.11607933e+00 1.97271752e+00
      -1.51117134e+00</_>
    <_>
      5.28428793e-01 2.04271480e-01 -8.00839961e-01 5.31177998e-01
      -4.14381236e-01</_>
    <_>
      -1.49740398e-01 6.47126675e-01 1.35606992e+00 -6.84285522e-01
      -6.00154638e-01</_>
    <_>
      1.28105652e+00 1.75039840e+00 -2.11607933e+00 -2.62928128e+00
      1.69596851e-01</_>
    <_>
      2.79303163e-01 -3.58969718e-01 1.15993655e+00 -1.94207951e-01
      -3.89857084e-01</_>
    <_>
      6.03183627e-01 -5.53015053e-01 -1.13636017e+00 1.27772176e+00
      -1.76535442e-01</_>
    <_>
      -1.19497240e+00 1.41600966e+00 -1.59142101e+00 1.95762885e+00
      -3.18853021e-01</_>
    <_>
      -5.58648586e-01 -2.23572358e-01 1.36824417e+00 -2.54056156e-01
      6.60890043e-02</_>
    <_>
      9.02274251e-01 -1.13367164e+00 3.45778972e-01 -4.00247276e-02
      -2.68564913e-02</_>
    <_>
      -1.05668128e+00 6.06400728e-01 -5.92071712e-01 4.09499168e-01
      4.38810855e-01</_>
    <_>
      1.92749351e-02 8.61965597e-01 -1.95829839e-01 -8.62113655e-01
      -6.87666386e-02</_>
    <_>
      -1.45715028e-01 2.16954365e-01 -1.43513978e+00 2.38395977e+00
      -5.61878741e-01</_>
    <_>
      2.42771178e-01 4.31144327e-01 5.11127532e-01 -8.70905638e-01
      -2.61427879e-01</_>
    <_>
      -4.04104263e-01 1.78061736e+00 -8.71473134e-01 -5.02135038e-01
      -2.48048484e-01</_>
    <_>
      4.41960292e-03 4.91281241e-01 -6.34405315e-01 3.70540142e-01
      -2.20884696e-01</_>
    <_>
      -1.00145228e-01 4.16956782e-01 8.35760355e-01 -3.41685712e-01
      -4.13405716e-01</_>
    <_>
      1.22193277e+00 -8.92322123e-01 -6.06449246e-01 1.19124591e+00
      -6.00154638e-01</_>
    <_>
      1.13643050e+00 -1.21336961e+00 9.61243451e-01 6.27518058e-01
      -7.58939445e-01</_>
    <_>
      6.54343784e-01 -5.88537574e-01 -3.58092077e-02 1.68733984e-01
      -1.42109409e-01</_>
    <_>
      1.02829409e+00 -7.66444445e-01 8.89835954e-01 5.56418560e-02
      -6.63611650e-01</_>
    <_>
      1.12366295e+00 -1.08727217e+00 8.06674540e-01 3.96690428e-01
      -6.48809671e-01</_>
    <_>
      6.54343784e-01 2.02438165e-03 -4.96821344e-01 6.14032328e-01
      -5.50732374e-01</_>
    <_>
      -1.94432497e-01 -1.04424667e+00 2.29394197e+00 3.77039202e-02
      -2.16606915e-01</_>
    <_>
      3.96062136e-01 5.05932748e-01 5.99424660e-01 -2.19507456e-01
      -7.88857818e-01</_>
    <_>
      -1.45715028e-01 -9.40361679e-01 6.07678592e-01 2.07063222e+00
      -5.61878741e-01</_>
    <_>
      -7.96990871e-01 3.42838049e-01 -4.31649983e-01 -4.57029678e-02
      5.79736412e-01</_>
    <_>
      1.01246548e+00 -1.37276542e+00 6.97472990e-01 -4.00247276e-02
      -1.07452765e-01</_>
    <_>
      8.82806554e-02 1.27355754e-01 6.36966407e-01 -8.87449503e-01
      6.94179162e-03</_>
    <_>
      1.52164292e+00 -1.19486153e+00 7.65811682e-01 8.60386252e-01
      -1.07957375e+00</_></support_vectors>
  <decision_functions>
    <_>
      <sv_count>578</sv_count>
      <rho>-3.4836470594767327e-01</rho>
      <alpha>
        2.5000000000000000e+00 6.9942768834519553e-01
        3.6583145236497433e-01 3.2650764956264666e-01
        2.5000000000000000e+00 7.1121683224521526e-01
        1.5599453884196354e-01 1.7380510399996840e+00
        2.5000000000000000e+00 2.4924597063016884e+00
        2.5000000000000000e+00 2.5000000000000000e+00
        1.3939974125433330e-01 2.5000000000000000e+00
        1.3301351896303333e+00 5.6471417840572402e-01
        8.1898416257948614e-01 1.3271485424445690e+00
        2.5000000000000000e+00 2.5000000000000000e+00
        1.3016185563757210e+00 2.5000000000000000e+00
        2.5000000000000000e+00 2.5000000000000000e+00
        1.5252543558276768e+00 2.5000000000000000e+00
        2.5000000000000000e+00 1.7466255500171493e+00
        2.5000000000000000e+00 2.5000000000000000e+00
        2.5000000000000000e+00 2.5000000000000000e+00
        2.5000000000000000e+00 8.4188791649055628e-01
        2.5000000000000000e+00 5.5130816980454478e-01
        1.3150167012213130e+00 2.5000000000000000e+00
        2.5000000000000000e+00 1.6315449291449530e-01
        2.5000000000000000e+00 2.5000000000000000e+00
        2.5000000000000000e+00 2.5000000000000000e+00
        2.5000000000000000e+00 2.5000000000000000e+00
        2.2094386135911561e+00 2.2708865792907473e-01
        2.5000000000000000e+00 6.5162915146048794e-01
        3.8253146607018862e-01 2.5000000000000000e+00
        2.5000000000000000e+00 2.5000000000000000e+00
        2.0706562234368828e-01 1.3196547724869778e+00
        2.5000000000000000e+00 2.2016728066483551e-01
        5.8578801996258194e-02 2.5000000000000000e+00
        4.7531565393215403e-01 2.5000000000000000e+00
        2.5000000000000000e+00 2.5000000000000000e+00
        2.5000000000000000e+00 2.5000000000000000e+00
        7.9779337350368976e-02 2.4222152434681941e+00
        2.5000000000000000e+00 4.5495760103345145e-01
        2.5000000000000000e+00 2.5000000000000000e+00
        2.5000000000000000e+00 5.1068426581069881e-01
        2.5000000000000000e+00 2.5000000000000000e+00
        2.5000000000000000e+00 4.0425482553251713e-01
        1.9081583430144864e+00 8.0494729663623948e-02
        2.5000000000000000e+00 2.5000000000000000e+00
        1.8523072023514411e-01 5.8197327352885697e-01
        2.5000000000000000e+00 2.5000000000000000e+00
        1.9929135842466678e-01 2.5000000000000000e+00
        2.5000000000000000e+00 2.5000000000000000e+00
        2.5000000000000000e+00 2.5000000000000000e+00
        1.5722156597884254e+00 2.5000000000000000e+00
        1.7355200710637542e+00 1.5412790556592084e+00
        2.3998603161562988e+00 2.0465944686328177e+00
        2.5000000000000000e+00 1.0412784743180068e+00
        1.6509853451861025e+00 2.8796104597995538e-02
        2.5000000000000000e+00 2.4630041707310135e+00
        5.7563182401997326e-01 2.5000000000000000e+00
        9.9064188996702954e-02 4.9026498336446445e-01
        1.1841984081674425e-01 3.9678382590781219e-01
        1.1299795661273122e+00 2.5000000000000000e+00
        8.3861341108883325e-01 2.5000000000000000e+00
        1.3743701627989264e+00 2.5000000000000000e+00
        4.8375319001920852e-02 1.6700759980221720e+00
        2.5000000000000000e+00 2.5000000000000000e+00
        2.5000000000000000e+00 4.3008247848619269e-01
        3.3074263019039118e-01 2.5000000000000000e+00
        2.5000000000000000e+00 4.4735363908172554e-01
        2.0547283734178436e+00 2.5000000000000000e+00
        2.5000000000000000e+00 2.5000000000000000e+00
        2.5000000000000000e+00 8.0181750047250228e-02
        2.5000000000000000e+00 3.4398535124052659e-01
        9.5680317369321344e-01 2.5000000000000000e+00
        6.5166370687612973e-01 2.3732493698330499e+00
        2.8587393141579026e-01 2.5000000000000000e+00
        2.5000000000000000e+00 2.5000000000000000e+00
        1.2179209819318222e+00 2.3783281487570482e+00
        1.0090522975109626e+00 1.3258894444404885e+00
        1.0068422261451604e+00 2.5000000000000000e+00
        2.5000000000000000e+00 2.5000000000000000e+00
        2.4639641198526491e-01 2.5000000000000000e+00
        2.5000000000000000e+00 2.5000000000000000e+00
        2.5000000000000000e+00 2.5000000000000000e+00
        2.5000000000000000e+00 2.5000000000000000e+00
        2.5000000000000000e+00 2.5000000000000000e+00
        2.5000000000000000e+00 1.0973611283252358e+00
        1.0238493935222757e-01 2.5000000000000000e+00
        1.3267139833615171e+00 1.6109683434536797e+00
        2.5000000000000000e+00 2.5000000000000000e+00
        2.5000000000000000e+00 6.5172649289546380e-01
        2.5000000000000000e+00 2.5000000000000000e+00
        2.4913070273467283e-01 2.5000000000000000e+00
        1.4317796642580225e+00 2.5000000000000000e+00
        2.5000000000000000e+00 2.5000000000000000e+00
        7.9403116308878452e-01 2.5000000000000000e+00
        2.5000000000000000e+00 1.8515031833069594e-02
        2.6214502385383676e-01 2.5000000000000000e+00
        2.5000000000000000e+00 2.5000000000000000e+00
        2.5000000000000000e+00 2.0747209172176342e-01
        2.5000000000000000e+00 1.0711121461144244e+00
        2.5000000000000000e+00 2.2188079185669782e-01
        2.5000000000000000e+00 2.5000000000000000e+00
        2.5000000000000000e+00 2.5000000000000000e+00
        2.5000000000000000e+00 2.5000000000000000e+00
        2.5000000000000000e+00 2.5000000000000000e+00
        2.3807484298566459e+00 2.5000000000000000e+00
        2.5000000000000000e+00 2.4185104428581705e+00
        2.1353961635743499e-01 6.0141737089214733e-02
        2.5000000000000000e+00 1.3062810477844402e+00
        5.1911956239528700e-01 2.5000000000000000e+00
        9.3726318818785981e-01 1.6956773454792604e+00
        2.4502571463084633e+00 2.5000000000000000e+00
        4.2338902548223195e-01 1.1806646300667178e+00
        2.0991213183660427e+00 2.5000000000000000e+00
        2.5000000000000000e+00 2.5000000000000000e+00
        2.5000000000000000e+00 2.5000000000000000e+00
        2.8277424037636373e-01 2.5000000000000000e+00
        7.7192974316751917e-01 1.0161013442281934e+00
        1.3992046283883832e+00 2.4231743629710087e+00
        1.6596988690684817e+00 1.2097009814178750e-01
        4.4172986708235634e-01 2.5000000000000000e+00
        2.5000000000000000e+00 2.5000000000000000e+00
        2.5000000000000000e+00 2.3855960479345990e+00
        1.0318334680153829e+00 2.3271525363982790e-02
        2.5000000000000000e+00 2.5000000000000000e+00
        2.5000000000000000e+00 1.8387366263292670e+00
        2.9990910957507323e-02 2.0293661440784625e+00
        9.0366401527068796e-01 2.5000000000000000e+00
        2.5000000000000000e+00 2.5000000000000000e+00
        5.8982358401861823e-01 4.6944427347400497e-01
        4.0922623012981379e-01 1.6420563723460218e+00
        2.5000000000000000e+00 1.6094379756942978e+00
        2.5000000000000000e+00 2.5000000000000000e+00
        5.8191652308706809e-01 2.5000000000000000e+00
        8.1055497703099777e-01 2.5000000000000000e+00
        2.5000000000000000e+00 8.1560424997200148e-02
        2.5000000000000000e+00 1.4776957515828809e-01
        2.5000000000000000e+00 9.2922088779450840e-01
        2.5000000000000000e+00 2.5000000000000000e+00
        6.3539906663589640e-01 2.5000000000000000e+00
        2.5000000000000000e+00 2.3610705245509103e-01
        2.5000000000000000e+00 1.3202265212212438e+00
        2.5000000000000000e+00 2.5000000000000000e+00
        2.5000000000000000e+00 2.5000000000000000e+00
        2.5000000000000000e+00 2.5000000000000000e+00
        2.5000000000000000e+00 2.5000000000000000e+00
        1.1750167592881366e+00 3.8392333701041098e-01
        2.5000000000000000e+00 6.6975784638853031e-01
        1.4925250761805708e+00 4.8765455636083316e-01
        2.5000000000000000e+00 2.5000000000000000e+00
        2.5000000000000000e+00 5.2240024245378902e-01
        2.5000000000000000e+00 1.3861752143450727e+00
        8.9065646634170403e-01 2.5000000000000000e+00
        2.2475019836264361e+00 2.5000000000000000e+00
        2.0578608494996664e+00 2.5000000000000000e+00
        1.6440014442491020e+00 1.3564200588891542e+00
        2.5000000000000000e+00 2.5000000000000000e+00
        2.5000000000000000e+00 2.5000000000000000e+00
        2.5000000000000000e+00 2.5000000000000000e+00
        2.5000000000000000e+00 2.5000000000000000e+00
        2.5000000000000000e+00 2.5000000000000000e+00
        2.5000000000000000e+00 2.5000000000000000e+00
        9.6997639090221022e-01 2.5000000000000000e+00
        3.5420210729441848e-01 2.5000000000000000e+00
        2.5000000000000000e+00 1.2759603194803018e+00
        2.3474787405967734e+00 -2.5000000000000000e+00
        -2.5000000000000000e+00 -2.5000000000000000e+00
        -2.5000000000000000e+00 -2.5000000000000000e+00
        -2.5000000000000000e+00 -2.5000000000000000e+00
        -2.5000000000000000e+00 -2.5000000000000000e+00
        -2.5000000000000000e+00 -2.5000000000000000e+00
        -2.5000000000000000e+00 -2.5000000000000000e+00
        -2.5000000000000000e+00 -2.5000000000000000e+00
        -2.5000000000000000e+00 -2.5000000000000000e+00
        -2.5000000000000000e+00 -2.5000000000000000e+00
        -2.5000000000000000e+00 -2.5000000000000000e+00
        -2.5000000000000000e+00 -2.5000000000000000e+00
        -2.5000000000000000e+00 -2.5000000000000000e+00
        -2.5000000000000000e+00 -2.5000000000000000e+00
        -2.0365755242110612e+00 -2.5000000000000000e+00
        -2.5000000000000000e+00 -2.5000000000000000e+00
        -2.5000000000000000e+00 -2.5000000000000000e+00
        -2.5000000000000000e+00 -2.4683590148986219e+00
        -2.5000000000000000e+00 -2.5000000000000000e+00
        -2.5000000000000000e+00 -2.5000000000000000e+00
        -8.5217119497794414e-01 -2.5000000000000000e+00
        -1.3742408576722540e+00 -2.5000000000000000e+00
        -2.5000000000000000e+00 -2.5000000000000000e+00
        -2.5000000000000000e+00 -2.5000000000000000e+00
        -2.5000000000000000e+00 -2.5000000000000000e+00
        -2.5000000000000000e+00 -2.5000000000000000e+00
        -2.5000000000000000e+00 -2.5000000000000000e+00
        -2.5000000000000000e+00 -2.5000000000000000e+00
        -1.7860951822527940e+00 -2.5000000000000000e+00
        -2.5000000000000000e+00 -2.5000000000000000e+00
        -2.5000000000000000e+00 -2.5000000000000000e+00
        -2.5000000000000000e+00 -2.5000000000000000e+00
        -3.1091668628620239e-01 -1.4024883758253899e+00
        -9.6788202430762349e-01 -2.5000000000000000e+00
        -2.5000000000000000e+00 -3.0133660321497235e-01
        -2.5000000000000000e+00 -2.5000000000000000e+00
        -2.5000000000000000e+00 -2.5000000000000000e+00
        -2.5000000000000000e+00 -2.5000000000000000e+00
        -2.5000000000000000e+00 -2.5000000000000000e+00
        -2.5000000000000000e+00 -2.5000000000000000e+00
        -2.5000000000000000e+00 -2.5000000000000000e+00
        -2.5000000000000000e+00 -2.5000000000000000e+00
        -2.5000000000000000e+00 -2.5000000000000000e+00
        -2.5000000000000000e+00 -2.5000000000000000e+00
        -4.6415761995497196e-01 -2.5000000000000000e+00
        -2.5000000000000000e+00 -5.0300629880484900e-02
        -2.5000000000000000e+00 -2.5000000000000000e+00
        -2.5000000000000000e+00 -2.5000000000000000e+00
        -2.5000000000000000e+00 -2.5000000000000000e+00
        -2.5000000000000000e+00 -2.5000000000000000e+00
        -2.5000000000000000e+00 -2.5000000000000000e+00
        -2.5000000000000000e+00 -2.5000000000000000e+00
        -2.5000000000000000e+00 -7.0758714601681072e-01
        -2.5000000000000000e+00 -2.5000000000000000e+00
        -2.5000000000000000e+00 -2.5000000000000000e+00
        -2.5000000000000000e+00 -1.5184249001775476e+00
        -2.5000000000000000e+00 -5.6172634943664690e-01
        -6.8962981157939973e-01 -2.5000000000000000e+00
        -2.5000000000000000e+00 -2.5000000000000000e+00
        -2.5000000000000000e+00 -2.5000000000000000e+00
        -2.5000000000000000e+00 -2.5000000000000000e+00
        -2.5000000000000000e+00 -2.5000000000000000e+00
        -2.5000000000000000e+00 -2.5000000000000000e+00
        -2.5000000000000000e+00 -2.5000000000000000e+00
        -2.6032516623323837e-01 -9.8909065313933592e-02
        -1.0171235074580933e+00 -2.5000000000000000e+00
        -9.0200464669960057e-01 -2.5000000000000000e+00
        -2.5000000000000000e+00 -2.5000000000000000e+00
        -7.4652780992205769e-01 -2.5000000000000000e+00
        -2.5000000000000000e+00 -2.5000000000000000e+00
        -2.5000000000000000e+00 -2.5000000000000000e+00
        -2.5000000000000000e+00 -2.5000000000000000e+00
        -2.5000000000000000e+00 -2.5000000000000000e+00
        -2.5000000000000000e+00 -2.5000000000000000e+00
        -2.5000000000000000e+00 -2.5000000000000000e+00
        -1.7431479531760798e+00 -1.2067426018762928e+00
        -2.5000000000000000e+00 -2.5000000000000000e+00
        -2.5000000000000000e+00 -2.5000000000000000e+00
        -1.1681492748417908e+00 -2.5000000000000000e+00
        -2.5000000000000000e+00 -1.1133371053952057e+00
        -2.5000000000000000e+00 -2.5000000000000000e+00
        -2.5000000000000000e+00 -2.5000000000000000e+00
        -2.5000000000000000e+00 -2.5000000000000000e+00
        -2.5000000000000000e+00 -2.5000000000000000e+00
        -2.5000000000000000e+00 -2.5000000000000000e+00
        -2.5000000000000000e+00 -2.5000000000000000e+00
        -2.5000000000000000e+00 -2.5000000000000000e+00
        -2.5000000000000000e+00 -2.5000000000000000e+00
        -2.5000000000000000e+00 -5.6682976792047091e-01
        -2.5000000000000000e+00 -2.5000000000000000e+00
        -4.6877130302547532e-02 -2.5000000000000000e+00
        -2.5000000000000000e+00 -2.5000000000000000e+00
        -2.5000000000000000e+00 -2.5000000000000000e+00
        -2.5000000000000000e+00 -9.2100053244995284e-01
        -2.5000000000000000e+00 -2.5000000000000000e+00
        -2.5000000000000000e+00 -2.5000000000000000e+00
        -2.5000000000000000e+00 -2.5000000000000000e+00
        -2.5000000000000000e+00 -2.5000000000000000e+00
        -2.5000000000000000e+00 -2.5000000000000000e+00
        -2.7535961899789303e-02 -2.5000000000000000e+00
        -2.5000000000000000e+00 -2.5000000000000000e+00
        -2.5000000000000000e+00 -7.0173069569387148e-01
        -2.5000000000000000e+00 -2.5000000000000000e+00
        -2.5000000000000000e+00 -2.5000000000000000e+00
        -2.5000000000000000e+00 -2.5000000000000000e+00
        -2.5000000000000000e+00 -1.0278599629399987e+00
        -2.5000000000000000e+00 -2.5000000000000000e+00
        -2.5000000000000000e+00 -2.5000000000000000e+00
        -2.5000000000000000e+00 -9.0287449602579806e-01
        -2.5000000000000000e+00 -2.5000000000000000e+00
        -2.5000000000000000e+00 -2.5000000000000000e+00
        -2.5000000000000000e+00 -2.5000000000000000e+00
        -2.5000000000000000e+00 -7.1669618723600448e-01
        -2.5000000000000000e+00 -2.5000000000000000e+00
        -2.5000000000000000e+00 -8.9859906164437242e-01
        -7.1374771419936112e-01 -2.5000000000000000e+00
        -1.3075328339381542e+00 -2.5000000000000000e+00
        -2.5000000000000000e+00 -2.5000000000000000e+00
        -2.5000000000000000e+00 -2.5000000000000000e+00
        -2.5000000000000000e+00 -2.5000000000000000e+00
        -2.5000000000000000e+00 -2.5000000000000000e+00
        -8.1773465961951219e-01 -2.5000000000000000e+00
        -2.5000000000000000e+00 -2.5000000000000000e+00
        -2.5000000000000000e+00 -2.5000000000000000e+00
        -2.5000000000000000e+00 -2.5000000000000000e+00
        -2.5000000000000000e+00 -2.5000000000000000e+00
        -1.9685065704219165e+00 -2.5000000000000000e+00
        -2.5000000000000000e+00 -2.5000000000000000e+00
        -2.5000000000000000e+00 -2.5000000000000000e+00</alpha>
      <index>
        0 1 2 3 4 5 6 7 8 9 10 11 12 13 14 15 16 17 18 19 20 21 22 23 24
        25 26 27 28 29 30 31 32 33 34 35 36 37 38 39 40 41 42 43 44 45
        46 47 48 49 50 51 52 53 54 55 56 57 58 59 60 61 62 63 64 65 66
        67 68 69 70 71 72 73 74 75 76 77 78 79 80 81 82 83 84 85 86 87
        88 89 90 91 92 93 94 95 96 97 98 99 100 101 102 103 104 105 106
        107 108 109 110 111 112 113 114 115 116 117 118 119 120 121 122
        123 124 125 126 127 128 129 130 131 132 133 134 135 136 137 138
        139 140 141 142 143 144 145 146 147 148 149 150 151 152 153 154
        155 156 157 158 159 160 161 162 163 164 165 166 167 168 169 170
        171 172 173 174 175 176 177 178 179 180 181 182 183 184 185 186
        187 188 189 190 191 192 193 194 195 196 197 198 199 200 201 202
        203 204 205 206 207 208 209 210 211 212 213 214 215 216 217 218
        219 220 221 222 223 224 225 226 227 228 229 230 231 232 233 234
        235 236 237 238 239 240 241 242 243 244 245 246 247 248 249 250
        251 252 253 254 255 256 257 258 259 260 261 262 263 264 265 266
        267 268 269 270 271 272 273 274 275 276 277 278 279 280 281 282
        283 284 285 286 287 288 289 290 291 292 293 294 295 296 297 298
        299 300 301 302 303 304 305 306 307 308 309 310 311 312 313 314
        315 316 317 318 319 320 321 322 323 324 325 326 327 328 329 330
        331 332 333 334 335 336 337 338 339 340 341 342 343 344 345 346
        347 348 349 350 351 352 353 354 355 356 357 358 359 360 361 362
        363 364 365 366 367 368 369 370 371 372 373 374 375 376 377 378
        379 380 381 382 383 384 385 386 387 388 389 390 391 392 393 394
        395 396 397 398 399 400 401 402 403 404 405 406 407 408 409 410
        411 412 413 414 415 416 417 418 419 420 421 422 423 424 425 426
        427 428 429 430 431 432 433 434 435 436 437 438 439 440 441 442
        443 444 445 446 447 448 449 450 451 452 453 454 455 456 457 458
        459 460 461 462 463 464 465 466 467 468 469 470 471 472 473 474
        475 476 477 478 479 480 481 482 483 484 485 486 487 488 489 490
        491 492 493 494 495 496 497 498 499 500 501 502 503 504 505 506
        507 508 509 510 511 512 513 514 515 516 517 518 519 520 521 522
        523 524 525 526 527 528 529 530 531 532 533 534 535 536 537 538
        539 540 541 542 543 544 545 546 547 548 549 550 551 552 553 554
        555 556 557 558 559 560 561 562 563 564 565 566 567 568 569 570
        571 572 573 574 575 576 577</index></_></decision_functions></my_svm>
</opencv_storage>
