<?xml version="1.0"?>
<opencv_storage>
<my_svm type_id="opencv-ml-svm">
  <svm_type>C_SVC</svm_type>
  <kernel><type>RBF</type>
    <gamma>2.2500000000000003e-03</gamma></kernel>
  <C>1.2500000000000000e+01</C>
  <term_criteria><epsilon>9.9999999747524271e-07</epsilon>
    <iterations>10000</iterations></term_criteria>
  <var_all>200</var_all>
  <var_count>200</var_count>
  <class_count>2</class_count>
  <class_labels type_id="opencv-matrix">
    <rows>1</rows>
    <cols>2</cols>
    <dt>i</dt>
    <data>
      -1 1</data></class_labels>
  <sv_total>240</sv_total>
  <support_vectors>
    <_>
      4.18125391e-01 -1.97075069e-01 1.23647285e+00 -2.53620148e-01
      -6.49620295e-01 1.32259583e+00 2.87650913e-01 1.07779646e+00
      1.14621389e+00 1.25889361e+00 5.53675294e-01 2.96377003e-01
      -3.54849517e-01 -9.98262644e-01 -4.87941891e-01 1.79359567e+00
      5.61088681e-01 1.52221052e-02 -2.33488545e-01 -1.51763603e-01
      5.14400780e-01 1.22913504e+00 1.03631663e+00 -1.69653669e-02
      -7.35787451e-02 -4.05156016e-01 1.34050405e+00 7.74960041e-01
      -5.61491251e-01 -5.43955803e-01 -6.68781221e-01 1.92908913e-01
      5.12148887e-02 -6.38135910e-01 1.66844499e+00 -5.92045546e-01
      -1.15803957e-01 5.79378843e-01 -5.39814889e-01 -8.56028050e-02
      -4.75978762e-01 1.59443474e+00 1.19760835e+00 -5.45798361e-01
      2.05300674e-01 -7.74115399e-02 -3.46039355e-01 2.00976896e+00
      -5.28729260e-01 1.73513722e+00 -3.22718233e-01 -4.22448013e-03
      -4.72446382e-01 -1.89761013e-01 4.81809080e-01 6.95002615e-01
      3.58317107e-01 -3.87471020e-01 6.27467394e-01 -3.85506004e-01
      -1.91709146e-01 -1.32452339e-01 7.23123670e-01 -3.10275882e-01
      3.68095756e-01 3.41184705e-01 -3.65312696e-01 -3.41599733e-01
      2.26833031e-01 -5.59246838e-01 -1.37673557e-01 -5.07616878e-01
      1.67827201e+00 -5.75615704e-01 1.85330451e-01 3.94759446e-01
      -7.73545057e-02 -5.89505196e-01 -6.16309047e-01 8.07689786e-01
      -2.29380056e-01 -4.98809248e-01 2.68342346e-01 -2.70510107e-01
      -1.29875392e-01 5.60452342e-01 -1.72726050e-01 2.42658591e+00
      -5.23374975e-01 1.40528452e+00 3.09565395e-01 3.68086070e-01
      2.70679116e-01 4.73180115e-01 2.60047227e-01 -5.50834775e-01
      3.56155366e-01 -5.87688327e-01 -9.82305557e-02 -4.20013964e-01
      -9.02791992e-02 3.60185280e-02 -4.58484054e-01 6.38551176e-01
      -6.16353393e-01 1.40259206e+00 -6.19054675e-01 5.99265754e-01
      -6.03004575e-01 1.12244070e+00 -8.97123069e-02 -3.70809674e-01
      -4.96361315e-01 5.08424819e-01 -2.97561973e-01 5.59595525e-01
      3.39059055e-01 1.07685244e+00 3.16807508e+00 4.02634777e-02
      1.22709334e+00 3.66419196e-01 4.76819992e-01 2.74363542e+00
      1.28457916e+00 1.10654545e+00 9.71936643e-01 -2.37443447e-02
      3.03875923e+00 1.53362915e-01 -5.74178517e-01 1.25162587e-01
      1.07713103e-01 1.69575885e-01 -1.09244570e-01 -5.11484146e-01
      -6.38908386e-01 -8.39494243e-02 -8.61951038e-02 -1.97165415e-01
      -7.05172718e-01 4.33741063e-01 -2.39034459e-01 8.73190463e-01
      -5.80476701e-01 -1.15671553e-01 -8.09255600e-01 2.13040337e-02
      3.12621117e-01 1.02302468e+00 -5.41359603e-01 4.81040999e-02
      1.93747759e+00 1.38417494e+00 6.70228451e-02 6.62535191e-01
      7.94395030e-01 -6.69338822e-01 7.96869755e-01 2.79891658e+00
      -5.36476433e-01 1.10882230e-01 1.68559134e+00 -1.41797930e-01
      -1.05934683e-02 -2.53454655e-01 5.42374909e-01 4.40830439e-02
      -1.77836210e-01 -4.10892844e-01 2.07630977e-01 1.90082335e+00
      4.00075495e-01 7.06718445e-01 1.74693123e-01 -1.92329288e-01
      4.00139391e-01 1.90482771e+00 -5.37071764e-01 -4.04380023e-01
      2.10739398e+00 -3.00058424e-01 -2.22936124e-01 -5.22457778e-01
      1.64222205e+00 5.08641601e-01 2.79018253e-01 -5.47353387e-01
      -1.74850956e-01 4.66006488e-01 -1.90551758e-01 4.23815876e-01
      -2.38082841e-01 -3.22309673e-01 -1.78401917e-01 5.43029785e-01
      -4.42106605e-01 -1.13253251e-01 -6.41739964e-01 -4.33859795e-01</_>
    <_>
      -6.12154186e-01 -6.18214428e-01 3.68303013e+00 -7.81683207e-01
      -6.49620295e-01 -6.05123222e-01 -6.11913502e-01 -7.63910592e-01
      -5.56048155e-01 -4.61652130e-01 -5.63875377e-01 -6.11591756e-01
      -4.40549970e-01 1.22183895e+00 5.89125872e+00 -5.92319906e-01
      -5.34459174e-01 -5.36613941e-01 -6.52448893e-01 -6.16189480e-01
      -5.46704113e-01 -5.31129420e-01 -6.13488674e-01 -5.88586867e-01
      -6.86673403e-01 7.17758942e+00 -6.20520115e-01 -5.11008918e-01
      1.88111675e+00 -5.43955803e-01 7.61542469e-02 -4.89119172e-01
      -5.74432552e-01 2.30796504e+00 -5.82158446e-01 4.17307043e+00
      -5.72836339e-01 -8.92314613e-01 -5.39814889e-01 -6.60005152e-01
      -4.75978762e-01 -6.58876300e-01 -5.37170887e-01 -5.45798361e-01
      -6.04828298e-01 -8.99961650e-01 -6.72281206e-01 -6.04232967e-01
      2.63199258e+00 -6.08394146e-01 1.47982585e+00 -4.86222029e-01
      -7.67955959e-01 -6.02091491e-01 -5.49993515e-01 -7.00389802e-01
      -5.66376626e-01 -6.71745062e-01 -5.42221129e-01 1.49395680e+00
      -6.22618973e-01 -6.19347513e-01 -6.82314157e-01 -6.73487425e-01
      -5.59227407e-01 -4.97603089e-01 -3.65312696e-01 -4.42490488e-01
      -6.24750733e-01 -5.59246838e-01 -5.81415236e-01 -7.30268002e-01
      -5.56390584e-01 1.54053116e+00 -6.34398758e-01 -5.96608102e-01
      -5.73928237e-01 -9.00371194e-01 -6.16309047e-01 -5.73345780e-01
      -6.78919196e-01 4.95888567e+00 -6.28388107e-01 -5.26145339e-01
      -8.04318607e-01 -5.77705622e-01 -6.03681862e-01 -4.73508567e-01
      -5.23374975e-01 -5.42226732e-01 -6.07482135e-01 -1.67317212e-01
      -6.02950811e-01 -6.56333506e-01 -5.16049504e-01 -5.50834775e-01
      -5.95946670e-01 -5.87688327e-01 -5.80280900e-01 3.07696962e+00
      -5.87147236e-01 -5.45089602e-01 -7.38558531e-01 -4.79905337e-01
      1.04894793e+00 -5.02350748e-01 -6.19054675e-01 -6.11894488e-01
      5.74375391e+00 4.35350323e+00 -5.30569553e-01 -3.70809674e-01
      1.51364195e+00 -5.79554617e-01 -6.54124856e-01 -7.14465082e-01
      -5.87708831e-01 -5.34849048e-01 -5.49294055e-01 -5.33600986e-01
      -6.32828772e-01 3.89617133e+00 4.12072468e+00 -5.36587715e-01
      -4.80337709e-01 -5.64453602e-01 -5.73080063e-01 -6.67030871e-01
      4.28100538e+00 3.06068420e+00 -2.12094963e-01 -5.31361580e-01
      -4.92269993e-01 -6.18573725e-01 -6.71688676e-01 -5.11484146e-01
      -6.38908386e-01 -6.52636588e-01 -5.17638803e-01 -4.54940856e-01
      -7.05172718e-01 -5.87257147e-01 -5.34736037e-01 -5.68500400e-01
      -5.80476701e-01 -5.39588094e-01 2.56347895e+00 -4.86444086e-01
      -6.23990834e-01 -5.67818761e-01 -5.41359603e-01 -4.91221130e-01
      -5.15151143e-01 -6.43729150e-01 -6.12232089e-01 -6.20149851e-01
      -5.90538383e-01 -6.69338822e-01 -6.32596076e-01 -5.70259571e-01
      -5.36476433e-01 -5.91035485e-01 -5.91672599e-01 -6.27239943e-01
      -7.23510861e-01 -4.78945822e-01 -5.78284562e-01 -4.83430117e-01
      -5.40890694e-01 -3.96028399e-01 -6.30800843e-01 -6.37555480e-01
      -5.61689854e-01 2.60621977e+00 -6.94917500e-01 -5.17854035e-01
      -5.81131041e-01 -5.60185492e-01 1.10687101e+00 -4.04380023e-01
      -4.94052589e-01 -6.76446915e-01 2.84879279e+00 1.65491128e+00
      -5.87021768e-01 -6.16540313e-01 -5.49225032e-01 -5.47353387e-01
      -5.28136015e-01 -8.75071228e-01 -5.18400311e-01 -5.88752925e-01
      -6.59805179e-01 -6.42561615e-01 -5.77599823e-01 -6.06415212e-01
      -7.33329296e-01 -5.09287238e-01 -6.41739964e-01 -4.33859795e-01</_>
    <_>
      -6.12154186e-01 -6.18214428e-01 -5.66253603e-01 -7.81683207e-01
      -6.49620295e-01 -6.05123222e-01 1.53034806e+00 -7.63910592e-01
      -5.56048155e-01 1.58703887e+00 -5.63875377e-01 1.55068421e+00
      -4.40549970e-01 4.97063488e-01 -7.70564675e-01 -5.92319906e-01
      -5.34459174e-01 -5.36613941e-01 1.34301162e+00 1.59581816e+00
      1.13793659e+00 -5.31129420e-01 -6.13488674e-01 -5.88586867e-01
      7.73376703e-01 -6.83057666e-01 -6.20520115e-01 -5.11008918e-01
      -5.61491251e-01 8.50822210e-01 -3.91719580e-01 -4.89119172e-01
      9.15511310e-01 -6.38135910e-01 -5.82158446e-01 -5.92045546e-01
      -5.72836339e-01 -8.92314613e-01 -5.39814889e-01 -6.60005152e-01
      2.16960788e+00 -6.58876300e-01 -5.37170887e-01 -5.45798361e-01
      -6.04828298e-01 7.94665441e-02 -6.72281206e-01 -6.04232967e-01
      5.85788393e+00 -6.08394146e-01 1.50511384e+00 -4.86222029e-01
      -2.98796445e-01 1.36179185e+00 -5.49993515e-01 -7.00389802e-01
      -5.66376626e-01 -6.71745062e-01 -5.42221129e-01 1.51563156e+00
      1.42975569e+00 1.69967902e+00 -6.82314157e-01 -6.73487425e-01
      -5.59227407e-01 -4.97603089e-01 1.82788444e+00 -4.42490488e-01
      -6.24750733e-01 -5.59246838e-01 1.53207600e+00 -2.32932791e-02
      -5.56390584e-01 3.20891291e-01 -6.34398758e-01 1.76427746e+00
      -5.73928237e-01 5.80248296e-01 -6.16309047e-01 -5.73345780e-01
      -6.78919196e-01 -4.98809248e-01 1.50712454e+00 -5.26145339e-01
      -8.04318607e-01 -5.77705622e-01 -6.03681862e-01 -4.73508567e-01
      -5.23374975e-01 -5.42226732e-01 -6.07482135e-01 -1.07338417e+00
      -6.02950811e-01 -6.56333506e-01 -5.16049504e-01 -5.50834775e-01
      -5.95946670e-01 -5.87688327e-01 -5.80280900e-01 4.98048210e+00
      -5.87147236e-01 -5.45089602e-01 -7.38558531e-01 -4.79905337e-01
      4.43105459e+00 -5.02350748e-01 -6.19054675e-01 -6.11894488e-01
      4.65693533e-01 -3.85388404e-01 -5.30569553e-01 -3.70809674e-01
      -7.34836280e-01 -5.79554617e-01 -6.54124856e-01 -7.14465082e-01
      -5.87708831e-01 -5.34849048e-01 1.66388190e+00 -5.33600986e-01
      -6.32828772e-01 -5.83898723e-01 -5.04231274e-01 -5.36587715e-01
      -4.80337709e-01 1.42524111e+00 -5.73080063e-01 3.54269356e-01
      -5.41833401e-01 -6.29377425e-01 9.64104712e-01 1.03211343e+00
      -4.92269993e-01 -6.18573725e-01 -6.71688676e-01 -5.11484146e-01
      -6.38908386e-01 -6.52636588e-01 -5.17638803e-01 -4.54940856e-01
      3.53757834e+00 -5.87257147e-01 -5.34736037e-01 -5.68500400e-01
      1.36975741e+00 -5.39588094e-01 -3.83317500e-01 -4.86444086e-01
      -6.23990834e-01 -5.67818761e-01 -5.41359603e-01 -4.91221130e-01
      -5.15151143e-01 -6.43729150e-01 -6.12232089e-01 -6.20149851e-01
      1.60822177e+00 -6.69338822e-01 -6.32596076e-01 -5.70259571e-01
      -5.36476433e-01 -5.91035485e-01 -5.91672599e-01 -6.27239943e-01
      -7.23510861e-01 5.95042884e-01 1.20090663e+00 -4.83430117e-01
      3.23702961e-01 1.09409177e+00 -6.30800843e-01 1.37744629e+00
      -5.61689854e-01 -6.92914188e-01 -6.94917500e-01 -5.17854035e-01
      -5.81131041e-01 -5.60185492e-01 2.93373525e-01 -4.04380023e-01
      -4.94052589e-01 -6.76446915e-01 1.14841926e+00 -7.80789733e-01
      -5.87021768e-01 -6.16540313e-01 -5.49225032e-01 -5.47353387e-01
      1.15452075e+00 4.02408987e-01 1.04310513e+00 -5.88752925e-01
      -6.59805179e-01 8.82761955e-01 -5.77599823e-01 -6.06415212e-01
      -7.33329296e-01 -5.09287238e-01 -6.41739964e-01 4.14913368e+00</_>
    <_>
      -6.12154186e-01 -6.18214428e-01 1.06042528e+00 1.71305627e-01
      -6.49620295e-01 1.13434207e+00 1.01151907e+00 -7.63910592e-01
      -5.56048155e-01 -4.61652130e-01 -5.63875377e-01 -6.11591756e-01
      -4.40549970e-01 1.34914219e-01 -2.60518849e-01 -5.92319906e-01
      5.39690542e+00 1.45516932e+00 -6.52448893e-01 1.06009769e+00
      -5.46704113e-01 1.58668876e+00 -6.13488674e-01 1.47460949e+00
      -6.86673403e-01 -6.83057666e-01 -6.20520115e-01 -5.11008918e-01
      -5.61491251e-01 5.13024449e-01 5.78448474e-01 -4.89119172e-01
      -5.74432552e-01 -6.38135910e-01 -5.82158446e-01 3.20027441e-01
      -5.72836339e-01 1.38421118e+00 -5.39814889e-01 -6.60005152e-01
      -4.75978762e-01 -6.58876300e-01 -5.37170887e-01 -5.45798361e-01
      8.57201338e-01 5.84484220e-01 -6.72281206e-01 9.68252599e-01
      -5.28729260e-01 1.08334255e+00 4.35407221e-01 -4.86222029e-01
      -5.68860322e-02 -6.02091491e-01 1.31208766e+00 9.78441715e-01
      -5.66376626e-01 -6.71745062e-01 -5.42221129e-01 -6.08493090e-01
      -6.22618973e-01 -6.19347513e-01 3.12225008e+00 -6.73487425e-01
      -5.59227407e-01 -4.97603089e-01 -3.65312696e-01 -7.83379525e-02
      -6.24750733e-01 -5.59246838e-01 -5.81415236e-01 -1.94513693e-01
      -5.56390584e-01 1.27737427e+00 1.05278768e-01 -5.96608102e-01
      -5.73928237e-01 2.21660778e-01 2.48789859e+00 -5.73345780e-01
      -6.78919196e-01 -4.98809248e-01 2.60824847e+00 -5.26145339e-01
      -1.95738986e-01 -5.77705622e-01 -6.03681862e-01 -4.73508567e-01
      -5.23374975e-01 -5.42226732e-01 -6.07482135e-01 -3.28228772e-02
      -6.02950811e-01 7.02612519e-01 -5.16049504e-01 -5.50834775e-01
      -5.95946670e-01 1.01535447e-01 -5.80280900e-01 -6.15845025e-01
      -5.87147236e-01 5.03628969e-01 2.72335231e-01 -4.79905337e-01
      -6.16353393e-01 -5.02350748e-01 -6.19054675e-01 8.45282674e-01
      -6.03004575e-01 -3.85388404e-01 -5.30569553e-01 -3.70809674e-01
      9.86654878e-01 1.38390827e+00 -6.54124856e-01 -7.14465082e-01
      -5.87708831e-01 1.40422928e+00 1.12787831e+00 -5.33600986e-01
      -6.32828772e-01 1.13112807e+00 -5.04231274e-01 -5.36587715e-01
      1.64307797e+00 -5.64453602e-01 -5.73080063e-01 2.42878556e+00
      -5.41833401e-01 2.19582605e+00 -6.87877178e-01 -5.31361580e-01
      1.67329395e+00 8.03790033e-01 3.43347162e-01 -5.11484146e-01
      2.47234297e+00 2.42627120e+00 -5.17638803e-01 -4.54940856e-01
      -7.05172718e-01 -5.87257147e-01 -5.34736037e-01 1.16603386e+00
      -5.80476701e-01 -5.39588094e-01 8.04650545e-01 1.34620929e+00
      -6.23990834e-01 -5.67818761e-01 2.66249210e-01 -4.91221130e-01
      1.25534022e+00 5.76181889e-01 -6.12232089e-01 9.23080564e-01
      1.07570958e+00 6.73063815e-01 1.08722997e+00 -5.70259571e-01
      -5.36476433e-01 -5.91035485e-01 1.05222738e+00 1.12490237e+00
      -7.23510861e-01 1.96270049e+00 -5.78284562e-01 -4.83430117e-01
      -5.40890694e-01 -5.97859442e-01 1.63886023e+00 8.89438033e-01
      -5.61689854e-01 -6.92914188e-01 -6.94917500e-01 -5.17854035e-01
      -5.81131041e-01 9.22674000e-01 -5.37071764e-01 -4.04380023e-01
      -4.94052589e-01 6.82080328e-01 -5.87378561e-01 -7.80789733e-01
      1.02221370e+00 7.37194180e-01 4.47255164e-01 -5.47353387e-01
      -5.28136015e-01 -8.75071228e-01 -5.18400311e-01 1.23861730e+00
      8.62348855e-01 5.13347685e-01 -5.77599823e-01 3.54236293e+00
      -7.33329296e-01 -5.09287238e-01 2.92031860e+00 -4.33859795e-01</_>
    <_>
      -6.12154186e-01 -6.18214428e-01 1.55838823e+00 1.70775700e+00
      -6.49620295e-01 1.66683137e+00 3.62889004e+00 -7.63910592e-01
      1.45018923e+00 -4.61652130e-01 -5.63875377e-01 1.52862024e+00
      -4.40549970e-01 1.11788169e-01 -1.04382366e-01 -5.92319906e-01
      -5.34459174e-01 -5.36613941e-01 -6.52448893e-01 -6.16189480e-01
      -5.46704113e-01 -5.31129420e-01 -6.13488674e-01 4.80098724e+00
      7.58478284e-01 -6.83057666e-01 1.22844553e+00 -5.11008918e-01
      -5.61491251e-01 8.36589813e-01 1.02164924e+00 -4.89119172e-01
      -5.74432552e-01 -6.38135910e-01 -5.82158446e-01 -5.92045546e-01
      -5.72836339e-01 9.88258421e-02 -5.39814889e-01 6.93943202e-01
      -4.75978762e-01 -6.58876300e-01 -5.37170887e-01 -5.45798361e-01
      -6.04828298e-01 6.94723874e-02 8.65716100e-01 -6.04232967e-01
      1.05163169e+00 -6.08394146e-01 8.66589248e-01 -4.86222029e-01
      -3.03583771e-01 -6.02091491e-01 1.88211250e+00 -7.00389802e-01
      -5.66376626e-01 -6.71745062e-01 -5.42221129e-01 4.42731857e-01
      -6.22618973e-01 -6.19347513e-01 -6.82314157e-01 -6.73487425e-01
      3.81243896e+00 -4.97603089e-01 -3.65312696e-01 -4.42490488e-01
      -6.24750733e-01 -5.59246838e-01 -5.81415236e-01 -2.05447450e-01
      1.55057704e+00 7.18968153e-01 1.29782009e+00 -5.96608102e-01
      -5.73928237e-01 -9.00371194e-01 1.41092861e+00 -5.73345780e-01
      -6.78919196e-01 -4.98809248e-01 -6.28388107e-01 6.78992093e-01
      -8.04318607e-01 9.29946005e-02 1.42796683e+00 -4.73508567e-01
      -5.23374975e-01 1.75305426e+00 1.55412984e+00 1.64481688e+00
      -6.02950811e-01 -6.56333506e-01 3.14269233e+00 -5.50834775e-01
      -5.95946670e-01 -5.87688327e-01 -5.80280900e-01 -6.15845025e-01
      -5.87147236e-01 -5.45089602e-01 -7.38558531e-01 -4.79905337e-01
      -6.16353393e-01 -5.02350748e-01 1.26467299e+00 -6.11894488e-01
      -6.03004575e-01 1.98405731e+00 -5.30569553e-01 -3.70809674e-01
      -7.34836280e-01 -5.79554617e-01 -6.54124856e-01 -7.14465082e-01
      -5.87708831e-01 -5.34849048e-01 -5.49294055e-01 -5.33600986e-01
      -6.32828772e-01 -5.83898723e-01 -5.04231274e-01 2.04073048e+00
      -4.80337709e-01 -5.64453602e-01 -5.73080063e-01 -6.67030871e-01
      1.86958599e+00 -6.29377425e-01 5.58792651e-01 -5.31361580e-01
      -4.92269993e-01 -6.18573725e-01 -6.71688676e-01 -5.11484146e-01
      -6.38908386e-01 6.87840283e-01 -5.17638803e-01 -4.54940856e-01
      -7.05172718e-01 1.81938148e+00 -5.34736037e-01 1.69701374e+00
      3.84690166e-01 1.45887554e+00 1.29870343e+00 -4.86444086e-01
      1.11918539e-01 -5.67818761e-01 -5.41359603e-01 -4.91221130e-01
      -5.15151143e-01 -6.43729150e-01 -6.12232089e-01 -6.20149851e-01
      -5.90538383e-01 -6.69338822e-01 1.61370730e+00 2.07695007e+00
      -5.36476433e-01 -5.91035485e-01 -5.91672599e-01 -6.27239943e-01
      -7.23510861e-01 5.84083855e-01 1.18275166e+00 -4.83430117e-01
      -5.40890694e-01 -2.32519731e-01 3.57350916e-01 -6.37555480e-01
      1.70532846e+00 -6.92914188e-01 1.35487890e+00 -5.17854035e-01
      -5.81131041e-01 1.37661052e+00 -5.37071764e-01 -4.04380023e-01
      -4.94052589e-01 -6.76446915e-01 -5.87378561e-01 1.65491128e+00
      -5.87021768e-01 1.15160275e+00 -5.49225032e-01 -5.47353387e-01
      -5.28136015e-01 -8.75071228e-01 -5.18400311e-01 -5.88752925e-01
      1.32831430e+00 2.37695646e+00 -5.77599823e-01 -6.06415212e-01
      -7.33329296e-01 5.09176540e+00 -6.41739964e-01 -4.33859795e-01</_>
    <_>
      7.67524481e-01 1.07366717e+00 -5.66253603e-01 2.79034734e-01
      1.72818613e+00 -6.05123222e-01 -6.11913502e-01 1.60946578e-01
      1.15361488e+00 1.26637411e+00 -5.63875377e-01 -6.11591756e-01
      -9.62576866e-02 5.78331172e-01 -7.70564675e-01 -5.92319906e-01
      -5.34459174e-01 -5.36613941e-01 -6.52448893e-01 1.24959087e+00
      -5.46704113e-01 -5.31129420e-01 -6.13488674e-01 -5.88586867e-01
      1.77636766e+00 4.33381975e-01 -6.20520115e-01 -5.11008918e-01
      -5.61491251e-01 6.32509112e-01 1.14497459e+00 -4.89119172e-01
      -5.74432552e-01 -6.38135910e-01 -5.82158446e-01 1.43830812e+00
      1.26324153e+00 2.48618150e+00 -5.39814889e-01 -6.60005152e-01
      -4.75978762e-01 -6.58876300e-01 -5.37170887e-01 1.31889081e+00
      1.02247417e+00 7.52291083e-01 -6.72281206e-01 -6.04232967e-01
      8.18013072e-01 -6.08394146e-01 5.94632089e-01 1.45015061e+00
      6.17084563e-01 -6.02091491e-01 -5.49993515e-01 -7.00389802e-01
      -5.66376626e-01 -6.71745062e-01 -5.42221129e-01 2.87333369e-01
      -6.22618973e-01 -6.19347513e-01 -6.82314157e-01 7.85675406e-01
      -5.59227407e-01 -4.97603089e-01 1.48460138e+00 -4.42490488e-01
      -6.24750733e-01 -5.59246838e-01 -5.81415236e-01 -2.83029616e-01
      -5.56390584e-01 -5.74100316e-01 -6.34398758e-01 1.39474750e+00
      -5.73928237e-01 -9.00371194e-01 -6.16309047e-01 -5.73345780e-01
      -6.78919196e-01 1.82664323e+00 -6.28388107e-01 -5.26145339e-01
      -8.04318607e-01 -6.15240168e-03 -6.03681862e-01 -4.73508567e-01
      -5.23374975e-01 -5.42226732e-01 -6.07482135e-01 -3.01257581e-01
      -6.02950811e-01 8.56232464e-01 -5.16049504e-01 1.22344232e+00
      -5.95946670e-01 -5.87688327e-01 -5.80280900e-01 2.53107524e+00
      -5.87147236e-01 -5.45089602e-01 1.51177871e+00 -4.79905337e-01
      4.35058880e+00 -5.02350748e-01 -6.19054675e-01 -6.11894488e-01
      2.10126638e+00 -3.85388404e-01 -5.30569553e-01 -3.70809674e-01
      -7.34836280e-01 -5.79554617e-01 -6.54124856e-01 -7.14465082e-01
      -5.87708831e-01 -5.34849048e-01 3.18423748e+00 -5.33600986e-01
      -6.32828772e-01 -5.83898723e-01 -5.04231274e-01 -5.36587715e-01
      -4.80337709e-01 -5.64453602e-01 -5.73080063e-01 1.91730285e+00
      -5.41833401e-01 -6.29377425e-01 3.30878019e-01 7.87395597e-01
      -4.92269993e-01 9.64578927e-01 -6.71688676e-01 -5.11484146e-01
      -6.38908386e-01 -6.52636588e-01 -5.17638803e-01 -4.54940856e-01
      -7.05172718e-01 -5.87257147e-01 -5.34736037e-01 -5.68500400e-01
      1.06450331e+00 -5.39588094e-01 2.68553019e-01 -4.86444086e-01
      -6.23990834e-01 -5.67818761e-01 -5.41359603e-01 -4.91221130e-01
      -5.15151143e-01 -6.43729150e-01 -6.12232089e-01 -6.20149851e-01
      1.26406801e+00 -6.69338822e-01 -6.32596076e-01 -5.70259571e-01
      -5.36476433e-01 -5.91035485e-01 -5.91672599e-01 -6.27239943e-01
      2.31178463e-01 -4.78945822e-01 5.42455196e+00 -4.83430117e-01
      1.88375250e-01 -1.65694490e-01 -6.30800843e-01 2.76166487e+00
      -5.61689854e-01 -6.92914188e-01 -6.94917500e-01 -5.17854035e-01
      -5.81131041e-01 1.09030151e+00 1.63390771e-01 -4.04380023e-01
      -4.94052589e-01 8.35652947e-01 -5.87378561e-01 -7.80789733e-01
      -5.87021768e-01 -6.16540313e-01 -5.49225032e-01 -5.47353387e-01
      -5.28136015e-01 1.27998233e+00 -5.18400311e-01 -5.88752925e-01
      -6.59805179e-01 -6.42561615e-01 -5.77599823e-01 -6.06415212e-01
      4.36626136e-01 -5.09287238e-01 -6.41739964e-01 2.14324379e+00</_>
    <_>
      1.70974422e+00 -1.43662274e-01 9.57270086e-01 -1.86646283e-01
      -6.49620295e-01 1.56708705e+00 9.08569753e-01 7.92556405e-01
      3.28026915e+00 4.38525105e+00 6.95413470e-01 4.11534011e-01
      -3.43980193e-01 -8.21376503e-01 -6.11330867e-01 3.70931149e+00
      8.27885121e-02 1.32886112e+00 -1.80352107e-01 -9.28608105e-02
      2.50418603e-01 7.91215599e-01 6.25877321e-01 2.63201213e+00
      -6.86673403e-01 -6.83057666e-01 1.58921933e+00 1.66259229e+00
      -5.61491251e-01 -5.43955803e-01 -7.56342590e-01 1.81646848e+00
      1.18806195e+00 -6.38135910e-01 5.18530197e-02 2.62188673e-01
      -5.78388758e-02 5.29125869e-01 -2.63870329e-01 3.10874909e-01
      -4.75978762e-01 1.37240136e+00 4.40229118e-01 -2.27757525e-02
      -6.04828298e-01 2.69118920e-02 -6.72281206e-01 3.77611697e-01
      -5.28729260e-01 -8.02422017e-02 -9.36496109e-02 5.69069162e-02
      -1.01978272e-01 -1.37465432e-01 1.19400454e+00 -7.00389802e-01
      -4.53906506e-02 -3.51416767e-01 1.43483782e+00 -6.08493090e-01
      3.48504663e-01 2.12389112e+00 1.09530099e-01 1.45067364e-01
      1.00817490e+00 -1.82546213e-01 -3.65312696e-01 -4.42490488e-01
      3.34838778e-01 8.73412490e-01 -5.81415236e-01 -6.46638036e-01
      4.50842768e-01 -8.25970709e-01 -1.72551334e-01 -3.80570963e-02
      5.45179367e-01 -5.50078273e-01 -1.31749794e-01 5.93797684e-01
      -1.72365323e-01 -4.98809248e-01 -6.28388107e-01 4.99691665e-02
      3.35654914e-01 5.44490397e-01 3.67545366e-01 3.43469262e-01
      -5.23374975e-01 2.74954224e+00 4.25873876e-01 -2.07095757e-01
      -6.02950811e-01 1.92179158e-01 3.58479023e-01 -5.50834775e-01
      -5.95184602e-02 -5.87688327e-01 -3.70924659e-02 -3.95176858e-01
      -2.72617899e-02 -5.45089602e-01 -7.38558531e-01 3.30102324e+00
      -4.17329580e-01 2.35970974e+00 -1.68797791e-01 2.97952741e-01
      -6.03004575e-01 7.47322261e-01 -5.30569553e-01 -3.70809674e-01
      -7.34836280e-01 6.46412432e-01 -2.52339363e-01 7.21183717e-01
      9.78754938e-01 2.49200487e+00 2.06873107e+00 1.13046288e-01
      4.15078551e-01 4.86947298e-01 4.85073626e-02 7.94541761e-02
      8.45502317e-01 -5.64453602e-01 1.16788995e+00 7.82717288e-01
      3.45546603e-02 -1.88370064e-01 -7.06591129e-01 1.31811500e+00
      1.83808520e-01 -1.74518690e-01 5.95868289e-01 2.09952459e-01
      -1.53249592e-01 -1.18232453e-02 -3.14754099e-02 -4.54940856e-01
      -7.05172718e-01 -1.20118111e-02 -5.34736037e-01 5.14525890e-01
      -5.80476701e-01 -6.19065315e-02 -6.07714176e-01 8.57013613e-02
      -9.62899476e-02 1.22479022e+00 -5.41359603e-01 1.16506323e-01
      2.24854255e+00 8.79671991e-01 -2.29529932e-01 -1.38360828e-01
      -5.90538383e-01 -2.50247240e-01 -9.56747681e-02 -5.70259571e-01
      -3.51035029e-01 -1.95564762e-01 3.51406765e+00 -8.02296773e-02
      -4.55732107e-01 -4.78945822e-01 6.84507310e-01 7.05404401e-01
      7.27599412e-02 -4.88550395e-01 -1.58416077e-01 7.92604327e-01
      -1.98171884e-02 9.56593007e-02 -2.04966158e-01 2.15767607e-01
      5.24593174e-01 2.68040514e+00 -5.37071764e-01 -4.04380023e-01
      9.71640527e-01 1.02005541e+00 -1.76714167e-01 3.83594245e-01
      1.42256010e+00 2.28718325e-01 -5.49225032e-01 -5.47353387e-01
      -1.30044058e-01 -2.70604938e-01 9.59317029e-01 5.52239239e-01
      -1.84596106e-01 -2.81692356e-01 3.22055966e-01 -1.74672469e-01
      -7.33329296e-01 3.83238167e-01 -6.41739964e-01 -4.33859795e-01</_>
    <_>
      8.43470097e-01 1.16679823e+00 2.87215757e+00 3.37422907e-01
      -6.49620295e-01 1.84608650e+00 1.50653034e-01 7.97316253e-01
      5.26215672e-01 2.09075379e+00 1.33083439e+00 5.42944670e-01
      -4.40549970e-01 -9.31727529e-01 -5.30983508e-01 2.23925877e+00
      -5.34459174e-01 1.80236077e+00 5.78618497e-02 -2.22492680e-01
      3.52801353e-01 9.61058080e-01 -1.47305116e-01 2.31881642e+00
      -6.86673403e-01 -2.11899638e-01 4.44290154e-02 2.21430135e+00
      -5.61491251e-01 2.00778931e-01 -3.59293908e-01 1.24535966e+00
      2.21115485e-01 -6.38135910e-01 3.71767074e-01 -5.92045546e-01
      9.76880848e-01 -5.35867751e-01 -5.39814889e-01 -1.73080593e-01
      -2.40545809e-01 8.69240820e-01 5.65766752e-01 -5.45798361e-01
      8.19232464e-02 -3.77000868e-01 -3.95723909e-01 8.73037875e-01
      -5.28729260e-01 5.83581865e-01 -3.11500251e-01 -4.86222029e-01
      -5.17450631e-01 9.69789252e-02 1.19933784e+00 1.66537642e+00
      2.17492193e-01 -4.30764139e-01 1.44088387e+00 -6.08493090e-01
      -2.57333934e-01 6.18885040e-01 2.11234868e-01 -5.76939136e-02
      6.19919300e-01 9.24488544e-01 2.50361711e-02 -3.56964767e-01
      4.58088815e-01 -5.59246838e-01 -2.05252558e-01 -6.04439437e-01
      5.80212176e-01 -8.50292206e-01 6.04909584e-02 -1.76413760e-01
      1.10986674e+00 1.53721228e-01 1.20634496e+00 1.18272328e+00
      8.32352564e-02 -4.98809248e-01 1.31776065e-01 1.23965532e-01
      1.96208671e-01 9.90133047e-01 -2.38357857e-01 1.41098604e-01
      -5.67968143e-03 2.34687948e+00 -6.07482135e-01 -1.43664489e-02
      -2.32659951e-01 3.01162452e-01 4.70803797e-01 -5.50834775e-01
      1.42181075e+00 -5.87688327e-01 -5.80280900e-01 4.81840298e-02
      1.09764564e+00 -2.98785031e-01 -2.63716668e-01 4.68217432e-01
      -6.16353393e-01 5.74204087e-01 -6.19054675e-01 4.14813846e-01
      -6.03004575e-01 1.31887352e+00 -5.30569553e-01 -3.70809674e-01
      -5.32679498e-01 1.26501966e+00 -3.51864219e-01 5.81570208e-01
      -1.94895267e-01 3.10848355e+00 1.42022943e+00 -4.71323915e-02
      1.33800602e+00 6.24487162e-01 3.27412188e-01 1.31718981e+00
      1.01579368e+00 1.43804729e-01 3.00067008e-01 -4.85258162e-01
      2.05984473e+00 6.97690606e-01 -6.36436760e-01 5.81717908e-01
      -4.92269993e-01 1.05172491e+00 -6.71688676e-01 5.73980093e-01
      -6.38908386e-01 -4.11596686e-01 2.13836417e-01 -3.45681906e-01
      -7.05172718e-01 7.11002946e-01 -5.34736037e-01 -1.61123544e-01
      -5.80476701e-01 8.97838950e-01 -5.81828117e-01 -5.60227409e-02
      1.09628165e+00 3.31226707e-01 -3.51682663e-01 8.80347252e-01
      2.81142354e+00 2.22138286e+00 5.39385498e-01 1.04743727e-01
      1.92139581e-01 -6.69338822e-01 1.75248832e-01 1.80980051e+00
      -5.36476433e-01 -5.91035485e-01 3.26922989e+00 -6.27239943e-01
      -3.20614427e-01 -4.78945822e-01 3.71705651e-01 -4.83430117e-01
      -2.33127072e-01 -5.46636403e-01 7.99432024e-02 7.96977937e-01
      2.53604829e-01 7.90182710e-01 -3.26330245e-01 3.40448134e-02
      1.91435671e+00 1.36350334e-01 -5.37071764e-01 -4.04380023e-01
      1.15989470e+00 5.99820912e-01 -2.78438359e-01 3.14158440e-01
      5.46824872e-01 1.93423424e-02 -3.15189332e-01 -5.47353387e-01
      7.08280429e-02 -4.20335114e-01 -2.40480974e-01 1.55714965e+00
      7.70181715e-01 -6.42561615e-01 -5.77599823e-01 -6.06415212e-01
      -4.86457944e-01 1.62153900e-01 1.94853604e-01 -4.33859795e-01</_>
    <_>
      2.89340496e-01 1.59276736e+00 -5.66253603e-01 -7.81683207e-01
      1.27219930e-01 -6.05123222e-01 -6.11913502e-01 -7.63910592e-01
      5.61061323e-01 -4.61652130e-01 9.02909935e-01 1.77182627e+00
      -4.40549970e-01 -3.80166173e-01 1.82603240e+00 1.91289163e+00
      -5.34459174e-01 -5.36613941e-01 -6.52448893e-01 6.02928460e-01
      -5.46704113e-01 1.00910199e+00 8.30091059e-01 -5.88586867e-01
      1.18013360e-01 -6.83057666e-01 1.43855536e+00 -5.11008918e-01
      -5.61491251e-01 -5.43955803e-01 7.10065782e-01 -4.89119172e-01
      2.46729746e-01 -6.38135910e-01 -5.82158446e-01 -5.92045546e-01
      -5.72836339e-01 -8.92314613e-01 -5.39814889e-01 -6.60005152e-01
      -4.75978762e-01 1.70710051e+00 -5.37170887e-01 -5.45798361e-01
      -6.04828298e-01 -3.60163122e-01 1.04048860e+00 1.68301880e+00
      3.51244479e-01 1.85231400e+00 -6.31659389e-01 -4.86222029e-01
      -5.09385109e-01 4.80276078e-01 8.04247379e-01 5.20578563e-01
      -5.66376626e-01 7.44743049e-02 9.92995143e-01 -6.08493090e-01
      1.63965774e+00 6.58752382e-01 -6.82314157e-01 -6.73487425e-01
      6.57884300e-01 -4.97603089e-01 -3.65312696e-01 -4.42490488e-01
      1.61065674e+00 5.53234875e-01 5.83406687e-01 -6.32858098e-01
      -5.56390584e-01 2.19495371e-01 1.51739049e+00 -5.96608102e-01
      7.29577780e-01 -8.43479261e-02 1.64129663e+00 1.23926342e+00
      -6.78919196e-01 -4.98809248e-01 5.48570633e-01 1.44897148e-01
      8.08881372e-02 -2.04247519e-01 -6.03681862e-01 -4.73508567e-01
      -5.23374975e-01 7.35827565e-01 5.96142828e-01 1.87902287e-01
      -6.02950811e-01 1.32031536e+00 -5.16049504e-01 -5.50834775e-01
      6.53687298e-01 -8.64346623e-02 -5.80280900e-01 -1.01788431e-01
      2.02140999e+00 -5.45089602e-01 -3.36304842e-03 -4.79905337e-01
      -6.16353393e-01 -5.02350748e-01 -6.19054675e-01 -6.11894488e-01
      -6.03004575e-01 -3.85388404e-01 -5.30569553e-01 -3.70809674e-01
      -1.08839475e-01 2.27639151e+00 2.81852722e-01 -7.14465082e-01
      6.28674030e-01 8.75389814e-01 -5.49294055e-01 -5.33600986e-01
      5.87745130e-01 -5.83898723e-01 2.07102847e+00 -5.36587715e-01
      -4.80337709e-01 5.32139599e-01 7.78809607e-01 -6.67030871e-01
      4.82905531e+00 -6.29377425e-01 -7.68360436e-01 -5.31361580e-01
      4.23259687e+00 4.15872693e-01 -6.71688676e-01 1.16913521e+00
      -6.38908386e-01 1.58656919e+00 -5.17638803e-01 2.21719697e-01
      7.42721632e-02 -5.87257147e-01 -5.34736037e-01 -5.68500400e-01
      -5.80476701e-01 5.73192835e-01 -8.09255600e-01 -4.86444086e-01
      1.95544645e-01 8.24169278e-01 4.59922813e-02 -4.91221130e-01
      7.72478998e-01 -6.43729150e-01 1.17081225e+00 5.02199590e-01
      -5.90538383e-01 3.06954056e-01 -6.32596076e-01 -5.70259571e-01
      -5.36476433e-01 -5.91035485e-01 -5.91672599e-01 3.19561601e+00
      -9.97081175e-02 7.04882741e-01 4.02292490e-01 9.01291966e-01
      -5.40890694e-01 -2.67822742e-01 -8.05799365e-02 4.72985297e-01
      -5.61689854e-01 2.06261253e+00 4.46446478e-01 -5.17854035e-01
      7.06786454e-01 3.75358772e+00 -5.37071764e-01 -4.04380023e-01
      1.21314681e+00 3.11572939e-01 -5.87378561e-01 1.25357437e+00
      1.75368440e+00 3.67993921e-01 1.75487861e-01 -5.47353387e-01
      -5.28136015e-01 -8.75071228e-01 -5.18400311e-01 -5.88752925e-01
      1.55423713e+00 -6.42561615e-01 1.51818931e+00 1.40511370e+00
      3.11302766e-02 1.56989133e+00 1.94884813e+00 -4.33859795e-01</_>
    <_>
      2.38148832e+00 -6.18214428e-01 -5.66253603e-01 1.51987481e+00
      -6.49620295e-01 -6.05123222e-01 -6.11913502e-01 -7.63910592e-01
      -5.56048155e-01 -4.61652130e-01 -5.63875377e-01 -6.11591756e-01
      -4.40549970e-01 1.05428421e+00 -1.54660255e-01 -5.92319906e-01
      -5.34459174e-01 -5.36613941e-01 -6.52448893e-01 3.43220210e+00
      9.94901121e-01 -5.31129420e-01 -6.13488674e-01 -5.88586867e-01
      -6.86673403e-01 1.73940587e+00 -6.20520115e-01 -5.11008918e-01
      -5.61491251e-01 7.32397735e-01 4.79616690e-03 -4.89119172e-01
      -5.74432552e-01 -6.38135910e-01 -5.82158446e-01 5.09325624e-01
      1.41913509e+00 2.40228232e-02 -5.39814889e-01 -6.60005152e-01
      -4.75978762e-01 -6.58876300e-01 -5.37170887e-01 -5.45798361e-01
      -6.04828298e-01 3.58138442e+00 -6.72281206e-01 -6.04232967e-01
      -5.28729260e-01 -6.08394146e-01 -4.06166047e-01 -4.86222029e-01
      5.20019770e-01 1.19504714e+00 -5.49993515e-01 -7.00389802e-01
      -5.66376626e-01 -6.71745062e-01 -5.42221129e-01 3.63394171e-01
      1.25549757e+00 -6.19347513e-01 8.49082768e-01 -6.73487425e-01
      -5.59227407e-01 -4.97603089e-01 -3.65312696e-01 -4.42490488e-01
      -6.24750733e-01 -5.59246838e-01 -5.81415236e-01 -8.33194032e-02
      -5.56390584e-01 -5.44378459e-01 2.58796751e-01 3.72425795e+00
      -5.73928237e-01 -9.00371194e-01 -6.16309047e-01 -5.73345780e-01
      -6.78919196e-01 -4.98809248e-01 -6.28388107e-01 5.88038385e-01
      -6.94300011e-02 6.62457049e-01 -6.03681862e-01 -4.73508567e-01
      -5.23374975e-01 -5.42226732e-01 -6.07482135e-01 -2.35699609e-01
      -6.02950811e-01 -6.56333506e-01 -5.16049504e-01 -5.50834775e-01
      1.47891724e+00 -5.87688327e-01 -5.80280900e-01 1.09121084e+00
      -5.87147236e-01 -5.45089602e-01 4.82143372e-01 -4.79905337e-01
      4.00250149e+00 -5.02350748e-01 -6.19054675e-01 -6.11894488e-01
      2.33087444e+00 -3.85388404e-01 -5.30569553e-01 -3.70809674e-01
      3.04554641e-01 -5.79554617e-01 -6.54124856e-01 -7.14465082e-01
      -5.87708831e-01 -5.34849048e-01 -5.49294055e-01 -5.33600986e-01
      -6.32828772e-01 -5.83898723e-01 -5.04231274e-01 -5.36587715e-01
      -4.80337709e-01 -5.64453602e-01 -5.73080063e-01 1.20214128e+00
      -5.41833401e-01 -6.29377425e-01 7.98786044e-01 8.99365604e-01
      -4.92269993e-01 -6.18573725e-01 -6.71688676e-01 -5.11484146e-01
      -6.38908386e-01 -6.52636588e-01 -5.17638803e-01 1.06815062e-01
      -7.05172718e-01 -5.87257147e-01 -5.34736037e-01 -5.68500400e-01
      3.11847419e-01 -5.39588094e-01 1.13961220e+00 -4.86444086e-01
      5.63782305e-02 1.74340665e+00 -5.41359603e-01 -4.91221130e-01
      -5.15151143e-01 -6.43729150e-01 -6.12232089e-01 -6.20149851e-01
      1.42153466e+00 9.51675713e-01 -6.32596076e-01 -5.70259571e-01
      1.80796936e-01 9.38615382e-01 -5.91672599e-01 -6.27239943e-01
      -7.23510861e-01 -4.78945822e-01 2.67797136e+00 -4.83430117e-01
      -5.40890694e-01 3.35133016e-01 -6.30800843e-01 -6.37555480e-01
      -5.61689854e-01 -6.92914188e-01 -6.94917500e-01 -5.17854035e-01
      -5.81131041e-01 1.23043728e+00 2.22864062e-01 -4.04380023e-01
      -4.94052589e-01 -6.76446915e-01 -5.87378561e-01 -7.80789733e-01
      -5.87021768e-01 -6.16540313e-01 -5.49225032e-01 1.15338957e+00
      -5.28136015e-01 1.46295869e+00 -5.18400311e-01 -5.88752925e-01
      -6.59805179e-01 7.53253400e-01 1.16230059e+00 -6.06415212e-01
      -7.33329296e-01 1.21682334e+00 1.50893688e+00 9.64097440e-01</_>
    <_>
      -6.12154186e-01 1.94186962e+00 -5.66253603e-01 -7.81683207e-01
      -6.49620295e-01 -6.05123222e-01 -6.11913502e-01 -7.63910592e-01
      -5.56048155e-01 -4.61652130e-01 -5.63875377e-01 2.14815521e+00
      -4.40549970e-01 -4.40084450e-02 1.80650902e+00 -5.92319906e-01
      -5.34459174e-01 -5.36613941e-01 1.89438891e+00 -6.16189480e-01
      -5.46704113e-01 -5.31129420e-01 -6.13488674e-01 -5.88586867e-01
      -6.86673403e-01 1.00629187e+00 -6.20520115e-01 -5.11008918e-01
      2.58818769e+00 3.01639867e+00 9.59445596e-01 -4.89119172e-01
      -5.74432552e-01 1.26132405e+00 -5.82158446e-01 9.44077432e-01
      -5.72836339e-01 -8.92314613e-01 -5.39814889e-01 -6.60005152e-01
      -4.75978762e-01 -6.58876300e-01 -5.37170887e-01 -5.45798361e-01
      -6.04828298e-01 3.50098073e-01 -6.72281206e-01 -6.04232967e-01
      -5.28729260e-01 2.24084663e+00 -1.82368174e-01 -4.86222029e-01
      1.32782912e+00 -6.02091491e-01 -5.49993515e-01 -7.00389802e-01
      -5.66376626e-01 -6.71745062e-01 3.01301646e+00 7.47033894e-01
      -6.22618973e-01 -6.19347513e-01 -6.82314157e-01 -6.73487425e-01
      2.25934696e+00 -4.97603089e-01 -3.65312696e-01 -4.42490488e-01
      -6.24750733e-01 -5.59246838e-01 -5.81415236e-01 -2.79106468e-01
      -5.56390584e-01 1.35226190e-01 -6.34398758e-01 -5.96608102e-01
      -5.73928237e-01 -9.00371194e-01 -6.16309047e-01 -5.73345780e-01
      -6.78919196e-01 1.26057923e+00 -6.28388107e-01 1.02784777e+00
      3.29558611e+00 -5.77705622e-01 -6.03681862e-01 -4.73508567e-01
      -5.23374975e-01 -5.42226732e-01 -6.07482135e-01 -4.89209414e-01
      -6.02950811e-01 -6.56333506e-01 -5.16049504e-01 -5.50834775e-01
      -5.95946670e-01 -5.87688327e-01 -5.80280900e-01 -6.15845025e-01
      -5.87147236e-01 -5.45089602e-01 -7.38558531e-01 -4.79905337e-01
      -6.16353393e-01 -5.02350748e-01 -6.19054675e-01 -6.11894488e-01
      3.48898411e+00 -3.85388404e-01 -5.30569553e-01 -3.70809674e-01
      7.14840531e-01 -5.79554617e-01 1.51340210e+00 8.34524453e-01
      -5.87708831e-01 -5.34849048e-01 -5.49294055e-01 -5.33600986e-01
      -6.32828772e-01 -5.83898723e-01 -5.04231274e-01 2.78679633e+00
      -4.80337709e-01 -5.64453602e-01 -5.73080063e-01 -6.67030871e-01
      -5.41833401e-01 -6.29377425e-01 5.08076310e-01 1.46412635e+00
      -4.92269993e-01 -6.18573725e-01 -6.71688676e-01 -5.11484146e-01
      -6.38908386e-01 -6.52636588e-01 -5.17638803e-01 -4.54940856e-01
      -7.05172718e-01 -5.87257147e-01 -5.34736037e-01 -5.68500400e-01
      -5.80476701e-01 -5.39588094e-01 -2.65624076e-01 -4.86444086e-01
      -6.23990834e-01 -5.67818761e-01 -5.41359603e-01 -4.91221130e-01
      -5.15151143e-01 -6.43729150e-01 1.45234549e+00 -6.20149851e-01
      -5.90538383e-01 -6.69338822e-01 -6.32596076e-01 -5.70259571e-01
      -5.36476433e-01 -5.91035485e-01 -5.91672599e-01 -6.27239943e-01
      7.21084893e-01 -4.78945822e-01 -5.78284562e-01 -4.83430117e-01
      3.87308764e+00 3.31154913e-01 6.43394887e-01 -6.37555480e-01
      -5.61689854e-01 1.43415916e+00 -6.94917500e-01 -5.17854035e-01
      -5.81131041e-01 -5.60185492e-01 1.58274925e+00 3.52790833e-01
      -4.94052589e-01 -6.76446915e-01 -5.87378561e-01 -7.80789733e-01
      -5.87021768e-01 -6.16540313e-01 -5.49225032e-01 -5.47353387e-01
      1.61946547e+00 7.55397022e-01 -5.18400311e-01 -5.88752925e-01
      -6.59805179e-01 -6.42561615e-01 -5.77599823e-01 1.72272336e+00
      -7.33329296e-01 1.89818275e+00 -6.41739964e-01 3.46570516e+00</_>
    <_>
      -6.12154186e-01 -6.18214428e-01 -5.66253603e-01 -7.81683207e-01
      4.61955875e-01 -6.05123222e-01 -6.11913502e-01 1.00793272e-01
      1.04241729e+00 -4.61652130e-01 -5.63875377e-01 -6.11591756e-01
      -4.40549970e-01 1.65502942e+00 2.90994108e-01 -5.92319906e-01
      -5.34459174e-01 -5.36613941e-01 -6.52448893e-01 -6.16189480e-01
      -5.46704113e-01 -5.31129420e-01 -6.13488674e-01 -5.88586867e-01
      -6.86673403e-01 -6.83057666e-01 -6.20520115e-01 -5.11008918e-01
      -5.61491251e-01 -5.43955803e-01 -1.16019547e-01 -4.89119172e-01
      -5.74432552e-01 -6.38135910e-01 -5.82158446e-01 3.57103556e-01
      -5.72836339e-01 1.47675276e+00 -5.39814889e-01 4.18750405e-01
      5.67199707e-01 -6.58876300e-01 -5.37170887e-01 -5.45798361e-01
      -6.04828298e-01 2.18961668e+00 -6.72281206e-01 -6.04232967e-01
      -5.28729260e-01 -6.08394146e-01 -4.84525651e-01 -4.86222029e-01
      1.57013029e-01 -6.02091491e-01 -5.49993515e-01 -7.00389802e-01
      -5.66376626e-01 -6.71745062e-01 -5.42221129e-01 6.09199762e+00
      -6.22618973e-01 -6.19347513e-01 -6.82314157e-01 -6.73487425e-01
      -5.59227407e-01 -4.97603089e-01 -3.65312696e-01 -4.42490488e-01
      -6.24750733e-01 -5.59246838e-01 -5.81415236e-01 -3.12118322e-01
      -5.56390584e-01 7.12288797e-01 1.67483830e+00 -5.96608102e-01
      -5.73928237e-01 -9.00371194e-01 -6.16309047e-01 -5.73345780e-01
      -6.78919196e-01 -4.98809248e-01 -6.28388107e-01 4.34045464e-01
      -8.04318607e-01 -4.33265902e-02 -6.03681862e-01 -4.73508567e-01
      -5.23374975e-01 1.28653371e+00 1.11477780e+00 7.31383324e-01
      -6.02950811e-01 -6.56333506e-01 -5.16049504e-01 -5.50834775e-01
      -5.95946670e-01 2.99851656e+00 1.23034716e+00 -6.15845025e-01
      -5.87147236e-01 -5.45089602e-01 -7.38558531e-01 -4.79905337e-01
      -6.16353393e-01 -5.02350748e-01 -6.19054675e-01 -6.11894488e-01
      2.39789858e-01 -3.85388404e-01 -5.30569553e-01 -3.70809674e-01
      1.60898924e-01 -5.79554617e-01 -6.54124856e-01 -7.14465082e-01
      -5.87708831e-01 -5.34849048e-01 -5.49294055e-01 1.62188983e+00
      1.11368346e+00 -5.83898723e-01 -5.04231274e-01 1.51688528e+00
      -4.80337709e-01 1.00465524e+00 1.36133099e+00 9.43800390e-01
      -5.41833401e-01 8.40647042e-01 2.70223618e+00 1.93460715e+00
      -4.92269993e-01 -6.18573725e-01 -6.71688676e-01 -5.11484146e-01
      9.79954123e-01 -6.52636588e-01 -5.17638803e-01 2.91739739e-02
      -7.05172718e-01 -5.87257147e-01 -5.34736037e-01 1.23654342e+00
      9.57512736e-01 -5.39588094e-01 8.70256424e-01 -4.86444086e-01
      -3.76565456e-02 -5.67818761e-01 2.82039404e+00 -4.91221130e-01
      -5.15151143e-01 -6.43729150e-01 6.63441777e-01 -6.20149851e-01
      -5.90538383e-01 -6.69338822e-01 -6.32596076e-01 -5.70259571e-01
      -5.36476433e-01 -5.91035485e-01 -5.91672599e-01 -6.27239943e-01
      -7.23510861e-01 3.68020892e-01 -5.78284562e-01 -4.83430117e-01
      1.40943319e-01 -7.16697723e-02 -6.30800843e-01 -6.37555480e-01
      -5.61689854e-01 -6.92914188e-01 -6.94917500e-01 -5.17854035e-01
      -5.81131041e-01 -5.60185492e-01 -5.37071764e-01 6.34653717e-02
      -4.94052589e-01 -6.76446915e-01 -5.87378561e-01 3.10048985e+00
      -5.87021768e-01 -6.16540313e-01 -5.49225032e-01 -5.47353387e-01
      -5.28136015e-01 2.14725995e+00 -5.18400311e-01 -5.88752925e-01
      -6.59805179e-01 5.60335815e-01 -5.77599823e-01 -6.06415212e-01
      3.60531479e-01 -5.09287238e-01 -6.41739964e-01 -4.33859795e-01</_>
    <_>
      -6.12154186e-01 9.01835501e-01 -5.66253603e-01 3.03027225e+00
      4.18534964e-01 1.13434207e+00 1.01151907e+00 -7.63910592e-01
      9.79977369e-01 -4.61652130e-01 1.45295441e+00 -6.11591756e-01
      -4.40549970e-01 4.18208450e-01 2.49527022e-01 -5.92319906e-01
      1.44266236e+00 -5.36613941e-01 2.37192106e+00 2.73638487e+00
      7.29937732e-01 -5.31129420e-01 -6.13488674e-01 -5.88586867e-01
      -6.86673403e-01 -6.83057666e-01 7.95094252e-01 -5.11008918e-01
      -5.61491251e-01 -5.43955803e-01 2.16501191e-01 1.97257602e+00
      5.54665565e-01 -6.38135910e-01 3.47947741e+00 -5.92045546e-01
      1.07676494e+00 -8.92314613e-01 3.44069988e-01 -6.60005152e-01
      5.26450634e-01 9.67732728e-01 1.02819633e+00 -5.45798361e-01
      8.57201338e-01 5.84484220e-01 -6.72281206e-01 -6.04232967e-01
      -5.28729260e-01 -6.08394146e-01 4.35407221e-01 -4.86222029e-01
      -4.12421018e-01 -6.02091491e-01 -5.49993515e-01 -7.00389802e-01
      -5.66376626e-01 -6.71745062e-01 1.56870115e+00 -6.08493090e-01
      9.32696223e-01 -6.19347513e-01 5.85873902e-01 -6.73487425e-01
      2.78782964e+00 -4.97603089e-01 -3.65312696e-01 -4.42490488e-01
      -6.24750733e-01 2.50007772e+00 -5.81415236e-01 -4.62390840e-01
      -5.56390584e-01 -2.95148432e-01 8.44956338e-01 -5.96608102e-01
      -5.73928237e-01 2.21660778e-01 2.48789859e+00 -5.73345780e-01
      -6.78919196e-01 -4.98809248e-01 -6.28388107e-01 -5.26145339e-01
      3.45573878e+00 -6.42007515e-02 -6.03681862e-01 2.14337349e+00
      -5.23374975e-01 1.21509778e+00 -6.07482135e-01 1.35459220e+00
      9.73678172e-01 7.02612519e-01 8.84562612e-01 -5.50834775e-01
      -5.95946670e-01 7.90759206e-01 -5.80280900e-01 9.09827724e-02
      -5.87147236e-01 -5.45089602e-01 2.72335231e-01 -4.79905337e-01
      -6.16353393e-01 1.78953362e+00 -6.19054675e-01 2.30245996e+00
      -6.03004575e-01 -3.85388404e-01 1.06064951e+00 -3.70809674e-01
      -7.34836280e-01 -5.79554617e-01 -6.54124856e-01 2.05247447e-01
      -5.87708831e-01 -5.34849048e-01 1.12787831e+00 -5.33600986e-01
      -6.32828772e-01 -5.83898723e-01 -5.04231274e-01 -5.36587715e-01
      -4.80337709e-01 -5.64453602e-01 -5.73080063e-01 -6.67030871e-01
      -5.41833401e-01 -6.29377425e-01 1.97439104e-01 -5.31361580e-01
      1.67329395e+00 8.03790033e-01 -6.71688676e-01 -5.11484146e-01
      9.16717350e-01 -6.52636588e-01 -5.17638803e-01 -4.54940856e-01
      -7.05172718e-01 -5.87257147e-01 5.32561839e-01 1.16603386e+00
      -5.80476701e-01 -5.39588094e-01 -1.63693145e-01 -4.86444086e-01
      1.06630099e+00 3.26014829e+00 -5.41359603e-01 -4.91221130e-01
      1.25534022e+00 5.76181889e-01 -6.12232089e-01 -6.20149851e-01
      -5.90538383e-01 6.73063815e-01 1.08722997e+00 -5.70259571e-01
      -5.36476433e-01 -5.91035485e-01 -5.91672599e-01 1.12490237e+00
      1.34217873e-01 -4.78945822e-01 2.11830235e+00 -4.83430117e-01
      1.14309207e-01 -4.72673088e-01 -6.30800843e-01 -6.37555480e-01
      1.17399609e+00 -6.92914188e-01 -6.94917500e-01 -5.17854035e-01
      -5.81131041e-01 2.40553355e+00 -5.37071764e-01 -4.04380023e-01
      -4.94052589e-01 -6.76446915e-01 7.28030801e-01 1.08404398e+00
      -5.87021768e-01 7.37194180e-01 1.44373536e+00 8.61074328e-01
      -5.28136015e-01 -8.75071228e-01 -5.18400311e-01 -5.88752925e-01
      -6.59805179e-01 -6.42561615e-01 -5.77599823e-01 -6.06415212e-01
      -7.33329296e-01 9.20148015e-01 -6.41739964e-01 -4.33859795e-01</_>
    <_>
      -6.12154186e-01 9.89772201e-01 1.15453064e+00 -7.81683207e-01
      -6.49620295e-01 -6.05123222e-01 1.10543668e+00 -7.63910592e-01
      -5.56048155e-01 -4.61652130e-01 -5.63875377e-01 1.12180305e+00
      -4.40549970e-01 -3.98896396e-01 1.38764584e+00 -5.92319906e-01
      -5.34459174e-01 -5.36613941e-01 9.47217762e-01 2.93033528e+00
      8.03792953e-01 -5.31129420e-01 -6.13488674e-01 -5.88586867e-01
      4.83779997e-01 -6.83057666e-01 -6.20520115e-01 -5.11008918e-01
      4.27664042e-01 1.69229984e+00 -4.86454368e-01 -4.89119172e-01
      -5.74432552e-01 -6.38135910e-01 -5.82158446e-01 -5.92045546e-01
      -5.72836339e-01 7.13169038e-01 1.33022249e+00 -6.60005152e-01
      -4.75978762e-01 -6.58876300e-01 1.11875474e+00 -5.45798361e-01
      9.41781461e-01 1.45552254e+00 -6.72281206e-01 -6.04232967e-01
      -5.28729260e-01 1.18121159e+00 1.01356316e+00 -4.86222029e-01
      -5.79904437e-01 -6.02091491e-01 -5.49993515e-01 1.07556415e+00
      1.19894767e+00 4.13664848e-01 1.69082057e+00 2.42912218e-01
      -6.22618973e-01 -6.19347513e-01 -6.82314157e-01 -6.73487425e-01
      -5.59227407e-01 3.77258921e+00 1.39287019e+00 -4.42490488e-01
      -6.24750733e-01 -5.59246838e-01 -5.81415236e-01 2.61541545e-01
      1.15007901e+00 7.39394426e-02 1.71300745e+00 -5.96608102e-01
      -5.73928237e-01 -9.00371194e-01 4.30937529e+00 7.44915366e-01
      1.03750300e+00 -4.98809248e-01 -6.28388107e-01 -5.26145339e-01
      4.83254761e-01 -5.77705622e-01 1.04178560e+00 -4.73508567e-01
      -5.23374975e-01 -5.42226732e-01 -6.07482135e-01 7.61214256e-01
      -6.02950811e-01 -6.56333506e-01 -5.16049504e-01 -5.50834775e-01
      -5.95946670e-01 -5.87688327e-01 -5.80280900e-01 -6.15845025e-01
      1.30998516e+00 -5.45089602e-01 3.30816627e-01 1.65532970e+00
      5.80248013e-02 -5.02350748e-01 -6.19054675e-01 -6.11894488e-01
      -6.03004575e-01 -3.85388404e-01 -5.30569553e-01 -3.70809674e-01
      1.08624518e+00 -5.79554617e-01 -6.54124856e-01 1.23137295e+00
      1.18157518e+00 -5.34849048e-01 -5.49294055e-01 -5.33600986e-01
      -6.32828772e-01 -5.83898723e-01 -5.04231274e-01 1.55082691e+00
      -4.80337709e-01 -5.64453602e-01 -5.73080063e-01 -6.67030871e-01
      1.41121697e+00 -6.29377425e-01 -3.58627319e-01 -5.31361580e-01
      -4.92269993e-01 -6.18573725e-01 -6.71688676e-01 -5.11484146e-01
      -6.38908386e-01 -6.52636588e-01 1.12969172e+00 1.51352608e+00
      -7.05172718e-01 -5.87257147e-01 -5.34736037e-01 -5.68500400e-01
      -5.80476701e-01 -5.39588094e-01 -1.26346588e-01 -4.86444086e-01
      -6.23990834e-01 -5.67818761e-01 -5.41359603e-01 1.56802058e+00
      -5.15151143e-01 1.93723953e+00 -6.12232089e-01 4.27737427e+00
      1.17210400e+00 -6.69338822e-01 1.18672395e+00 1.57376146e+00
      -5.36476433e-01 -5.91035485e-01 -5.91672599e-01 1.22626591e+00
      1.83838502e-01 -4.78945822e-01 8.48009229e-01 1.53071094e+00
      1.52213305e-01 -6.09032176e-02 -6.30800843e-01 -6.37555480e-01
      -5.61689854e-01 -6.92914188e-01 2.62541389e+00 7.25058615e-01
      -5.81131041e-01 -5.60185492e-01 -5.37071764e-01 -4.04380023e-01
      -4.94052589e-01 -6.76446915e-01 -5.87378561e-01 1.19192684e+00
      -5.87021768e-01 -6.16540313e-01 1.55903053e+00 -5.47353387e-01
      -5.28136015e-01 -8.75071228e-01 -5.18400311e-01 -5.88752925e-01
      9.50407267e-01 -6.42561615e-01 -5.77599823e-01 8.56514752e-01
      -7.33329296e-01 -5.09287238e-01 3.12638783e+00 -4.33859795e-01</_>
    <_>
      -6.12154186e-01 7.71545529e-01 9.20995712e-01 8.96208659e-02
      3.26978803e-01 -6.05123222e-01 -6.11913502e-01 -4.20645019e-03
      8.48318040e-01 9.57798123e-01 -5.63875377e-01 8.86556685e-01
      -4.40549970e-01 -7.39250839e-01 6.28418267e-01 -5.92319906e-01
      1.27319479e+00 -5.36613941e-01 -6.52448893e-01 -6.16189480e-01
      -5.46704113e-01 -5.31129420e-01 -6.13488674e-01 -5.88586867e-01
      -6.86673403e-01 -6.83057666e-01 6.73755884e-01 -5.11008918e-01
      -5.61491251e-01 -5.43955803e-01 1.11619890e+00 -4.89119172e-01
      -5.74432552e-01 -6.38135910e-01 1.27458942e+00 -5.92045546e-01
      2.44357753e+00 -1.98516279e-01 -5.39814889e-01 -6.60005152e-01
      4.40528095e-01 -6.58876300e-01 -5.37170887e-01 -5.45798361e-01
      2.06859732e+00 4.57246035e-01 -6.72281206e-01 8.33468139e-01
      2.79002881e+00 9.38336611e-01 2.03173900e+00 -4.86222029e-01
      -6.05425715e-01 7.58599162e-01 1.15248072e+00 -7.00389802e-01
      -5.66376626e-01 1.20446360e+00 -5.42221129e-01 -6.08493090e-01
      -6.22618973e-01 -6.19347513e-01 4.77172077e-01 1.72370875e+00
      2.50093913e+00 -4.97603089e-01 -3.65312696e-01 -4.42490488e-01
      2.18547559e+00 8.39301527e-01 -5.81415236e-01 -4.85351741e-01
      9.18486834e-01 1.08867157e+00 -6.34398758e-01 -5.96608102e-01
      2.70345831e+00 1.25486612e-01 -6.16309047e-01 -5.73345780e-01
      2.28803921e+00 -4.98809248e-01 8.51217151e-01 3.17450911e-01
      3.08512688e-01 -5.77705622e-01 8.18472266e-01 -4.73508567e-01
      -5.23374975e-01 -5.42226732e-01 -6.07482135e-01 1.95109621e-01
      8.38538587e-01 -6.56333506e-01 -5.16049504e-01 -5.50834775e-01
      -5.95946670e-01 -5.87688327e-01 1.01048517e+00 -6.15845025e-01
      1.05251729e+00 -5.45089602e-01 -7.38558531e-01 1.36554790e+00
      -6.16353393e-01 1.59308636e+00 -6.19054675e-01 -6.11894488e-01
      -6.03004575e-01 -3.85388404e-01 -5.30569553e-01 -3.70809674e-01
      -7.34836280e-01 1.21561146e+00 -6.54124856e-01 1.26414955e-01
      2.47062516e+00 -5.34849048e-01 -5.49294055e-01 -5.33600986e-01
      9.01606977e-01 9.84125853e-01 1.11450338e+00 -5.36587715e-01
      -4.80337709e-01 8.14120650e-01 -5.73080063e-01 4.05843109e-02
      1.14616013e+00 -6.29377425e-01 -7.13171899e-01 -5.31361580e-01
      -4.92269993e-01 6.81873143e-01 -6.71688676e-01 -5.11484146e-01
      -6.38908386e-01 2.85697222e-01 -5.17638803e-01 -4.54940856e-01
      2.74700820e-01 -5.87257147e-01 4.41079140e-01 -5.68500400e-01
      -5.80476701e-01 -5.39588094e-01 3.71201456e-01 1.18912470e+00
      -1.08854257e-01 -5.67818761e-01 -5.41359603e-01 3.06832528e+00
      1.10358381e+00 4.71618116e-01 -6.12232089e-01 -6.20149851e-01
      -5.90538383e-01 5.58000743e-01 -6.32596076e-01 -5.70259571e-01
      6.60196273e-03 -5.91035485e-01 -5.91672599e-01 2.57667756e+00
      6.06982745e-02 -4.78945822e-01 3.11989188e+00 1.25736332e+00
      -5.40890694e-01 -6.08589649e-01 -6.30800843e-01 7.58552909e-01
      1.02522302e+00 4.61782724e-01 7.39940047e-01 -5.17854035e-01
      1.03796518e+00 -5.60185492e-01 -5.37071764e-01 -4.04380023e-01
      -4.94052589e-01 -6.76446915e-01 1.81794143e+00 7.17056766e-02
      -5.87021768e-01 1.85885990e+00 -5.49225032e-01 -5.47353387e-01
      6.37704790e-01 -8.75071228e-01 1.64540005e+00 -5.88752925e-01
      7.31878519e-01 -6.42561615e-01 2.05710649e+00 -6.06415212e-01
      2.27705568e-01 2.10453725e+00 2.61499929e+00 6.24593556e-01</_>
    <_>
      -6.12154186e-01 -6.18214428e-01 -5.66253603e-01 4.81301732e-02
      -6.49620295e-01 9.09513175e-01 2.21528888e+00 1.40667260e+00
      2.11893487e+00 3.59391999e+00 -5.63875377e-01 -6.11591756e-01
      -4.40549970e-01 4.81805056e-01 -7.70564675e-01 -5.92319906e-01
      -5.34459174e-01 1.19772792e+00 -6.52448893e-01 2.30305886e+00
      5.64929605e-01 -5.31129420e-01 -6.13488674e-01 -5.88586867e-01
      1.24019551e+00 -6.83057666e-01 6.12123668e-01 -5.11008918e-01
      1.06691408e+00 -5.43955803e-01 -2.39010751e-01 -4.89119172e-01
      -5.74432552e-01 -6.38135910e-01 -5.82158446e-01 -5.92045546e-01
      8.63551140e-01 -8.92314613e-01 -5.39814889e-01 2.42627069e-01
      -4.75978762e-01 -6.58876300e-01 8.25869918e-01 -5.45798361e-01
      -6.04828298e-01 1.03890646e+00 3.53050351e-01 7.65006125e-01
      5.24844706e-01 8.64682734e-01 2.53352553e-01 -4.86222029e-01
      -4.58374500e-01 -6.02091491e-01 -5.49993515e-01 2.22328949e+00
      -5.66376626e-01 2.21687600e-01 -5.42221129e-01 -6.08493090e-01
      -6.22618973e-01 -6.19347513e-01 -6.82314157e-01 -6.73487425e-01
      8.97994697e-01 -4.97603089e-01 1.08189905e+00 -4.42490488e-01
      7.13452280e-01 7.72703946e-01 -5.81415236e-01 -4.97014433e-01
      2.25289965e+00 -6.50303245e-01 9.67417285e-03 -5.96608102e-01
      9.86731946e-01 1.05364358e+00 -6.16309047e-01 -5.73345780e-01
      7.33918130e-01 -4.98809248e-01 2.18990755e+00 2.77279645e-01
      7.85440385e-01 -1.30572140e-01 2.10518312e+00 -4.73508567e-01
      -5.23374975e-01 2.51814795e+00 -6.07482135e-01 -1.67317212e-01
      -6.02950811e-01 1.71026635e+00 1.92311168e+00 -5.50834775e-01
      -5.95946670e-01 -5.87688327e-01 9.34734404e-01 6.15093172e-01
      9.74437952e-01 3.68080288e-01 -7.38558531e-01 -4.79905337e-01
      -6.16353393e-01 -5.02350748e-01 -6.19054675e-01 6.56940043e-01
      -6.03004575e-01 -3.85388404e-01 -5.30569553e-01 -3.70809674e-01
      -7.34836280e-01 1.13012731e+00 -6.54124856e-01 3.28972578e+00
      8.68640661e-01 -5.34849048e-01 -5.49294055e-01 1.26997304e+00
      8.28538597e-01 -5.83898723e-01 -5.04231274e-01 2.89983654e+00
      -4.80337709e-01 -5.64453602e-01 -5.73080063e-01 -6.67030871e-01
      -5.41833401e-01 6.00643098e-01 4.48675714e-02 1.53200006e+00
      -4.92269993e-01 -6.18573725e-01 -6.71688676e-01 -5.11484146e-01
      -6.38908386e-01 2.92196822e+00 -5.17638803e-01 -4.54940856e-01
      -7.05172718e-01 4.22601986e+00 3.94611746e-01 -5.68500400e-01
      -5.80476701e-01 -5.39588094e-01 -5.28194427e-01 -4.86444086e-01
      3.57221663e-01 1.09877908e+00 -5.41359603e-01 1.20380104e+00
      1.02650118e+00 4.18506294e-01 4.55168515e-01 -6.20149851e-01
      -5.90538383e-01 4.99555975e-01 -6.32596076e-01 -5.70259571e-01
      -5.36476433e-01 1.61499155e+00 8.39750469e-01 -6.27239943e-01
      2.33549643e-02 -4.78945822e-01 5.95739603e-01 2.83236694e+00
      -5.40890694e-01 -6.14039958e-01 -6.30800843e-01 6.92071497e-01
      -5.61689854e-01 4.06797141e-01 -6.94917500e-01 -5.17854035e-01
      -5.81131041e-01 -5.60185492e-01 -5.37071764e-01 -4.04380023e-01
      1.54994118e+00 -6.76446915e-01 -5.87378561e-01 8.43010962e-01
      3.61669540e+00 5.62221706e-01 -5.49225032e-01 -5.47353387e-01
      5.82188487e-01 2.49678135e+00 -5.18400311e-01 1.00242662e+00
      6.65607810e-01 -6.42561615e-01 -5.77599823e-01 -6.06415212e-01
      1.81941986e-01 7.35391021e-01 9.09088194e-01 -4.33859795e-01</_>
    <_>
      2.49888611e+00 3.19681287e+00 3.51639175e+00 -7.81683207e-01
      4.71210051e+00 -6.05123222e-01 -6.11913502e-01 -7.63910592e-01
      -5.56048155e-01 3.43487811e+00 -5.63875377e-01 -6.11591756e-01
      -4.40549970e-01 -9.98262644e-01 1.78966558e+00 -5.92319906e-01
      -5.34459174e-01 -5.36613941e-01 -6.52448893e-01 -6.16189480e-01
      -5.46704113e-01 -5.31129420e-01 -6.13488674e-01 -5.88586867e-01
      -6.86673403e-01 1.83440447e+00 -6.20520115e-01 -5.11008918e-01
      -5.61491251e-01 -5.43955803e-01 3.90760638e-02 -4.89119172e-01
      -5.74432552e-01 -6.38135910e-01 -5.82158446e-01 1.69707894e+00
      -5.72836339e-01 -8.92314613e-01 -5.39814889e-01 -6.60005152e-01
      -4.75978762e-01 -6.58876300e-01 -5.37170887e-01 -5.45798361e-01
      -6.04828298e-01 -8.99961650e-01 -6.72281206e-01 -6.04232967e-01
      -5.28729260e-01 -6.08394146e-01 1.38363194e+00 -4.86222029e-01
      1.24367125e-01 -6.02091491e-01 -5.49993515e-01 -7.00389802e-01
      -5.66376626e-01 -6.71745062e-01 -5.42221129e-01 1.41150796e+00
      -6.22618973e-01 -6.19347513e-01 -6.82314157e-01 -6.73487425e-01
      -5.59227407e-01 -4.97603089e-01 -3.65312696e-01 -4.42490488e-01
      -6.24750733e-01 3.27990556e+00 -5.81415236e-01 -7.30268002e-01
      -5.56390584e-01 6.54531956e-01 -6.34398758e-01 -5.96608102e-01
      -5.73928237e-01 -9.00371194e-01 3.27916741e+00 -5.73345780e-01
      -6.78919196e-01 4.74485874e+00 -6.28388107e-01 1.78960907e+00
      2.25051260e+00 7.11090922e-01 -6.03681862e-01 -4.73508567e-01
      -5.23374975e-01 -5.42226732e-01 -6.07482135e-01 -1.07338417e+00
      -6.02950811e-01 -6.56333506e-01 -5.16049504e-01 -5.50834775e-01
      -5.95946670e-01 1.14212823e+00 -5.80280900e-01 2.93215346e+00
      -5.87147236e-01 -5.45089602e-01 -7.38558531e-01 -4.79905337e-01
      9.83642042e-01 -5.02350748e-01 -6.19054675e-01 -6.11894488e-01
      1.42961740e+00 -3.85388404e-01 -5.30569553e-01 -3.70809674e-01
      1.42546642e+00 -5.79554617e-01 -6.54124856e-01 -7.14465082e-01
      -5.87708831e-01 -5.34849048e-01 -5.49294055e-01 -5.33600986e-01
      3.57934809e+00 -5.83898723e-01 -5.04231274e-01 -5.36587715e-01
      -4.80337709e-01 3.21986794e+00 -5.73080063e-01 -6.67030871e-01
      4.09187460e+00 -6.29377425e-01 -2.42325813e-01 -5.31361580e-01
      -4.92269993e-01 -6.18573725e-01 -6.71688676e-01 -5.11484146e-01
      -6.38908386e-01 -6.52636588e-01 -5.17638803e-01 -4.54940856e-01
      -7.05172718e-01 -5.87257147e-01 -5.34736037e-01 -5.68500400e-01
      1.27415776e+00 -5.39588094e-01 1.62109733e+00 -4.86444086e-01
      7.90109575e-01 -5.67818761e-01 -5.41359603e-01 -4.91221130e-01
      -5.15151143e-01 -6.43729150e-01 -6.12232089e-01 -6.20149851e-01
      -5.90538383e-01 -6.69338822e-01 -6.32596076e-01 -5.70259571e-01
      9.54327106e-01 -5.91035485e-01 -5.91672599e-01 -6.27239943e-01
      1.42922008e+00 -4.78945822e-01 -5.78284562e-01 -4.83430117e-01
      2.74795604e+00 -4.08852607e-01 1.26800072e+00 -6.37555480e-01
      3.79454160e+00 2.47684216e+00 3.24390721e+00 -5.17854035e-01
      -5.81131041e-01 -5.60185492e-01 1.04240274e+00 -4.04380023e-01
      -4.94052589e-01 -6.76446915e-01 -5.87378561e-01 -7.80789733e-01
      -5.87021768e-01 -6.16540313e-01 -5.49225032e-01 -5.47353387e-01
      -5.28136015e-01 -8.75071228e-01 -5.18400311e-01 -5.88752925e-01
      -6.59805179e-01 -6.42561615e-01 -5.77599823e-01 -6.06415212e-01
      -7.33329296e-01 -5.09287238e-01 -6.41739964e-01 -4.33859795e-01</_>
    <_>
      2.17140818e+00 1.08850825e+00 1.26019287e+00 -7.81683207e-01
      -6.49620295e-01 -6.05123222e-01 1.21088803e+00 -7.63910592e-01
      1.16861212e+00 -4.61652130e-01 -5.63875377e-01 1.22823966e+00
      -4.40549970e-01 1.22833049e+00 -1.97881624e-01 -5.92319906e-01
      -5.34459174e-01 -5.36613941e-01 -6.52448893e-01 -6.16189480e-01
      8.86718333e-01 -5.31129420e-01 -6.13488674e-01 -5.88586867e-01
      -6.86673403e-01 -6.83057666e-01 -6.20520115e-01 -5.11008918e-01
      -5.61491251e-01 6.42829061e-01 1.16264415e+00 -4.89119172e-01
      -5.74432552e-01 -6.38135910e-01 -5.82158446e-01 -5.92045546e-01
      -5.72836339e-01 -8.92314613e-01 -5.39814889e-01 -6.60005152e-01
      -4.75978762e-01 -6.58876300e-01 -5.37170887e-01 -5.45798361e-01
      1.03674889e+00 -8.99961650e-01 6.49856865e-01 -6.04232967e-01
      2.18838263e+00 -6.08394146e-01 8.12159926e-02 -4.86222029e-01
      3.04383542e-02 1.06893218e+00 -5.49993515e-01 1.18461394e+00
      -5.66376626e-01 -6.71745062e-01 1.82793725e+00 -6.08493090e-01
      -6.22618973e-01 -6.19347513e-01 -6.82314157e-01 -6.73487425e-01
      -5.59227407e-01 -4.97603089e-01 -3.65312696e-01 -4.42490488e-01
      -6.24750733e-01 -5.59246838e-01 -5.81415236e-01 4.72829372e-01
      -5.56390584e-01 1.19460988e+00 1.85714662e+00 -5.96608102e-01
      -5.73928237e-01 -9.00371194e-01 1.12640405e+00 -5.73345780e-01
      1.14289737e+00 -4.98809248e-01 -6.28388107e-01 -5.26145339e-01
      -8.04318607e-01 -5.77705622e-01 1.14282322e+00 2.46474504e+00
      -5.23374975e-01 -5.42226732e-01 -6.07482135e-01 8.73865068e-01
      -6.02950811e-01 -6.56333506e-01 2.62918472e+00 -5.50834775e-01
      1.33331275e+00 1.86176971e-01 -5.80280900e-01 -6.15845025e-01
      -5.87147236e-01 -5.45089602e-01 3.96480083e-01 1.78644073e+00
      -6.16353393e-01 2.07099295e+00 -6.19054675e-01 -6.11894488e-01
      -6.03004575e-01 1.65150368e+00 -5.30569553e-01 -3.70809674e-01
      -7.34836280e-01 -5.79554617e-01 -6.54124856e-01 1.35085428e+00
      -5.87708831e-01 -5.34849048e-01 3.21698785e+00 -5.33600986e-01
      -6.32828772e-01 -5.83898723e-01 3.47160816e+00 -5.36587715e-01
      -4.80337709e-01 -5.64453602e-01 -5.73080063e-01 -6.67030871e-01
      -5.41833401e-01 9.56701696e-01 1.33644247e+00 -5.31361580e-01
      -4.92269993e-01 -6.18573725e-01 -6.71688676e-01 -5.11484146e-01
      -6.38908386e-01 -6.52636588e-01 -5.17638803e-01 -4.54940856e-01
      -7.05172718e-01 -5.87257147e-01 -5.34736037e-01 -5.68500400e-01
      -5.80476701e-01 2.89636683e+00 -4.46834594e-01 -4.86444086e-01
      -6.23990834e-01 -5.67818761e-01 3.65429252e-01 -4.91221130e-01
      -5.15151143e-01 -6.43729150e-01 7.64152944e-01 1.11260009e+00
      1.28033650e+00 8.37920308e-01 1.29843676e+00 -5.70259571e-01
      -5.36476433e-01 -5.91035485e-01 -5.91672599e-01 -6.27239943e-01
      -7.23510861e-01 4.34886724e-01 2.44946218e+00 -4.83430117e-01
      -5.40890694e-01 -4.41925585e-01 1.06812680e+00 -6.37555480e-01
      1.38715053e+00 2.14318347e+00 1.06718826e+00 -5.17854035e-01
      -5.81131041e-01 1.10477960e+00 -5.37071764e-01 -4.04380023e-01
      -4.94052589e-01 8.48917067e-01 -5.87378561e-01 3.40690684e+00
      -5.87021768e-01 -6.16540313e-01 5.69629908e-01 1.03403914e+00
      -5.28136015e-01 2.11907595e-01 8.10249090e-01 -5.88752925e-01
      -6.59805179e-01 -6.42561615e-01 -5.77599823e-01 -6.06415212e-01
      -7.33329296e-01 1.09569275e+00 -6.41739964e-01 -4.33859795e-01</_>
    <_>
      -6.12154186e-01 3.12344718e+00 -5.66253603e-01 -7.81683207e-01
      1.97968507e+00 -6.05123222e-01 -6.11913502e-01 -7.63910592e-01
      -5.56048155e-01 -4.61652130e-01 -5.63875377e-01 -6.11591756e-01
      -4.40549970e-01 3.96416634e-01 4.84932840e-01 -5.92319906e-01
      -5.34459174e-01 -5.36613941e-01 -6.52448893e-01 -6.16189480e-01
      -5.46704113e-01 -5.31129420e-01 -6.13488674e-01 -5.88586867e-01
      2.03688192e+00 1.78599179e+00 -6.20520115e-01 -5.11008918e-01
      -5.61491251e-01 -5.43955803e-01 4.47634315e+00 -4.89119172e-01
      -5.74432552e-01 -6.38135910e-01 -5.82158446e-01 1.65305734e+00
      -5.72836339e-01 -8.92314613e-01 -5.39814889e-01 -6.60005152e-01
      -4.75978762e-01 -6.58876300e-01 3.31604099e+00 -5.45798361e-01
      -6.04828298e-01 2.75405908e+00 -6.72281206e-01 -6.04232967e-01
      2.44964337e+00 -6.08394146e-01 1.82594553e-01 -4.86222029e-01
      -7.67955959e-01 -6.02091491e-01 -5.49993515e-01 -7.00389802e-01
      -5.66376626e-01 -6.71745062e-01 -5.42221129e-01 1.37266171e+00
      -6.22618973e-01 -6.19347513e-01 -6.82314157e-01 -6.73487425e-01
      -5.59227407e-01 -4.97603089e-01 -3.65312696e-01 -4.42490488e-01
      -6.24750733e-01 -5.59246838e-01 -5.81415236e-01 -7.30268002e-01
      -5.56390584e-01 2.17250252e+00 -6.34398758e-01 -5.96608102e-01
      -5.73928237e-01 -9.00371194e-01 -6.16309047e-01 -5.73345780e-01
      -6.78919196e-01 4.64401865e+00 -6.28388107e-01 -5.26145339e-01
      -8.04318607e-01 -5.77705622e-01 -6.03681862e-01 -4.73508567e-01
      -5.23374975e-01 -5.42226732e-01 -6.07482135e-01 -1.07338417e+00
      -6.02950811e-01 -6.56333506e-01 -5.16049504e-01 -5.50834775e-01
      -5.95946670e-01 1.10886252e+00 -5.80280900e-01 2.86392283e+00
      -5.87147236e-01 -5.45089602e-01 -7.38558531e-01 -4.79905337e-01
      4.09132576e+00 -5.02350748e-01 -6.19054675e-01 2.97500324e+00
      1.39052856e+00 -3.85388404e-01 -5.30569553e-01 -3.70809674e-01
      1.38392222e+00 -5.79554617e-01 -6.54124856e-01 -7.14465082e-01
      -5.87708831e-01 -5.34849048e-01 -5.49294055e-01 -5.33600986e-01
      3.49834466e+00 -5.83898723e-01 -5.04231274e-01 -5.36587715e-01
      -4.80337709e-01 -5.64453602e-01 -5.73080063e-01 1.23808694e+00
      -5.41833401e-01 -6.29377425e-01 4.69844162e-01 -5.31361580e-01
      -4.92269993e-01 -6.18573725e-01 -6.71688676e-01 -5.11484146e-01
      -6.38908386e-01 -6.52636588e-01 -5.17638803e-01 -4.54940856e-01
      -7.05172718e-01 -5.87257147e-01 -5.34736037e-01 -5.68500400e-01
      -5.80476701e-01 -5.39588094e-01 -1.47171691e-02 -4.86444086e-01
      7.62915373e-01 -5.67818761e-01 -5.41359603e-01 -4.91221130e-01
      -5.15151143e-01 -6.43729150e-01 -6.12232089e-01 -6.20149851e-01
      -5.90538383e-01 -6.69338822e-01 -6.32596076e-01 -5.70259571e-01
      -5.36476433e-01 -5.91035485e-01 -5.91672599e-01 -6.27239943e-01
      -7.23510861e-01 -4.78945822e-01 -5.78284562e-01 -4.83430117e-01
      2.68470883e+00 -4.14894789e-01 -6.30800843e-01 -6.37555480e-01
      -5.61689854e-01 2.41588545e+00 -6.94917500e-01 -5.17854035e-01
      -5.81131041e-01 3.08993030e+00 1.01202822e+00 -4.04380023e-01
      -4.94052589e-01 -6.76446915e-01 2.65055227e+00 -7.80789733e-01
      -5.87021768e-01 -6.16540313e-01 -5.49225032e-01 2.91954565e+00
      -5.28136015e-01 1.50792086e+00 -5.18400311e-01 -5.88752925e-01
      -6.59805179e-01 -6.42561615e-01 -5.77599823e-01 2.79771066e+00
      -7.33329296e-01 -5.09287238e-01 -6.41739964e-01 2.41582251e+00</_>
    <_>
      -6.12154186e-01 1.81386542e+00 2.03643274e+00 7.43098974e-01
      -6.49620295e-01 -6.05123222e-01 -6.11913502e-01 -7.63910592e-01
      -5.56048155e-01 -4.61652130e-01 -5.63875377e-01 2.01016808e+00
      -4.40549970e-01 8.14820349e-01 8.61582100e-01 -5.92319906e-01
      -5.34459174e-01 -5.36613941e-01 -6.52448893e-01 -6.16189480e-01
      -5.46704113e-01 -5.31129420e-01 -6.13488674e-01 -5.88586867e-01
      -6.86673403e-01 4.13158894e+00 -6.20520115e-01 -5.11008918e-01
      2.43070364e+00 -5.43955803e-01 -2.90225059e-01 -4.89119172e-01
      -5.74432552e-01 -6.38135910e-01 -5.82158446e-01 -5.92045546e-01
      -5.72836339e-01 -8.92314613e-01 -5.39814889e-01 -6.60005152e-01
      -4.75978762e-01 -6.58876300e-01 -5.37170887e-01 -5.45798361e-01
      1.73441911e+00 1.47515178e+00 -6.72281206e-01 -6.04232967e-01
      -5.28729260e-01 -6.08394146e-01 5.29309094e-01 -4.86222029e-01
      6.54183924e-01 -6.02091491e-01 2.42933655e+00 -7.00389802e-01
      -5.66376626e-01 -6.71745062e-01 -5.42221129e-01 6.79257512e-01
      -6.22618973e-01 -6.19347513e-01 -6.82314157e-01 -6.73487425e-01
      -5.59227407e-01 -4.97603089e-01 -3.65312696e-01 -4.42490488e-01
      -6.24750733e-01 -5.59246838e-01 -5.81415236e-01 1.26938879e-01
      2.02464485e+00 5.85464299e-01 -6.34398758e-01 -5.96608102e-01
      -5.73928237e-01 -9.00371194e-01 -6.16309047e-01 -5.73345780e-01
      -6.78919196e-01 1.17260981e+00 -6.28388107e-01 9.50148106e-01
      1.69408798e-01 -5.77705622e-01 1.88508785e+00 -4.73508567e-01
      1.24002469e+00 -5.42226732e-01 -6.07482135e-01 -5.18418133e-01
      1.91965556e+00 -6.56333506e-01 -5.16049504e-01 -5.50834775e-01
      -5.95946670e-01 -5.87688327e-01 -5.80280900e-01 2.77692866e+00
      -5.87147236e-01 -5.45089602e-01 8.78871500e-01 -4.79905337e-01
      -6.16353393e-01 -5.02350748e-01 -6.19054675e-01 -6.11894488e-01
      3.28438520e+00 -3.85388404e-01 -5.30569553e-01 -3.70809674e-01
      2.01954961e+00 -5.79554617e-01 1.40502584e+00 -7.14465082e-01
      -5.87708831e-01 -5.34849048e-01 -5.49294055e-01 -5.33600986e-01
      -6.32828772e-01 2.16014433e+00 -5.04231274e-01 -5.36587715e-01
      -4.80337709e-01 -5.64453602e-01 -5.73080063e-01 1.80962229e+00
      -5.41833401e-01 -6.29377425e-01 -3.86452191e-02 -5.31361580e-01
      -4.92269993e-01 -6.18573725e-01 -6.71688676e-01 -5.11484146e-01
      1.85009289e+00 -6.52636588e-01 -5.17638803e-01 -4.54940856e-01
      1.00960600e+00 -5.87257147e-01 1.17294049e+00 -5.68500400e-01
      6.01852775e-01 -5.39588094e-01 7.40094364e-01 -4.86444086e-01
      -6.23990834e-01 -5.67818761e-01 -5.41359603e-01 -4.91221130e-01
      -5.15151143e-01 -6.43729150e-01 -6.12232089e-01 -6.20149851e-01
      -5.90538383e-01 -6.69338822e-01 -6.32596076e-01 -5.70259571e-01
      4.13910776e-01 -5.91035485e-01 -5.91672599e-01 -6.27239943e-01
      6.48855150e-01 -4.78945822e-01 -5.78284562e-01 -4.83430117e-01
      5.07429183e-01 -1.22151367e-01 -6.30800843e-01 -6.37555480e-01
      -5.61689854e-01 1.32780540e+00 1.81608319e+00 -5.17854035e-01
      2.25228739e+00 1.81238973e+00 4.69843209e-01 -4.04380023e-01
      -4.94052589e-01 -6.76446915e-01 -5.87378561e-01 -7.80789733e-01
      -5.87021768e-01 -6.16540313e-01 -5.49225032e-01 -5.47353387e-01
      -5.28136015e-01 -8.75071228e-01 -5.18400311e-01 -5.88752925e-01
      -6.59805179e-01 1.20689332e+00 -5.77599823e-01 1.60626650e+00
      -7.33329296e-01 -5.09287238e-01 -6.41739964e-01 3.27072692e+00</_>
    <_>
      -6.12154186e-01 -6.18214428e-01 4.90674824e-01 -1.62482366e-01
      4.44095135e-02 1.65529859e+00 4.42905664e-01 -7.63910592e-01
      4.41978544e-01 -4.61652130e-01 -5.63875377e-01 4.53082234e-01
      -4.40549970e-01 -2.61985332e-01 2.23636344e-01 5.26759267e-01
      -5.34459174e-01 -5.36613941e-01 3.30087513e-01 1.56213284e+00
      2.82789052e-01 8.44914854e-01 1.96590233e+00 -5.88586867e-01
      -6.86673403e-01 6.20399833e-01 1.21905994e+00 9.96903896e-01
      -5.61491251e-01 1.42813087e-01 7.13547841e-02 1.11035788e+00
      -5.74432552e-01 -6.38135910e-01 3.37639022e+00 -5.92045546e-01
      4.98985797e-01 -3.99259955e-01 -5.39814889e-01 -6.60005152e-01
      8.26670527e-01 3.98006678e-01 -5.37170887e-01 -5.45798361e-01
      -6.04828298e-01 -8.99961650e-01 2.38809919e+00 4.17483538e-01
      -5.28729260e-01 -6.08394146e-01 8.57250571e-01 -4.86222029e-01
      -3.05940986e-01 3.64896744e-01 -5.49993515e-01 3.66286755e+00
      -5.66376626e-01 -6.71745062e-01 8.29342544e-01 -6.08493090e-01
      3.87941152e-01 5.22508204e-01 1.41686186e-01 -6.73487425e-01
      1.61551011e+00 -4.97603089e-01 -3.65312696e-01 -4.42490488e-01
      3.73806864e-01 -5.59246838e-01 -5.81415236e-01 -5.56215823e-01
      1.53988183e+00 3.01931202e-01 3.26806545e-01 1.72832489e+00
      5.90625346e-01 5.57700753e-01 -6.16309047e-01 1.04604101e+00
      1.42957914e+00 -4.98809248e-01 -6.28388107e-01 6.72874689e-01
      1.96363747e+00 -5.77705622e-01 -6.03681862e-01 -4.73508567e-01
      -5.23374975e-01 5.99588215e-01 4.67837542e-01 5.34503758e-02
      1.44586647e+00 -6.56333506e-01 3.93992871e-01 -5.50834775e-01
      1.63690174e+00 -1.39867812e-01 1.68070638e+00 -6.15845025e-01
      5.78096569e-01 -5.45089602e-01 -8.17341730e-02 8.31584215e-01
      -6.16353393e-01 -5.02350748e-01 -6.19054675e-01 1.28169608e+00
      -7.67928138e-02 7.93320656e-01 -5.30569553e-01 3.63425612e-01
      3.83696020e-01 -5.79554617e-01 1.01828170e+00 4.80694324e-01
      -5.87708831e-01 -5.34849048e-01 2.71991515e+00 -5.33600986e-01
      4.57633168e-01 1.64476562e+00 -5.04231274e-01 -5.36587715e-01
      -4.80337709e-01 -5.64453602e-01 -5.73080063e-01 -1.64157152e-01
      6.57755911e-01 -6.29377425e-01 -2.42644791e-02 -5.31361580e-01
      9.14796948e-01 3.05601686e-01 -6.71688676e-01 -5.11484146e-01
      2.39337730e+00 6.81035817e-01 1.50598550e+00 -4.54940856e-01
      -7.05172718e-01 6.09953940e-01 -5.34736037e-01 5.58506608e-01
      3.79790843e-01 -5.39588094e-01 -1.80078000e-01 -4.86444086e-01
      -6.23990834e-01 6.75784707e-01 -1.66188590e-02 -4.91221130e-01
      6.35218859e-01 -6.43729150e-01 1.84254646e-01 1.38526630e+00
      -5.90538383e-01 1.07510316e+00 2.71975517e+00 -5.70259571e-01
      -5.36476433e-01 2.32025370e-01 4.76445109e-01 1.64965558e+00
      -1.66204885e-01 -4.78945822e-01 -5.78284562e-01 -4.83430117e-01
      -5.40890694e-01 -5.60367048e-01 -1.39232948e-01 3.54602724e-01
      -5.61689854e-01 -6.92914188e-01 3.24778169e-01 1.00897276e+00
      1.72012234e+00 4.03296769e-01 -5.37071764e-01 -4.04380023e-01
      -4.94052589e-01 -6.76446915e-01 -5.87378561e-01 4.30878818e-01
      -5.87021768e-01 2.90179491e+00 -5.49225032e-01 -5.47353387e-01
      3.00380230e-01 3.82954985e-01 -5.18400311e-01 5.98573923e-01
      3.29208583e-01 -6.42561615e-01 -5.77599823e-01 2.92135686e-01
      -7.33329296e-01 -5.09287238e-01 1.67269397e+00 -4.33859795e-01</_>
    <_>
      -6.12154186e-01 -6.18214428e-01 -5.66253603e-01 -7.81683207e-01
      -6.49620295e-01 -6.05123222e-01 -6.11913502e-01 1.28144681e+00
      -5.56048155e-01 -4.61652130e-01 -5.63875377e-01 -6.11591756e-01
      -4.40549970e-01 -3.00923020e-01 4.84932840e-01 -5.92319906e-01
      -5.34459174e-01 -5.36613941e-01 3.06985259e+00 -6.16189480e-01
      -5.46704113e-01 -5.31129420e-01 -6.13488674e-01 -5.88586867e-01
      -6.86673403e-01 -6.83057666e-01 -6.20520115e-01 -5.11008918e-01
      -5.61491251e-01 -5.43955803e-01 -8.69340777e-01 -4.89119172e-01
      -5.74432552e-01 2.13799787e+00 -5.82158446e-01 -5.92045546e-01
      3.48772073e+00 -8.92314613e-01 -5.39814889e-01 -6.60005152e-01
      -4.75978762e-01 -6.58876300e-01 -5.37170887e-01 -5.45798361e-01
      -6.04828298e-01 9.27048743e-01 -6.72281206e-01 -6.04232967e-01
      -5.28729260e-01 -6.08394146e-01 1.33830976e+00 -4.86222029e-01
      1.07207067e-01 -6.02091491e-01 -5.49993515e-01 -7.00389802e-01
      -5.66376626e-01 -6.71745062e-01 -5.42221129e-01 5.33497190e+00
      -6.22618973e-01 -6.19347513e-01 2.43937969e+00 -6.73487425e-01
      -5.59227407e-01 -4.97603089e-01 -3.65312696e-01 -4.42490488e-01
      -6.24750733e-01 -5.59246838e-01 -5.81415236e-01 -7.08780661e-02
      -5.56390584e-01 4.49499798e+00 -6.34398758e-01 -5.96608102e-01
      -5.73928237e-01 -9.00371194e-01 -6.16309047e-01 -5.73345780e-01
      -6.78919196e-01 2.07260466e+00 -6.28388107e-01 -5.26145339e-01
      6.93723559e-01 -5.77705622e-01 -6.03681862e-01 -4.73508567e-01
      -5.23374975e-01 -5.42226732e-01 -6.07482135e-01 -1.07338417e+00
      -6.02950811e-01 -6.56333506e-01 -5.16049504e-01 -5.50834775e-01
      -5.95946670e-01 1.10886252e+00 -5.80280900e-01 -6.15845025e-01
      -5.87147236e-01 -5.45089602e-01 1.74979532e+00 -4.79905337e-01
      -6.16353393e-01 -5.02350748e-01 -6.19054675e-01 -6.11894488e-01
      1.39052856e+00 -3.85388404e-01 3.38627768e+00 -3.70809674e-01
      1.38392222e+00 -5.79554617e-01 -6.54124856e-01 -7.14465082e-01
      -5.87708831e-01 -5.34849048e-01 3.57913065e+00 -5.33600986e-01
      -6.32828772e-01 -5.83898723e-01 -5.04231274e-01 -5.36587715e-01
      -4.80337709e-01 -5.64453602e-01 -5.73080063e-01 -6.67030871e-01
      -5.41833401e-01 -6.29377425e-01 4.69844162e-01 -5.31361580e-01
      -4.92269993e-01 -6.18573725e-01 -6.71688676e-01 -5.11484146e-01
      -6.38908386e-01 -6.52636588e-01 -5.17638803e-01 6.90177023e-01
      -7.05172718e-01 -5.87257147e-01 -5.34736037e-01 3.70112276e+00
      1.23849177e+00 -5.39588094e-01 -1.47171691e-02 -4.86444086e-01
      -6.23990834e-01 -5.67818761e-01 1.44660056e+00 -4.91221130e-01
      3.84298182e+00 -6.43729150e-01 2.40522742e+00 -6.20149851e-01
      -5.90538383e-01 -6.69338822e-01 -6.32596076e-01 -5.70259571e-01
      -5.36476433e-01 2.52709889e+00 -5.91672599e-01 -6.27239943e-01
      -7.23510861e-01 -4.78945822e-01 -5.78284562e-01 -4.83430117e-01
      1.07190907e+00 5.09558082e-01 1.23148525e+00 -6.37555480e-01
      -5.61689854e-01 2.41588545e+00 -6.94917500e-01 -5.17854035e-01
      -5.81131041e-01 -5.60185492e-01 -5.37071764e-01 -4.04380023e-01
      -4.94052589e-01 -6.76446915e-01 2.65055227e+00 -7.80789733e-01
      -5.87021768e-01 -6.16540313e-01 -5.49225032e-01 2.91954565e+00
      -5.28136015e-01 -8.75071228e-01 -5.18400311e-01 -5.88752925e-01
      -6.59805179e-01 -6.42561615e-01 -5.77599823e-01 -6.06415212e-01
      -7.33329296e-01 3.00932288e+00 -6.41739964e-01 -4.33859795e-01</_>
    <_>
      3.77428293e-01 1.90793425e-01 2.03102183e+00 -2.08771564e-02
      -6.49620295e-01 1.70934212e+00 6.84132516e-01 7.83927321e-01
      1.89648318e+00 2.43036699e+00 5.09530902e-01 1.13261425e+00
      -3.58234763e-01 -8.47486556e-01 -2.27646858e-01 7.82681823e-01
      1.57008600e+00 2.11357594e+00 1.52373046e-01 -1.70108899e-01
      4.72486049e-01 2.28675771e+00 -8.52765441e-02 -3.95450071e-02
      -6.86673403e-01 -4.16133434e-01 5.09616911e-01 1.34174883e+00
      -5.61491251e-01 -2.62680382e-01 -4.84066278e-01 1.65968105e-01
      6.27434909e-01 -3.78907658e-02 -4.17328700e-02 -5.92045546e-01
      -1.33857206e-01 5.21245360e-01 -5.39814889e-01 -3.84148717e-01
      -4.75978762e-01 1.50542688e+00 1.12908280e+00 -5.45798361e-01
      -2.15764269e-01 -3.07417750e-01 5.81138670e-01 1.48805559e+00
      -5.28729260e-01 2.09275723e+00 -4.73351955e-01 -2.32638810e-02
      -6.26037657e-01 5.86037576e-01 4.41051811e-01 1.98015618e+00
      1.20995808e+00 1.47389695e-01 5.81263483e-01 -6.08493090e-01
      1.03293490e+00 3.15977126e-01 6.67607427e-01 -3.24623108e-01
      -1.13880955e-01 3.08051735e-01 -3.65312696e-01 -4.42490488e-01
      -2.15778068e-01 -5.59246838e-01 2.71011621e-01 -6.23339891e-01
      3.02165926e-01 -5.89383483e-01 -4.38869707e-02 3.55599433e-01
      8.56947362e-01 -6.01784766e-01 6.22792602e-01 4.21516657e-01
      1.84644580e-01 -4.98809248e-01 2.38619208e+00 -2.80607969e-01
      5.43394219e-03 6.52143896e-01 -6.03681862e-01 2.22875863e-01
      -2.30086073e-01 8.60710144e-01 -1.67070523e-01 1.26542404e-01
      -1.83390483e-01 4.28563148e-01 6.02110684e-01 -5.50834775e-01
      3.18546355e-01 -5.87688327e-01 8.08745682e-01 -4.27749485e-01
      -1.09905995e-01 -5.45089602e-01 -4.69547272e-01 1.66864729e+00
      -6.16353393e-01 1.32734489e+00 1.48535013e-01 1.63650960e-01
      -6.03004575e-01 1.06287992e+00 -5.30569553e-01 -7.00937435e-02
      -2.76726365e-01 -5.70530593e-02 3.73309970e-01 1.48825610e+00
      3.02450776e-01 -1.88365001e-02 1.23597062e+00 1.75952390e-02
      7.07011163e-01 3.28880638e-01 -5.04231274e-01 1.03873777e+00
      1.21486318e+00 -1.63205385e-01 4.16244566e-01 5.68721235e-01
      1.42339826e+00 4.98354524e-01 -6.68857872e-01 -2.16066182e-01
      8.40131491e-02 1.38443172e-01 -1.31461695e-01 -5.11484146e-01
      -6.38908386e-01 7.12922037e-01 -1.03237577e-01 -4.54940856e-01
      -4.19970453e-01 -9.69232842e-02 -5.34736037e-01 8.16242158e-01
      -5.80476701e-01 2.74754673e-01 -3.79775375e-01 1.24745804e-03
      4.25559729e-01 -5.67818761e-01 -5.41359603e-01 2.68001966e-02
      1.84059644e+00 9.79437411e-01 -6.12232089e-01 -2.09477291e-01
      -1.47129342e-01 -6.69338822e-01 2.57107162e+00 1.04778552e+00
      -2.20339328e-01 4.20251369e-01 1.59563720e+00 3.05293173e-01
      -7.23510861e-01 -4.78945822e-01 4.98107702e-01 1.03659737e+00
      -5.40890694e-01 -5.89791298e-01 -2.28144392e-01 1.39420319e+00
      -9.98025537e-02 3.15345079e-01 5.57972670e-01 -2.05187857e-01
      8.32632780e-01 1.01824296e+00 -5.37071764e-01 -4.04380023e-01
      3.25397754e+00 4.65946198e-02 -2.37331972e-01 -7.80789733e-01
      1.12592745e+00 1.03950426e-01 -1.88738275e-02 -5.47353387e-01
      -1.88806072e-01 1.44351566e+00 1.11396074e-01 2.32896090e+00
      9.60450232e-01 -3.34959954e-01 -1.94170639e-01 1.29611939e-01
      -1.73891112e-01 -1.28896996e-01 3.06167513e-01 -4.33859795e-01</_>
    <_>
      -2.88341120e-02 8.12420785e-01 1.99242353e-01 -7.81683207e-01
      3.55702311e-01 2.13448673e-01 1.52054816e-01 -3.72886389e-01
      2.33529401e+00 9.99546647e-01 -5.63875377e-01 9.30619836e-01
      -4.40549970e-01 -5.98317862e-01 1.89521626e-01 2.18189687e-01
      3.95950943e-01 2.27531528e+00 7.70784020e-01 9.61492538e-01
      6.54841125e-01 4.45197248e+00 3.20592314e-01 -5.88586867e-01
      -1.65993750e-01 -2.11033538e-01 4.56513464e-02 -5.11008918e-01
      3.18566084e-01 -5.43955803e-01 -5.28684437e-01 -4.89119172e-01
      -4.30922583e-02 4.23326999e-01 1.32919967e+00 -5.92045546e-01
      9.79729593e-01 -5.35212517e-01 -1.23869047e-01 -6.60005152e-01
      -4.24729194e-03 1.06586769e-01 -5.37170887e-01 -5.45798361e-01
      8.31856504e-02 -5.50680280e-01 -1.18149817e-01 1.61574674e+00
      1.74884975e+00 -6.08394146e-01 -3.10284019e-01 3.32464993e-01
      -7.67955959e-01 1.49897504e+00 3.26279998e-01 -7.00389802e-01
      -5.66376626e-01 -6.71745062e-01 1.44452929e+00 -2.29742929e-01
      -6.22618973e-01 2.07658276e-01 -6.82314157e-01 5.60363531e-01
      1.80340123e+00 -4.97603089e-01 4.16820139e-01 -4.42490488e-01
      8.21689367e-01 -5.59246838e-01 1.72293052e-01 -4.78148311e-01
      2.02737495e-01 4.07861769e-01 7.57935464e-01 2.45325387e-01
      2.69516826e-01 -3.72356147e-01 1.57489645e+00 1.30866161e-02
      -6.78919196e-01 -4.98809248e-01 1.65629649e+00 -5.26145339e-01
      1.77319527e+00 -3.36056262e-01 8.60300303e-01 -4.73508567e-01
      1.03256595e+00 2.76567841e+00 1.72896624e+00 2.32418254e-01
      -6.02950811e-01 1.90168262e+00 2.12039685e+00 -5.50834775e-01
      2.12639973e-01 -5.87688327e-01 1.05727243e+00 -6.15845025e-01
      -5.87147236e-01 -5.45089602e-01 2.12870881e-01 -4.79905337e-01
      -1.63551196e-02 5.76183021e-01 5.96413575e-02 -6.11894488e-01
      -2.21887961e-01 -3.85388404e-01 -5.30569553e-01 -3.70809674e-01
      -3.29779536e-01 1.26841044e+00 -6.54124856e-01 -2.81659186e-01
      9.86433685e-01 1.29016590e+00 2.39963546e-01 4.41124678e-01
      2.52630377e+00 2.23172739e-01 3.28940958e-01 3.92004848e-01
      -4.80337709e-01 -5.64453602e-01 1.17642415e+00 4.25610244e-01
      1.19580710e+00 1.36488390e+00 -7.05236316e-01 -5.31361580e-01
      1.54590786e+00 7.20121562e-01 -6.71688676e-01 -5.11484146e-01
      -6.38908386e-01 7.96261251e-01 9.48000908e-01 2.01817915e-01
      -2.00826049e-01 2.88113379e+00 -5.34736037e-01 -5.68500400e-01
      -5.80476701e-01 1.80446610e-01 -6.57358587e-01 3.75981033e-01
      -3.58846992e-01 3.32879364e-01 -5.41359603e-01 1.34089839e+00
      1.15119374e+00 -6.96533471e-02 -3.53648476e-02 1.06076248e-01
      -5.90538383e-01 -3.76199149e-02 9.86063778e-01 -5.70259571e-01
      -2.56950796e-01 -5.91035485e-01 1.81927383e-01 1.02183521e+00
      -3.19873810e-01 -4.78945822e-01 -5.78284562e-01 4.12566513e-01
      3.84097427e-01 -5.46312094e-01 -2.74775565e-01 1.51820016e+00
      -5.61689854e-01 -6.92914188e-01 7.82141745e-01 -5.17854035e-01
      -5.81131041e-01 1.37630716e-01 -2.40920305e-01 -4.04380023e-01
      -4.94052589e-01 -3.71399745e-02 -5.87378561e-01 9.67790708e-02
      1.68484020e+00 2.05112416e-02 8.57570589e-01 -5.47353387e-01
      -5.28136015e-01 3.60727906e-02 -5.18400311e-01 2.71186024e-01
      5.65026104e-02 -6.42561615e-01 1.45654845e+00 1.34595108e+00
      -7.33329296e-01 1.50873911e+00 1.03452289e+00 -4.33859795e-01</_>
    <_>
      -6.12154186e-01 -6.18214428e-01 -5.66253603e-01 -7.81683207e-01
      -6.49620295e-01 -6.05123222e-01 1.77658510e+00 -7.63910592e-01
      -5.56048155e-01 -4.61652130e-01 -5.63875377e-01 -6.11591756e-01
      -4.40549970e-01 -5.81461966e-01 1.48067224e+00 -5.92319906e-01
      5.28327751e+00 -5.36613941e-01 1.57237494e+00 1.85007203e+00
      -5.46704113e-01 -5.31129420e-01 -6.13488674e-01 2.44692039e+00
      2.56907058e+00 -6.83057666e-01 -6.20520115e-01 2.90346026e+00
      -5.61491251e-01 1.01114154e+00 -3.36820573e-01 -4.89119172e-01
      -5.74432552e-01 -6.38135910e-01 -5.82158446e-01 -5.92045546e-01
      -5.72836339e-01 2.45705652e+00 -5.39814889e-01 -6.60005152e-01
      -4.75978762e-01 -6.58876300e-01 -5.37170887e-01 -5.45798361e-01
      -6.04828298e-01 2.37605691e+00 -6.72281206e-01 -6.04232967e-01
      -5.28729260e-01 -6.08394146e-01 3.17151308e+00 -4.86222029e-01
      -7.67955959e-01 -6.02091491e-01 4.92923403e+00 -7.00389802e-01
      -5.66376626e-01 -6.71745062e-01 -5.42221129e-01 -6.08493090e-01
      -6.22618973e-01 -6.19347513e-01 -6.82314157e-01 -6.73487425e-01
      -5.59227407e-01 -4.97603089e-01 -3.65312696e-01 -4.42490488e-01
      -6.24750733e-01 -5.59246838e-01 -5.81415236e-01 -7.30268002e-01
      -5.56390584e-01 3.24031615e+00 -6.34398758e-01 -5.96608102e-01
      -5.73928237e-01 4.05204582e+00 -6.16309047e-01 -5.73345780e-01
      -6.78919196e-01 -4.98809248e-01 -6.28388107e-01 2.18887711e+00
      9.10628960e-02 -5.77705622e-01 -6.03681862e-01 -4.73508567e-01
      -5.23374975e-01 -5.42226732e-01 -6.07482135e-01 -1.07338417e+00
      -6.02950811e-01 -6.56333506e-01 1.54462123e+00 -5.50834775e-01
      1.93204844e+00 -5.87688327e-01 -5.80280900e-01 -6.15845025e-01
      -5.87147236e-01 -5.45089602e-01 7.48733401e-01 -4.79905337e-01
      -6.16353393e-01 -5.02350748e-01 -6.19054675e-01 1.53199840e+00
      -6.03004575e-01 2.28364253e+00 -5.30569553e-01 -3.70809674e-01
      5.31548023e-01 -5.79554617e-01 -6.54124856e-01 -7.14465082e-01
      -5.87708831e-01 -5.34849048e-01 -5.49294055e-01 -5.33600986e-01
      -6.32828772e-01 1.93935919e+00 -5.04231274e-01 -5.36587715e-01
      -4.80337709e-01 -5.64453602e-01 2.16177702e+00 -6.67030871e-01
      -5.41833401e-01 1.44893312e+00 -1.14626400e-01 -5.31361580e-01
      -4.92269993e-01 3.56677246e+00 8.21697354e-01 -5.11484146e-01
      -6.38908386e-01 2.36728835e+00 -5.17638803e-01 -4.54940856e-01
      -7.05172718e-01 -5.87257147e-01 -5.34736037e-01 -5.68500400e-01
      -5.80476701e-01 -5.39588094e-01 6.15433931e-01 -4.86444086e-01
      -6.23990834e-01 -5.67818761e-01 6.46846473e-01 -4.91221130e-01
      -5.15151143e-01 -6.43729150e-01 -6.12232089e-01 3.92085004e+00
      -5.90538383e-01 3.28071952e+00 -6.32596076e-01 -5.70259571e-01
      -5.36476433e-01 -5.91035485e-01 -5.91672599e-01 -6.27239943e-01
      5.38434863e-01 1.91592562e+00 -5.78284562e-01 -4.83430117e-01
      -5.40890694e-01 -5.38863540e-01 3.82156110e+00 -6.37555480e-01
      -5.61689854e-01 -6.92914188e-01 -6.94917500e-01 -5.17854035e-01
      -5.81131041e-01 1.62149286e+00 -5.37071764e-01 -4.04380023e-01
      -4.94052589e-01 -6.76446915e-01 -5.87378561e-01 5.91041923e-01
      -5.87021768e-01 5.35856390e+00 -5.49225032e-01 -5.47353387e-01
      1.34792960e+00 -8.75071228e-01 -5.18400311e-01 -5.88752925e-01
      3.81917667e+00 -6.42561615e-01 -5.77599823e-01 1.42823458e+00
      8.13163579e-01 -5.09287238e-01 1.97862494e+00 -4.33859795e-01</_>
    <_>
      -6.12154186e-01 6.87600255e-01 1.32454112e-01 -3.72345746e-01
      -1.90815330e-01 1.42029658e-01 1.48002660e+00 3.16207719e+00
      1.03721179e-01 8.72059524e-01 -5.63875377e-01 7.96064496e-01
      -4.40549970e-01 -1.46478683e-01 -3.32404494e-01 8.87268066e-01
      1.16400766e+00 2.02997923e+00 6.46609306e-01 1.03826478e-01
      1.65212387e-03 3.78537446e-01 1.94426334e+00 2.95623374e+00
      -6.86673403e-01 -6.83057666e-01 5.95578134e-01 4.85832781e-01
      -5.61491251e-01 -8.99508446e-02 6.34631068e-02 5.68253219e-01
      -5.74432552e-01 -6.38135910e-01 -5.82158446e-01 -5.92045546e-01
      8.44270825e-01 8.55220109e-02 2.19495624e-01 -2.14746952e-01
      -4.54050712e-02 7.38479078e-01 1.35201588e-01 1.73796505e-01
      -6.04828298e-01 6.94074154e-01 -6.72281206e-01 -6.04232967e-01
      -5.28729260e-01 8.44909906e-01 -5.69783866e-01 -4.86222029e-01
      -1.57103941e-01 -6.02091491e-01 2.49826610e-01 1.46293676e+00
      1.50416166e-01 -6.71745062e-01 1.27118862e+00 -6.08493090e-01
      -6.22618973e-01 8.90354335e-01 -6.82314157e-01 -1.10387653e-01
      -5.59227407e-01 -4.97603089e-01 -3.65312696e-01 -4.42490488e-01
      3.53695787e-02 7.54825473e-01 -5.81415236e-01 -3.85084003e-01
      1.52229583e+00 -1.13622300e-01 -3.16684932e-01 1.71868101e-01
      3.27535105e+00 6.35220408e-02 5.03664389e-02 -3.80786248e-02
      7.14953899e-01 -4.98809248e-01 -6.28388107e-01 6.62815869e-01
      2.07111788e+00 -5.77705622e-01 -6.03681862e-01 2.89858127e+00
      -5.23374975e-01 -5.42226732e-01 1.03383578e-01 1.18489183e-01
      -6.02950811e-01 -6.56333506e-01 -5.16049504e-01 -5.50834775e-01
      1.42092153e-01 -5.87688327e-01 9.14398670e-01 -6.15845025e-01
      2.49410152e+00 -5.45089602e-01 5.64069688e-01 1.25407755e+00
      -6.16353393e-01 2.45094991e+00 -6.19054675e-01 1.26581049e+00
      -6.03004575e-01 3.93825322e-01 -5.30569553e-01 -3.70809674e-01
      4.59616957e-03 2.63811976e-01 -1.01332739e-01 -3.19420785e-01
      1.56749308e+00 1.96382916e+00 2.33229089e+00 1.24576402e+00
      1.52979887e+00 1.52757108e-01 1.01672745e+00 3.10986727e-01
      4.31733459e-01 -5.64453602e-01 1.02378285e+00 -3.34594220e-01
      1.04420090e+00 -6.29377425e-01 -7.29469180e-01 -5.31361580e-01
      -4.92269993e-01 6.03322685e-01 -2.35700116e-01 4.81096417e-01
      -6.38908386e-01 6.69847369e-01 -5.17638803e-01 -4.54940856e-01
      -2.44829446e-01 9.95632708e-01 -5.34736037e-01 1.76534459e-01
      -5.80476701e-01 1.17624789e-01 -1.16034195e-01 -4.86444086e-01
      1.02040611e-01 2.54294962e-01 -5.41359603e-01 -4.91221130e-01
      2.52676702e+00 -1.19740494e-01 -6.12232089e-01 4.27142456e-02
      1.25165462e-01 -9.27363262e-02 1.06121160e-01 1.17085826e+00
      -5.36476433e-01 -4.69314754e-02 2.23274612e+00 1.25358090e-01
      -7.23510861e-01 -4.78945822e-01 5.79980910e-01 3.34392309e-01
      5.84821880e-01 -2.39103988e-01 1.91245005e-02 1.83343627e-02
      9.29369211e-01 -6.92914188e-01 -2.08233651e-02 -5.17854035e-01
      9.40167427e-01 1.98754621e+00 -5.37071764e-01 -4.04380023e-01
      1.52250504e+00 -9.29184332e-02 -5.87378561e-01 4.20713902e-01
      1.04193479e-01 2.29080892e+00 -1.21206701e-01 -5.47353387e-01
      -5.28136015e-01 3.72401178e-01 -1.01250354e-02 1.96157798e-01
      -5.99403866e-03 -6.42561615e-01 -5.77599823e-01 -6.06415212e-01
      -2.81836390e-01 -5.09287238e-01 -6.41739964e-01 -4.33859795e-01</_>
    <_>
      -6.12154186e-01 -6.18214428e-01 9.00048494e-01 -7.81683207e-01
      -6.49620295e-01 -6.05123222e-01 -6.11913502e-01 -1.49065265e-02
      -5.56048155e-01 9.37805831e-01 1.25411201e+00 8.65455925e-01
      -4.40549970e-01 -2.32171267e-01 -7.70564675e-01 -5.92319906e-01
      1.24773479e+00 -5.36613941e-01 -6.52448893e-01 8.94829869e-01
      1.75484729e+00 -5.31129420e-01 -6.13488674e-01 -5.88586867e-01
      1.30804300e+00 -6.83057666e-01 1.93157339e+00 -5.11008918e-01
      2.81380534e-01 -5.43955803e-01 7.61970997e-01 1.72987354e+00
      4.43346024e-01 -6.38135910e-01 3.07903433e+00 -5.92045546e-01
      9.14128184e-01 4.75738406e-01 -5.39814889e-01 -6.60005152e-01
      -4.75978762e-01 8.07362795e-01 -5.37170887e-01 -5.45798361e-01
      7.13057518e-01 -2.30915621e-01 -6.72281206e-01 -6.04232967e-01
      5.61942339e-01 9.16551650e-01 2.96538234e-01 -4.86222029e-01
      -6.07714891e-01 -6.02091491e-01 -5.49993515e-01 8.12923074e-01
      -5.66376626e-01 -6.71745062e-01 -5.42221129e-01 -6.08493090e-01
      7.79355288e-01 -6.19347513e-01 -6.82314157e-01 -6.73487425e-01
      2.45783806e+00 -4.97603089e-01 -3.65312696e-01 -4.42490488e-01
      -6.24750733e-01 2.19845414e+00 8.62307668e-01 -2.47334555e-01
      2.35181832e+00 -7.36663938e-02 2.03260756e+00 -5.96608102e-01
      -5.73928237e-01 2.13385606e+00 -6.16309047e-01 5.49961329e-01
      7.83665895e-01 -4.98809248e-01 2.28914332e+00 3.05569261e-01
      3.03573322e+00 3.48049611e-01 -6.03681862e-01 -4.73508567e-01
      -5.23374975e-01 -5.42226732e-01 -6.07482135e-01 -4.48070377e-01
      -6.02950811e-01 5.68631947e-01 -5.16049504e-01 -5.50834775e-01
      -5.95946670e-01 -5.87688327e-01 9.88080025e-01 2.12955121e-02
      1.02942336e+00 -5.45089602e-01 -7.38558531e-01 -4.79905337e-01
      -6.16353393e-01 -5.02350748e-01 -6.19054675e-01 2.01512909e+00
      -6.03004575e-01 -3.85388404e-01 -5.30569553e-01 -3.70809674e-01
      -7.34836280e-01 2.96020937e+00 5.05959988e-01 1.14571556e-01
      9.19920564e-01 -5.34849048e-01 -5.49294055e-01 -5.33600986e-01
      -6.32828772e-01 -5.83898723e-01 1.09170425e+00 1.24212480e+00
      -4.80337709e-01 -5.64453602e-01 -5.73080063e-01 3.06178834e-02
      -5.41833401e-01 6.43953681e-01 6.13080502e-01 5.36646008e-01
      -4.92269993e-01 -6.18573725e-01 -6.71688676e-01 -5.11484146e-01
      -6.38908386e-01 3.04783463e+00 -5.17638803e-01 -4.54940856e-01
      2.19304466e+00 2.73458195e+00 -5.34736037e-01 -5.68500400e-01
      -5.80476701e-01 -5.39588094e-01 -2.27340162e-01 1.16552520e+00
      8.99652481e-01 -5.67818761e-01 -5.41359603e-01 1.26348484e+00
      2.67672062e+00 1.55554712e+00 -6.12232089e-01 -6.20149851e-01
      9.11431611e-01 2.96082044e+00 9.17669654e-01 -5.70259571e-01
      -5.36476433e-01 -5.91035485e-01 -5.91672599e-01 9.52155888e-01
      -7.23510861e-01 -4.78945822e-01 -5.78284562e-01 -4.83430117e-01
      -5.40890694e-01 -4.97357726e-01 -6.30800843e-01 -6.37555480e-01
      1.00287211e+00 -6.92914188e-01 7.19730735e-01 -5.17854035e-01
      1.01516092e+00 -5.60185492e-01 -5.37071764e-01 -4.04380023e-01
      1.62191272e+00 -6.76446915e-01 -5.87378561e-01 9.00187075e-01
      -5.87021768e-01 6.03727400e-01 -5.49225032e-01 -5.47353387e-01
      6.21284425e-01 -2.42627063e-03 5.48261821e-01 1.05845404e+00
      7.12277293e-01 -6.42561615e-01 7.21198976e-01 6.40165985e-01
      -7.33329296e-01 -5.09287238e-01 9.63694811e-01 -4.33859795e-01</_>
    <_>
      -6.12154186e-01 -6.18214428e-01 -5.66253603e-01 -7.81683207e-01
      -6.49620295e-01 -6.05123222e-01 -6.11913502e-01 -7.63910592e-01
      -5.56048155e-01 3.85841393e+00 -5.63875377e-01 -6.11591756e-01
      -4.40549970e-01 5.78331292e-01 2.06795144e+00 -5.92319906e-01
      -5.34459174e-01 -5.36613941e-01 -6.52448893e-01 -6.16189480e-01
      -5.46704113e-01 -5.31129420e-01 -6.13488674e-01 -5.88586867e-01
      -6.86673403e-01 4.89914083e+00 -6.20520115e-01 -5.11008918e-01
      -5.61491251e-01 -5.43955803e-01 1.37817010e-01 -4.89119172e-01
      -5.74432552e-01 -6.38135910e-01 -5.82158446e-01 1.94589674e+00
      4.01735878e+00 -8.92314613e-01 -5.39814889e-01 -6.60005152e-01
      -4.75978762e-01 -6.58876300e-01 -5.37170887e-01 -5.45798361e-01
      -6.04828298e-01 -8.99961650e-01 -6.72281206e-01 -6.04232967e-01
      -5.28729260e-01 -6.08394146e-01 1.63980067e+00 -4.86222029e-01
      -2.73298621e-01 -6.02091491e-01 -5.49993515e-01 -7.00389802e-01
      -5.66376626e-01 -6.71745062e-01 -5.42221129e-01 -6.08493090e-01
      -6.22618973e-01 4.27077389e+00 -6.82314157e-01 -6.73487425e-01
      -5.59227407e-01 -4.97603089e-01 -3.65312696e-01 -4.42490488e-01
      -6.24750733e-01 3.69720483e+00 -5.81415236e-01 -7.30268002e-01
      -5.56390584e-01 2.57641482e+00 -6.34398758e-01 -5.96608102e-01
      -5.73928237e-01 -9.00371194e-01 3.70258880e+00 -5.73345780e-01
      -6.78919196e-01 2.40800643e+00 -6.28388107e-01 -5.26145339e-01
      2.58255935e+00 -5.77705622e-01 -6.03681862e-01 -4.73508567e-01
      -5.23374975e-01 4.34772015e+00 -6.07482135e-01 -1.07338417e+00
      -6.02950811e-01 -6.56333506e-01 -5.16049504e-01 -5.50834775e-01
      -5.95946670e-01 -5.87688327e-01 -5.80280900e-01 1.35098028e+00
      -5.87147236e-01 -5.45089602e-01 2.07436323e+00 -4.79905337e-01
      2.93146253e+00 -5.02350748e-01 -6.19054675e-01 -6.11894488e-01
      6.15767288e+00 -3.85388404e-01 -5.30569553e-01 -3.70809674e-01
      -7.34836280e-01 -5.79554617e-01 -6.54124856e-01 -7.14465082e-01
      -5.87708831e-01 -5.34849048e-01 -5.49294055e-01 -5.33600986e-01
      -6.32828772e-01 -5.83898723e-01 -5.04231274e-01 -5.36587715e-01
      -4.80337709e-01 -5.64453602e-01 -5.73080063e-01 1.48658061e+00
      -5.41833401e-01 -6.29377425e-01 6.59343243e-01 -5.31361580e-01
      -4.92269993e-01 -6.18573725e-01 -6.71688676e-01 -5.11484146e-01
      -6.38908386e-01 -6.52636588e-01 -5.17638803e-01 -4.54940856e-01
      -7.05172718e-01 -5.87257147e-01 -5.34736037e-01 -5.68500400e-01
      1.47574842e+00 -5.39588094e-01 9.87092137e-01 -4.86444086e-01
      -6.23990834e-01 -5.67818761e-01 -5.41359603e-01 -4.91221130e-01
      -5.15151143e-01 -6.43729150e-01 -6.12232089e-01 -6.20149851e-01
      -5.90538383e-01 -6.69338822e-01 -6.32596076e-01 -5.70259571e-01
      1.11637092e+00 -5.91035485e-01 -5.91672599e-01 -6.27239943e-01
      -7.23510861e-01 -4.78945822e-01 -5.78284562e-01 -4.83430117e-01
      -5.40890694e-01 -3.74701172e-01 -6.30800843e-01 -6.37555480e-01
      4.26804495e+00 2.82138085e+00 3.67204022e+00 -5.17854035e-01
      -5.81131041e-01 -5.60185492e-01 1.21408474e+00 -4.04380023e-01
      -4.94052589e-01 -6.76446915e-01 6.73316050e+00 -7.80789733e-01
      -5.87021768e-01 -6.16540313e-01 -5.49225032e-01 -5.47353387e-01
      -5.28136015e-01 -8.75071228e-01 -5.18400311e-01 -5.88752925e-01
      -6.59805179e-01 -6.42561615e-01 -5.77599823e-01 -6.06415212e-01
      -7.33329296e-01 -5.09287238e-01 -6.41739964e-01 2.78751993e+00</_>
    <_>
      4.59893525e-01 6.96423352e-01 -5.66253603e-01 4.25233617e-02
      -6.49620295e-01 -6.05123222e-01 2.19618630e+00 -4.52715270e-02
      2.10086083e+00 -4.61652130e-01 -5.63875377e-01 8.05575728e-01
      -4.40549970e-01 -1.82177722e-02 -3.29443932e-01 -5.92319906e-01
      -5.34459174e-01 1.18600941e+00 -6.52448893e-01 -6.16189480e-01
      5.57418585e-01 3.13212371e+00 -6.13488674e-01 -5.88586867e-01
      -6.86673403e-01 1.84446171e-01 6.03795052e-01 -5.11008918e-01
      -5.61491251e-01 -5.43955803e-01 -2.43269712e-01 1.63991451e+00
      -5.74432552e-01 -6.38135910e-01 1.17422473e+00 -5.92045546e-01
      8.53845894e-01 -8.92314613e-01 -5.39814889e-01 -6.60005152e-01
      -4.75978762e-01 7.47920692e-01 -5.37170887e-01 -5.45798361e-01
      6.59629762e-01 -2.58039087e-01 3.46122473e-01 2.11574221e+00
      5.17726004e-01 -6.08394146e-01 -1.60996482e-01 -4.86222029e-01
      -4.60466266e-01 -6.02091491e-01 -5.49993515e-01 -7.00389802e-01
      -5.66376626e-01 1.99044299e+00 -5.42221129e-01 -6.08493090e-01
      -6.22618973e-01 9.00555074e-01 1.51130843e+00 -6.73487425e-01
      -5.59227407e-01 -4.97603089e-01 1.07212067e+00 -4.42490488e-01
      3.36273289e+00 -5.59246838e-01 -5.81415236e-01 -6.14429235e-01
      2.23391795e+00 1.63858190e-01 1.28476465e+00 -5.96608102e-01
      9.76187050e-01 1.04044092e+00 -6.16309047e-01 5.04421890e-01
      7.24371970e-01 -4.98809248e-01 -6.28388107e-01 2.71851122e-01
      2.48359680e-01 -1.33593291e-01 -6.03681862e-01 -4.73508567e-01
      -5.23374975e-01 -5.42226732e-01 -6.07482135e-01 -7.73402572e-01
      -6.02950811e-01 -6.56333506e-01 6.95290744e-01 -5.50834775e-01
      -5.95946670e-01 -5.87688327e-01 9.24497902e-01 -6.15845025e-01
      -5.87147236e-01 -5.45089602e-01 1.35727987e-01 -4.79905337e-01
      -6.16353393e-01 -5.02350748e-01 -6.19054675e-01 1.90862823e+00
      -6.03004575e-01 -3.85388404e-01 -5.30569553e-01 -3.70809674e-01
      9.59234964e-03 2.81670547e+00 -6.54124856e-01 8.09619948e-02
      2.30530977e+00 -5.34849048e-01 -5.49294055e-01 3.04917455e+00
      -6.32828772e-01 2.38263416e+00 2.55823970e+00 2.87661743e+00
      1.35612988e+00 7.39603162e-01 -5.73080063e-01 6.71700597e-01
      1.05491734e+00 5.92332184e-01 -7.27756262e-01 4.93348449e-01
      -4.92269993e-01 -6.18573725e-01 -6.71688676e-01 -5.11484146e-01
      -6.38908386e-01 1.12258959e+00 -5.17638803e-01 -5.26021570e-02
      -7.05172718e-01 2.59991288e+00 -5.34736037e-01 9.31637406e-01
      -5.80476701e-01 7.83718944e-01 5.86555183e-01 1.09855354e+00
      3.50591868e-01 -5.67818761e-01 -5.41359603e-01 2.87591743e+00
      1.01608467e+00 4.11329091e-01 2.56833339e+00 -6.20149851e-01
      -5.90538383e-01 1.65265501e+00 6.80449009e+00 -5.70259571e-01
      -5.36476433e-01 -5.91035485e-01 8.30078721e-01 8.88126433e-01
      -7.23510861e-01 2.24952236e-01 5.87807059e-01 -4.83430117e-01
