<?xml version="1.0"?>
<opencv_storage>
<my_svm type_id="opencv-ml-svm">
  <svm_type>C_SVC</svm_type>
  <kernel><type>LINEAR</type></kernel>
  <C>1.</C>
  <term_criteria><epsilon>2.2204460492503131e-16</epsilon>
    <iterations>100</iterations></term_criteria>
  <var_all>121</var_all>
  <var_count>121</var_count>
  <class_count>2</class_count>
  <class_labels type_id="opencv-matrix">
    <rows>1</rows>
    <cols>2</cols>
    <dt>i</dt>
    <data>
      -1 1</data></class_labels>
  <sv_total>1</sv_total>
  <support_vectors>
    <_>
      -1.95671324e-04 -1.00103780e-05 -8.98026919e-05 -2.06507375e-05
      -1.63265955e-04 -5.74836049e-05 -2.50599202e-04 -8.08765094e-07
      -1.22557234e-04 -1.56981287e-07 -3.06103611e-04 1.29655675e-07
      -1.95671324e-04 -2.24177020e-05 4.93341940e-06 -9.22774052e-06
      -1.56267288e-06 1.53122653e-06 -8.98026556e-05 -2.45166411e-05
      2.15218515e-05 -6.56909242e-06 -2.53473499e-05 1.37432080e-05
      -3.12287239e-06 9.67511824e-07 -9.85712859e-07 -1.43726017e-10
      2.50306755e-07 1.52260071e-07 5.00328611e-07 2.91039584e-07
      5.79245766e-12 2.63961908e-07 1.24790304e-07 3.59806677e-07
      3.11557102e-07 4.11945783e-10 2.52329755e-07 1.11858661e-07
      2.88184168e-07 3.74592929e-07 2.05972892e-10 2.36449196e-07
      1.52519064e-07 2.72446982e-07 4.06707926e-07 0. 1.83006293e-07
      2.08141969e-07 3.80696122e-07 2.65008907e-07 1.89645452e-10
      1.56498430e-07 1.88752210e-07 3.18012695e-07 2.43542104e-07 0.
      1.73460521e-07 1.36283532e-07 2.65708223e-07 2.94161111e-07
      6.17918661e-10 8.18830941e-08 1.71047631e-07 1.37127699e-07
      3.22436250e-07 2.05972892e-10 1.89293402e-07 1.68732683e-07
      1.41398004e-07 1.92703425e-07 -5.44247763e-12 2.80722958e-07
      1.65969283e-07 2.76726553e-07 3.80034578e-07 8.23891566e-10
      2.80715199e-07 1.76468774e-07 4.22570395e-07 3.28577727e-07
      -5.44247763e-12 2.06208455e-07 1.68163112e-07 3.74020487e-07
      2.87488490e-07 4.11945783e-10 2.31950978e-07 1.33376645e-07
      1.70530626e-07 3.04241240e-07 0. 2.68868718e-07 7.53171179e-08
      2.01484667e-07 2.61157567e-07 2.05972892e-10 3.08422528e-07
      9.87887532e-08 3.46984876e-07 2.85870698e-07 6.74548308e-12
      2.72821950e-07 1.29313278e-07 4.60127467e-07 2.67449622e-07
      2.05972892e-10 1.04756694e-07 1.21532583e-04 5.29993667e-06
      8.61020453e-06 -7.96038222e-08 -1.47306889e-06 -5.87043760e-05
      -8.70941658e-05 -2.84403313e-07 7.36035945e-05 4.68685539e-06
      1.27184558e-06 -9.73626868e-08</_></support_vectors>
  <decision_functions>
    <_>
      <sv_count>1</sv_count>
      <rho>-1.2602499965542739e+00</rho>
      <alpha>
        1.</alpha>
      <index>
        0</index></_></decision_functions></my_svm>
</opencv_storage>
