<?xml version="1.0"?>
<opencv_storage>
<my_svm type_id="opencv-ml-svm">
  <svm_type>C_SVC</svm_type>
  <kernel><type>RBF</type>
    <gamma>2.2500000000000003e-03</gamma></kernel>
  <C>6.2500000000000000e+01</C>
  <term_criteria><epsilon>9.9999999747524271e-07</epsilon>
    <iterations>10000</iterations></term_criteria>
  <var_all>100</var_all>
  <var_count>100</var_count>
  <class_count>2</class_count>
  <class_labels type_id="opencv-matrix">
    <rows>1</rows>
    <cols>2</cols>
    <dt>i</dt>
    <data>
      -1 1</data></class_labels>
  <sv_total>311</sv_total>
  <support_vectors>
    <_>
      -7.19547927e-01 -4.84332204e-01 -9.01697993e-01 6.79782343e+00
      2.62665558e+00 -7.57636130e-01 -4.30263370e-01 9.46098924e-01
      -4.78040695e-01 -6.33221805e-01 -9.10992563e-01 -5.15614927e-01
      -6.59913838e-01 7.87816763e-01 -6.73222899e-01 -1.18955255e+00
      6.52436733e-01 -6.39136970e-01 -6.53588712e-01 9.08545911e-01
      -6.10291183e-01 -6.28451228e-01 2.43027091e+00 -4.88451868e-01
      -5.78261554e-01 -6.55316234e-01 -5.19272983e-01 2.72478127e+00
      -7.25048959e-01 -6.43511474e-01 1.03492630e+00 2.39618206e+00
      -9.46340084e-01 1.27410114e+00 -6.39411032e-01 -6.57408893e-01
      -6.07761681e-01 -5.32305002e-01 -1.00200438e+00 -6.74221158e-01
      -7.63410687e-01 -6.75360918e-01 1.76983607e+00 -6.92687094e-01
      -5.28449118e-01 2.87398124e+00 -5.96525908e-01 3.86614650e-01
      -6.61794603e-01 2.58997488e+00 -6.85676754e-01 -6.67368114e-01
      -5.93203604e-01 -2.77898192e-01 2.43652844e+00 1.73887980e+00
      -7.40247786e-01 5.33607292e+00 -7.13286102e-01 -5.00334680e-01
      2.88456273e+00 -6.51188493e-01 -6.24897063e-01 -6.34992778e-01
      -7.34800994e-01 -8.27059269e-01 -7.27023005e-01 -7.10021675e-01
      -1.07809055e+00 -6.99668586e-01 -4.26554263e-01 -4.98578280e-01
      -4.82603461e-01 -8.44040751e-01 9.32346404e-01 -7.34057605e-01
      1.17044163e+00 -4.55824196e-01 -5.42203903e-01 -6.97962403e-01
      2.72889042e+00 -7.03126371e-01 -7.08198249e-01 1.97679591e+00
      -6.08510435e-01 1.89476323e+00 -6.11304462e-01 2.05263042e+00
      -7.49097645e-01 -4.82203424e-01 -6.02079570e-01 -5.49297035e-01
      1.87389040e+00 -7.31486976e-01 -6.91941500e-01 -5.90450704e-01
      -5.79048157e-01 -6.73947394e-01 -6.45214975e-01 -5.12885392e-01</_>
    <_>
      4.25618500e-01 -4.84332204e-01 -9.01697993e-01 1.25915870e-01
      8.53815004e-02 -1.31137148e-01 -2.62440354e-01 -3.14281136e-01
      -2.94063240e-01 1.45243376e-01 5.50429046e-01 -5.15614927e-01
      9.61331904e-01 -7.06968307e-01 6.37922823e-01 -9.34052050e-01
      -4.87156846e-02 2.25677848e+00 2.14344358e+00 -3.43325853e-01
      2.19842583e-01 -2.60283500e-01 8.80435631e-02 -4.88451868e-01
      -5.78261554e-01 4.16069180e-02 3.46601009e-02 5.11300027e-01
      -4.39646930e-01 -6.43511474e-01 6.31077111e-01 -3.24431956e-01
      9.57041010e-02 2.59784341e-01 1.19518960e+00 8.08891952e-01
      -6.07761681e-01 -1.59222737e-01 -4.31463838e-01 -6.74221158e-01
      1.93830562e+00 -6.75360918e-01 2.37018466e+00 9.57496241e-02
      7.95645058e-01 2.29596302e-01 2.92889684e-01 -8.22110116e-01
      -6.61794603e-01 -4.02635366e-01 3.33756238e-01 -6.67368114e-01
      -2.32726514e-01 -2.77898192e-01 8.58789504e-01 5.00729978e-01
      -1.99827492e-01 -7.06039667e-01 -7.13286102e-01 2.68855095e-01
      -5.47195613e-01 -6.51188493e-01 2.07460260e+00 -6.34992778e-01
      1.37250257e+00 2.96888620e-01 -7.64409751e-02 8.24622691e-01
      -6.98717892e-01 1.45191824e+00 -4.26554263e-01 3.02004963e-01
      1.66394189e-01 -3.08567613e-01 -5.84523320e-01 -7.34057605e-01
      -2.06331745e-01 2.54052222e-01 3.08399618e-01 -6.97962403e-01
      2.36650079e-01 -2.99638152e-01 2.77452850e+00 1.30998003e+00
      2.24011332e-01 6.61230624e-01 7.06988215e-01 1.37660575e+00
      1.13752747e+00 -5.56854784e-01 -6.99220970e-02 -3.07016909e-01
      1.87389040e+00 2.43423104e+00 -1.47016361e-01 -5.90450704e-01
      4.27179724e-01 9.37707841e-01 -6.45214975e-01 1.86745912e-01</_>
    <_>
      -7.19547927e-01 1.89542542e+01 -9.01697993e-01 -5.64281464e-01
      -7.61709869e-01 -7.57636130e-01 -4.30263370e-01 -7.34407842e-01
      5.99796534e+00 -6.33221805e-01 -9.10992563e-01 -5.15614927e-01
      -6.59913838e-01 -7.06968307e-01 -6.73222899e-01 -1.18955255e+00
      -7.49868095e-01 -6.39136970e-01 -6.53588712e-01 -7.60616422e-01
      -6.10291183e-01 -6.28451228e-01 -6.92698896e-01 -4.88451868e-01
      -5.78261554e-01 -6.55316234e-01 9.22994900e+00 -8.16788733e-01
      -7.25048959e-01 -6.43511474e-01 -5.80470681e-01 -7.13091075e-01
      -9.46340084e-01 -7.54532456e-01 -6.39411032e-01 -6.57408893e-01
      -6.07761681e-01 -5.32305002e-01 -1.00200438e+00 -6.74221158e-01
      -7.63410687e-01 -6.75360918e-01 -6.31558478e-01 -6.92687094e-01
      -5.28449118e-01 -6.51865363e-01 -5.96525908e-01 -8.22110116e-01
      -6.61794603e-01 -4.02635366e-01 -6.85676754e-01 -6.67368114e-01
      -5.93203604e-01 -2.77898192e-01 -7.18949556e-01 -7.37419963e-01
      -7.40247786e-01 -7.06039667e-01 -7.13286102e-01 -5.00334680e-01
      -5.47195613e-01 -6.51188493e-01 -6.24897063e-01 -6.34992778e-01
      -7.34800994e-01 -8.27059269e-01 -7.27023005e-01 -7.10021675e-01
      -1.07809055e+00 -6.99668586e-01 5.50240898e+00 -4.98578280e-01
      -4.82603461e-01 -8.44040751e-01 -5.84523320e-01 -7.34057605e-01
      -1.03239572e+00 -4.55824196e-01 -5.42203903e-01 -6.97962403e-01
      -5.94096720e-01 -7.03126371e-01 -7.08198249e-01 -6.90467477e-01
      -6.08510435e-01 -5.72301924e-01 -6.11304462e-01 -6.51467860e-01
      -7.49097645e-01 -7.80808806e-01 -6.02079570e-01 -5.49297035e-01
      -6.54998124e-01 -7.31486976e-01 -6.91941500e-01 -5.90450704e-01
      -5.79048157e-01 -6.73947394e-01 -6.45214975e-01 -5.12885392e-01</_>
    <_>
      -7.19547927e-01 -4.84332204e-01 -9.01697993e-01 -5.64281464e-01
      -7.61709869e-01 -7.57636130e-01 -4.30263370e-01 1.16154850e+00
      -6.29121140e-02 -6.33221805e-01 -9.10992563e-01 -5.15614927e-01
      -6.59913838e-01 9.79455829e-01 8.06018353e-01 2.84604478e+00
      4.11756337e-02 -6.39136970e-01 -6.53588712e-01 1.80962294e-01
      -6.10291183e-01 1.03302360e+00 -6.92698896e-01 -4.88451868e-01
      -5.78261554e-01 -6.55316234e-01 -5.19272983e-01 -3.17336559e-01
      3.13885498e+00 -6.43511474e-01 -5.80470681e-01 -7.13091075e-01
      1.99275899e+00 3.89824957e-01 -6.39411032e-01 -6.57408893e-01
      -6.07761681e-01 3.09521616e-01 2.60264134e+00 -6.74221158e-01
      -7.63410687e-01 -6.75360918e-01 -6.31558478e-01 -6.92687094e-01
      -5.28449118e-01 -6.51865363e-01 1.41036046e+00 -8.22110116e-01
      -6.61794603e-01 4.41434145e-01 -6.85676754e-01 -6.67368114e-01
      -5.93203604e-01 -2.77898192e-01 -7.18949556e-01 -7.37419963e-01
      -7.40247786e-01 -7.06039667e-01 -7.13286102e-01 3.67469162e-01
      -5.47195613e-01 6.00264728e-01 -6.24897063e-01 9.02758062e-01
      -7.34800994e-01 -8.27059269e-01 -7.27023005e-01 -7.10021675e-01
      -1.07809055e+00 -6.99668586e-01 -4.26554263e-01 -4.98578280e-01
      -4.82603461e-01 8.82026732e-01 -5.84523320e-01 -7.34057605e-01
      -4.11082655e-01 -4.55824196e-01 -5.42203903e-01 -6.97962403e-01
      -5.94096720e-01 2.07308576e-01 -7.08198249e-01 -6.90467477e-01
      -6.08510435e-01 8.19375813e-01 -6.11304462e-01 -6.51467860e-01
      -7.49097645e-01 5.66743731e-01 -6.02079570e-01 -5.49297035e-01
      -6.54998124e-01 -7.31486976e-01 -6.91941500e-01 -5.90450704e-01
      -5.79048157e-01 -6.73947394e-01 -6.45214975e-01 -5.12885392e-01</_>
    <_>
      -7.19547927e-01 -4.84332204e-01 -9.01697993e-01 -5.64281464e-01
      -7.61709869e-01 -7.57636130e-01 1.53885996e+00 -7.34407842e-01
      -4.78040695e-01 -6.33221805e-01 1.94689870e+00 -5.15614927e-01
      -6.59913838e-01 -7.06968307e-01 -6.73222899e-01 1.80831993e+00
      -7.49868095e-01 -6.39136970e-01 -6.53588712e-01 -7.60616422e-01
      -6.10291183e-01 -6.28451228e-01 -6.92698896e-01 -4.88451868e-01
      -5.78261554e-01 -6.55316234e-01 2.73046803e+00 -8.16788733e-01
      -7.25048959e-01 -6.43511474e-01 -5.80470681e-01 3.84717631e+00
      5.81991434e-01 5.19612646e+00 -6.39411032e-01 -6.57408893e-01
      -6.07761681e-01 -5.32305002e-01 1.67573261e+00 -6.74221158e-01
      -7.63410687e-01 -6.75360918e-01 -6.31558478e-01 -6.92687094e-01
      -5.28449118e-01 -6.51865363e-01 4.62137890e+00 -8.22110116e-01
      -6.61794603e-01 -4.02635366e-01 -6.85676754e-01 -6.67368114e-01
      -5.93203604e-01 -2.77898192e-01 -7.18949556e-01 -7.37419963e-01
      -7.40247786e-01 -7.06039667e-01 7.67206192e+00 8.52482605e+00
      -5.47195613e-01 -6.51188493e-01 -6.24897063e-01 3.36315966e+00
      -7.34800994e-01 -8.27059269e-01 -7.27023005e-01 -7.10021675e-01
      -1.07809055e+00 -6.99668586e-01 -4.26554263e-01 -4.98578280e-01
      -4.82603461e-01 -8.44040751e-01 -5.84523320e-01 -7.34057605e-01
      2.19843245e+00 -4.55824196e-01 -5.42203903e-01 -6.97962403e-01
      -5.94096720e-01 -7.03126371e-01 -7.08198249e-01 -6.90467477e-01
      -6.08510435e-01 -5.72301924e-01 -6.11304462e-01 -6.51467860e-01
      -7.49097645e-01 -7.80808806e-01 -6.02079570e-01 -5.49297035e-01
      -6.54998124e-01 -7.31486976e-01 -6.91941500e-01 -5.90450704e-01
      -5.79048157e-01 -6.73947394e-01 -6.45214975e-01 -5.12885392e-01</_>
    <_>
      -7.19547927e-01 -4.84332204e-01 -1.58532336e-01 -1.85855538e-01
      -6.50366321e-02 -7.57636130e-01 -4.30263370e-01 -7.34407842e-01
      -1.75423607e-01 6.47244215e-01 2.90924221e-01 -5.15614927e-01
      -6.59913838e-01 -7.06968307e-01 -6.73222899e-01 7.12348446e-02
      -7.49868095e-01 -6.39136970e-01 -6.53588712e-01 -7.60616422e-01
      7.55162358e-01 -6.28451228e-01 5.91512918e-01 6.68466449e-01
      -5.78261554e-01 -6.55316234e-01 3.91869247e-01 6.39557719e-01
      -2.55602688e-01 4.99361247e-01 -5.80470681e-01 -7.38013238e-02
      1.41043270e+00 -7.54532456e-01 1.37236285e+00 1.46544144e-01
      2.04365206e+00 8.13629702e-02 8.74913812e-01 -6.74221158e-01
      1.45856142e+00 -6.75360918e-01 -6.31558478e-01 -6.92687094e-01
      -5.28449118e-01 7.98015416e-01 8.66437972e-01 -3.25064451e-01
      5.53431809e-01 -4.02635366e-01 9.91147459e-01 -6.67368114e-01
      -2.69351789e-04 -2.77898192e-01 1.87620986e+00 2.31745434e+00
      1.03758323e+00 1.77856719e+00 -7.13286102e-01 1.32269949e-01
      3.93597901e-01 2.61085778e-01 -6.24897063e-01 -7.45041519e-02
      -7.34800994e-01 5.59493184e-01 -7.27023005e-01 5.52115679e-01
      -4.54075754e-01 -6.99668586e-01 -1.49499908e-01 2.13511610e+00
      -4.82603461e-01 -2.14913458e-01 -5.84523320e-01 1.59696534e-01
      -1.26556158e-01 7.11822927e-01 2.25604296e+00 3.33942056e-01
      7.72365212e-01 -7.03126371e-01 7.23950982e-01 -6.90467477e-01
      -6.08510435e-01 -5.72301924e-01 4.72898811e-01 4.60497707e-01
      -7.49097645e-01 -4.40628380e-02 -6.02079570e-01 -5.49297035e-01
      -6.54998124e-01 1.36373371e-01 1.10070920e+00 -5.90450704e-01
      -5.79048157e-01 -6.73947394e-01 -6.45214975e-01 -5.12885392e-01</_>
    <_>
      -9.36184525e-02 -4.84332204e-01 8.61123055e-02 -3.12781006e-01
      -2.98703402e-01 -7.27676824e-02 -4.30263370e-01 -7.34407842e-01
      -4.78040695e-01 1.91975713e+00 -3.78466249e-01 1.05251634e+00
      2.26232886e-01 -7.06968307e-01 -6.73222899e-01 2.06971854e-01
      7.83086181e-01 4.16103482e-01 1.79251146e+00 6.07889295e-01
      2.97184229e-01 5.78956008e-01 1.86774838e+00 -4.88451868e-01
      -5.78261554e-01 1.06537640e-01 6.91810548e-01 1.51093751e-01
      -1.01064451e-01 1.16037518e-01 1.18542922e+00 -7.13091075e-01
      -3.76775593e-01 -2.00123280e-01 1.36611509e+00 -6.57408893e-01
      2.73298204e-01 -1.24463528e-01 -1.28829315e-01 1.31360590e+00
      -7.63410687e-01 3.80048335e-01 2.47232523e-02 1.03110003e+00
      -1.66584894e-01 3.11720043e-01 -5.96525908e-01 -4.91775423e-01
      -6.61794603e-01 -4.02635366e-01 4.28734452e-01 -6.67368114e-01
      -1.99141696e-01 -2.77898192e-01 -7.18949556e-01 -6.06672056e-02
      4.41292197e-01 9.45220888e-01 -7.13286102e-01 -7.99079835e-02
      -2.34571651e-01 -4.48943824e-02 3.30977726e+00 -2.62494087e-01
      1.56883514e+00 -8.27059269e-01 6.95367515e-01 9.67601955e-01
      1.66063234e-01 8.68361592e-01 -4.26554263e-01 3.76593471e-01
      -1.27871826e-01 -4.25925076e-01 -5.84523320e-01 4.53913808e-01
      1.37567484e+00 -4.55824196e-01 1.31750071e+00 1.35943723e+00
      3.14048827e-01 -2.62046069e-01 -7.08198249e-01 -6.90467477e-01
      3.01575452e-01 -5.72301924e-01 8.29810560e-01 2.30456495e+00
      -6.16317838e-02 -2.91170150e-01 -6.02079570e-01 -2.84444243e-01
      1.41837621e+00 9.98843372e-01 -6.91941500e-01 1.05008161e+00
      5.20927668e-01 -6.73947394e-01 8.60402465e-01 2.51928926e-01</_>
    <_>
      1.55015135e+00 -4.84332204e-01 -5.43505549e-01 -1.99492484e-01
      -9.01419297e-02 -7.57636130e-01 -2.97214508e-01 -7.34407842e-01
      -3.32184702e-01 -6.33221805e-01 4.40712690e-01 6.21633410e-01
      6.25398099e-01 -1.14440903e-01 -1.53489470e-01 -1.76757768e-01
      8.39347616e-02 8.91436994e-01 -2.10095301e-01 -4.29791480e-01
      -6.10291183e-01 5.39071679e-01 5.45235097e-01 6.91619441e-02
      1.23338675e+00 -1.02800585e-01 -2.99695909e-01 4.11593616e-01
      -7.25048959e-01 1.55986488e+00 -2.60301888e-01 -7.13091075e-01
      -2.23480642e-01 -3.52460951e-01 8.15047145e-01 -6.57408893e-01
      3.12051885e-02 -5.32305002e-01 -4.59219873e-01 1.48821235e+00
      3.07539910e-01 8.55457902e-01 3.20345640e-01 -6.76201433e-02
      -5.28449118e-01 7.45767534e-01 -2.43964791e-01 -3.42976004e-01
      5.09639978e-01 -4.02635366e-01 -2.81577200e-01 1.18375592e-01
      -3.07419956e-01 -1.02135710e-01 5.31870604e-01 2.44176373e-01
      -7.40247786e-01 1.09026408e+00 9.86446559e-01 -1.95430636e-01
      -3.20472807e-01 2.28211090e-01 1.51524675e+00 -6.34992778e-01
      1.49273908e+00 -3.81530374e-01 -7.27023005e-01 1.11496079e+00
      -7.77326643e-01 4.37506437e-01 -4.26554263e-01 -4.98578280e-01
      3.19171958e-02 4.99777915e-03 -2.83882469e-01 9.89036083e-01
      9.32297051e-01 1.06960714e-01 8.06500793e-01 7.94115782e-01
      2.04034352e+00 2.56521285e-01 6.72342062e-01 -1.61820665e-01
      1.37154126e+00 -8.33340734e-02 9.56394970e-01 4.20426935e-01
      7.46605098e-01 -2.48161346e-01 2.41701633e-01 2.19014734e-01
      -1.53777003e-01 1.35997856e+00 -2.59928793e-01 4.42701159e-03
      1.28232229e+00 -2.48044521e-01 4.46696788e-01 -5.12885392e-01</_>
    <_>
      -7.19547927e-01 -4.84332204e-01 -9.01697993e-01 -5.64281464e-01
      -7.61709869e-01 -7.57636130e-01 -4.30263370e-01 -7.34407842e-01
      3.89763927e+00 -6.33221805e-01 2.47611970e-01 -5.15614927e-01
      -6.59913838e-01 -7.06968307e-01 -6.73222899e-01 2.58011315e-02
      -7.49868095e-01 -6.39136970e-01 -6.53588712e-01 -7.60616422e-01
      -6.10291183e-01 -6.28451228e-01 -6.92698896e-01 -4.88451868e-01
      -5.78261554e-01 -6.55316234e-01 -5.19272983e-01 -8.16788733e-01
      6.32538915e-01 -6.43511474e-01 -5.80470681e-01 -7.13091075e-01
      -9.46340084e-01 -7.54532456e-01 -6.39411032e-01 -6.57408893e-01
      -6.07761681e-01 -5.32305002e-01 -1.00200438e+00 -6.74221158e-01
      -7.63410687e-01 -6.75360918e-01 -6.31558478e-01 -6.92687094e-01
      -5.28449118e-01 -6.51865363e-01 -5.96525908e-01 -8.22110116e-01
      -6.61794603e-01 -4.02635366e-01 -6.85676754e-01 -6.67368114e-01
      -5.93203604e-01 -2.77898192e-01 -7.18949556e-01 -7.37419963e-01
      -7.40247786e-01 -7.06039667e-01 -7.13286102e-01 -5.00334680e-01
      8.13140988e-01 -6.51188493e-01 -6.24897063e-01 -6.34992778e-01
      -7.34800994e-01 -8.27059269e-01 -7.27023005e-01 -7.10021675e-01
      7.26492882e-01 -6.99668586e-01 3.57950211e+00 -4.98578280e-01
      -4.82603461e-01 2.79469609e+00 1.21932173e+00 -7.34057605e-01
      -1.03239572e+00 -4.55824196e-01 -5.42203903e-01 -6.97962403e-01
      -5.94096720e-01 1.21616888e+00 -7.08198249e-01 -6.90467477e-01
      -6.08510435e-01 -5.72301924e-01 -6.11304462e-01 -6.51467860e-01
      -7.49097645e-01 2.41507602e+00 -6.02079570e-01 6.03170633e-01
      -6.54998124e-01 -7.31486976e-01 -6.91941500e-01 -5.90450704e-01
      -5.79048157e-01 -6.73947394e-01 -6.45214975e-01 -5.12885392e-01</_>
    <_>
      -7.19547927e-01 -4.84332204e-01 -9.01697993e-01 -5.64281464e-01
      -7.61709869e-01 -7.57636130e-01 2.67887855e+00 -7.34407842e-01
      -4.78040695e-01 -6.33221805e-01 -9.10992563e-01 -5.15614927e-01
      -6.59913838e-01 2.75463915e+00 -6.73222899e-01 -1.18955255e+00
      -7.49868095e-01 -6.39136970e-01 -6.53588712e-01 -7.60616422e-01
      -6.10291183e-01 -6.28451228e-01 -6.92698896e-01 -4.88451868e-01
      -5.78261554e-01 -6.55316234e-01 -5.19272983e-01 -8.16788733e-01
      -7.25048959e-01 -6.43511474e-01 -5.80470681e-01 -7.13091075e-01
      -9.46340084e-01 -7.54532456e-01 -6.39411032e-01 -6.57408893e-01
      -6.07761681e-01 2.92361474e+00 -1.00200438e+00 -6.74221158e-01
      -7.63410687e-01 -6.75360918e-01 4.92956543e+00 -6.92687094e-01
      2.53787422e+00 -6.51865363e-01 -5.96525908e-01 -8.22110116e-01
      -6.61794603e-01 -4.02635366e-01 -6.85676754e-01 3.92302942e+00
      -5.93203604e-01 1.77574778e+00 -7.18949556e-01 -7.37419963e-01
      -7.40247786e-01 -7.06039667e-01 -7.13286102e-01 3.06222844e+00
      -5.47195613e-01 -6.51188493e-01 -6.24897063e-01 -6.34992778e-01
      -7.34800994e-01 -8.27059269e-01 -7.27023005e-01 -7.10021675e-01
      -1.07809055e+00 -6.99668586e-01 -4.26554263e-01 -4.98578280e-01
      -4.82603461e-01 -8.44040751e-01 -5.84523320e-01 4.29918957e+00
      -1.03239572e+00 -4.55824196e-01 -5.42203903e-01 -6.97962403e-01
      -5.94096720e-01 3.03444862e+00 -7.08198249e-01 -6.90467477e-01
      -6.08510435e-01 -5.72301924e-01 -6.11304462e-01 -6.51467860e-01
      5.07627106e+00 1.98522007e+00 -6.02079570e-01 3.93926120e+00
      -6.54998124e-01 -7.31486976e-01 -6.91941500e-01 -5.90450704e-01
      -5.79048157e-01 -6.73947394e-01 -6.45214975e-01 -5.12885392e-01</_>
    <_>
      1.64235771e+00 -4.84332204e-01 -2.80457944e-01 1.01742077e+00
      -1.79334566e-01 9.65236008e-01 -1.99506745e-01 -1.56733662e-01
      2.78972555e-02 4.37167794e-01 4.28643882e-01 -5.15614927e-01
      4.54692572e-01 -1.93135962e-01 -6.73222899e-01 2.15700105e-01
      -2.67825812e-01 6.88157618e-01 1.15595140e-01 -7.60616422e-01
      5.31142712e-01 -6.28451228e-01 -6.92698896e-01 -4.88451868e-01
      -5.78261554e-01 -6.55316234e-01 -1.38444006e-01 -2.08081394e-01
      1.23708975e+00 -6.43511474e-01 2.19599295e+00 -7.13091075e-01
      3.07369292e-01 -7.54532456e-01 2.72402334e+00 1.35875463e+00
      2.71686268e+00 -1.93169136e-02 9.62861180e-02 5.75935662e-01
      1.09401917e+00 -6.75360918e-01 1.01940024e+00 3.91413361e-01
      -7.32917711e-02 -6.51865363e-01 -5.96525908e-01 1.25538552e+00
      -6.61794603e-01 -4.02635366e-01 1.51834022e-02 -6.67368114e-01
      -9.75476131e-02 -2.77898192e-01 3.65745991e-01 1.13808088e-01
      -7.40247786e-01 3.32448393e-01 1.25202966e+00 2.84832679e-02
      -5.47195613e-01 -6.51188493e-01 6.12373590e-01 -6.34992778e-01
      2.31046423e-01 -5.43451160e-02 1.67527258e-01 -7.10021675e-01
      -3.48157808e-02 1.27261937e+00 -1.94954127e-01 -4.98578280e-01
      4.09768283e-01 -6.33676291e-01 -5.84523320e-01 -7.34057605e-01
      4.82054889e-01 5.20255864e-01 -5.42203903e-01 1.02725291e+00
      -5.94096720e-01 -7.03126371e-01 4.88989025e-01 2.26404309e-01
      -6.08510435e-01 -5.72301924e-01 2.10767412e+00 2.78065890e-01
      -7.49097645e-01 -1.64935201e-01 1.29636928e-01 -5.49297035e-01
      -6.54998124e-01 -7.31486976e-01 5.73305301e-02 4.41290289e-01
      3.43327373e-01 -6.73947394e-01 3.01677227e-01 -5.12885392e-01</_>
    <_>
      7.55202949e-01 -3.65804225e-01 6.80425540e-02 -2.68001646e-01
      -3.98080409e-01 8.55980694e-01 -7.00579211e-02 -3.73713702e-01
      -3.99065018e-01 3.04265261e+00 3.00203487e-02 3.17905521e+00
      1.42793429e+00 -5.46552360e-01 7.33860195e-01 -5.31482995e-01
      6.04553044e-01 2.26148725e+00 2.46817207e+00 -7.60616422e-01
      1.02409005e-01 3.19805145e-01 1.31818891e+00 7.19258010e-01
      -2.51281142e-01 1.73801982e+00 -2.81487077e-01 -6.26753271e-01
      -7.25048959e-01 -4.69876453e-02 -6.03916496e-02 -7.13091075e-01
      -6.66767299e-01 -5.36825478e-01 1.48124844e-01 3.91651779e-01
      1.46810138e+00 -5.32305002e-01 -8.06072414e-01 8.86950314e-01
      3.96350414e-01 -2.60919720e-01 1.41573399e-01 -1.57853421e-02
      3.24138343e-01 3.13196969e+00 -5.96525908e-01 6.04774714e-01
      2.89638817e-01 -4.02635366e-01 -4.66871619e-01 8.21712077e-01
      -4.38462228e-01 3.40700030e-01 9.74233687e-01 5.98277785e-02
      -4.42919284e-02 5.90803981e-01 -9.97240841e-02 -1.70145914e-01
      -4.24433500e-01 -6.51188493e-01 9.20182347e-01 -6.34992778e-01
      -1.31735295e-01 1.72723178e-02 1.10799678e-01 9.36913669e-01
      -4.26679939e-01 -8.39299336e-02 -3.54249835e-01 3.62540174e+00
      -3.43306392e-01 -4.82829601e-01 -4.21737313e-01 8.98678720e-01
      -8.67875516e-02 1.67726791e+00 1.88070327e-01 1.45645285e+00
      4.75743026e-01 -3.56716990e-01 2.65560579e+00 7.40746975e-01
      1.17836547e+00 -5.72301924e-01 -3.28353852e-01 1.96029508e+00
      6.07706606e-02 -3.96263331e-01 -6.02079570e-01 1.78725213e-01
      -3.83605242e-01 1.74474582e-01 7.11572945e-01 -2.68346190e-01
      -1.47106454e-01 -6.73947394e-01 -3.49599838e-01 -6.23910949e-02</_>
    <_>
      8.18996251e-01 -4.84332204e-01 -9.01697993e-01 -2.55185455e-01
      9.18478444e-02 5.04926682e-01 -3.17527294e-01 -7.34407842e-01
      -4.78040695e-01 4.12655056e-01 -9.28939655e-02 -5.15614927e-01
      4.29167241e-01 2.97162086e-01 2.07546711e-01 -3.31382990e-01
      1.36964595e+00 1.30621088e+00 8.49549174e-01 -4.80299115e-01
      1.06265008e+00 -3.81132483e-01 8.80705774e-01 -1.59699488e-02
      4.45112258e-01 7.49170125e-01 -3.33219141e-01 -7.33294040e-02
      -5.33328533e-01 1.22347152e+00 2.33393475e-01 -7.13091075e-01
      1.61587186e-02 -4.13845927e-01 1.00379360e+00 -3.29076916e-01
      4.75067645e-01 -2.81684846e-01 -4.65434998e-01 1.76883340e+00
      1.44035995e-01 6.21745050e-01 5.78304410e-01 3.66586626e-01
      -3.06082189e-01 5.32388449e-01 -2.97790915e-01 -4.16126251e-01
      8.27089787e-01 9.99403670e-02 -8.66828312e-04 -3.34476709e-01
      -3.51051062e-01 -1.28969684e-01 8.70833278e-01 -3.21552813e-01
      -1.41869681e-02 -1.98686704e-01 7.26945341e-01 -2.41980880e-01
      2.91302223e-02 4.66521680e-01 1.79297531e+00 -4.06090915e-01
      2.08927780e-01 -2.60795444e-01 5.84073603e-01 8.36337566e-01
      -3.13553303e-01 2.63891906e-01 -8.71097967e-02 -4.98578280e-01
      1.71348363e-01 -2.78786629e-01 -3.29781860e-01 1.45598137e+00
      2.62401700e-01 1.45163000e+00 6.00591660e-01 -2.76535749e-01
      1.08008003e+00 -4.32080865e-01 1.63134325e+00 2.05407247e-01
      1.06924331e+00 2.56330609e-01 1.15983689e+00 2.56778866e-01
      9.40703928e-01 -4.29776549e-01 4.70359892e-01 -2.23790929e-01
      1.04379714e+00 6.86239123e-01 -3.25884938e-01 -5.90450704e-01
      3.22204262e-01 -6.73947394e-01 -1.82611138e-01 -2.77894706e-01</_>
    <_>
      9.97580811e-02 -8.92390087e-02 -2.55204290e-01 9.41181183e-02
      -1.55660793e-01 -7.57636130e-01 -4.30263370e-01 -7.34407842e-01
      -4.78040695e-01 2.70848203e+00 -2.13945970e-01 -5.15614927e-01
      5.00001729e-01 -1.72248483e-01 1.20288789e+00 1.00401247e+00
      2.53406823e-01 2.12336230e+00 -6.53588712e-01 4.33580905e-01
      -6.10291183e-01 -1.01642162e-01 4.24460977e-01 5.17973006e-01
      -5.78261554e-01 3.41907084e-01 2.73346663e-01 4.50114280e-01
      5.00091255e-01 -6.43511474e-01 -5.80470681e-01 -7.13091075e-01
      1.71951160e-01 -2.88424343e-02 2.35628799e-01 7.41338670e-01
      1.69875276e+00 5.35377443e-01 1.40932038e-01 6.26754999e-01
      -7.63410687e-01 -6.75360918e-01 2.27476910e-01 1.56365192e+00
      -5.47894575e-02 1.87069142e+00 -5.96525908e-01 4.26685102e-02
      -6.61794603e-01 1.32628202e-01 -6.85676754e-01 4.17176262e-02
      4.38405603e-01 -2.77898192e-01 -7.18949556e-01 2.80590320e+00
      3.30364667e-02 2.53606939e+00 1.33192050e+00 -5.00334680e-01
      -5.47195613e-01 1.42415956e-01 -6.24897063e-01 3.40166271e-01
      -7.34800994e-01 -4.24996644e-01 -7.27023005e-01 3.87935221e-01
      7.59371929e-03 -6.99668586e-01 -1.85539499e-01 6.46971643e-01
      -4.82603461e-01 -4.06209052e-01 -5.84523320e-01 4.34358269e-02
      5.43617845e-01 -4.55824196e-01 3.10916710e+00 -6.97962403e-01
      5.94614089e-01 -7.03126371e-01 -7.08198249e-01 2.17196131e+00
      5.82740128e-01 -5.72301924e-01 -6.11304462e-01 3.15851778e-01
      1.05060959e+00 -3.53536069e-01 -6.02079570e-01 -2.02619806e-01
      -6.54998124e-01 -7.31486976e-01 8.67518902e-01 4.83230948e-01
      -5.79048157e-01 9.47553217e-02 -6.45214975e-01 -1.23361964e-02</_>
    <_>
      -7.19547927e-01 1.03430724e+00 -9.01697993e-01 -5.64281464e-01
      -7.61709869e-01 -7.57636130e-01 4.92763132e-01 -7.34407842e-01
      -4.78040695e-01 -6.33221805e-01 -9.10992563e-01 -5.15614927e-01
      -6.59913838e-01 5.45902014e+00 -6.73222899e-01 -1.18955255e+00
      -7.49868095e-01 -6.39136970e-01 -6.53588712e-01 -7.60616422e-01
      -6.10291183e-01 -6.28451228e-01 -6.92698896e-01 -4.88451868e-01
      -5.78261554e-01 -6.55316234e-01 -5.19272983e-01 4.00625944e-01
      -7.25048959e-01 -6.43511474e-01 -5.80470681e-01 -7.13091075e-01
      -9.46340084e-01 -7.54532456e-01 2.72402334e+00 -6.57408893e-01
      -6.07761681e-01 1.51964736e+00 1.50837386e+00 -6.74221158e-01
      -7.63410687e-01 -6.75360918e-01 2.67035890e+00 3.64371467e+00
      1.29218042e+00 -6.51865363e-01 1.84936690e+00 2.50188303e+00
      -6.61794603e-01 -4.02635366e-01 -6.85676754e-01 -6.67368114e-01
      -5.93203604e-01 -2.77898192e-01 -7.18949556e-01 -7.37419963e-01
      -7.40247786e-01 -7.06039667e-01 -7.13286102e-01 -5.00334680e-01
      -5.47195613e-01 2.39922881e+00 -6.24897063e-01 1.23914111e+00
      -7.34800994e-01 3.80922580e+00 -7.27023005e-01 -7.10021675e-01
      1.00845897e+00 -6.99668586e-01 -4.26554263e-01 -4.98578280e-01
      -4.82603461e-01 -4.23311859e-01 1.50117254e+00 -7.34057605e-01
      4.82054889e-01 -4.55824196e-01 -5.42203903e-01 -6.97962403e-01
      3.97501040e+00 1.51605880e+00 -7.08198249e-01 -6.90467477e-01
      -6.08510435e-01 -5.72301924e-01 -6.11304462e-01 3.06666708e+00
      -7.49097645e-01 -7.80808806e-01 -6.02079570e-01 -5.49297035e-01
      -6.54998124e-01 -7.31486976e-01 -6.91941500e-01 -5.90450704e-01
      -5.79048157e-01 2.28075385e+00 3.14235377e+00 -5.12885392e-01</_>
    <_>
      9.95765090e-01 -4.84332204e-01 1.46694493e+00 -2.19672322e-01
      1.89916119e-01 -2.88428396e-01 -4.30263370e-01 -4.19759780e-01
      -3.40253353e-01 1.69886088e+00 -3.63736808e-01 5.58721781e-01
      1.76850510e+00 -4.27093685e-01 1.29070580e+00 -6.15491927e-01
      3.00368637e-01 1.52971876e+00 6.03290379e-01 -4.48092431e-01
      3.74172878e+00 -7.69830123e-02 4.76753563e-01 3.83151919e-02
      -5.78261554e-01 9.10536528e-01 -1.04412489e-01 1.00674307e+00
      -5.11301041e-01 -6.43511474e-01 -5.80470681e-01 1.60151526e-01
      -3.61021698e-01 -7.54532456e-01 2.76588112e-01 1.17286718e+00
      -6.07761681e-01 -5.32305002e-01 -3.18326920e-01 6.71532005e-03
      -7.63410687e-01 4.77066636e-02 7.17309833e-01 1.07877910e+00
      1.45487487e+00 6.68451607e-01 -5.96525908e-01 -8.22110116e-01
      9.98153031e-01 -4.02635366e-01 1.98653889e+00 4.46047395e-01
      -3.23229283e-01 -2.77898192e-01 -1.28136680e-01 -2.73772359e-01
      8.78713250e-01 9.90893960e-01 -7.13286102e-01 -2.12297693e-01
      -5.47195613e-01 -6.51188493e-01 7.22938120e-01 -3.79791558e-01
      -7.34800994e-01 6.46029770e-01 2.47465760e-01 3.31270552e+00
      9.10790622e-01 -6.99668586e-01 -4.26554263e-01 1.30017889e+00
      2.46483207e-01 -6.72168553e-01 -5.84523320e-01 -3.27114254e-01
      4.11165655e-01 -4.55824196e-01 1.36893916e+00 2.41729319e-01
      6.50255859e-01 -7.03126371e-01 5.95971644e-01 8.07739973e-01
      1.26200640e+00 8.13453734e-01 3.76012564e-01 8.67429733e-01
      -2.78110415e-01 -5.01263380e-01 1.95024326e-01 -5.49297035e-01
      2.91989833e-01 8.49126756e-01 -2.83827364e-01 -5.90450704e-01
      1.74552247e-01 -2.71605134e-01 -1.29460931e-01 5.35072923e-01</_>
    <_>
      8.55055869e-01 -4.84332204e-01 6.51402175e-01 -2.47941032e-01
      1.11853078e-01 1.03799947e-01 3.12498808e-02 4.20940518e-01
      -2.25071713e-01 4.37167794e-01 4.28643882e-01 4.70592618e-01
      -6.59913838e-01 -7.06968307e-01 2.48172140e+00 -1.35613054e-01
      -2.67825812e-01 1.35180485e+00 1.15595140e-01 1.00045361e-01
      -3.95742320e-02 -1.22220628e-01 -1.55938476e-01 -4.88451868e-01
      4.69097584e-01 -6.55316234e-01 5.19704930e-02 4.00625944e-01
      -3.32621187e-01 7.89543808e-01 -5.80470681e-01 8.85183737e-02
      -8.56789410e-01 2.91481733e-01 2.01447591e-01 -3.21381658e-01
      -5.36576100e-02 -5.32305002e-01 -2.95960486e-01 1.20101404e+00
      1.65304273e-01 1.31589949e+00 -2.18818799e-01 -6.92687094e-01
      3.81865621e-01 -6.51865363e-01 -5.96525908e-01 -4.06610996e-01
      3.54058772e-01 -4.02635366e-01 1.51834022e-02 3.54712546e-01
      -3.45375627e-01 -2.01688692e-01 -1.76601782e-01 9.65036094e-01
      7.45907903e-01 3.32448393e-01 2.69371808e-01 2.84832679e-02
      4.26378436e-02 -6.51188493e-01 1.23100889e+00 -1.66459292e-01
      -7.34800994e-01 1.68426180e+00 -2.79747874e-01 3.45046312e-01
      -5.56453168e-01 1.27261937e+00 2.68246114e-01 6.02223635e-01
      4.09768283e-01 -5.28494060e-01 -6.30993694e-02 1.88087165e+00
      2.92748570e-01 1.00829589e+00 6.27375901e-01 1.02725291e+00
      -2.29583140e-02 -7.03126371e-01 1.08758259e+00 -2.32031569e-01
      -3.61517332e-02 -5.72301924e-01 7.48184860e-01 -1.86700970e-01
      1.15605488e-01 -5.24194837e-01 1.29636928e-01 -2.16161877e-01
      2.14307249e-01 3.56728584e-01 1.93051052e+00 -7.45801926e-02
      -3.48454297e-01 -6.73947394e-01 -6.45214975e-01 1.17060232e+00</_>
    <_>
      3.03544879e-01 -2.37649649e-01 -9.01697993e-01 -3.58740479e-01
      -4.91761230e-03 -1.97921336e-01 -4.30263370e-01 -7.34407842e-01
      -4.78040695e-01 6.22597486e-02 1.77037030e-01 3.32909250e+00
      6.42974228e-02 2.94613510e-01 4.98155922e-01 -4.82306145e-02
      1.44256783e+00 2.23267630e-01 1.34550834e+00 -7.60616422e-01
      -6.10291183e-01 6.87234402e-01 2.09736538e+00 1.39925092e-01
      -5.78261554e-01 5.89947402e-01 4.70495731e-01 1.71974421e-01
      3.98863330e-02 1.21873295e+00 5.01927257e-01 -7.13091075e-01
      -1.53768025e-02 -3.01436663e-01 -6.39411032e-01 2.15920821e-01
      8.32346320e-01 1.34319097e-01 -4.92282897e-01 9.50348079e-01
      -1.59981683e-01 1.91226673e+00 9.77497637e-01 -6.92687094e-01
      -5.28449118e-01 1.71063077e+00 1.98078826e-01 -1.22032184e-02
      1.31834602e+00 -6.84352666e-02 -2.30295539e-01 -2.24639446e-01
      1.01704931e+00 -2.77898192e-01 6.90604031e-01 -7.37419963e-01
      -2.57435769e-01 1.99297500e+00 -7.48078749e-02 -1.56737238e-01
      -2.91700900e-01 -1.55689269e-01 1.79014817e-01 -3.30564916e-01
      5.20310342e-01 6.79144919e-01 -7.27023005e-01 1.34655750e+00
      -6.12948574e-02 -6.99668586e-01 -4.26554263e-01 2.16663569e-01
      -4.82603461e-01 -3.65648478e-01 -5.84523320e-01 1.69314277e+00
      1.97614893e-01 1.78380087e-01 -5.42203903e-01 -1.37486368e-01
      8.90283287e-01 -3.42649609e-01 6.96696043e-02 -6.90467477e-01
      -6.08510435e-01 -5.72301924e-01 -2.24224720e-02 5.56454122e-01
      1.49825263e+00 -3.80647302e-01 -6.02079570e-01 -5.49297035e-01
      4.74657565e-01 1.62539268e+00 -2.05104858e-01 -5.90450704e-01
      9.19226825e-01 -1.93995953e-01 -2.99753696e-02 1.12165891e-01</_>
    <_>
      2.15972757e+00 9.04138207e-01 -9.01697993e-01 5.92620730e-01
      -7.61709869e-01 -7.57636130e-01 -4.30263370e-01 1.37822914e+00
      -4.78040695e-01 -6.33221805e-01 -9.10992563e-01 -5.15614927e-01
      -6.59913838e-01 1.17219007e+00 -6.73222899e-01 9.52498913e-02
      -7.49868095e-01 -6.39136970e-01 -6.53588712e-01 -7.60616422e-01
      -6.10291183e-01 -6.28451228e-01 -6.92698896e-01 -4.88451868e-01
      -5.78261554e-01 -6.55316234e-01 -5.19272983e-01 -8.16788733e-01
      2.14527965e+00 -6.43511474e-01 -5.80470681e-01 -7.13091075e-01
      3.63658279e-01 -7.54532456e-01 -6.39411032e-01 -6.57408893e-01
      -6.07761681e-01 1.34376574e+00 -4.28203613e-01 -6.74221158e-01
      -7.63410687e-01 -6.75360918e-01 -6.31558478e-01 -6.92687094e-01
      1.13612640e+00 -6.51865363e-01 1.63971889e+00 6.97429538e-01
      -6.61794603e-01 -4.02635366e-01 -6.85676754e-01 -6.67368114e-01
      -5.93203604e-01 -2.77898192e-01 -7.18949556e-01 -7.37419963e-01
      -7.40247786e-01 -7.06039667e-01 -7.13286102e-01 -5.00334680e-01
      8.90874505e-01 2.13776445e+00 -6.24897063e-01 2.79199481e+00
      -7.34800994e-01 3.41182995e+00 -7.27023005e-01 -7.10021675e-01
      8.29611897e-01 -6.99668586e-01 -4.26554263e-01 -4.98578280e-01
      -4.82603461e-01 -4.59374338e-01 1.32239854e+00 -7.34057605e-01
      1.73688543e+00 -4.55824196e-01 -5.42203903e-01 -6.97962403e-01
      -5.94096720e-01 3.35481215e+00 -7.08198249e-01 -6.90467477e-01
      -6.08510435e-01 -5.72301924e-01 -6.11304462e-01 -6.51467860e-01
      -7.49097645e-01 -3.00295539e-02 2.07391214e+00 -5.49297035e-01
      -6.54998124e-01 -7.31486976e-01 -6.91941500e-01 -5.90450704e-01
      -5.79048157e-01 4.72893476e+00 2.81770515e+00 -5.12885392e-01</_>
    <_>
      1.37992382e+00 5.28094172e-01 7.54942238e-01 -5.64281464e-01
      -7.61709869e-01 3.83668971e+00 -4.30263370e-01 8.06056678e-01
      -4.78040695e-01 -6.33221805e-01 -9.10992563e-01 -5.15614927e-01
      -6.59913838e-01 2.03347111e+00 -6.73222899e-01 -2.52717406e-01
      -7.49868095e-01 -6.39136970e-01 -6.53588712e-01 -7.60616422e-01
      -6.10291183e-01 7.21497118e-01 -6.92698896e-01 -4.88451868e-01
      -5.78261554e-01 1.90006864e+00 4.96271014e-01 8.06430876e-01
      -7.25048959e-01 -6.43511474e-01 -5.80470681e-01 -7.13091075e-01
      9.64074254e-01 -7.54532456e-01 -6.39411032e-01 -6.57408893e-01
      -6.07761681e-01 2.20363140e+00 6.71581209e-01 -6.74221158e-01
      -7.63410687e-01 -6.75360918e-01 -6.31558478e-01 -6.92687094e-01
      6.85303867e-01 -6.51865363e-01 1.03406930e+00 1.39388525e+00
      2.04714775e+00 -4.02635366e-01 1.18328369e+00 -6.67368114e-01
      -5.93203604e-01 -2.77898192e-01 -7.18949556e-01 -7.37419963e-01
      -7.40247786e-01 -7.06039667e-01 -7.13286102e-01 -5.00334680e-01
      -5.47195613e-01 1.38242304e+00 -6.24897063e-01 1.86385238e+00
      1.84079218e+00 1.23351192e+00 -7.27023005e-01 -7.10021675e-01
      1.70397556e+00 -6.99668586e-01 -4.26554263e-01 -4.98578280e-01
      -4.82603461e-01 -2.83068866e-01 8.05940568e-01 -7.34057605e-01
      9.86871839e-01 -4.55824196e-01 -5.42203903e-01 -6.97962403e-01
      -5.94096720e-01 7.76330411e-01 -7.08198249e-01 -6.90467477e-01
      -6.08510435e-01 -5.72301924e-01 -6.11304462e-01 -6.51467860e-01
      -7.49097645e-01 -7.80808806e-01 -6.02079570e-01 -5.49297035e-01
      -6.54998124e-01 -7.31486976e-01 -6.91941500e-01 -5.90450704e-01
      6.50785923e-01 3.26565433e+00 1.87983096e+00 -5.12885392e-01</_>
    <_>
      2.63960695e+00 1.13555002e+00 4.39955091e+00 6.18431473e+00
      1.72309148e+00 -7.57636130e-01 5.54298282e-01 -7.34407842e-01
      -4.78040695e-01 -6.33221805e-01 -9.10992563e-01 -5.15614927e-01
      -6.59913838e-01 -7.06968307e-01 3.17280459e+00 3.09383690e-01
      -7.49868095e-01 -6.39136970e-01 2.62826252e+00 -7.60616422e-01
      -6.10291183e-01 -6.28451228e-01 -6.92698896e-01 -4.88451868e-01
      -5.78261554e-01 -6.55316234e-01 1.10559750e+00 4.81786966e-01
      -7.25048959e-01 -6.43511474e-01 -5.80470681e-01 1.56704259e+00
      -9.46340084e-01 -7.54532456e-01 2.94825268e+00 -6.57408893e-01
      -6.07761681e-01 -5.32305002e-01 -1.00200438e+00 -6.74221158e-01
      -7.63410687e-01 -6.75360918e-01 -6.31558478e-01 -6.92687094e-01
      -5.28449118e-01 -6.51865363e-01 -5.96525908e-01 9.50686276e-01
      -6.61794603e-01 -4.02635366e-01 -6.85676754e-01 -6.67368114e-01
      -5.93203604e-01 -2.77898192e-01 -7.18949556e-01 -7.37419963e-01
      -7.40247786e-01 3.72484303e+00 -7.13286102e-01 4.01224566e+00
      -5.47195613e-01 -6.51188493e-01 -6.24897063e-01 -6.34992778e-01
      -7.34800994e-01 -8.27059269e-01 3.08972502e+00 -7.10021675e-01
      1.14756238e+00 -6.99668586e-01 -4.26554263e-01 -4.98578280e-01
      1.42112303e+00 -8.44040751e-01 -5.84523320e-01 2.45366573e+00
      5.83018363e-01 -4.55824196e-01 -5.42203903e-01 -6.97962403e-01
      -5.94096720e-01 -7.03126371e-01 -7.08198249e-01 -6.90467477e-01
      -6.08510435e-01 6.66442251e+00 -6.11304462e-01 -6.51467860e-01
      -7.49097645e-01 -7.80808806e-01 2.51991081e+00 -5.49297035e-01
      -6.54998124e-01 -7.31486976e-01 -6.91941500e-01 -5.90450704e-01
      -5.79048157e-01 -6.73947394e-01 -6.45214975e-01 -5.12885392e-01</_>
    <_>
      -7.19547927e-01 7.30579376e-01 -9.01697993e-01 -5.64281464e-01
      -7.61709869e-01 1.99895930e+00 4.00026417e+00 1.11414957e+00
      1.14096081e+00 -6.33221805e-01 1.23242581e+00 -5.15614927e-01
      -6.59913838e-01 -7.06968307e-01 -6.73222899e-01 -1.18955255e+00
      -7.49868095e-01 -6.39136970e-01 -6.53588712e-01 -7.60616422e-01
      -6.10291183e-01 -6.28451228e-01 -6.92698896e-01 -4.88451868e-01
      -5.78261554e-01 2.41114569e+00 -5.19272983e-01 -8.16788733e-01
      5.30719817e-01 -6.43511474e-01 1.19646609e+00 9.97009099e-01
      1.34615707e+00 -7.54532456e-01 -6.39411032e-01 -6.57408893e-01
      -6.07761681e-01 -5.32305002e-01 -4.99928713e-01 -6.74221158e-01
      -7.63410687e-01 -6.75360918e-01 -6.31558478e-01 -6.92687094e-01
      -5.28449118e-01 -6.51865363e-01 3.31690264e+00 -8.22110116e-01
      -6.61794603e-01 -4.02635366e-01 -6.85676754e-01 1.51307070e+00
      9.92895603e-01 -2.77898192e-01 -7.18949556e-01 -7.37419963e-01
      -7.40247786e-01 -7.06039667e-01 -7.13286102e-01 -5.00334680e-01
      -5.47195613e-01 -6.51188493e-01 -6.24897063e-01 8.64314318e-01
      -7.34800994e-01 4.09283400e-01 -7.27023005e-01 -7.10021675e-01
      -1.07809055e+00 -6.99668586e-01 3.14566135e-01 -4.98578280e-01
      -4.82603461e-01 -5.07457614e-01 4.42114687e+00 -7.34057605e-01
      -1.03239572e+00 -4.55824196e-01 -5.42203903e-01 -6.97962403e-01
      -5.94096720e-01 -7.03126371e-01 -7.08198249e-01 -6.90467477e-01
      -6.08510435e-01 -5.72301924e-01 -6.11304462e-01 -6.51467860e-01
      -7.49097645e-01 -7.80808806e-01 -6.02079570e-01 5.84689856e+00
      -6.54998124e-01 -7.31486976e-01 -6.91941500e-01 -5.90450704e-01
      -5.79048157e-01 1.68981361e+00 -6.45214975e-01 -5.12885392e-01</_>
    <_>
      -7.19547927e-01 -4.84332204e-01 5.63589297e-02 -7.64311701e-02
      1.03453195e+00 -7.57636130e-01 -4.30263370e-01 1.04733419e+00
      -4.78040695e-01 -6.33221805e-01 -9.10992563e-01 -5.15614927e-01
      -6.59913838e-01 8.54478180e-02 -6.73222899e-01 4.35799867e-01
      -6.47763954e-03 -6.39136970e-01 -6.53588712e-01 -7.60616422e-01
      -6.10291183e-01 1.52241737e-01 -6.92698896e-01 -4.88451868e-01
      -5.78261554e-01 -6.55316234e-01 -5.19272983e-01 5.91305256e-01
      -1.19859196e-01 -6.43511474e-01 2.75884330e-01 -7.13091075e-01
      1.81570458e+00 -7.54532456e-01 -6.39411032e-01 3.79012495e-01
      -6.07761681e-01 1.84103727e+00 4.07924271e+00 -6.74221158e-01
      -7.63410687e-01 -6.75360918e-01 -6.31558478e-01 -6.92687094e-01
      -5.28449118e-01 -6.51865363e-01 3.46468866e-01 -8.22110116e-01
      -6.61794603e-01 -4.02635366e-01 -6.85676754e-01 -6.67368114e-01
      9.35566664e-01 -2.77898192e-01 -7.18949556e-01 -7.37419963e-01
      -7.40247786e-01 -7.06039667e-01 8.02138090e-01 3.15191776e-01
      -5.47195613e-01 1.70094037e+00 -6.24897063e-01 1.53268003e+00
      -7.34800994e-01 -8.27059269e-01 -7.27023005e-01 -7.10021675e-01
      -1.07809055e+00 -6.99668586e-01 -4.26554263e-01 -4.98578280e-01
      -4.82603461e-01 6.15837872e-01 2.19600335e-01 -7.34057605e-01
      1.35373369e-01 -4.55824196e-01 -5.42203903e-01 -6.97962403e-01
      1.16748667e+00 -7.03126371e-01 -7.08198249e-01 -6.90467477e-01
      -6.08510435e-01 -5.72301924e-01 -6.11304462e-01 -6.51467860e-01
      -7.49097645e-01 3.27268958e-01 -6.02079570e-01 -5.49297035e-01
      -6.54998124e-01 3.87320936e-01 -6.91941500e-01 -5.90450704e-01
      -5.79048157e-01 -6.73947394e-01 -6.45214975e-01 -5.12885392e-01</_>
    <_>
      1.00309563e+00 -4.84332204e-01 -9.01697993e-01 8.20046008e-01
      5.12547255e-01 1.84789702e-01 -4.30263370e-01 -7.34407842e-01
      -2.01288298e-01 5.37802756e-01 -1.78199932e-01 -5.15614927e-01
      1.77888322e+00 -7.06968307e-01 -6.73222899e-01 1.88518846e+00
      -2.22505584e-01 -6.39136970e-01 1.02941191e+00 -1.32897258e-01
      6.38457060e-01 1.03302372e+00 2.83065200e+00 -4.88451868e-01
      -5.78261554e-01 -6.55316234e-01 7.30627418e-01 1.82115689e-01
      9.92241740e-01 -6.43511474e-01 1.24202859e+00 -7.13091075e-01
      3.33595723e-02 8.37250520e-03 1.20041645e+00 7.78302699e-02
      6.04637027e-01 -5.32305002e-01 5.42843878e-01 6.93471849e-01
      -7.63410687e-01 -6.75360918e-01 -6.31558478e-01 4.05141068e+00
      -3.04991715e-02 6.74094081e-01 -5.96525908e-01 -3.67546976e-01
      -6.61794603e-01 -4.02635366e-01 8.10762718e-02 -6.67368114e-01
      -5.09474501e-02 -2.77898192e-01 4.67725992e-01 1.93838120e-01
      -7.40247786e-01 4.30084080e-01 3.61758500e-01 -5.00334680e-01
      -5.47195613e-01 -6.51188493e-01 2.08229351e+00 -6.34992778e-01
      -7.34800994e-01 -8.27059269e-01 2.51630336e-01 -7.10021675e-01
      1.20463037e+00 -6.99668586e-01 -1.73179746e-01 7.05717921e-01
      -4.82603461e-01 -2.68684953e-01 -5.84523320e-01 8.33073556e-02
      6.24439240e-01 -4.55824196e-01 -5.42203903e-01 1.18945277e+00
      1.90524411e+00 -7.03126371e-01 -7.08198249e-01 -6.90467477e-01
      6.43830001e-01 -5.72301924e-01 -6.11304462e-01 2.39930964e+00
      1.96902409e-01 -4.43920642e-01 -6.02079570e-01 -5.49297035e-01
      -6.54998124e-01 2.44325042e+00 -6.91941500e-01 -5.90450704e-01
      -7.45008439e-02 -6.73947394e-01 -6.45214975e-01 1.33330366e-02</_>
    <_>
      -7.19547927e-01 -4.84332204e-01 -9.01697993e-01 1.60491025e+00
      5.69433749e-01 -7.57636130e-01 2.73439908e+00 -7.34407842e-01
      -4.78040695e-01 -6.33221805e-01 -9.10992563e-01 -5.15614927e-01
      1.88775802e+00 -7.06968307e-01 -6.73222899e-01 4.16450560e-01
      -7.49868095e-01 -6.39136970e-01 -6.53588712e-01 5.50868273e-01
      -6.10291183e-01 -6.28451228e-01 -6.92698896e-01 -4.88451868e-01
      -5.78261554e-01 1.53501368e+00 -5.19272983e-01 -8.16788733e-01
      -7.25048959e-01 -6.43511474e-01 -5.80470681e-01 1.72990930e+00
      1.50990713e+00 8.39393973e-01 -6.39411032e-01 -6.57408893e-01
      -6.07761681e-01 1.81278348e+00 4.32497561e-01 -6.74221158e-01
      -7.63410687e-01 -6.75360918e-01 -6.31558478e-01 -6.92687094e-01
      -5.28449118e-01 -6.51865363e-01 8.01127195e-01 2.02702689e+00
      -6.61794603e-01 -4.02635366e-01 -6.85676754e-01 -6.67368114e-01
      1.67265248e+00 7.04881772e-02 -7.18949556e-01 -7.37419963e-01
      9.58215952e-01 -7.06039667e-01 -7.13286102e-01 7.08392143e-01
      -5.47195613e-01 -6.51188493e-01 -6.24897063e-01 4.35940892e-01
      -7.34800994e-01 -8.27059269e-01 -7.27023005e-01 -7.10021675e-01
      -1.07809055e+00 -6.99668586e-01 -4.26554263e-01 -4.98578280e-01
      5.37249982e-01 -3.63207698e-01 -5.84523320e-01 9.73651350e-01
      -1.66995347e-01 -4.55824196e-01 -5.42203903e-01 -6.97962403e-01
      -5.94096720e-01 -7.03126371e-01 -7.08198249e-01 -6.90467477e-01
      -6.08510435e-01 1.36610639e+00 -6.11304462e-01 -6.51467860e-01
      -7.49097645e-01 3.92283797e-01 1.07041538e+00 2.49651051e+00
      -6.54998124e-01 -7.31486976e-01 -6.91941500e-01 -5.90450704e-01
      -5.79048157e-01 -6.73947394e-01 -6.45214975e-01 -5.12885392e-01</_>
    <_>
      -2.59389758e-01 -4.84332204e-01 -5.38598835e-01 -3.79388422e-01
      -4.21326131e-01 7.52827108e-01 -2.56490167e-02 -3.96771789e-01
      -4.78040695e-01 -7.60598807e-03 4.59229082e-01 -5.15614927e-01
      -8.45440570e-03 1.93997994e-01 -6.73222899e-01 2.47783378e-01
      2.34928942e+00 -6.39136970e-01 1.59425437e+00 -7.60616422e-01
      -6.10291183e-01 1.14682329e+00 1.18963897e+00 6.42052770e-01
      3.38935256e-02 -9.52319205e-02 -7.41030499e-02 -2.83127517e-01
      -2.66320646e-01 1.59004796e+00 1.04230249e+00 -7.13091075e-01
      -2.13578507e-01 6.06261976e-02 -6.39411032e-01 -6.57408893e-01
      -6.07761681e-01 -5.32305002e-01 -8.49712715e-02 1.51783466e+00
      -7.63410687e-01 1.65232241e+00 2.26327324e+00 -5.90576269e-02
      -2.62421101e-01 -6.51865363e-01 1.18255511e-01 -3.36412549e-01
      5.25686920e-01 -1.02007888e-01 1.33593529e-01 -2.69114494e-01
      -5.93203604e-01 -9.97280180e-02 5.49005032e-01 -7.37419963e-01
      -7.40247786e-01 1.11487091e+00 4.35391575e-01 1.17826916e-01
      -5.47195613e-01 -2.05465466e-01 9.82565284e-02 -6.34992778e-01
      9.58739698e-01 5.27836800e-01 -7.27023005e-01 -9.33609530e-02
      4.46329087e-01 4.53084111e-01 -1.55825362e-01 -4.98578280e-01
      5.60534239e-01 -4.48479652e-02 -5.84523320e-01 -2.97383219e-01
      2.95341790e-01 1.14670061e-01 -5.42203903e-01 -1.93789899e-01
      7.35353604e-02 -5.45974039e-02 -7.08198249e-01 9.17198062e-01
      6.05481118e-02 -5.72301924e-01 2.56704497e+00 4.35110331e-01
      7.67094135e-01 -6.60821259e-01 -1.74409658e-01 -3.54587913e-01
      -6.54998124e-01 2.66069770e+00 -2.54010826e-01 1.25759821e-02
      1.30782044e+00 -6.73947394e-01 4.61654425e-01 4.93753403e-02</_>
    <_>
      -3.03123802e-01 -4.84332204e-01 -5.73108256e-01 -5.64281464e-01
      1.62389711e-01 -3.02000552e-01 -6.41041249e-02 -4.28861171e-01
      -4.78040695e-01 4.99091089e-01 1.21471143e+00 5.27645886e-01
      -7.03699663e-02 -4.35189217e-01 2.80337542e-01 4.82814103e-01
      1.79977691e+00 6.29031211e-02 9.73775387e-01 -1.53648362e-01
      -6.55757543e-03 1.24585712e+00 1.01073897e+00 -4.88451868e-01
      -2.42865030e-02 -6.55316234e-01 8.50175843e-02 1.49093896e-01
      -3.09918791e-01 1.88308740e+00 5.94363451e-01 -1.47768736e-01
      -4.72683668e-01 -1.68475620e-02 -1.94659382e-01 -6.57408893e-01
      1.73687685e+00 -5.32305002e-01 -8.91395956e-02 1.30949867e+00
      -7.63410687e-01 7.28943825e-01 1.55152738e+00 1.02753830e+00
      -2.87704766e-01 6.30260587e-01 -5.96525908e-01 -3.82573873e-01
      9.50137913e-01 -1.30579919e-01 -6.85676754e-01 4.13841099e-01
      -3.31038475e-01 -1.16661549e-01 4.28496927e-01 -2.87183642e-01
      -7.40247786e-01 1.49109197e+00 3.26219738e-01 -2.20629334e-01
      -3.39210242e-01 -2.47827575e-01 2.95270588e-02 -1.39354080e-01
      -2.23939583e-01 -9.64267831e-03 2.19278067e-01 9.64135647e-01
      3.01446289e-01 -6.99668586e-01 -4.26554263e-01 -4.98578280e-01
      -1.06052030e-02 1.57363534e-01 -3.29343714e-02 5.62869571e-02
      -3.11060976e-02 6.04495332e-02 -5.42203903e-01 6.70803368e-01
      1.00827254e-02 -4.09680396e-01 5.58247745e-01 -2.05510512e-01
      6.02430224e-01 -5.72301924e-01 -6.11304462e-01 3.31840515e-01
      1.65629596e-01 -1.83598071e-01 -2.15055972e-01 -5.49297035e-01
      -6.54998124e-01 4.19683099e-01 -6.91941500e-01 -4.47364710e-02
      1.37242401e+00 -6.73947394e-01 3.56456071e-01 -4.06265911e-03</_>
    <_>
      -7.19547927e-01 4.68539655e-01 6.57492816e-01 2.29671031e-01
      -7.61709869e-01 -7.57636130e-01 7.28044450e-01 2.16529012e+00
      7.91764379e-01 -6.33221805e-01 -9.10992563e-01 -5.15614927e-01
      -6.59913838e-01 -7.06968307e-01 -6.73222899e-01 5.73901832e-01
      -7.49868095e-01 -6.39136970e-01 -6.53588712e-01 6.79445207e-01
      -6.10291183e-01 -6.28451228e-01 -6.92698896e-01 -4.88451868e-01
      -5.78261554e-01 -6.55316234e-01 -5.19272983e-01 -5.29206805e-02
      3.21461797e+00 -6.43511474e-01 8.13205183e-01 -7.13091075e-01
      -4.73215729e-02 -7.54532456e-01 -6.39411032e-01 2.71604133e+00
      -6.07761681e-01 2.04269409e+00 5.73135018e-01 -6.74221158e-01
      -7.63410687e-01 -6.75360918e-01 -6.31558478e-01 -6.92687094e-01
      -5.28449118e-01 -6.51865363e-01 9.38151956e-01 2.20711246e-01
      -6.61794603e-01 8.88294518e-01 1.07334483e+00 2.75292802e+00
      6.50795817e-01 8.69727552e-01 -7.18949556e-01 -7.37419963e-01
      -7.40247786e-01 -7.06039667e-01 -7.13286102e-01 -5.00334680e-01
      1.42662621e+00 -6.51188493e-01 -6.24897063e-01 5.40934384e-01
      -7.34800994e-01 -8.27059269e-01 -7.27023005e-01 -7.10021675e-01
      -1.07809055e+00 -6.99668586e-01 1.31725860e+00 -4.98578280e-01
      -4.82603461e-01 -8.44040751e-01 -5.84523320e-01 1.14107382e+00
      -1.03239572e+00 1.99394536e+00 -5.42203903e-01 -6.97962403e-01
      -5.94096720e-01 -7.03126371e-01 -7.08198249e-01 -6.90467477e-01
      -6.08510435e-01 -5.72301924e-01 -6.11304462e-01 -6.51467860e-01
      -7.49097645e-01 -5.23188472e-01 -6.02079570e-01 1.95901501e+00
      1.52678800e+00 -7.31486976e-01 -6.91941500e-01 -5.90450704e-01
      -5.79048157e-01 -6.73947394e-01 -6.45214975e-01 -5.12885392e-01</_>
    <_>
      1.41773850e-01 3.46376628e-01 4.57596570e-01 -5.64281464e-01
      -7.61709869e-01 -7.57636130e-01 -4.30263370e-01 -7.34407842e-01
      -4.78040695e-01 -6.33221805e-01 1.88196421e-01 -5.15614927e-01
      -6.59913838e-01 4.17314500e-01 -6.73222899e-01 -1.18955255e+00
      -7.49868095e-01 -6.39136970e-01 1.87911615e-01 1.12254119e+00
      6.38457060e-01 -7.46262670e-02 -6.92698896e-01 5.69584608e-01
      5.67567289e-01 -6.55316234e-01 -1.02639548e-01 -1.50852472e-01
      1.33596405e-01 -6.43511474e-01 2.70290710e-02 -7.13091075e-01
      1.40493929e+00 -7.54532456e-01 -6.39411032e-01 -6.57408893e-01
      -6.07761681e-01 2.89127622e-02 1.05779338e+00 -6.74221158e-01
      -7.63410687e-01 7.76954412e-01 2.71530092e-01 -6.92687094e-01
      -5.28449118e-01 -6.51865363e-01 7.41398394e-01 1.90526903e+00
      -6.61794603e-01 -4.02635366e-01 8.10762718e-02 -6.67368114e-01
      -5.93203604e-01 -2.77898192e-01 1.65440154e+00 -7.37419963e-01
      8.85632038e-01 4.30084080e-01 -7.13286102e-01 7.82012269e-02
      -5.47195613e-01 1.01741588e+00 -6.24897063e-01 -6.34992778e-01
      3.21852654e-01 -8.27059269e-01 -7.27023005e-01 -7.10021675e-01
      1.20463037e+00 -6.99668586e-01 -4.26554263e-01 -4.98578280e-01
      9.81801569e-01 7.65285492e-02 -5.84523320e-01 8.33073556e-02
      1.03864789e+00 -4.55824196e-01 -5.42203903e-01 -6.97962403e-01
      -5.94096720e-01 -9.61697176e-02 -7.08198249e-01 -6.90467477e-01
      -6.08510435e-01 3.55483264e-01 -6.11304462e-01 -6.51467860e-01
      1.96902409e-01 6.79039836e-01 2.59996200e+00 1.79614142e-01
      -6.54998124e-01 6.21973351e-02 1.76720786e+00 -5.90450704e-01
      -5.79048157e-01 1.34176046e-01 -6.45214975e-01 -5.12885392e-01</_>
    <_>
      2.01889348e+00 3.08001429e-01 1.25913715e+00 9.59072709e-02
      1.26394343e+00 4.40883636e-01 -2.69737005e-01 4.71173048e-01
      -3.02062273e-01 2.34525347e+00 -9.10992563e-01 8.56499910e-01
      1.15464553e-01 7.22826064e-01 1.83505583e+00 -7.00769007e-01
      -4.14534330e-01 1.20753384e+00 -6.53588712e-01 -3.61468911e-01
      -6.10291183e-01 -6.28451228e-01 1.54769242e+00 1.84321314e-01
      1.50336117e-01 6.77928030e-01 -2.54348487e-01 1.08872986e+00
      -1.79062515e-01 6.85699284e-01 -5.80470681e-01 -7.13091075e-01
      -9.46340084e-01 7.00791597e-01 -5.44658937e-02 2.77623504e-01
      1.70502043e+00 -1.75443709e-01 -1.00200438e+00 1.95453182e-01
      -7.63410687e-01 2.48122171e-01 -5.73119633e-02 8.15626621e-01
      1.37133813e+00 1.03440905e+00 -5.96525908e-01 4.50184755e-02
      7.51566648e-01 -4.48232926e-02 7.76987910e-01 -1.93359688e-01
      9.64047462e-02 -6.58369362e-02 1.54476285e+00 -7.37419963e-01
      2.93599695e-01 1.63868330e-02 -2.96979733e-02 -5.00334680e-01
      -1.03698163e-04 -6.51188493e-01 -6.24897063e-01 -3.09056431e-01
      1.28088057e+00 7.85561562e-01 1.13986444e+00 7.57899046e-01
      7.36300409e-01 6.72357798e-01 -2.65441120e-01 2.67196983e-01
      -1.72213286e-01 -6.24530017e-01 -2.21793607e-01 1.86462986e+00
      -7.69013047e-01 2.23188028e-01 1.08503759e+00 1.70233727e+00
      -5.94096720e-01 -7.03126371e-01 1.24627694e-01 -6.90467477e-01
      2.57679009e+00 -5.72301924e-01 6.49671137e-01 1.28842854e+00
      -1.47565022e-01 -7.80808806e-01 -6.02079570e-01 -5.49297035e-01
      -6.54998124e-01 7.82552063e-01 8.71756613e-01 1.27282187e-01
      -5.79048157e-01 -1.60086319e-01 -6.45214975e-01 2.16396475e+00</_>
    <_>
      1.37992382e+00 5.28094172e-01 -9.01697993e-01 -5.64281464e-01
      -7.61709869e-01 1.53952682e+00 -4.30263370e-01 2.34652114e+00
      -4.78040695e-01 -6.33221805e-01 -9.10992563e-01 -5.15614927e-01
      -6.59913838e-01 6.63251340e-01 -6.73222899e-01 -2.52717406e-01
      -7.49868095e-01 -6.39136970e-01 1.39756823e+00 7.69449055e-01
      -6.10291183e-01 -6.28451228e-01 -6.92698896e-01 -4.88451868e-01
      -5.78261554e-01 1.90006864e+00 -5.19272983e-01 1.61804056e+00
      -7.25048959e-01 -6.43511474e-01 -5.80470681e-01 -7.13091075e-01
      8.86708125e-03 -7.54532456e-01 -6.39411032e-01 -6.57408893e-01
      -6.07761681e-01 2.20363140e+00 1.92677045e+00 -6.74221158e-01
      -7.63410687e-01 -6.75360918e-01 -6.31558478e-01 -6.92687094e-01
      6.85303867e-01 -6.51865363e-01 4.29525948e+00 3.60988069e+00
      2.04714775e+00 -4.02635366e-01 -6.85676754e-01 -6.67368114e-01
      -5.93203604e-01 -2.77898192e-01 -7.18949556e-01 -7.37419963e-01
      -7.40247786e-01 -7.06039667e-01 -7.13286102e-01 -5.00334680e-01
      -5.47195613e-01 3.41603470e+00 -6.24897063e-01 -6.34992778e-01
      -7.34800994e-01 -8.27059269e-01 4.04391193e+00 -7.10021675e-01
      3.12942505e-01 -6.99668586e-01 -4.26554263e-01 -4.98578280e-01
      -4.82603461e-01 -5.63554823e-01 -5.84523320e-01 -7.34057605e-01
      -2.27619670e-02 -4.55824196e-01 -5.42203903e-01 -6.97962403e-01
      -5.94096720e-01 2.25578713e+00 -7.08198249e-01 -6.90467477e-01
      -6.08510435e-01 -5.72301924e-01 -6.11304462e-01 -6.51467860e-01
      -7.49097645e-01 -2.33365595e-01 1.34916449e+00 -5.49297035e-01
      -6.54998124e-01 -7.31486976e-01 -6.91941500e-01 -5.90450704e-01
      -5.79048157e-01 3.26565433e+00 1.87983096e+00 -5.12885392e-01</_>
    <_>
      -7.19547927e-01 -4.84332204e-01 -9.01697993e-01 -5.64281464e-01
      -7.61709869e-01 -7.57636130e-01 4.13646579e-01 1.37822914e+00
      -4.78040695e-01 -6.33221805e-01 -9.10992563e-01 -5.15614927e-01
      -6.59913838e-01 -7.06968307e-01 -6.73222899e-01 9.52498913e-02
      -7.49868095e-01 4.21496916e+00 -6.53588712e-01 3.43613434e+00
      -6.10291183e-01 -6.28451228e-01 -6.92698896e-01 -4.88451868e-01
      3.25208044e+00 2.84921145e+00 -5.19272983e-01 2.96276122e-01
      -7.25048959e-01 -6.43511474e-01 1.45031416e+00 -7.13091075e-01
      3.63658279e-01 -7.54532456e-01 -6.39411032e-01 -6.57408893e-01
      -6.07761681e-01 -5.32305002e-01 1.45597130e-01 -6.74221158e-01
      -7.63410687e-01 4.17952156e+00 -6.31558478e-01 3.27202320e+00
      -5.28449118e-01 -6.51865363e-01 -5.96525908e-01 -8.22110116e-01
      3.05332637e+00 -4.02635366e-01 -6.85676754e-01 1.82456195e+00
      -5.93203604e-01 -2.77898192e-01 -7.18949556e-01 -7.37419963e-01
      1.97729409e+00 -7.06039667e-01 -7.13286102e-01 -5.00334680e-01
      -5.47195613e-01 -6.51188493e-01 -6.24897063e-01 -6.34992778e-01
      2.79744101e+00 -8.27059269e-01 2.54447508e+00 -7.10021675e-01
      2.73731422e+00 -6.99668586e-01 -4.26554263e-01 -4.98578280e-01
      -4.82603461e-01 -7.47078732e-02 -5.84523320e-01 -7.34057605e-01
      4.50616646e+00 -4.55824196e-01 3.73511648e+00 -6.97962403e-01
      -5.94096720e-01 -7.03126371e-01 -7.08198249e-01 -6.90467477e-01
      -6.08510435e-01 -5.72301924e-01 -6.11304462e-01 -6.51467860e-01
      2.41324520e+00 -4.05419171e-01 -6.02079570e-01 -5.49297035e-01
      -6.54998124e-01 7.22803259e+00 -6.91941500e-01 -5.90450704e-01
      -5.79048157e-01 -6.73947394e-01 -6.45214975e-01 -5.12885392e-01</_>
    <_>
      -7.19547927e-01 -4.84332204e-01 9.64938879e-01 -1.84078872e-01
      -4.11737829e-01 -7.57636130e-01 -2.91592717e-01 -3.87260914e-01
      -4.78040695e-01 1.93973351e+00 2.71168613e+00 3.04028821e+00
      6.79706991e-01 -3.98186415e-01 -6.73222899e-01 7.71540478e-02
      -4.60190088e-01 2.55135512e+00 1.19534147e+00 -7.60616422e-01
      1.44750512e+00 5.88403583e-01 1.88778317e+00 9.27230865e-02
      -5.78261554e-01 -6.55316234e-01 1.67291939e-01 -6.33890748e-01
      -2.53398687e-01 -6.43511474e-01 8.69233906e-02 2.50345618e-01
      -1.92937240e-01 -3.35472018e-01 -1.34106308e-01 -2.53545165e-01
      -6.07761681e-01 -5.32305002e-01 1.29433692e-01 1.57958269e+00
      1.46899331e+00 1.22389734e-01 -1.35495767e-01 -4.12088744e-02
      -5.28449118e-01 7.64785334e-02 -5.96525908e-01 -7.30412975e-02
      1.16960299e+00 -9.35394913e-02 1.56671613e-01 -2.57896066e-01
      -5.93203604e-01 -9.47091281e-02 1.23655784e+00 -2.25883842e-01
      5.99385500e-01 1.79023218e+00 -7.13286102e-01 1.35239959e-01
      -3.10892999e-01 -6.51188493e-01 8.62151206e-01 -7.18727261e-02
      4.26029712e-01 5.66002846e-01 -1.89452887e-01 -7.59902000e-02
      1.75798386e-01 1.07816839e+00 -4.26554263e-01 -4.98578280e-01
      -4.82603461e-01 -1.48751646e-01 -5.84523320e-01 -2.85082519e-01
      5.60266018e-01 7.17304885e-01 1.60642192e-01 -6.97962403e-01
      -5.94096720e-01 -3.69727641e-01 7.30674744e-01 -6.90467477e-01
      1.45520544e+00 -5.72301924e-01 4.77989018e-01 1.02431118e+00
      2.90169984e-01 -2.25655153e-01 -6.02079570e-01 -5.49297035e-01
      -1.32598653e-01 1.40447870e-01 6.58858716e-01 -5.90450704e-01
      2.52388924e-01 -6.73947394e-01 -6.45214975e-01 6.43312752e-01</_>
    <_>
      -7.19547927e-01 -4.84332204e-01 -9.01697993e-01 -5.64281464e-01
      -7.61709869e-01 -7.57636130e-01 1.04657900e+00 -7.34407842e-01
      1.14096081e+00 -6.33221805e-01 1.23242581e+00 -5.15614927e-01
      -6.59913838e-01 -7.06968307e-01 -6.73222899e-01 -1.18955255e+00
      -7.49868095e-01 -6.39136970e-01 -6.53588712e-01 -7.60616422e-01
      -6.10291183e-01 -6.28451228e-01 -6.92698896e-01 -4.88451868e-01
      -5.78261554e-01 -6.55316234e-01 -5.19272983e-01 -8.16788733e-01
      -7.25048959e-01 -6.43511474e-01 -5.80470681e-01 -7.13091075e-01
      -9.46340084e-01 -7.54532456e-01 -6.39411032e-01 -6.57408893e-01
      -6.07761681e-01 -5.32305002e-01 2.01044965e+00 -6.74221158e-01
      -7.63410687e-01 -6.75360918e-01 -6.31558478e-01 -6.92687094e-01
      -5.28449118e-01 -6.51865363e-01 3.31690264e+00 -8.22110116e-01
      -6.61794603e-01 -4.02635366e-01 3.79982829e+00 8.05438709e+00
      -5.93203604e-01 -2.77898192e-01 -7.18949556e-01 -7.37419963e-01
      -7.40247786e-01 -7.06039667e-01 -7.13286102e-01 -5.00334680e-01
      1.96942711e+00 -6.51188493e-01 -6.24897063e-01 -6.34992778e-01
      5.44662285e+00 -8.27059269e-01 -7.27023005e-01 -7.10021675e-01
      -1.07809055e+00 -6.99668586e-01 2.53792739e+00 -4.98578280e-01
      -4.82603461e-01 -1.70874476e-01 2.75258994e+00 -7.34057605e-01
      1.39072537e+00 -4.55824196e-01 -5.42203903e-01 -6.97962403e-01
      -5.94096720e-01 2.84756994e+00 -7.08198249e-01 -6.90467477e-01
      -6.08510435e-01 -5.72301924e-01 -6.11304462e-01 -6.51467860e-01
      -7.49097645e-01 -7.80808806e-01 -6.02079570e-01 1.58276808e+00
      -6.54998124e-01 -7.31486976e-01 4.10339928e+00 -5.90450704e-01
      -5.79048157e-01 -6.73947394e-01 -6.45214975e-01 -5.12885392e-01</_>
    <_>
      2.02885151e+00 -3.37070197e-01 5.44097006e-01 4.92272414e-02
      3.67745221e-01 -8.93705860e-02 -4.30263370e-01 -2.86272734e-01
      -2.81798095e-01 1.97141007e-01 -6.51184261e-01 1.01450098e+00
      6.37082636e-01 -5.07663667e-01 2.82316542e+00 -3.71951014e-01
      3.71975690e-01 3.90521824e-01 -3.55238616e-01 -9.29515436e-02
      2.04613662e+00 -3.93829048e-02 1.80567682e+00 -1.13329872e-01
      -5.78261554e-01 -2.83623904e-01 -7.61265457e-02 1.27629891e-01
      -5.72834551e-01 -6.43511474e-01 -3.65084410e-01 -2.98521370e-01
      -3.21113586e-01 -4.84048009e-01 1.31749618e+00 -6.57408893e-01
      -1.77911267e-01 -5.32305002e-01 -3.32570195e-01 2.95597464e-01
      3.17275763e-01 1.89919782e+00 1.60974288e+00 5.68811595e-01
      1.18851045e-03 1.69869888e+00 -5.96525908e-01 -3.38620245e-01
      1.30834520e+00 1.95886627e-01 1.21726465e+00 3.89814287e-01
      -4.00949180e-01 -2.77898192e-01 -7.18949556e-01 -4.07246649e-01
      9.89096999e-01 5.02382755e-01 -3.32133949e-01 -2.95217425e-01
      -3.94673020e-01 -6.51188493e-01 2.25456905e+00 -6.34992778e-01
      1.88762093e+00 1.27097654e+00 6.60885215e-01 2.15464759e+00
      -6.64302036e-02 8.30348670e-01 -4.26554263e-01 3.55377138e-01
      3.65946256e-02 -3.95263284e-01 -5.84523320e-01 4.25114453e-01
      -4.40509710e-03 3.01377267e-01 3.65106463e-01 1.30956078e+00
      2.92033136e-01 -7.03126371e-01 -7.08198249e-01 2.08027381e-02
      2.79512733e-01 7.43466079e-01 4.43329632e-01 6.96249679e-02
      2.57102340e-01 -4.62296426e-01 2.49372318e-01 -5.49297035e-01
      -3.17813039e-01 3.94101590e-01 7.61192083e-01 -1.90260261e-01
      -4.23933305e-02 -3.87430936e-01 8.93438160e-02 6.06524587e-01</_>
    <_>
      -7.19547927e-01 -4.84332204e-01 -9.01697993e-01 3.35531354e-01
      -7.61709869e-01 1.69267094e+00 8.82485449e-01 2.55191660e+00
      -4.78040695e-01 -6.33221805e-01 -9.10992563e-01 5.09481049e+00
      -6.59913838e-01 7.54599333e-01 -6.73222899e-01 -1.90261737e-01
      -7.49868095e-01 -6.39136970e-01 -6.53588712e-01 2.50352311e+00
      -6.10291183e-01 -6.28451228e-01 -6.92698896e-01 -4.88451868e-01
      -5.78261554e-01 -6.55316234e-01 -5.19272983e-01 -8.16788733e-01
      3.73990679e+00 -6.43511474e-01 -5.80470681e-01 2.32708716e+00
      -4.36896265e-01 3.21257329e+00 -6.39411032e-01 1.25421286e+00
      -6.07761681e-01 9.26861107e-01 3.36864114e-01 -6.74221158e-01
      -7.63410687e-01 -6.75360918e-01 -6.31558478e-01 -6.92687094e-01
      -5.28449118e-01 -6.51865363e-01 2.88207722e+00 -8.22110116e-01
      -6.61794603e-01 1.06041849e+00 -6.85676754e-01 -6.67368114e-01
      8.16662371e-01 5.89196801e-01 -7.18949556e-01 -7.37419963e-01
      -7.40247786e-01 -7.06039667e-01 -7.13286102e-01 1.00385869e+00
      -5.47195613e-01 -6.51188493e-01 -6.24897063e-01 6.97724640e-01
      -7.34800994e-01 2.71912009e-01 -7.27023005e-01 -7.10021675e-01
      -1.07809055e+00 -6.99668586e-01 8.90993118e-01 -4.98578280e-01
      -4.82603461e-01 -5.44855773e-01 -5.84523320e-01 -7.34057605e-01
      1.12148964e+00 5.09698677e+00 -5.42203903e-01 -6.97962403e-01
      -5.94096720e-01 -7.03126371e-01 -7.08198249e-01 -6.90467477e-01
      -6.08510435e-01 -5.72301924e-01 -6.11304462e-01 -6.51467860e-01
      -7.49097645e-01 -4.88839090e-01 -6.02079570e-01 1.34587204e+00
      -6.54998124e-01 -7.31486976e-01 -6.91941500e-01 -5.90450704e-01
      7.32774854e-01 -6.73947394e-01 -6.45214975e-01 -5.12885392e-01</_>
    <_>
      -7.19547927e-01 -4.84332204e-01 3.07423854e+00 -5.64281464e-01
      2.96549201e+00 -7.57636130e-01 1.04657900e+00 2.96270704e+00
      -4.78040695e-01 -6.33221805e-01 -9.10992563e-01 -5.15614927e-01
      -6.59913838e-01 -7.06968307e-01 -6.73222899e-01 1.05885172e+00
      -7.49868095e-01 -6.39136970e-01 -6.53588712e-01 -7.60616422e-01
      -6.10291183e-01 -6.28451228e-01 -6.92698896e-01 -4.88451868e-01
      -5.78261554e-01 -6.55316234e-01 -5.19272983e-01 -8.16788733e-01
      -7.25048959e-01 -6.43511474e-01 -5.80470681e-01 2.70710945e+00
      1.99908495e-01 3.70846152e+00 -6.39411032e-01 -6.57408893e-01
      -6.07761681e-01 2.75081873e+00 -1.00200438e+00 -6.74221158e-01
      -7.63410687e-01 -6.75360918e-01 -6.31558478e-01 -6.92687094e-01
      -5.28449118e-01 -6.51865363e-01 -5.96525908e-01 4.49627876e+00
      -6.61794603e-01 -4.02635366e-01 -6.85676754e-01 -6.67368114e-01
      2.57899475e+00 -2.77898192e-01 -7.18949556e-01 -7.37419963e-01
      -7.40247786e-01 -7.06039667e-01 -7.13286102e-01 -5.00334680e-01
      -5.47195613e-01 -6.51188493e-01 7.29363489e+00 -6.34992778e-01
      -7.34800994e-01 -8.27059269e-01 -7.27023005e-01 -7.10021675e-01
      2.26038861e+00 -6.99668586e-01 -4.26554263e-01 1.35916872e+01
      -4.82603461e-01 -1.70874476e-01 2.75258994e+00 -7.34057605e-01
      -1.03239572e+00 -4.55824196e-01 -5.42203903e-01 -6.97962403e-01
      -5.94096720e-01 -7.03126371e-01 -7.08198249e-01 -6.90467477e-01
      -6.08510435e-01 -5.72301924e-01 -6.11304462e-01 -6.51467860e-01
      -7.49097645e-01 5.33054888e-01 -6.02079570e-01 -5.49297035e-01
      -6.54998124e-01 -7.31486976e-01 -6.91941500e-01 -5.90450704e-01
      -5.79048157e-01 -6.73947394e-01 -6.45214975e-01 -5.12885392e-01</_>
    <_>
      -7.19547927e-01 4.50215220e-01 -9.01697993e-01 -5.64281464e-01
      -7.61709869e-01 -7.57636130e-01 1.27378571e+00 -7.34407842e-01
      1.44652188e-01 -6.33221805e-01 -9.10992563e-01 -5.15614927e-01
      -6.59913838e-01 -7.06968307e-01 1.54563904e+00 -3.24781656e-01
      4.36697513e-01 -6.39136970e-01 -6.53588712e-01 -7.60616422e-01
      -6.10291183e-01 -6.28451228e-01 -6.92698896e-01 -4.88451868e-01
      -5.78261554e-01 -6.55316234e-01 -5.19272983e-01 -8.16788733e-01
      2.40927070e-01 -6.43511474e-01 -5.80470681e-01 -7.13091075e-01
      -9.46340084e-01 -7.54532456e-01 -6.39411032e-01 -6.57408893e-01
      -6.07761681e-01 -5.32305002e-01 -2.29580268e-01 -6.74221158e-01
      -7.63410687e-01 -6.75360918e-01 -6.31558478e-01 -6.92687094e-01
      -5.28449118e-01 -6.51865363e-01 -5.96525908e-01 -8.22110116e-01
      -6.61794603e-01 -4.02635366e-01 -6.85676754e-01 -6.67368114e-01
      -5.93203604e-01 9.72871259e-02 -7.18949556e-01 -7.37419963e-01
      -7.40247786e-01 -7.06039667e-01 -7.13286102e-01 -5.00334680e-01
      4.20736223e-01 -6.51188493e-01 -6.24897063e-01 -6.34992778e-01
      -7.34800994e-01 -8.27059269e-01 -7.27023005e-01 -7.10021675e-01
      -1.07809055e+00 -6.99668586e-01 1.28372371e+00 -4.98578280e-01
      -4.82603461e-01 3.81634140e+00 6.98981822e-01 -7.34057605e-01
      -1.03239572e+00 -4.55824196e-01 -5.42203903e-01 -6.97962403e-01
      -5.94096720e-01 2.02817845e+00 -7.08198249e-01 -6.90467477e-01
      -6.08510435e-01 -5.72301924e-01 -6.11304462e-01 -6.51467860e-01
      -7.49097645e-01 2.75651670e+00 -6.02079570e-01 -5.49297035e-01
      -6.54998124e-01 -7.31486976e-01 -6.91941500e-01 -5.90450704e-01
      5.56183338e-01 -6.73947394e-01 -6.45214975e-01 -5.12885392e-01</_>
    <_>
      -7.19547927e-01 3.12331080e-01 -9.01697993e-01 9.95148271e-02
      -7.61709869e-01 -7.57636130e-01 -4.30263370e-01 -7.34407842e-01
      -4.78040695e-01 -6.33221805e-01 -9.10992563e-01 -5.15614927e-01
      -6.59913838e-01 1.44944274e+00 -6.73222899e-01 -4.52370852e-01
      -7.49868095e-01 -6.39136970e-01 -6.53588712e-01 -7.60616422e-01
      -6.10291183e-01 1.49605751e+00 1.55993485e+00 1.54089665e+00
      1.61947560e+00 -6.55316234e-01 -5.19272983e-01 -8.16788733e-01
      9.84059423e-02 -6.43511474e-01 -5.80470681e-01 1.52966309e+00
      9.32755768e-01 -7.54532456e-01 -6.39411032e-01 -6.57408893e-01
      1.71765852e+00 5.44128954e-01 -6.72774434e-01 -6.74221158e-01
      -7.63410687e-01 2.11022711e+00 -6.31558478e-01 -6.92687094e-01
      4.26635116e-01 -6.51865363e-01 -5.96525908e-01 3.53722453e+00
      -6.61794603e-01 -4.02635366e-01 -6.85676754e-01 -6.67368114e-01
      -5.93203604e-01 4.19318862e-02 1.55713284e+00 1.04876339e+00
      8.18997443e-01 -7.06039667e-01 -7.13286102e-01 6.09316051e-01
      -5.47195613e-01 -6.51188493e-01 -6.24897063e-01 2.31446362e+00
      -7.34800994e-01 1.60509002e+00 1.15006602e+00 -7.10021675e-01
      1.64927505e-02 -6.99668586e-01 -4.26554263e-01 -4.98578280e-01
      4.53655362e-01 2.59510398e-01 -5.84523320e-01 -7.34057605e-01
      -2.37929896e-01 -4.55824196e-01 -5.42203903e-01 -6.97962403e-01
      -5.94096720e-01 1.62519884e+00 -7.08198249e-01 -6.90467477e-01
      -6.08510435e-01 -5.72301924e-01 -6.11304462e-01 -6.51467860e-01
      -7.49097645e-01 9.42291021e-01 2.46873045e+00 1.49740666e-01
      -6.54998124e-01 -7.31486976e-01 -6.91941500e-01 -5.90450704e-01
      -5.79048157e-01 -6.73947394e-01 -6.45214975e-01 -5.12885392e-01</_>
    <_>
      -9.86735430e-03 -4.84332204e-01 1.89825702e+00 -5.64281464e-01
      8.13164115e-01 -7.57636130e-01 -1.42514333e-02 -7.34407842e-01
      -4.78040695e-01 -6.33221805e-01 5.98456860e-01 -5.15614927e-01
      -6.59913838e-01 -7.06968307e-01 9.51858997e-01 1.02718413e+00
      1.42271662e+00 1.75373209e+00 3.97601016e-02 -7.60616422e-01
      1.44750512e+00 -6.28451228e-01 1.24266255e+00 1.25507295e+00
      3.65836799e-01 2.08475798e-01 -1.75990537e-01 -8.16788733e-01
      -3.71311277e-01 2.17667282e-01 -7.99251422e-02 1.21378231e+00
      3.45207572e-01 -7.54532456e-01 1.63446009e+00 -6.57408893e-01
      3.91186476e-01 -5.32305002e-01 -1.19960243e-02 4.52680767e-01
      7.37408102e-02 2.91451693e+00 -6.31558478e-01 2.84530193e-01
      -5.28449118e-01 -6.51865363e-01 -5.96525908e-01 -7.30412975e-02
      3.00100064e+00 -4.02635366e-01 -6.85676754e-01 -6.67368114e-01
      -5.93203604e-01 -3.11459531e-03 1.23655784e+00 2.98841875e-02
      1.26920211e+00 -7.06039667e-01 1.72490031e-01 -2.36537233e-02
      -5.47195613e-01 -6.51188493e-01 -6.24897063e-01 -2.12652743e-01
      2.74769115e+00 1.26253390e+00 7.93321431e-02 2.41025507e-01
      -1.37673870e-01 -6.99668586e-01 -4.26554263e-01 4.93693858e-01
      -4.82603461e-01 -4.64792162e-01 -5.84523320e-01 -6.05949722e-02
      -8.54182243e-03 1.30386937e+00 5.12065172e-01 8.57161224e-01
      4.35561240e-01 -2.03028321e-01 -7.08198249e-01 1.36008486e-01
      -6.08510435e-01 -5.72301924e-01 -6.11304462e-01 1.02431118e+00
      3.03530544e-02 -2.25655153e-01 5.74958548e-02 5.12846671e-02
      -6.54998124e-01 1.23036635e+00 -6.91941500e-01 -5.90450704e-01
      1.08382607e+00 -8.09925515e-03 -6.45214975e-01 -5.12885392e-01</_>
    <_>
      -7.19547927e-01 -4.84332204e-01 2.65884209e+00 2.45747781e+00
      3.50887686e-01 8.88092458e-01 -4.30263370e-01 3.69208485e-01
      -4.78040695e-01 1.41170156e+00 -9.10992563e-01 3.25258088e+00
      -6.59913838e-01 2.74681538e-01 4.49308252e+00 1.52778313e-01
      -7.49868095e-01 -6.39136970e-01 -6.53588712e-01 1.43171608e+00
      -6.10291183e-01 -6.28451228e-01 1.35820651e+00 -4.88451868e-01
      -5.78261554e-01 -6.55316234e-01 2.08280876e-01 3.83482528e+00
      -7.25048959e-01 3.00685811e+00 -5.80470681e-01 1.32881951e+00
      -9.46340084e-01 3.24217844e+00 9.67005372e-01 -6.57408893e-01
      3.62658572e+00 -5.32305002e-01 -7.02257752e-01 1.71413815e+00
      1.01085067e+00 -6.75360918e-01 -6.31558478e-01 -6.92687094e-01
      -5.28449118e-01 1.66361582e+00 -5.96525908e-01 -8.22110116e-01
      -6.61794603e-01 -4.02635366e-01 6.53279901e-01 1.93614078e+00
      -5.93203604e-01 -2.77898192e-01 -7.18949556e-01 -7.37419963e-01
      -7.40247786e-01 1.27793753e+00 -7.13286102e-01 -5.00334680e-01
      2.04035029e-01 -6.51188493e-01 -6.24897063e-01 -6.34992778e-01
      -7.34800994e-01 -8.27059269e-01 2.69095993e+00 -7.10021675e-01
      -8.15296024e-02 -6.99668586e-01 1.59056671e-02 -4.98578280e-01
      -4.82603461e-01 -8.44040751e-01 4.11629885e-01 -7.34057605e-01
      4.14243639e-01 -4.55824196e-01 -5.42203903e-01 9.50004458e-01
      -5.94096720e-01 3.56782913e-01 -7.08198249e-01 1.06116807e+00
      5.95225763e+00 -5.72301924e-01 -6.11304462e-01 -6.51467860e-01
      -7.49097645e-01 -7.80808806e-01 7.95826495e-01 -5.49297035e-01
      -6.54998124e-01 -7.31486976e-01 2.17094851e+00 -5.90450704e-01
      -5.79048157e-01 -6.73947394e-01 -6.45214975e-01 4.06033278e-01</_>
    <_>
      -7.19547927e-01 -4.84332204e-01 -9.01697993e-01 -5.64281464e-01
      -7.61709869e-01 2.39275861e+00 -4.30263370e-01 1.37822914e+00
      1.37224662e+00 -6.33221805e-01 -9.10992563e-01 -5.15614927e-01
      -6.59913838e-01 -7.06968307e-01 -6.73222899e-01 -1.18955255e+00
      -7.49868095e-01 -6.39136970e-01 -6.53588712e-01 -7.60616422e-01
      -6.10291183e-01 -6.28451228e-01 -6.92698896e-01 -4.88451868e-01
      -5.78261554e-01 -6.55316234e-01 -5.19272983e-01 -8.16788733e-01
      -7.25048959e-01 -6.43511474e-01 1.45031416e+00 -7.13091075e-01
      -9.46340084e-01 -7.54532456e-01 -6.39411032e-01 -6.57408893e-01
      -6.07761681e-01 -5.32305002e-01 -4.28203613e-01 -6.74221158e-01
      -7.63410687e-01 -6.75360918e-01 -6.31558478e-01 -6.92687094e-01
      1.13612640e+00 -6.51865363e-01 -5.96525908e-01 -8.22110116e-01
      -6.61794603e-01 -4.02635366e-01 -6.85676754e-01 -6.67368114e-01
      -5.93203604e-01 -2.77898192e-01 -7.18949556e-01 -7.37419963e-01
      -7.40247786e-01 -7.06039667e-01 -7.13286102e-01 -5.00334680e-01
      -5.47195613e-01 -6.51188493e-01 -6.24897063e-01 -6.34992778e-01
      -7.34800994e-01 -8.27059269e-01 -7.27023005e-01 -7.10021675e-01
      -1.07809055e+00 -6.99668586e-01 1.26743519e+00 -4.98578280e-01
      -4.82603461e-01 4.92595625e+00 1.32239854e+00 -7.34057605e-01
      -1.03239572e+00 -4.55824196e-01 -5.42203903e-01 -6.97962403e-01
      -5.94096720e-01 -7.03126371e-01 3.67008662e+00 -6.90467477e-01
      -6.08510435e-01 -5.72301924e-01 -6.11304462e-01 -6.51467860e-01
      -7.49097645e-01 2.59769797e+00 -6.02079570e-01 -5.49297035e-01
      -6.54998124e-01 -7.31486976e-01 -6.91941500e-01 -5.90450704e-01
      -5.79048157e-01 -6.73947394e-01 -6.45214975e-01 -5.12885392e-01</_>
    <_>
      6.37686253e-01 -3.20707738e-01 9.72480774e-01 -2.91610926e-01
      -5.10719836e-01 -1.51188569e-02 1.66440636e-01 -2.36479938e-01
      -3.69017035e-01 -1.71909124e-01 -4.49649505e-02 3.34449470e-01
      3.00824314e-01 -2.64069051e-01 1.26921511e+00 -1.29698709e-01
      1.32762051e+00 1.64899373e+00 1.33541191e+00 -7.60616422e-01
      1.84936440e+00 -1.92104325e-01 2.08327413e+00 -4.88451868e-01
      3.24512631e-01 1.70666710e-01 4.65496927e-01 2.32565299e-01
      -3.86794746e-01 -2.31769457e-01 -1.01834550e-01 -2.52458066e-01
      -4.83209372e-01 -4.53994185e-01 8.53694454e-02 -3.67769271e-01
      1.78029633e+00 -5.32305002e-01 -7.31525898e-01 -1.35433033e-01
      8.37606311e-01 -1.03236727e-01 4.35727954e-01 7.08978117e-01
      2.56199241e-01 9.15177524e-01 -5.96525908e-01 -4.63969469e-01
      1.52724981e+00 -1.80960551e-01 2.20485866e-01 -3.73706341e-01
      -5.93203604e-01 3.13302875e-01 1.15096331e+00 -3.70560735e-01
      2.20499352e-01 1.53177977e+00 -7.13286102e-01 -4.45185490e-02
      -5.47195613e-01 -6.51188493e-01 -6.24897063e-01 -6.34992778e-01
      9.77139324e-02 -3.27526897e-01 4.29567248e-01 -2.55312234e-01
      2.70789951e-01 1.42535543e+00 -3.26740056e-01 2.82235956e+00
      -9.80122760e-02 -5.72054386e-01 -3.59801888e-01 -9.00731385e-02
      -3.79703254e-01 1.64751327e+00 4.65918720e-01 7.89091825e-01
      3.90492022e-01 -4.64022249e-01 3.23720723e-01 4.94982898e-01
      1.36487436e+00 -2.06810832e-01 9.51116443e-01 1.49746388e-01
      -7.49097645e-01 -3.38430464e-01 -2.86727011e-01 8.86437058e-01
      4.68952268e-01 8.31830561e-01 5.99732816e-01 -1.45794645e-01
      1.72350053e-02 -6.73947394e-01 -2.37126753e-01 3.16307217e-01</_>
    <_>
      1.03305471e+00 -4.84332204e-01 2.50747353e-01 2.25529801e-02
      -5.45640171e-01 -4.38030839e-01 -4.30263370e-01 -3.05756837e-01
      -4.78040695e-01 1.35242844e+00 1.44987392e+00 2.41156340e+00
      9.94226694e-01 -5.16329050e-01 2.00227451e+00 -2.77156621e-01
      1.39626801e+00 2.80798173e+00 1.05868149e+00 -1.21980391e-01
      1.08366287e+00 3.10643256e-01 1.69705200e+00 2.29172871e-01
      -5.78261554e-01 -6.55316234e-01 -9.53937471e-02 -4.78029847e-01
      -4.33856159e-01 6.54009283e-02 2.43615925e-01 -7.13091075e-01
      -6.80543303e-01 -4.95808184e-01 6.08471930e-01 9.06170458e-02
      2.68152857e+00 -3.41978967e-01 -1.87041000e-01 1.18108416e+00
      1.64855623e+00 -6.75360918e-01 1.51229513e+00 5.13963938e-01
      -2.18391661e-02 1.59650052e+00 -1.42795071e-01 -3.59641522e-01
      4.68894452e-01 1.69863984e-01 3.54440391e-01 9.10454094e-02
      -5.93203604e-01 -1.64798856e-01 8.90801609e-01 2.10033923e-01
      3.62522870e-01 6.45486116e-02 -7.13286102e-01 -3.04135561e-01
      -2.55413234e-01 -6.51188493e-01 1.21128428e+00 -6.34992778e-01
      -1.81141905e-02 6.06381536e-01 6.00541472e-01 8.55760455e-01
      8.31196979e-02 3.97952557e-01 -2.54700243e-01 7.26662219e-01
      -4.82603461e-01 -4.92823571e-01 -5.84523320e-01 9.75224078e-02
      -4.91002686e-02 2.68455535e-01 1.19352043e+00 -3.77922446e-01
      -1.70295447e-01 -7.03126371e-01 1.06849706e+00 -3.50294739e-01
      6.65609896e-01 -2.57661730e-01 6.12158775e-02 3.83143663e-01
      -4.28280234e-01 -4.38061744e-01 -6.02079570e-01 6.86928555e-02
      3.12576622e-01 8.83488119e-01 1.42030895e-01 -2.07659811e-01
      4.47595984e-01 -6.73947394e-01 5.74065223e-02 2.24846676e-02</_>
    <_>
      5.09411097e-01 1.08307578e-01 -9.01697993e-01 -5.64281464e-01
      1.47363737e-01 -7.57636130e-01 -4.30263370e-01 -7.34407842e-01
      -4.78040695e-01 -6.33221805e-01 -9.10992563e-01 -5.15614927e-01
      -6.59913838e-01 8.97191167e-01 -6.73222899e-01 -9.27700251e-02
      -7.49868095e-01 1.43273747e+00 5.47088444e-01 1.03067958e+00
      -6.10291183e-01 9.51976001e-01 -6.92698896e-01 -4.88451868e-01
      -5.78261554e-01 -6.55316234e-01 -5.19272983e-01 -3.41700107e-01
      -7.25048959e-01 -6.43511474e-01 2.86327660e-01 1.78949451e+00
      1.29024243e+00 -7.54532456e-01 -6.39411032e-01 3.91651779e-01
      -6.07761681e-01 -5.32305002e-01 -2.67259538e-01 -6.74221158e-01
      -7.63410687e-01 -6.75360918e-01 -6.31558478e-01 -6.92687094e-01
      -5.28449118e-01 1.24005222e+00 -5.96525908e-01 3.06939387e+00
      -6.61794603e-01 -4.02635366e-01 -6.85676754e-01 -6.67368114e-01
      -5.93203604e-01 -2.77898192e-01 2.66741681e+00 5.91326177e-01
      4.19678599e-01 -7.06039667e-01 8.20618868e-01 3.25137228e-01
      -5.47195613e-01 -6.51188493e-01 -6.24897063e-01 8.27745795e-01
      7.72863209e-01 -8.27059269e-01 -7.27023005e-01 -7.10021675e-01
      -2.63827354e-01 -6.99668586e-01 -4.26554263e-01 -4.98578280e-01
      2.13881776e-01 6.33641303e-01 2.29406714e-01 -7.34057605e-01
      -1.03239572e+00 -4.55824196e-01 -5.42203903e-01 -6.97962403e-01
      -5.94096720e-01 1.89494395e+00 -7.08198249e-01 -6.90467477e-01
      -6.08510435e-01 -5.72301924e-01 8.03448617e-01 -6.51467860e-01
      -7.49097645e-01 1.14191842e+00 3.96668649e+00 -2.92811859e-02
      -6.54998124e-01 -7.31486976e-01 1.64724910e+00 1.02007174e+00
      -5.79048157e-01 -6.73947394e-01 -6.45214975e-01 -5.12885392e-01</_>
    <_>
      -7.19547927e-01 -4.84332204e-01 -9.01697993e-01 -8.22388828e-02
      -7.61709869e-01 -7.57636130e-01 6.24624133e-01 1.45857602e-01
      -4.78040695e-01 2.62891793e+00 1.09682851e-01 -5.15614927e-01
      1.03853405e+00 -7.06968307e-01 7.00358272e-01 4.16450560e-01
      2.92283487e+00 1.38340724e+00 -6.53588712e-01 -7.60616422e-01
      -6.10291183e-01 1.42947808e-01 9.43142414e-01 9.85241771e-01
      -5.78261554e-01 -6.55316234e-01 -5.19272983e-01 -3.53011698e-01
      -7.25048959e-01 -6.43511474e-01 2.65689671e-01 -7.13091075e-01
      1.23699057e+00 -7.54532456e-01 -6.39411032e-01 3.66674215e-01
      1.08093643e+00 -5.32305002e-01 -2.84753412e-01 -6.74221158e-01
      -7.63410687e-01 -6.75360918e-01 -6.31558478e-01 2.61123800e+00
      -5.28449118e-01 -6.51865363e-01 -5.96525908e-01 -1.88968599e-01
      -6.61794603e-01 3.81143481e-01 -6.85676754e-01 -6.67368114e-01
      -5.93203604e-01 -4.56406213e-02 -7.18949556e-01 -7.37419963e-01
      1.52437043e+00 -7.06039667e-01 7.84097373e-01 3.05483162e-01
      -5.47195613e-01 -6.51188493e-01 1.26046777e+00 -6.34992778e-01
      -7.34800994e-01 2.70534849e+00 6.36101246e-01 8.97700965e-01
      2.10141349e+00 8.03026974e-01 -4.26554263e-01 -4.98578280e-01
      -4.82603461e-01 -3.63207698e-01 -5.84523320e-01 4.04414982e-01
      6.98405087e-01 -4.55824196e-01 -5.42203903e-01 6.16487384e-01
      1.14651561e+00 -7.03126371e-01 -7.08198249e-01 7.06670523e-01
      -6.08510435e-01 -5.72301924e-01 3.53190136e+00 -6.51467860e-01
      1.88618815e+00 -4.67984110e-01 1.62791359e+00 -5.49297035e-01
      -6.54998124e-01 3.74001861e-01 -6.91941500e-01 -5.90450704e-01
      1.23714164e-01 1.57725358e+00 -6.45214975e-01 -5.12885392e-01</_>
    <_>
      1.27297848e-01 -7.59585351e-02 1.10297596e+00 1.13704526e+00
      1.11755168e+00 2.02212429e+00 -4.30263370e-01 -1.13043979e-01
      6.61614984e-02 2.82080865e+00 -9.10992563e-01 1.60597456e+00
      5.38990617e-01 1.50380635e+00 2.96363860e-01 -1.18955255e+00
      -7.49868095e-01 7.88541317e-01 1.73768744e-01 -1.43447161e-01
      6.17469668e-01 -6.28451228e-01 4.62012678e-01 -4.88451868e-01
      -5.78261554e-01 2.43691444e+00 -1.09641790e-01 1.47481549e+00
      -3.02941769e-01 3.84113669e-01 6.14108682e-01 -1.38267472e-01
      -9.46340084e-01 7.45633602e-01 -6.39411032e-01 7.88355529e-01
      1.77628279e+00 -5.32305002e-01 -6.64474487e-01 -6.74221158e-01
      2.35543266e-01 -6.75360918e-01 -6.31558478e-01 4.73404199e-01
      -5.28449118e-01 -6.51865363e-01 -5.96525908e-01 -3.75186682e-01
      -6.61794603e-01 1.50620297e-01 6.81896731e-02 6.55525103e-02
      -5.93203604e-01 -2.77898192e-01 4.47781861e-01 -7.37419963e-01
      5.90292849e-02 4.10989583e-01 3.43690515e-01 6.84779361e-02
      2.98728019e-01 -6.51188493e-01 7.05948710e-01 -6.34992778e-01
      1.34298849e+00 4.19672936e-01 2.35182375e-01 -7.10021675e-01
      4.40874062e-02 3.61057729e-01 -1.77438140e-01 -4.98578280e-01
      -4.82603461e-01 -6.17766380e-01 5.37195504e-01 1.67682576e+00
      -2.17901260e-01 -4.55824196e-01 -5.42203903e-01 3.01342535e+00
      -5.94096720e-01 4.90385026e-01 5.79532683e-01 2.95747608e-01
      1.85407495e+00 -5.72301924e-01 -6.11304462e-01 2.34803629e+00
      -7.49097645e-01 -7.80808806e-01 1.84976876e-01 -5.49297035e-01
      -6.54998124e-01 2.38989329e+00 1.72587764e+00 -5.90450704e-01
      -8.29806328e-02 -6.73947394e-01 3.73290986e-01 2.07398653e+00</_>
    <_>
      1.69904351e+00 -4.84332204e-01 3.70601714e-01 -5.64281464e-01
      4.30994779e-01 -7.57636130e-01 -1.93968579e-01 -1.42869443e-01
      -4.78040695e-01 -6.33221805e-01 -2.25098655e-01 1.50413823e+00
      -6.59913838e-01 -7.06968307e-01 -6.73222899e-01 6.09170973e-01
      7.30965734e-01 -6.39136970e-01 1.34055585e-01 -7.60616422e-01
      -6.10291183e-01 -6.28451228e-01 -6.92698896e-01 -4.88451868e-01
      1.56673014e+00 3.25951576e-01 2.60664821e-01 -8.16788733e-01
      -3.23202908e-01 1.31308675e+00 -1.18509140e-02 3.81373078e-01
      1.54058546e-01 -7.54532456e-01 1.08266747e+00 3.07749603e-02
      -6.07761681e-01 -5.32305002e-01 -3.80191095e-02 6.05939507e-01
      1.13859761e+00 -6.75360918e-01 -6.31558478e-01 1.52755070e+00
      -6.23679720e-02 -6.51865363e-01 -5.96525908e-01 -8.22110116e-01
      1.41867328e+00 -4.02635366e-01 -6.85676754e-01 -6.67368114e-01
      -8.56518447e-02 1.90333083e-01 1.50250709e+00 1.87755263e+00
      2.06639841e-02 3.57372165e-01 2.92955637e-01 4.11749259e-02
      -5.47195613e-01 -6.51188493e-01 -6.24897063e-01 -1.55214474e-01
      2.54226804e-01 1.94234836e+00 -7.27023005e-01 3.70368004e-01
      1.59269297e+00 3.10142875e-01 -4.26554263e-01 -4.98578280e-01
      -2.57091057e-02 -1.97801143e-01 -5.05851693e-02 3.09959985e-02
      -2.56996989e-01 5.43681800e-01 -5.42203903e-01 2.83527875e+00
      5.75594783e-01 -1.35014936e-01 5.17721593e-01 -6.90467477e-01
      -6.08510435e-01 -5.72301924e-01 -6.11304462e-01 -6.51467860e-01
      1.36358410e-01 -1.50154233e-01 1.47198156e-01 -2.08166614e-01
      2.35170618e-01 7.54290044e-01 2.37707686e+00 4.66052145e-01
      3.65464449e-01 8.24561417e-02 1.29402030e+00 -5.12885392e-01</_>
    <_>
      -3.40061486e-02 -4.84332204e-01 1.26207685e+00 -2.88828582e-01
      -2.54607558e-01 -7.57636130e-01 1.72529429e-01 -2.31399044e-01
      -4.78040695e-01 1.23085797e+00 -3.61279510e-02 -5.15614927e-01
      3.10627788e-01 -2.59549677e-01 1.11680605e-01 -8.83647203e-01
      3.02776933e+00 5.16602516e-01 1.61768086e-02 2.38609940e-01
      1.37751198e+00 -1.87651798e-01 2.42067546e-01 -4.88451868e-01
      3.33724618e-01 -6.55316234e-01 -1.87666804e-01 -5.51773310e-01
      -7.25048959e-01 1.88375488e-01 3.86569679e-01 -7.13091075e-01
      3.01277369e-01 -7.54532456e-01 -6.39411032e-01 -6.57408893e-01
      3.57208639e-01 -5.32305002e-01 -3.18908215e-01 1.50292265e+00
      4.52662669e-02 1.63648784e+00 -6.31558478e-01 1.19527006e+00
      2.64205873e-01 4.03490037e-01 -5.96525908e-01 -9.85198319e-02
      1.10731053e+00 -4.02635366e-01 -7.54039809e-02 -6.67368114e-01
      -1.61612004e-01 1.20257638e-01 2.11454082e+00 1.48619604e+00
      -9.32140127e-02 1.98222041e-01 -7.13286102e-01 -3.98673639e-02
      -5.47195613e-01 -6.51188493e-01 1.52980542e+00 5.88931322e-01
      9.47218955e-01 1.82200015e-01 8.30833197e-01 2.08676964e-01
      7.38768876e-01 -6.99668586e-01 -4.26554263e-01 1.41846454e+00
      -9.40878764e-02 -2.94517279e-01 -5.84523320e-01 5.67053914e-01
      -4.33667898e-02 1.24401581e+00 4.76205707e-01 8.04265857e-01
      -5.94096720e-01 -7.03126371e-01 -7.08198249e-01 1.07897058e-01
      -6.08510435e-01 -5.72301924e-01 -6.11304462e-01 -6.51467860e-01
      1.50971866e+00 -5.12673378e-01 6.72202170e-01 3.08567155e-02
      8.58894229e-01 5.31928778e-01 6.12913132e-01 -5.90450704e-01
      1.42884421e+00 6.12453103e-01 -6.45214975e-01 3.24768364e-01</_>
    <_>
      -7.19547927e-01 -4.84332204e-01 1.77870858e+00 -1.09319933e-01
      7.58636072e-02 -7.57636130e-01 -4.30263370e-01 1.75802910e+00
      -4.78040695e-01 -6.33221805e-01 5.23415320e-02 -5.15614927e-01
      -6.59913838e-01 7.71021366e-01 -6.73222899e-01 -1.79033771e-01
      -5.65938167e-02 -6.39136970e-01 -6.53588712e-01 6.45873919e-02
      -6.10291183e-01 9.96107832e-02 -6.92698896e-01 -4.88451868e-01
      -5.78261554e-01 -6.55316234e-01 2.84361206e-02 1.37182200e+00
      2.09690332e+00 -6.43511474e-01 -5.80470681e-01 -7.13091075e-01
      1.62949944e+00 -7.54532456e-01 -6.39411032e-01 -6.57408893e-01
      -6.07761681e-01 9.43256199e-01 2.15712357e+00 -6.74221158e-01
      -7.63410687e-01 -6.75360918e-01 -6.31558478e-01 -6.92687094e-01
      -5.28449118e-01 -6.51865363e-01 2.82896221e-01 -8.22110116e-01
      -6.61794603e-01 3.37110937e-01 -6.85676754e-01 -6.67368114e-01
      8.32503557e-01 -2.77898192e-01 -7.18949556e-01 -7.37419963e-01
      -7.40247786e-01 -7.06039667e-01 -7.13286102e-01 -5.00334680e-01
      -5.47195613e-01 2.63914919e+00 -6.24897063e-01 2.06039071e+00
      -7.34800994e-01 -8.27059269e-01 -7.27023005e-01 -7.10021675e-01
      4.22349572e-01 -6.99668586e-01 -4.26554263e-01 -4.98578280e-01
      8.00807595e-01 6.35991469e-02 -5.84523320e-01 -7.34057605e-01
      5.66474125e-02 -4.55824196e-01 -5.42203903e-01 -6.97962403e-01
      -5.94096720e-01 -7.03126371e-01 -7.08198249e-01 -6.90467477e-01
      -6.08510435e-01 -5.72301924e-01 -6.11304462e-01 -6.51467860e-01
      -7.49097645e-01 9.90692794e-01 -6.02079570e-01 -5.49297035e-01
      -6.54998124e-01 -7.31486976e-01 -6.91941500e-01 -5.90450704e-01
      -5.79048157e-01 -6.73947394e-01 -6.45214975e-01 -5.12885392e-01</_>
    <_>
      -7.19547927e-01 1.25125587e+00 -9.01697993e-01 -5.64281464e-01
      -7.61709869e-01 -7.57636130e-01 -4.30263370e-01 -7.34407842e-01
      1.83481860e+00 -6.33221805e-01 -9.10992563e-01 -5.15614927e-01
      -6.59913838e-01 -7.06968307e-01 -6.73222899e-01 -1.18955255e+00
      -7.49868095e-01 -6.39136970e-01 -6.53588712e-01 -7.60616422e-01
      -6.10291183e-01 -6.28451228e-01 -6.92698896e-01 -4.88451868e-01
      -5.78261554e-01 -6.55316234e-01 -5.19272983e-01 -8.16788733e-01
      -7.25048959e-01 -6.43511474e-01 -5.80470681e-01 -7.13091075e-01
      -9.46340084e-01 -7.54532456e-01 -6.39411032e-01 -6.57408893e-01
      -6.07761681e-01 -5.32305002e-01 -2.84753412e-01 -6.74221158e-01
      -7.63410687e-01 -6.75360918e-01 -6.31558478e-01 -6.92687094e-01
      -5.28449118e-01 -6.51865363e-01 -5.96525908e-01 -8.22110116e-01
      -6.61794603e-01 -4.02635366e-01 -6.85676754e-01 -6.67368114e-01
      -5.93203604e-01 -2.77898192e-01 -7.18949556e-01 -7.37419963e-01
      -7.40247786e-01 -7.06039667e-01 -7.13286102e-01 -5.00334680e-01
      4.84556770e+00 -6.51188493e-01 -6.24897063e-01 -6.34992778e-01
      -7.34800994e-01 -8.27059269e-01 -7.27023005e-01 -7.10021675e-01
      -1.07809055e+00 -6.99668586e-01 6.32189214e-01 -4.98578280e-01
      -4.82603461e-01 3.00262380e+00 1.79912913e+00 -7.34057605e-01
      -1.03239572e+00 -4.55824196e-01 -5.42203903e-01 -6.97962403e-01
      -5.94096720e-01 -7.03126371e-01 -7.08198249e-01 -6.90467477e-01
      -6.08510435e-01 -5.72301924e-01 -6.11304462e-01 -6.51467860e-01
      -7.49097645e-01 4.38079882e+00 -6.02079570e-01 -5.49297035e-01
      -6.54998124e-01 -7.31486976e-01 -6.91941500e-01 -5.90450704e-01
      -5.79048157e-01 -6.73947394e-01 -6.45214975e-01 -5.12885392e-01</_>
    <_>
      -7.19547927e-01 -4.84332204e-01 6.32727766e+00 -5.64281464e-01
      6.01502085e+00 -7.57636130e-01 -4.30263370e-01 2.62660575e+00
      -4.78040695e-01 -6.33221805e-01 -9.10992563e-01 -5.15614927e-01
      -6.59913838e-01 -7.06968307e-01 4.57135963e+00 -1.18955255e+00
      -7.49868095e-01 -6.39136970e-01 -6.53588712e-01 2.57770824e+00
      -6.10291183e-01 -6.28451228e-01 -6.92698896e-01 -4.88451868e-01
      -5.78261554e-01 -6.55316234e-01 1.69645941e+00 9.53996301e-01
      6.12459898e+00 -6.43511474e-01 -5.80470681e-01 -7.13091075e-01
      9.57041010e-02 3.30273485e+00 -6.39411032e-01 -6.57408893e-01
      -6.07761681e-01 5.43701077e+00 -8.91395211e-02 -6.74221158e-01
      -7.63410687e-01 -6.75360918e-01 -6.31558478e-01 -6.92687094e-01
      -5.28449118e-01 -6.51865363e-01 2.96113634e+00 -8.22110116e-01
      -6.61794603e-01 -4.02635366e-01 -6.85676754e-01 -6.67368114e-01
      5.17442989e+00 -2.77898192e-01 -7.18949556e-01 -7.37419963e-01
      -7.40247786e-01 -7.06039667e-01 -7.13286102e-01 -5.00334680e-01
      -5.47195613e-01 -6.51188493e-01 -6.24897063e-01 2.09102011e+00
      -7.34800994e-01 -8.27059269e-01 -7.27023005e-01 -7.10021675e-01
      -1.07809055e+00 -6.99668586e-01 -4.26554263e-01 -4.98578280e-01
      -4.82603461e-01 -8.44040751e-01 -5.84523320e-01 -7.34057605e-01
      -1.03239572e+00 -4.55824196e-01 -5.42203903e-01 -6.97962403e-01
      -5.94096720e-01 -7.03126371e-01 -7.08198249e-01 -6.90467477e-01
      -6.08510435e-01 4.36182833e+00 -6.11304462e-01 -6.51467860e-01
      -7.49097645e-01 -7.80808806e-01 -6.02079570e-01 -5.49297035e-01
      -6.54998124e-01 -7.31486976e-01 -6.91941500e-01 -5.90450704e-01
      -5.79048157e-01 -6.73947394e-01 -6.45214975e-01 -5.12885392e-01</_>
    <_>
      1.64440170e-01 -4.84332204e-01 -9.01697993e-01 1.21166492e+00
      -1.07814781e-01 2.09590346e-01 -4.30263370e-01 -8.57912078e-02
      -4.78040695e-01 5.68619132e-01 -9.10992563e-01 -5.15614927e-01
      -6.59913838e-01 -1.30033731e-01 3.38889539e-01 -1.18955255e+00
      3.32612783e-01 3.83175015e+00 1.07370138e+00 1.17209780e+00
      -6.10291183e-01 -6.28451228e-01 5.12657881e-01 5.97427666e-01
      -5.78261554e-01 -6.55316234e-01 3.35921943e-01 8.91863465e-01
      -2.84428328e-01 -6.43511474e-01 -5.80470681e-01 -7.13091075e-01
      -9.46340084e-01 8.11430335e-01 -6.39411032e-01 8.51766169e-01
      6.36542201e-01 4.36816253e-02 -8.25837493e-01 -6.74221158e-01
      2.36489224e+00 8.15173149e-01 1.22214949e+00 -6.92687094e-01
      1.00471258e+00 7.08987713e-01 -5.96525908e-01 -8.22110116e-01
      4.78812724e-01 1.90744960e+00 1.67511535e+00 1.62783062e+00
      -3.66775729e-02 -2.77898192e-01 4.98954237e-01 2.18344867e-01
      -7.40247786e-01 2.79202533e+00 1.49338424e+00 -5.00334680e-01
      1.66036820e+00 -6.51188493e-01 7.64319122e-01 -1.08920097e-01
      3.49659264e-01 -3.93254846e-01 1.28179169e+00 4.74616081e-01
      6.79003775e-01 -6.99668586e-01 -4.26554263e-01 3.20938611e+00
      1.83771700e-02 -8.44040751e-01 -5.84523320e-01 1.78256607e+00
      2.42931113e-01 6.40125334e-01 -5.42203903e-01 2.70579547e-01
      -5.94096720e-01 -7.03126371e-01 6.36012018e-01 2.39794278e+00
      3.24737978e+00 -5.72301924e-01 4.06324983e-01 -6.51467860e-01
      2.21797109e-01 -7.80808806e-01 2.19496846e-01 -5.49297035e-01
      -6.54998124e-01 8.30837265e-02 1.83192217e+00 -5.90450704e-01
      -5.79048157e-01 -6.73947394e-01 -6.45214975e-01 2.18744588e+00</_>
    <_>
      1.83818400e+00 -4.84332204e-01 7.12895453e-01 4.63423491e-01
      -4.91761230e-03 3.61793458e-01 -1.30396903e-01 3.91616940e-01
      -4.78040695e-01 7.57741272e-01 -4.75780696e-01 2.04752350e+00
      1.51271987e+00 9.62334752e-01 1.66953480e+00 -4.82306145e-02
      1.89747259e-01 2.81048131e+00 -6.53588712e-01 3.57806981e-01
      8.72993410e-01 2.93915812e-02 4.81717428e-03 -4.88451868e-01
      1.02256037e-01 -3.26844156e-02 -2.71830827e-01 3.69727045e-01
      -4.70070511e-01 5.97984791e-01 1.41127959e-01 3.28594297e-01
      -5.97228885e-01 6.04754984e-01 -6.39411032e-01 6.52585685e-01
      1.12292320e-01 -5.32305002e-01 -6.96171522e-01 -6.74221158e-01
      -1.59981683e-01 1.87181637e-01 -9.52064246e-02 7.16093123e-01
      1.83744502e+00 1.71063077e+00 -5.96525908e-01 -5.52141190e-01
      -6.61794603e-01 -6.84352666e-02 2.25085661e-01 6.60817921e-01
      -2.71153033e-01 2.17270225e-01 6.90604031e-01 -1.84337780e-01
      -7.40247786e-01 6.43467665e-01 1.20214856e+00 -1.56737238e-01
      -3.62062268e-02 -6.51188493e-01 1.79014817e-01 -6.34992778e-01
      -1.07245326e-01 9.30179060e-01 4.35438216e-01 -7.10021675e-01
      -6.12948574e-02 -5.89253344e-02 -4.26554263e-01 -4.98578280e-01
      -4.82603461e-01 -6.39015496e-01 9.30631161e-02 1.69314277e+00
      -5.40391505e-01 -4.55824196e-01 2.17726111e-01 2.66489387e+00
      1.48093268e-01 1.78271662e-02 8.47537458e-01 -6.90467477e-01
      8.79041076e-01 -2.12823413e-02 -6.11304462e-01 -4.75068539e-02
      -1.87260091e-01 -6.47421658e-01 -1.26649559e-01 -5.49297035e-01
      4.74657565e-01 1.15401673e+00 -2.05104858e-01 7.99190775e-02
      -5.79048157e-01 -6.73947394e-01 -2.99753696e-02 2.61237097e+00</_>
    <_>
      7.51614749e-01 -4.84332204e-01 -9.01697993e-01 2.68364269e-02
      -7.61709869e-01 4.72092479e-02 -4.30263370e-01 3.45041722e-01
      -4.78040695e-01 -6.33221805e-01 1.27936184e+00 -5.15614927e-01
      3.81470233e-01 -7.06968307e-01 1.68972850e-01 -1.18955255e+00
      1.05163288e+00 1.84106314e+00 7.83718288e-01 -2.24535123e-01
      -6.10291183e-01 3.17497939e-01 -6.92698896e-01 -4.88451868e-01
      4.00292963e-01 2.40001068e-01 -1.63461968e-01 3.62901315e-02
      -7.25048959e-01 1.14170587e+00 9.75970149e-01 2.85507560e-01
      3.92344356e-01 -7.54532456e-01 1.71744812e+00 -6.57408893e-01
      -6.07761681e-01 -5.32305002e-01 2.41356306e-02 1.66183829e+00
      2.70740724e+00 5.64937472e-01 -6.31558478e-01 3.20195079e-01
      3.22063893e-01 4.80523288e-01 -2.52224971e-02 -8.22110116e-01
      2.87323892e-01 -4.02635366e-01 -6.85676754e-01 6.05880797e-01
      -5.93203604e-01 -2.77898192e-01 2.94488609e-01 1.64850378e+00
      6.48277223e-01 2.64226556e-01 -7.13286102e-01 -6.25660224e-03
      -5.47195613e-01 -6.51188493e-01 -6.24897063e-01 -1.97238877e-01
      1.67596593e-01 2.06074834e+00 9.44545329e-01 2.75735259e-01
      -5.90721309e-01 2.98577452e+00 -4.26554263e-01 1.55839467e+00
      7.68019676e-01 -5.49223423e-01 -5.84523320e-01 -7.34057605e-01
      3.82565409e-01 -4.55824196e-01 1.64328825e+00 1.07977599e-01
      1.54037666e+00 -1.84776559e-01 4.10341680e-01 -6.90467477e-01
      1.53052354e+00 2.20040113e-01 -6.11304462e-01 2.17001617e-01
      8.66697967e-01 -5.89003921e-01 8.15679580e-02 -5.49297035e-01
      1.57199591e-01 6.24148905e-01 7.08158016e-01 3.73511672e-01
      -1.48157418e-01 -6.73947394e-01 2.39472643e-01 3.85910988e-01</_>
    <_>
      -7.19547927e-01 -1.58181429e-01 -3.68015260e-01 -2.92525917e-01
      -2.61414289e-01 1.46244085e+00 -4.30263370e-01 2.58106202e-01
      -4.78040695e-01 2.86307514e-01 1.67837179e+00 1.17880881e+00
      -6.59913838e-01 -7.06968307e-01 -6.73222899e-01 6.21242881e-01
      7.83387572e-02 -6.39136970e-01 3.31106377e+00 2.25197524e-01
      3.70269477e-01 2.41314128e-01 -6.92698896e-01 -4.88451868e-01
      -5.78261554e-01 -6.55316234e-01 1.35037228e-01 -3.24141458e-02
      2.86308497e-01 -6.43511474e-01 -1.03440695e-01 -7.13091075e-01
      1.30672023e-01 -1.55472890e-01 -6.39411032e-01 -6.57408893e-01
      3.44256043e-01 -9.16172415e-02 -5.85064776e-02 1.47369933e+00
      8.32233787e-01 -6.75360918e-01 7.86714733e-01 1.16992843e+00
      -1.37441471e-01 -6.51865363e-01 -5.96525908e-01 -4.65171278e-01
      2.10884824e-01 -4.02635366e-01 1.72264802e+00 -6.67368114e-01
      -1.67405173e-01 -1.46961048e-01 1.14468849e+00 1.45634902e+00
      -1.01899013e-01 1.07820833e+00 1.81920147e+00 -5.00334680e-01
      4.66209561e-01 -6.51188493e-01 4.37993169e-01 -2.32494205e-01
      9.49202850e-02 2.82388544e+00 8.09922397e-01 -7.10021675e-01
      -6.29972517e-01 9.94645834e-01 -4.26554263e-01 1.39273250e+00
      -9.93028432e-02 -2.11535528e-01 -5.84523320e-01 -7.34057605e-01
      -3.81893456e-01 -4.55824196e-01 1.46727550e+00 4.30696942e-02
      -5.94096720e-01 -7.03126371e-01 -7.08198249e-01 9.71807763e-02
      1.35825229e+00 -5.72301924e-01 1.72446251e+00 9.45583403e-01
      -7.49097645e-01 -1.63557395e-01 -6.02079570e-01 -5.49297035e-01
      -6.54998124e-01 5.14970243e-01 -4.82715629e-02 -5.90450704e-01
      -1.82860017e-01 -6.73947394e-01 -6.45214975e-01 -5.12885392e-01</_>
    <_>
      9.32495296e-01 3.12331080e-01 -9.01697993e-01 9.95148271e-02
      -7.61709869e-01 1.46165609e-01 -4.30263370e-01 -1.28323480e-01
      -4.78040695e-01 1.61284149e+00 -2.08232477e-01 1.55380404e+00
      5.09509206e-01 -1.67865545e-01 1.21826577e+00 1.39058340e+00
      7.67379582e-01 7.53434300e-01 -6.53588712e-01 -1.58623517e-01
      -6.10291183e-01 4.33803111e-01 4.33618009e-01 -4.88451868e-01
      -5.78261554e-01 -6.55316234e-01 6.79401815e-01 -1.78145006e-01
      5.10133386e-01 3.58844101e-01 1.74993801e+00 -7.13091075e-01
      -6.79217605e-03 -7.54532456e-01 2.00722575e+00 4.76974398e-02
      -6.07761681e-01 -5.32305002e-01 -3.43544543e-01 -6.74221158e-01
      -7.63410687e-01 7.17433155e-01 -6.31558478e-01 4.44729716e-01
      -5.09070083e-02 6.19751334e-01 -5.96525908e-01 -3.86176646e-01
      4.04018730e-01 -4.02635366e-01 -6.85676754e-01 4.75297906e-02
      -5.93203604e-01 -2.77898192e-01 -7.18949556e-01 -7.37419963e-01
      2.37824273e+00 3.83521527e-01 -7.13286102e-01 -5.00334680e-01
      -5.47195613e-01 1.48920894e-01 -6.24897063e-01 -1.43416703e-01
      2.78547049e-01 1.60509002e+00 -7.27023005e-01 -7.10021675e-01
      1.11107600e+00 2.40425968e+00 -4.26554263e-01 -4.98578280e-01
      2.79430246e+00 -1.81910038e-01 -5.84523320e-01 4.98087108e-02
      1.35100186e+00 -4.55824196e-01 -5.42203903e-01 2.07068548e-01
      -5.94096720e-01 -1.21045053e-01 -7.08198249e-01 1.23346007e+00
      -6.08510435e-01 -5.72301924e-01 1.29049468e+00 -6.51467860e-01
      1.58131823e-01 -3.50033849e-01 1.65622935e-01 -1.99778199e-01
      -6.54998124e-01 2.96692085e-02 -6.91941500e-01 -5.90450704e-01
      -9.51790661e-02 -6.73947394e-01 3.48245651e-01 -5.12885392e-01</_>
    <_>
      -2.15674713e-01 -4.84332204e-01 -5.04104376e-01 -3.61823589e-01
      -3.88989657e-01 -2.06317052e-01 1.27893407e-02 -7.34407842e-01
      -3.16140562e-01 1.42192614e+00 1.60716534e-01 -5.15614927e-01
      -6.59913838e-01 9.37295139e-01 -9.63188186e-02 -2.90190876e-01
      1.75653040e-01 1.05980003e+00 1.31552184e+00 -3.93400729e-01
      -6.10291183e-01 3.43511522e-01 1.36846113e+00 -4.88451868e-01
      9.20482725e-02 -4.20238934e-02 2.11918652e-01 -3.76433656e-02
      -7.25048959e-01 1.19079924e+00 -5.80470681e-01 -7.13091075e-01
      8.52835849e-02 -7.54532456e-01 -6.39411032e-01 -6.57408893e-01
      1.01491511e-01 -2.03992620e-01 -9.82682332e-02 1.72607994e+00
      -1.69033125e-01 1.87345231e+00 9.53361809e-01 1.13718503e-03
      -5.28449118e-01 1.23820864e-01 1.86159760e-01 2.41567612e-01
      1.28864384e+00 -4.02635366e-01 2.11424232e-01 -6.67368114e-01
